network Current LCM {
}

variable variable499 {
	type discrete[2] { state0, state1 };
}

variable d1_lightheaded {
	type discrete[13] { s0, s1, s2, s3, s4, s5, s6, s7, s8, s9, s10, s11, s12 };
}

variable d1_fainting {
	type discrete[13] { s0, s1, s2, s3, s4, s5, s6, s7, s8, s9, s10, s11, s12 };
}

variable d2_drowsiness {
	type discrete[13] { s0, s1, s2, s3, s4, s5, s6, s7, s8, s9, s10, s11, s12 };
}

variable d2_fatigue {
	type discrete[13] { s0, s1, s2, s3, s4, s5, s6, s7, s8, s9, s10, s11, s12 };
}

variable d2_insomnia {
	type discrete[13] { s0, s1, s2, s3, s4, s5, s6, s7, s8, s9, s10, s11, s12 };
}

variable d2_rls {
	type discrete[13] { s0, s1, s2, s3, s4, s5, s6, s7, s8, s9, s10, s11, s12 };
}

variable d3_loss_interest {
	type discrete[13] { s0, s1, s2, s3, s4, s5, s6, s7, s8, s9, s10, s11, s12 };
}

variable d3_loss_activities {
	type discrete[13] { s0, s1, s2, s3, s4, s5, s6, s7, s8, s9, s10, s11, s12 };
}

variable d3_anxiety {
	type discrete[13] { s0, s1, s2, s3, s4, s5, s6, s7, s8, s9, s10, s11, s12 };
}

variable d3_depression {
	type discrete[13] { s0, s1, s2, s3, s4, s5, s6, s7, s8, s9, s10, s11, s12 };
}

variable d3_flat_affect {
	type discrete[13] { s0, s1, s2, s3, s4, s5, s6, s7, s8, s9, s10, s11, s12 };
}

variable d3_loss_pleasure {
	type discrete[13] { s0, s1, s2, s3, s4, s5, s6, s7, s8, s9, s10, s11, s12 };
}

variable d4_hallucination {
	type discrete[13] { s0, s1, s2, s3, s4, s5, s6, s7, s8, s9, s10, s11, s12 };
}

variable d4_delusion {
	type discrete[13] { s0, s1, s2, s3, s4, s5, s6, s7, s8, s9, s10, s11, s12 };
}

variable d4_diplopia {
	type discrete[13] { s0, s1, s2, s3, s4, s5, s6, s7, s8, s9, s10, s11, s12 };
}

variable d5_loss_concentration {
	type discrete[13] { s0, s1, s2, s3, s4, s5, s6, s7, s8, s9, s10, s11, s12 };
}

variable d5_forget_explicit {
	type discrete[13] { s0, s1, s2, s3, s4, s5, s6, s7, s8, s9, s10, s11, s12 };
}

variable d5_forget_implicit {
	type discrete[13] { s0, s1, s2, s3, s4, s5, s6, s7, s8, s9, s10, s11, s12 };
}

variable d6_drooling {
	type discrete[13] { s0, s1, s2, s3, s4, s5, s6, s7, s8, s9, s10, s11, s12 };
}

variable d6_swallowing {
	type discrete[13] { s0, s1, s2, s3, s4, s5, s6, s7, s8, s9, s10, s11, s12 };
}

variable d6_constipation {
	type discrete[13] { s0, s1, s2, s3, s4, s5, s6, s7, s8, s9, s10, s11, s12 };
}

variable d7_urinary_urgency {
	type discrete[13] { s0, s1, s2, s3, s4, s5, s6, s7, s8, s9, s10, s11, s12 };
}

variable d7_urinary_frequency {
	type discrete[13] { s0, s1, s2, s3, s4, s5, s6, s7, s8, s9, s10, s11, s12 };
}

variable d7_nocturia {
	type discrete[13] { s0, s1, s2, s3, s4, s5, s6, s7, s8, s9, s10, s11, s12 };
}

variable d8_sex_drive {
	type discrete[13] { s0, s1, s2, s3, s4, s5, s6, s7, s8, s9, s10, s11, s12 };
}

variable d8_sex_dysfunction {
	type discrete[13] { s0, s1, s2, s3, s4, s5, s6, s7, s8, s9, s10, s11, s12 };
}

variable d9_unexplained_pain {
	type discrete[13] { s0, s1, s2, s3, s4, s5, s6, s7, s8, s9, s10, s11, s12 };
}

variable d9_taste_smell {
	type discrete[13] { s0, s1, s2, s3, s4, s5, s6, s7, s8, s9, s10, s11, s12 };
}

variable d9_weight_change {
	type discrete[13] { s0, s1, s2, s3, s4, s5, s6, s7, s8, s9, s10, s11, s12 };
}

variable d9_sweating {
	type discrete[13] { s0, s1, s2, s3, s4, s5, s6, s7, s8, s9, s10, s11, s12 };
}

probability ( variable499 ) {
	table 0.26364700235336375, 0.7363529976466362;
}

probability ( d1_lightheaded | variable499 ) {
	(state0) 0.32612021084401976, 0.11381906448761797, 0.09330418180573537, 0.04113815555689409, 0.16021247434876765, 0.00401576339545919, 0.09215645650781432, 0.00401576339545919, 0.07457916362879033, 0.028138645920974197, 0.00401576339545919, 0.00401576339545919, 0.054468593317549684;
	(state1) 0.6777487050001065, 0.14192815626252475, 0.05900091809943538, 0.032279575680268645, 0.04169863946269745, 0.001483720591957375, 0.01936451689540153, 0.001483720591957375, 0.00805422437091119, 0.005924425455230014, 0.001483720591957375, 0.001483720591957375, 0.008065956405594894;
}

probability ( d1_fainting | variable499 ) {
	(state0) 0.7457708160969608, 0.05681302075626112, 0.036861608837567075, 0.0193443176510636, 0.056519583716441966, 0.004015763395459189, 0.0365012190523151, 0.004015763395459189, 0.008031520268469221, 0.008031806458007738, 0.004015763395459189, 0.004015763395459189, 0.016063053581076542;
	(state1) 0.9262706736462589, 0.03242300123598744, 0.008636398894494636, 0.00472254025806608, 0.011759330336649184, 0.001483720591957375, 0.004318391812475763, 0.001483720591957375, 0.001483723001833449, 0.002967337854166826, 0.001483720591957375, 0.001483720591957375, 0.0014837205922382556;
}

probability ( d2_drowsiness | variable499 ) {
	(state0) 0.3207768342820105, 0.06080947737972719, 0.056671513303520445, 0.050996728180184366, 0.17212479226665275, 0.00401576339545919, 0.14977860720675926, 0.00401576339545919, 0.04406629806473856, 0.040496401821620995, 0.00401576339545919, 0.00401576339545919, 0.08821629391294931;
	(state1) 0.6055369146825201, 0.1110673259620575, 0.06660085819065409, 0.04940917665753235, 0.09367872893949249, 0.0014837205919573753, 0.0322001978734274, 0.0014837205919573753, 0.020811658700137684, 0.004325995820932424, 0.0014837205919573753, 0.0014837205919573753, 0.010434260805416387;
}

probability ( d2_fatigue | variable499 ) {
	(state0) 0.11180993895816714, 0.02453774764184826, 0.05699288791073107, 0.03348923738008615, 0.16964716593750861, 0.00401576339545919, 0.1632423088998548, 0.00401576339545919, 0.15158955630029586, 0.09891609536231132, 0.00401576339545919, 0.00401576339545919, 0.17371200802736014;
	(state1) 0.46612156516882497, 0.16007808510067295, 0.07983560392245914, 0.03510565288839292, 0.11239879481687677, 0.001483720591957375, 0.05838384115295391, 0.001483720591957375, 0.03449854025931409, 0.013899564186292564, 0.001483720591957375, 0.001483720591957375, 0.03374347013638316;
}

probability ( d2_insomnia | variable499 ) {
	(state0) 0.3283137247838469, 0.07652820614531758, 0.03859832753003283, 0.03554478096740541, 0.1093678629411172, 0.004015763395459189, 0.12071472317672029, 0.004015763395459189, 0.08889160817957353, 0.053540801372145216, 0.004015763395459189, 0.004015763395459189, 0.13243691132200425;
	(state1) 0.6072033905753675, 0.1126782656578008, 0.04805518229041734, 0.028411300390520366, 0.06493556860247962, 0.001483720591957375, 0.035519947493473966, 0.001483720591957375, 0.044310323285251606, 0.011376192689441417, 0.001483720591957375, 0.001483720591957375, 0.041574946647417746;
}

probability ( d2_rls | variable499 ) {
	(state0) 0.5307531576745388, 0.04049818485344045, 0.027342157276206494, 0.03608671907736621, 0.13882239273948904, 0.00401576339545919, 0.060505729220960994, 0.00401576339545919, 0.0541597042289576, 0.062339888099900105, 0.00401576339545919, 0.00401576339545919, 0.03342901324730375;
	(state1) 0.7193560565993112, 0.10521833728994578, 0.04034428100051435, 0.014857582964014777, 0.05405288252648156, 0.001483720591957375, 0.016221435156309187, 0.001483720591957375, 0.01856612706927358, 0.008125157983773477, 0.001483720591957375, 0.001483720591957375, 0.017323257042546517;
}

probability ( d3_loss_interest | variable499 ) {
	(state0) 0.25355153270729197, 0.03302694095813347, 0.1045238107186225, 0.0320942009583794, 0.24857694669859134, 0.00401576339545919, 0.11946781613863525, 0.00401576339545919, 0.060206825077021145, 0.0361161496364872, 0.00401576339545919, 0.00401576339545919, 0.09637272352500112;
	(state1) 0.7772632615115208, 0.11094620963560115, 0.038534629221437584, 0.008914112068433162, 0.03278978447711952, 0.001483720591957375, 0.0181760002536167, 0.001483720591957375, 0.002978387170167271, 0.002976944398824383, 0.001483720591957375, 0.001483720591957375, 0.0014857888954499317;
}

probability ( d3_loss_activities | variable499 ) {
	(state0) 0.18512025230561074, 0.04170310165142229, 0.07007872439764022, 0.030176126644666162, 0.21592370472642117, 0.004015763395459189, 0.14946564542931717, 0.004015763395459189, 0.07579600632234597, 0.06899678820491406, 0.004015763395459189, 0.004015763395459189, 0.14667659673582545;
	(state1) 0.6883003621054244, 0.14186616653168763, 0.06609840262852308, 0.012590232045371132, 0.04188687069117307, 0.001483720591957375, 0.014511182042989353, 0.001483720591957375, 0.01650695605585301, 0.0071493263581921445, 0.001483720591957375, 0.001483720591957375, 0.005155619172956566;
}

probability ( d3_anxiety | variable499 ) {
	(state0) 0.23172715325223314, 0.0695736753530928, 0.042866008721926335, 0.0363600942238857, 0.17968096750175536, 0.004015763395459189, 0.15531642193810735, 0.004015763395459189, 0.07379182122044227, 0.052497173188293146, 0.004015763395459189, 0.004015763395459189, 0.14212363101842712;
	(state1) 0.6310198630443365, 0.1434384759547171, 0.07466907584293213, 0.014756577926048897, 0.0715985501514316, 0.0014837205919573748, 0.030154118724283054, 0.0014837205919573748, 0.011312568187562788, 0.005826903912230151, 0.0014837205919573748, 0.0014837205919573748, 0.011288983888627993;
}

probability ( d3_depression | variable499 ) {
	(state0) 0.17266776598144512, 0.04144090982505019, 0.04339135753540449, 0.03790082317904759, 0.1933733026803347, 0.004015763395459189, 0.19839219654511459, 0.004015763395459189, 0.06790414315831464, 0.07619227675099875, 0.004015763395459189, 0.004015763395459189, 0.15267417076245313;
	(state1) 0.6350361302758755, 0.1464142013983078, 0.06557264950779203, 0.01715475965608657, 0.06802330743907371, 0.001483720591957375, 0.03649454427423739, 0.001483720591957375, 0.0075530304103713355, 0.004490779657684024, 0.001483720591957375, 0.001483720591957375, 0.013325715012742085;
}

probability ( d3_flat_affect | variable499 ) {
	(state0) 0.4093587204872387, 0.09401058636953141, 0.03538813114825666, 0.02430557744605969, 0.1679603276145644, 0.004015763395459189, 0.10296910948279286, 0.004015763395459189, 0.056512736216632234, 0.0321249674912371, 0.004015763395459189, 0.004015763395459189, 0.06130679016185009;
	(state1) 0.7968500108212485, 0.0988003758873356, 0.02846917844246443, 0.010308086188594337, 0.03438484652510762, 0.0014837205919573755, 0.006467198048166174, 0.0014837205919573755, 0.011761860310522303, 0.0014841416714123808, 0.0014837205919573755, 0.0014837205919573755, 0.005539419737319319;
}

probability ( d3_loss_pleasure | variable499 ) {
	(state0) 0.2610691559562406, 0.07763493282810481, 0.05470384157482395, 0.02680774067248597, 0.2319356115578066, 0.00401576339545919, 0.08220787281896762, 0.00401576339545919, 0.06839134569551128, 0.06450285203172688, 0.00401576339545919, 0.00401576339545919, 0.1166835932824957;
	(state1) 0.8204810327302178, 0.09001354992631418, 0.031718567737279824, 0.004932439890629827, 0.01964995921172955, 0.0014837205919573753, 0.008203055043977801, 0.0014837205919573753, 0.011824183464188301, 0.0028748370420647114, 0.0014837205919573753, 0.0014837205919573753, 0.0043674925857685775;
}

probability ( d4_hallucination | variable499 ) {
	(state0) 0.5812938711273865, 0.0873482471083262, 0.04637028745559999, 0.02404046351689575, 0.12809498659433072, 0.004015763395459189, 0.04468575378236367, 0.004015763395459189, 0.023672183536258648, 0.024094580444874808, 0.004015763395459189, 0.004015763395459189, 0.024336572852126998;
	(state1) 0.9009848515749274, 0.03894567287003775, 0.014025511911018352, 0.008922318328702813, 0.012021042975024772, 0.0014837205919573753, 0.004261859340897101, 0.0014837205919573753, 0.007574667653487744, 0.0029674411572683996, 0.0014837205919573753, 0.0014837205919573753, 0.004361751820806337;
}

probability ( d4_delusion | variable499 ) {
	(state0) 0.7123411377423053, 0.05788493635533361, 0.02364470185801774, 0.00401576339545919, 0.056786344946639894, 0.00401576339545919, 0.05220424333704992, 0.00401576339545919, 0.012073732865495816, 0.03670334428468067, 0.00401576339545919, 0.00401576339545919, 0.028282741633181094;
	(state1) 0.9519755595104207, 0.015706029666377814, 0.004617380238082784, 0.001483720591957375, 0.00869332778559112, 0.001483720591957375, 0.0014839721313771677, 0.001483720591957375, 0.004441391890634707, 0.002759991180913946, 0.001483720591957375, 0.001483720591957375, 0.0029037446368149126;
}

probability ( d4_diplopia | variable499 ) {
	(state0) 0.6303440521153761, 0.05631931467999385, 0.04605223367927346, 0.015133664225417768, 0.10904527000496433, 0.00401576339545919, 0.042739870250642756, 0.00401576339545919, 0.03211489432206104, 0.00803152679091838, 0.00401576339545919, 0.00401576339545919, 0.04415612034951559;
	(state1) 0.8976992857063502, 0.037056574623201145, 0.015626745137763694, 0.009245708853683135, 0.022026861172524254, 0.001483720591957375, 0.0034970923279353644, 0.001483720591957375, 0.005939025222464213, 0.001483720591957375, 0.001483720591957375, 0.001483720591957375, 0.0014901039962910989;
}

probability ( d5_loss_concentration | variable499 ) {
	(state0) 0.25119579600829967, 0.04806348941134277, 0.06432155360116867, 0.04671699919568156, 0.21295706530990519, 0.004015763395459189, 0.1422576717103443, 0.004015763395459189, 0.06412013107772026, 0.056650979846023304, 0.004015763395459189, 0.004015763395459189, 0.09765326025767748;
	(state1) 0.5971197330044401, 0.16770685919507217, 0.06525808697989247, 0.030218337412212547, 0.06375505542593538, 0.0014837205919573757, 0.027560385835294913, 0.0014837205919573757, 0.028239492587813324, 0.005775900501261272, 0.0014837205919573757, 0.0014837205919573757, 0.00843126669024873;
}

probability ( d5_forget_explicit | variable499 ) {
	(state0) 0.24725513651908637, 0.1011558986748302, 0.07199847767459591, 0.018693535705346775, 0.1824987940156331, 0.004015763395459189, 0.14709383260075184, 0.004015763395459189, 0.06851308470806544, 0.04909824235027461, 0.004015763395459189, 0.004015763395459189, 0.097629944169579;
	(state1) 0.5970919840557942, 0.17331383879033666, 0.07725886823771522, 0.02128391384743699, 0.07204115681024956, 0.001483720591957375, 0.024289829020060476, 0.001483720591957375, 0.01919780701110055, 0.00559900025428574, 0.001483720591957375, 0.001483720591957375, 0.003988719605190982;
}

probability ( d5_forget_implicit | variable499 ) {
	(state0) 0.31323487007174966, 0.08925822457399449, 0.0735613557565639, 0.021624721855272203, 0.1958976463213938, 0.004015763395459189, 0.12259538280566203, 0.004015763395459189, 0.024302899572895244, 0.05311158914734803, 0.004015763395459189, 0.004015763395459189, 0.09035025631328379;
	(state1) 0.6691560194396833, 0.16583995656104464, 0.03958841045607005, 0.02168463705602703, 0.04928598072461728, 0.001483720591957375, 0.022955327722013048, 0.001483720591957375, 0.014760237369260883, 0.004116172532857416, 0.001483720591957375, 0.001483720591957375, 0.006678375770596655;
}

probability ( d6_drooling | variable499 ) {
	(state0) 0.3765805864691678, 0.065485334872295, 0.05774578379032085, 0.008891252653702794, 0.17614954491404897, 0.004015763395459189, 0.07861016155329856, 0.004015763395459189, 0.07125611904396745, 0.027952834678248852, 0.004015763395459189, 0.004015763395459189, 0.12126532844311295;
	(state1) 0.6635560645844468, 0.13011180598084968, 0.03356209003947442, 0.024905603618394206, 0.059549834028646415, 0.0014837205919573753, 0.018434639750606354, 0.0014837205919573753, 0.03598897395457117, 0.0045093573061333195, 0.0014837205919573753, 0.0014837205919573753, 0.02344674836904826;
}

probability ( d6_swallowing | variable499 ) {
	(state0) 0.45133076381226545, 0.08741005382178124, 0.09988683828801156, 0.03749458532541398, 0.12994635434710944, 0.004015763395459189, 0.06005569188705495, 0.004015763395459189, 0.05418520934821119, 0.03153791322992286, 0.004015763395459189, 0.004015763395459189, 0.03208953635839252;
	(state1) 0.7768912658450597, 0.10123910175202563, 0.031345546914786505, 0.008402530472289966, 0.03656026059226766, 0.0014837205919573753, 0.010452829930260756, 0.0014837205919573753, 0.020040424180086704, 0.00466848420392082, 0.0014837205919573753, 0.0014837205919573753, 0.004464673741472795;
}

probability ( d6_constipation | variable499 ) {
	(state0) 0.3397001302992285, 0.053777524763175495, 0.06018012209425105, 0.021193655851914517, 0.09094350320105145, 0.004015763395459189, 0.09912443414156628, 0.004015763395459189, 0.08864044409304955, 0.05126550854328389, 0.004015763395459189, 0.004015763395459189, 0.17911162343064246;
	(state1) 0.5748057173255396, 0.10624684741135408, 0.053434753357414586, 0.01739274300653485, 0.09251498074040573, 0.0014837205919573753, 0.044980720833108605, 0.0014837205919573753, 0.035500798359929725, 0.024086619209789172, 0.0014837205919573753, 0.0014837205919573753, 0.04510193738809416;
}

probability ( d7_urinary_urgency | variable499 ) {
	(state0) 0.2513225141980172, 0.04970442954451144, 0.05692239052120281, 0.011208555754104095, 0.1727898576342668, 0.004015763395459189, 0.12051169411420792, 0.004015763395459189, 0.10950822843875399, 0.06051108893968417, 0.004015763395459189, 0.004015763395459189, 0.1514581872734148;
	(state1) 0.5777845462190864, 0.12704011832290288, 0.05315468022722423, 0.0403703466377007, 0.09491672509906857, 0.001483720591957375, 0.04301356443470108, 0.001483720591957375, 0.032241854162611897, 0.008800851919236637, 0.001483720591957375, 0.001483720591957375, 0.016742430609638037;
}

probability ( d7_urinary_frequency | variable499 ) {
	(state0) 0.3091481962991157, 0.030672563462156396, 0.06290333099473619, 0.045592600266900714, 0.1300184077422147, 0.00401576339545919, 0.11454577515610367, 0.00401576339545919, 0.09824879010607007, 0.047805393831819726, 0.00401576339545919, 0.00401576339545919, 0.14500188855904622;
	(state1) 0.6068659541257131, 0.09252772346155469, 0.05539603936634563, 0.03508493547750684, 0.09291502122287998, 0.0014837205919573748, 0.03334805227480321, 0.0014837205919573748, 0.04530424863062762, 0.010527836081194368, 0.0014837205919573748, 0.0014837205919573748, 0.022095306991544883;
}

probability ( d7_nocturia | variable499 ) {
	(state0) 0.17610434348654733, 0.04607363693310494, 0.05215884054369585, 0.043559070944045056, 0.18608445585101882, 0.004015763395459189, 0.08548233851413697, 0.004015763395459189, 0.12879538743507463, 0.047077009599661164, 0.004015763395459189, 0.004015763395459189, 0.2186018631108785;
	(state1) 0.4067571533037053, 0.15063741105780187, 0.05046352682247204, 0.04473859545860391, 0.18941399496444156, 0.0014837205919573753, 0.03963507778045634, 0.0014837205919573753, 0.056273880759006724, 0.01228067578642738, 0.0014837205919573753, 0.0014837205919573753, 0.04386480169925531;
}

probability ( d8_sex_drive | variable499 ) {
	(state0) 0.43892981170977685, 0.0544582571619331, 0.012193071081897357, 0.012054877850508343, 0.12510612735590373, 0.00401576339545919, 0.056358494327504886, 0.00401576339545919, 0.04980297174671356, 0.038726456459389075, 0.00401576339545919, 0.00401576339545919, 0.19630687872453645;
	(state1) 0.7295428758228382, 0.06593487843379231, 0.038522873124792786, 0.017801843658064295, 0.06950673156560845, 0.0014837205919573748, 0.03110721639011935, 0.0014837205919573748, 0.018692106317915475, 0.006463665393935944, 0.0014837205919573748, 0.0014837205919573748, 0.016492926925103565;
}

probability ( d8_sex_dysfunction | variable499 ) {
	(state0) 0.5696778823886267, 0.012900332452985332, 0.019881567810207272, 0.012001287652179041, 0.09917266203158526, 0.004015763395459189, 0.04886679510553662, 0.004015763395459189, 0.02036105579466302, 0.0435037379424998, 0.004015763395459189, 0.004015763395459189, 0.1575716252398802;
	(state1) 0.7435511141105079, 0.06348480842501071, 0.02826356970693375, 0.011886761480873061, 0.050897784244370914, 0.001483720591957375, 0.02794032289756927, 0.001483720591957375, 0.02511897012844387, 0.013600907138798106, 0.001483720591957375, 0.001483720591957375, 0.02932087949966286;
}

probability ( d9_unexplained_pain | variable499 ) {
	(state0) 0.4404313866595906, 0.08414695500019631, 0.054581596485510676, 0.015640041186336766, 0.13533206640629988, 0.00401576339545919, 0.06481939578338215, 0.00401576339545919, 0.0575889620558632, 0.028343302203344092, 0.00401576339545919, 0.00401576339545919, 0.10305324063763975;
	(state1) 0.7067322738807378, 0.10392845286510682, 0.0302800135404554, 0.014993498046387362, 0.03902154121786843, 0.0014837205919573753, 0.02946485297752552, 0.0014837205919573753, 0.027685149241844096, 0.010299972034059154, 0.0014837205919573753, 0.0014837205919573753, 0.031659363828186064;
}

probability ( d9_taste_smell | variable499 ) {
	(state0) 0.4456594535922473, 0.02584132966990798, 0.03554749248508729, 0.01287255175505018, 0.16709084380160283, 0.004015763395459189, 0.03245551451724693, 0.004015763395459189, 0.11600621666595501, 0.04352904353635538, 0.004015763395459189, 0.004015763395459189, 0.10493450039471029;
	(state1) 0.6395169324765925, 0.04238251853113428, 0.01802425441124631, 0.010081131363089316, 0.15340374563650058, 0.0014837205919573753, 0.014715498431978315, 0.0014837205919573753, 0.06099914820022564, 0.010624116193207238, 0.0014837205919573753, 0.0014837205919573753, 0.04431777238819642;
}

probability ( d9_weight_change | variable499 ) {
	(state0) 0.3291438356261907, 0.2888139147426829, 0.019340820744931927, 0.03653875664943181, 0.13571376961143827, 0.004015763395459189, 0.032734302666017324, 0.004015763395459189, 0.051695818425114816, 0.020081904096780116, 0.004015763395459189, 0.004015763395459189, 0.06987382385557522;
	(state1) 0.48819903875710896, 0.3606627234078762, 0.024012199969780035, 0.010239405010155033, 0.05520143827877992, 0.001483720591957375, 0.005710169878098717, 0.001483720591957375, 0.029862513218564143, 0.002966300573202058, 0.001483720591957375, 0.001483720591957375, 0.017211328538605263;
}

probability ( d9_sweating | variable499 ) {
	(state0) 0.5345666720638654, 0.03925816635764083, 0.03401669412869741, 0.007738601287588203, 0.15974797887024603, 0.004015763395459189, 0.04346962500070265, 0.004015763395459189, 0.05470874452300135, 0.04885980269553454, 0.004015763395459189, 0.004015763395459189, 0.06157066149088687;
	(state1) 0.7416865912494782, 0.06264859484880801, 0.02897588890971794, 0.0149454343081516, 0.04928886147432711, 0.001483720591957375, 0.02696699631510086, 0.001483720591957375, 0.02578187385705386, 0.011621979900475086, 0.001483720591957375, 0.001483720591957375, 0.032148896769057786;
}

