network Current LCM {
}

variable variable394 {
	type discrete[2] { state0, state1 };
}

variable scm1rue {
	type discrete[4] { s0, s1, s2, s3 };
}

variable scm1lue {
	type discrete[4] { s0, s1, s2, s3 };
}

variable scm2rue {
	type discrete[4] { s0, s1, s2, s3 };
}

variable scm2lue {
	type discrete[4] { s0, s1, s2, s3 };
}

variable scm3rue {
	type discrete[4] { s0, s1, s2, s3 };
}

variable scm3lue {
	type discrete[4] { s0, s1, s2, s3 };
}

variable scm4rue {
	type discrete[4] { s0, s1, s2, s3 };
}

variable scm4lue {
	type discrete[4] { s0, s1, s2, s3 };
}

variable scm5rise {
	type discrete[4] { s0, s1, s2, s3 };
}

variable scm6post {
	type discrete[4] { s0, s1, s2, s3 };
}

variable scm7gait {
	type discrete[4] { s0, s1, s2, s3 };
}

variable scm8spee {
	type discrete[4] { s0, s1, s2, s3 };
}

variable scm9free {
	type discrete[4] { s0, s1, s2, s3 };
}

variable scm10swa {
	type discrete[4] { s0, s1, s2, s3 };
}

variable scm11spe {
	type discrete[4] { s0, s1, s2, s3 };
}

variable scm12fee {
	type discrete[4] { s0, s1, s2, s3 };
}

variable scm13dre {
	type discrete[4] { s0, s1, s2, s3 };
}

variable scm14hyg {
	type discrete[4] { s0, s1, s2, s3 };
}

variable scm15cha {
	type discrete[4] { s0, s1, s2, s3 };
}

variable scm16wal {
	type discrete[4] { s0, s1, s2, s3 };
}

variable scm17han {
	type discrete[4] { s0, s1, s2, s3 };
}

variable scm18dpr {
	type discrete[4] { s0, s1, s2, s3 };
}

variable scm19dsv {
	type discrete[4] { s0, s1, s2, s3 };
}

variable scm20fpr {
	type discrete[4] { s0, s1, s2, s3 };
}

variable scm21fsv {
	type discrete[4] { s0, s1, s2, s3 };
}

probability ( variable394 ) {
	table 0.33187143117398377, 0.6681285688260162;
}

probability ( scm1rue | variable394 ) {
	(state0) 0.44963546633620344, 0.25649929622216394, 0.2001679177397673, 0.0936973197018654;
	(state1) 0.564072937583179, 0.28609957527745783, 0.13530893936762334, 0.014518547771739545;
}

probability ( scm1lue | variable394 ) {
	(state0) 0.46456745569018254, 0.26841993012658266, 0.18894133541914965, 0.07807127876408504;
	(state1) 0.5814675386920807, 0.2900881411750249, 0.10943814535245566, 0.019006174780438596;
}

probability ( scm2rue | variable394 ) {
	(state0) 0.4351591805959546, 0.3476489846867845, 0.16741916700799378, 0.049772667709267145;
	(state1) 0.5630167976664882, 0.35655760787450125, 0.07214114763664098, 0.008284446822369718;
}

probability ( scm2lue | variable394 ) {
	(state0) 0.448638513682716, 0.35569929549797025, 0.14182762215495623, 0.05383456866435749;
	(state1) 0.5662272311266399, 0.35916512163884734, 0.06669438332595005, 0.007913263908562703;
}

probability ( scm3rue | variable394 ) {
	(state0) 0.07941387547631171, 0.3234265932282, 0.4578789991573179, 0.13928053213817038;
	(state1) 0.28173464351647937, 0.5541886089555753, 0.15906144533065242, 0.005015302197292846;
}

probability ( scm3lue | variable394 ) {
	(state0) 0.0643668760335667, 0.2843059679829901, 0.4657614261105002, 0.1855657298729429;
	(state1) 0.2528012876379891, 0.504141353115388, 0.22470340709793163, 0.01835395214869134;
}

probability ( scm4rue | variable394 ) {
	(state0) 0.10180992281025233, 0.3446287609391669, 0.46439495646685625, 0.08916635978372464;
	(state1) 0.2573013427079384, 0.5800491871348736, 0.1558085548429937, 0.006840915314194442;
}

probability ( scm4lue | variable394 ) {
	(state0) 0.10697764326691717, 0.33779751318841966, 0.4461466596940225, 0.10907818385064065;
	(state1) 0.29447981499880294, 0.5122258608939738, 0.1864541978328565, 0.006840126274366752;
}

probability ( scm5rise | variable394 ) {
	(state0) 0.16315741802981426, 0.3873939995306993, 0.2901675049944408, 0.15928107744504566;
	(state1) 0.6938354916372622, 0.2853616692909827, 0.019145808683851486, 0.0016570303879034686;
}

probability ( scm6post | variable394 ) {
	(state0) 0.13252178135713402, 0.35057949462881033, 0.40083542051598703, 0.1160633034980686;
	(state1) 0.7140991744267944, 0.23747634550760166, 0.046728054804355136, 0.0016964252612488373;
}

probability ( scm7gait | variable394 ) {
	(state0) 0.03291434090344448, 0.40875962588773157, 0.4820034331460356, 0.07632260006278829;
	(state1) 0.3927476732396617, 0.572882768761517, 0.03271296223751028, 0.0016565957613110052;
}

probability ( scm8spee | variable394 ) {
	(state0) 0.03818993105103966, 0.5626658006410066, 0.34509358700137543, 0.05405068130657821;
	(state1) 0.4232459120580431, 0.5391213519070976, 0.02982735968981903, 0.007805376345040224;
}

probability ( scm9free | variable394 ) {
	(state0) 0.20310203124605614, 0.31992181306080675, 0.3642573328058723, 0.11271882288726481;
	(state1) 0.7749467155113001, 0.1865174177846008, 0.03351321705345085, 0.005022649650648221;
}

probability ( scm10swa | variable394 ) {
	(state0) 0.36105517184721625, 0.44796033948106967, 0.16775587123331087, 0.023228617438403255;
	(state1) 0.7938326345147936, 0.17229600848165727, 0.03221476128841414, 0.0016565957151351094;
}

probability ( scm11spe | variable394 ) {
	(state0) 0.0883978174907276, 0.5446741260352905, 0.32465943441972456, 0.04226862205425725;
	(state1) 0.5191126622639082, 0.438767822717471, 0.035058692257273844, 0.007060822761347017;
}

probability ( scm12fee | variable394 ) {
	(state0) 0.054812241279814794, 0.47222570091319394, 0.3999605528838494, 0.07300150492314178;
	(state1) 0.4480796512388705, 0.5180069504943926, 0.032255444020445626, 0.0016579542462912679;
}

probability ( scm13dre | variable394 ) {
	(state0) 0.019772267361107827, 0.3858918759659302, 0.49810301300749676, 0.09623284366546524;
	(state1) 0.32641823619509774, 0.6207438925321264, 0.05118127555332266, 0.0016565957194532488;
}

probability ( scm14hyg | variable394 ) {
	(state0) 0.018164430108756253, 0.48202355831551214, 0.40689754183007176, 0.09291446974565998;
	(state1) 0.37194898360220074, 0.6108548199097507, 0.015539600768595358, 0.001656595719453341;
}

probability ( scm15cha | variable394 ) {
	(state0) 0.021939676511468924, 0.37281499620453096, 0.47582956356593537, 0.1294157637180647;
	(state1) 0.4214187755729495, 0.5345027609252473, 0.042421458849276936, 0.0016570046525263354;
}

probability ( scm16wal | variable394 ) {
	(state0) 0.01646252938806339, 0.44679649270171423, 0.4342712240546116, 0.1024697538556108;
	(state1) 0.3462930735455671, 0.6151880789592062, 0.036662645175428346, 0.001856202319798418;
}

probability ( scm17han | variable394 ) {
	(state0) 0.01637901096345276, 0.40692322568365924, 0.432570436396306, 0.14412732695658206;
	(state1) 0.2336862589188785, 0.6350935763149123, 0.12034149664802991, 0.010878668118179438;
}

probability ( scm18dpr | variable394 ) {
	(state0) 0.33841864379577413, 0.35769885154184805, 0.21342405203956014, 0.09045845262281786;
	(state1) 0.7736579035904891, 0.1577188235087329, 0.049174629319224394, 0.01944864358155365;
}

probability ( scm19dsv | variable394 ) {
	(state0) 0.3545246660266981, 0.31004803018988486, 0.22660812974709685, 0.1088191740363204;
	(state1) 0.7755570436020827, 0.15665808898575082, 0.059158842770662405, 0.008626024641504151;
}

probability ( scm20fpr | variable394 ) {
	(state0) 0.12979695035358288, 0.35629652073212487, 0.4077213483358603, 0.10618518057843201;
	(state1) 0.6260032935572039, 0.32076527393632115, 0.05157344653842263, 0.0016579859680524048;
}

probability ( scm21fsv | variable394 ) {
	(state0) 0.12299619137632618, 0.27734225377741256, 0.4243235979696328, 0.17533795687662843;
	(state1) 0.6426511282035443, 0.2690679894448426, 0.08470017892697154, 0.003580703424641344;
}

