network HLCM20 {
}

variable variable410 {
	type discrete[2] { state0, state1 };
}

variable d1_lightheaded {
	type discrete[13] { s0, s1, s2, s3, s4, s5, s6, s7, s8, s9, s10, s11, s12 };
}

variable d1_fainting {
	type discrete[13] { s0, s1, s2, s3, s4, s5, s6, s7, s8, s9, s10, s11, s12 };
}

variable d2_drowsiness {
	type discrete[13] { s0, s1, s2, s3, s4, s5, s6, s7, s8, s9, s10, s11, s12 };
}

variable d2_fatigue {
	type discrete[13] { s0, s1, s2, s3, s4, s5, s6, s7, s8, s9, s10, s11, s12 };
}

variable d2_insomnia {
	type discrete[13] { s0, s1, s2, s3, s4, s5, s6, s7, s8, s9, s10, s11, s12 };
}

variable d2_rls {
	type discrete[13] { s0, s1, s2, s3, s4, s5, s6, s7, s8, s9, s10, s11, s12 };
}

variable d3_loss_interest {
	type discrete[13] { s0, s1, s2, s3, s4, s5, s6, s7, s8, s9, s10, s11, s12 };
}

variable d3_loss_activities {
	type discrete[13] { s0, s1, s2, s3, s4, s5, s6, s7, s8, s9, s10, s11, s12 };
}

variable d3_anxiety {
	type discrete[13] { s0, s1, s2, s3, s4, s5, s6, s7, s8, s9, s10, s11, s12 };
}

variable d3_depression {
	type discrete[13] { s0, s1, s2, s3, s4, s5, s6, s7, s8, s9, s10, s11, s12 };
}

variable d3_flat_affect {
	type discrete[13] { s0, s1, s2, s3, s4, s5, s6, s7, s8, s9, s10, s11, s12 };
}

variable d3_loss_pleasure {
	type discrete[13] { s0, s1, s2, s3, s4, s5, s6, s7, s8, s9, s10, s11, s12 };
}

variable d4_hallucination {
	type discrete[13] { s0, s1, s2, s3, s4, s5, s6, s7, s8, s9, s10, s11, s12 };
}

variable d4_delusion {
	type discrete[13] { s0, s1, s2, s3, s4, s5, s6, s7, s8, s9, s10, s11, s12 };
}

variable d4_diplopia {
	type discrete[13] { s0, s1, s2, s3, s4, s5, s6, s7, s8, s9, s10, s11, s12 };
}

variable d5_loss_concentration {
	type discrete[13] { s0, s1, s2, s3, s4, s5, s6, s7, s8, s9, s10, s11, s12 };
}

variable d5_forget_explicit {
	type discrete[13] { s0, s1, s2, s3, s4, s5, s6, s7, s8, s9, s10, s11, s12 };
}

variable d5_forget_implicit {
	type discrete[13] { s0, s1, s2, s3, s4, s5, s6, s7, s8, s9, s10, s11, s12 };
}

variable d6_drooling {
	type discrete[13] { s0, s1, s2, s3, s4, s5, s6, s7, s8, s9, s10, s11, s12 };
}

variable d6_swallowing {
	type discrete[13] { s0, s1, s2, s3, s4, s5, s6, s7, s8, s9, s10, s11, s12 };
}

variable d6_constipation {
	type discrete[13] { s0, s1, s2, s3, s4, s5, s6, s7, s8, s9, s10, s11, s12 };
}

variable d7_urinary_urgency {
	type discrete[13] { s0, s1, s2, s3, s4, s5, s6, s7, s8, s9, s10, s11, s12 };
}

variable d7_urinary_frequency {
	type discrete[13] { s0, s1, s2, s3, s4, s5, s6, s7, s8, s9, s10, s11, s12 };
}

variable d7_nocturia {
	type discrete[13] { s0, s1, s2, s3, s4, s5, s6, s7, s8, s9, s10, s11, s12 };
}

variable d8_sex_drive {
	type discrete[13] { s0, s1, s2, s3, s4, s5, s6, s7, s8, s9, s10, s11, s12 };
}

variable d8_sex_dysfunction {
	type discrete[13] { s0, s1, s2, s3, s4, s5, s6, s7, s8, s9, s10, s11, s12 };
}

variable d9_unexplained_pain {
	type discrete[13] { s0, s1, s2, s3, s4, s5, s6, s7, s8, s9, s10, s11, s12 };
}

variable d9_taste_smell {
	type discrete[13] { s0, s1, s2, s3, s4, s5, s6, s7, s8, s9, s10, s11, s12 };
}

variable d9_weight_change {
	type discrete[13] { s0, s1, s2, s3, s4, s5, s6, s7, s8, s9, s10, s11, s12 };
}

variable d9_sweating {
	type discrete[13] { s0, s1, s2, s3, s4, s5, s6, s7, s8, s9, s10, s11, s12 };
}

probability ( variable410 ) {
	table 0.284115095169096, 0.7158849048309041;
}

probability ( d1_lightheaded | variable410 ) {
	(state0) 0.1324756885855767, 0.036257732828549445, 0.12453984387843826, 0.013273710774726093, 0.04596510422736792, 0.00826240544655382, 0.12672728025544766, 0.10687068444245149, 0.11521587319065174, 0.09244931835921237, 0.09298764397427528, 0.027061340979228955, 0.07791337305752029;
	(state1) 0.09134057110051122, 0.07767057488701783, 0.08138700177727108, 0.08062497608905116, 0.012673990369174363, 0.04410982645398375, 0.10611184514451269, 0.12726590918496133, 0.07931980923001854, 0.09671941861496548, 0.04111692426321699, 0.11779249715141418, 0.043866655733901326;
}

probability ( d1_fainting | variable410 ) {
	(state0) 0.12846782027299264, 0.05640098447262886, 0.06371243256012074, 0.11561653963962634, 0.02120532520058834, 0.09633749225388372, 0.09904906615804793, 0.10052757824057548, 0.09176997087439298, 0.07632717911871836, 0.025442370666138026, 0.02426812831677949, 0.10087511222550698;
	(state1) 0.06132122623321025, 0.05409553765479441, 0.1059268837220127, 0.0716200030434257, 6.516691356594639E-4, 0.12669609224379358, 0.09071266810181666, 0.12337297083232761, 0.09558042068619667, 0.12278825119260448, 0.03502486452893125, 0.06859188994161472, 0.0436175226836126;
}

probability ( d2_drowsiness | variable410 ) {
	(state0) 0.04497570597466757, 0.12141523206317745, 0.04891726010863469, 0.09633191659553128, 0.03618103317136056, 0.110582011485888, 0.03675865004997631, 0.0019231845265119927, 0.10749765971154442, 0.06970006201233711, 0.10999480067135728, 0.09128041360196229, 0.12444207002705111;
	(state1) 0.09004104941618138, 0.013416816280823033, 0.03367447130507702, 0.1080678273470054, 0.1099417418937374, 0.11713905456329729, 0.0689181140174806, 0.04995720031020084, 0.08315928523051, 0.10643950001145912, 0.1189266828443322, 0.07360021393195744, 0.02671804284793801;
}

probability ( d2_fatigue | variable410 ) {
	(state0) 0.013628974920368894, 0.10380950498243775, 0.06995428581089867, 0.05347795550035765, 0.04179764558443398, 0.10254387955440769, 0.14746714226981936, 0.11921654939141724, 0.05661075436188357, 0.04000043655234521, 0.03336009267920156, 0.0660584844842866, 0.15207429390814178;
	(state1) 0.07554510169469353, 0.1282114626556263, 0.02608815877107383, 0.061390350484177826, 0.10328656094465821, 0.06271961967724796, 0.08140115719345796, 0.018084277576384332, 0.0834489064562813, 0.1271792965196606, 0.10965442744931862, 0.07207040099557528, 0.05092027958184435;
}

probability ( d2_insomnia | variable410 ) {
	(state0) 0.006253902224294005, 0.10442120485498645, 0.08648717745106992, 0.08864884823635215, 0.026537333971142815, 0.12242549232947667, 0.010194411121916689, 0.1500498981335489, 0.14389356715208218, 0.029019490998302932, 0.12001853168300071, 0.0780506696154338, 0.033999472228392606;
	(state1) 0.08204337089916486, 0.08608313404738936, 0.08381864343967203, 0.13995921425620297, 0.12110423783360032, 0.004702470038713126, 0.023117040092523432, 0.04271642145157697, 0.09797770335249413, 0.08877816379148858, 0.07620269462911604, 0.023913713051946433, 0.1295831931161118;
}

probability ( d2_rls | variable410 ) {
	(state0) 0.03393336615713178, 0.11399630459634774, 0.17235898140368452, 0.15046885617646608, 0.06837382559657929, 0.05253136620645087, 0.0046771886597197715, 0.030729946950558872, 0.1445458734810007, 0.0020179597051149523, 0.06135872217363894, 0.1433054180018273, 0.021702190891479255;
	(state1) 0.046150481676921894, 0.013813955124424737, 0.06509475541028159, 0.12178512733363718, 0.13075792431500824, 0.12201748597529036, 0.07007984358359716, 0.06025786039877064, 0.063550498215911, 0.022687023508325254, 0.08672117680585899, 0.1317799428989091, 0.06530392475306396;
}

probability ( d3_loss_interest | variable410 ) {
	(state0) 0.02076241747732852, 0.0563671396724584, 0.05888713349735628, 0.10234523885193228, 0.06577931451868302, 0.17341434109676368, 0.07593974094043401, 0.1352061291218381, 0.007359712351955664, 0.02052496727505023, 0.16128227553651775, 0.1174173161920202, 0.004714273467661743;
	(state1) 0.03532990688735306, 0.07613802053036751, 0.07179948064022841, 0.12085677699989492, 0.08329580233910265, 0.08090963020436065, 0.17368581448572704, 0.046282743972192265, 0.032135770818842564, 0.03643894327923166, 0.0045568698198349775, 0.09695341581581292, 0.14161682420705152;
}

probability ( d3_loss_activities | variable410 ) {
	(state0) 0.24136193578835058, 0.23020409464730746, 0.027666465481705177, 0.050010986751469304, 5.2417041848532875E-5, 0.08979417324316692, 0.00963507225650792, 0.042597230874130886, 0.046937782963290944, 0.008550477092203359, 0.06301175999993171, 0.06507887147215802, 0.12509873238792923;
	(state1) 0.1202854613562267, 0.16296375714868733, 0.057528551979124515, 0.028863914812996196, 0.002834132694949294, 0.1263977658146451, 0.07080559198343843, 0.09975509869809528, 0.0561878436544551, 0.1125468669645172, 0.05785510979354989, 0.04433451371604203, 0.0596413913832732;
}

probability ( d3_anxiety | variable410 ) {
	(state0) 0.04500145514357822, 0.0221542151501151, 0.026637836322617996, 0.04339270239980156, 0.10082228327990383, 0.04400830918030057, 0.09851232970710247, 0.15454877252838717, 0.14858424017390853, 0.10189847594468748, 0.08747634803761109, 0.07240977344958208, 0.054553258682403814;
	(state1) 0.12540561004845677, 0.13432607245014205, 0.06685986810365784, 0.01938878425400802, 0.1409210757734008, 0.12084935212284753, 0.08491184506487773, 0.044847835397261726, 0.055619053619217214, 0.02107465840414071, 0.02766282507317238, 0.14221788276643485, 0.01591513692238245;
}

probability ( d3_depression | variable410 ) {
	(state0) 0.03711726247948435, 0.10377033434413566, 0.07396141656851657, 0.10312076908308723, 0.06318555015006258, 0.10711079890078404, 0.07309468177320268, 0.061935275572613475, 0.10578641513955672, 0.01780927612743212, 0.10255038861056219, 0.07510141394530435, 0.0754564173052581;
	(state1) 0.00776829064363052, 0.10665856017466943, 0.035889555424266084, 0.007733424144996732, 0.08828029475535544, 0.14009849830975674, 0.132022224278871, 0.12814314090608647, 0.1409026336709246, 0.06619305081189329, 0.06564767449861146, 0.061044459430807683, 0.019618192950130765;
}

probability ( d3_flat_affect | variable410 ) {
	(state0) 0.016019452668712283, 0.13739717778141708, 0.05939677976614243, 0.07520364468804051, 0.07607977225991232, 0.14826773731740267, 0.03259860329141786, 0.08056153692450947, 0.08528314948584967, 0.08133269522221158, 0.03797490455470992, 0.08072796294478676, 0.08915658309488758;
	(state1) 0.13032546950337104, 0.07352883370294225, 0.02272942708663569, 0.008972338756874787, 0.1269709610981617, 0.18087828431674774, 0.05776528726596633, 0.17055658123926812, 0.006009602045697553, 0.04030581690057302, 0.03875151353049168, 0.1391448445428449, 0.0040610400104252415;
}

probability ( d3_loss_pleasure | variable410 ) {
	(state0) 0.04971132759948936, 0.15576425996424276, 0.05375517650749329, 0.08954718610356929, 0.08343926274511262, 0.1583707769375815, 0.12193269643455706, 0.06489587862262014, 0.0933875128852378, 0.020920115742276046, 0.04437418170589817, 0.04787442634183127, 0.016027198410090728;
	(state1) 0.06574671823527586, 0.14249850911996734, 0.13823196303324192, 0.1457307933146389, 0.1167104925310173, 0.01059482024316318, 0.011772558594735569, 0.029178177326462534, 0.05007832738052021, 0.06935014189210542, 0.0809204204766406, 0.07676972102524525, 0.062417356826985904;
}

probability ( d4_hallucination | variable410 ) {
	(state0) 0.0018109368775457815, 0.07221143433861317, 0.003022613510370189, 0.02767861348202081, 0.12220940994182124, 0.1108893619275667, 0.08291935806392489, 0.1577164529952552, 0.05380148647876382, 0.07453973209983336, 0.11686038086236081, 0.1334449572124885, 0.04289526220943552;
	(state1) 0.1470803734455027, 0.13236181718895113, 0.01550834089359944, 0.0642617311726347, 0.13350204865470047, 0.15503368315854507, 0.10936078381227733, 0.02413724768671231, 0.003489859287799537, 0.04347943682162117, 0.06545918905371123, 0.007436375801796913, 0.09888911302214805;
}

probability ( d4_delusion | variable410 ) {
	(state0) 0.1063236496382772, 0.08007229531161657, 0.09619474265672177, 0.05013518885897551, 0.0909173662823489, 0.04399976118837382, 0.07972318238401886, 0.07297618958772074, 0.03859638620199784, 0.09041349496464836, 0.07600360257618227, 0.09522971847400379, 0.07941442187511445;
	(state1) 0.0654500971186503, 0.07545387129906397, 0.13035314427963204, 0.05553033865584222, 0.06442375243622295, 0.07908308891126006, 0.14441173257398934, 0.12682809325439987, 0.0646695362883096, 0.09774006854168713, 0.005220269695355145, 0.039377132856824565, 0.051458874088762756;
}

probability ( d4_diplopia | variable410 ) {
	(state0) 0.0241021443700676, 0.051108992841034775, 0.07453102271859839, 0.12325013436564151, 0.06955098450235289, 0.13441937260513986, 0.011481425654845197, 0.09905304946820964, 0.05877381563199796, 0.15154310448604338, 0.05540244837168749, 0.024092233694502335, 0.12269127128987896;
	(state1) 0.03263537110664362, 0.0113349172565637, 0.11789360833951949, 0.06812725163357053, 0.11350069948343802, 0.06189007635004637, 0.13697641765775176, 0.06796757716504621, 0.06846001623998518, 0.048296130818190744, 0.04067440539917266, 0.11571313252405362, 0.11653039602601836;
}

probability ( d5_loss_concentration | variable410 ) {
	(state0) 0.10464729249110641, 0.13211310757228525, 0.036134244128802756, 0.10677851587980892, 0.02931635977578839, 0.02799463050590003, 0.09897122898623796, 0.069088449171722, 0.05503966699833406, 0.0308950757658224, 0.10877246489401196, 0.12634291267307035, 0.0739060511571096;
	(state1) 0.05037290228099008, 0.05515308180412623, 0.09787221300294151, 0.1092871108083155, 0.1395511622530572, 0.007079722985484793, 0.11556708773463559, 0.06377087282026028, 0.10819805119378882, 0.007837305728367737, 0.11956115227820299, 0.10907912352343208, 0.0166702135863971;
}

probability ( d5_forget_explicit | variable410 ) {
	(state0) 0.13516074098489025, 0.030531158499120074, 0.13854817011318488, 0.04527766424764809, 0.08601703414578626, 0.13236395999833128, 0.12529762164639138, 0.07780790551662296, 0.005980948121497118, 0.0918905239913225, 0.017783334019907816, 0.06725354612440348, 0.04608739259089389;
	(state1) 0.11601567404523701, 0.026101019984801556, 0.03472305752853961, 0.1056219103831518, 0.02739505459752241, 0.10960722481259183, 0.097579367875705, 0.10186716315755642, 0.11394352483351577, 0.07188889576456932, 0.06799224419755572, 0.09406862101834165, 0.033196241800911956;
}

probability ( d5_forget_implicit | variable410 ) {
	(state0) 0.06449055750665322, 0.04456864775157827, 0.0556751469698793, 0.07779437016941418, 0.058857816674604255, 0.08357057243789945, 0.14862619941564958, 0.14940815411523942, 0.003176561773112132, 0.05811265712366012, 0.15859093750682393, 0.07655636959111582, 0.02057200896437017;
	(state1) 0.09469545830561492, 0.05878751699566586, 0.14690510602903983, 0.1220498654710269, 0.10784242647792602, 0.02288741060577861, 0.0887875968492561, 0.07135505242888038, 0.03649340243486242, 0.06038002231690229, 0.03553934650974749, 0.14105279554334002, 0.013224000031959284;
}

probability ( d6_drooling | variable410 ) {
	(state0) 0.04255324087680321, 0.07084651746382985, 0.020284054656957876, 0.09226200397015492, 0.09956747937198115, 0.03926099763449635, 0.15369108627429193, 0.03738787573400782, 0.07586070761983651, 0.08110510095223292, 0.04829050468821992, 0.14451828209629353, 0.09437214866089397;
	(state1) 0.09555921776281869, 0.13945295477868278, 0.17445290274828093, 0.026474920684121942, 0.015535048556461126, 0.15737076447544357, 0.07454902038645392, 0.11714981338659397, 0.046534367171658465, 0.07994198757611394, 0.042041203100158825, 0.011822740538455091, 0.019115058834756896;
}

probability ( d6_swallowing | variable410 ) {
	(state0) 0.11303843110684707, 0.061366467992053975, 0.006951616296355446, 0.11688007683679286, 0.1120260996790764, 0.0752212899136073, 0.08132954678337487, 0.08705938341562686, 0.061983583025742695, 0.11350574686721035, 0.08644180774975149, 0.02774502701166498, 0.056450923321895795;
	(state1) 0.10037606567004177, 0.0420305497494265, 0.02782279503434775, 0.15065927924552253, 0.04395779766466259, 0.037858052140059245, 0.1149353447781629, 0.12173753152132448, 0.012428643421343491, 0.007363708989645638, 0.14968794267411056, 0.06517071753458833, 0.12597157157676409;
}

probability ( d6_constipation | variable410 ) {
	(state0) 0.11448665645386, 0.004915175227046446, 0.11194055258089192, 0.10006243221466758, 0.07753364772956003, 0.03637465454380646, 0.027649266780741626, 0.018184947095638705, 0.0914079644921581, 0.08165498790579306, 0.16906505921392923, 0.004809643354085022, 0.1619150124078218;
	(state1) 0.13569043793769933, 0.07368318955915519, 0.010186240905200395, 0.14887924158721644, 0.04731169042161187, 0.11381407732102329, 0.04690270324615303, 0.035512775668172486, 0.0737876275637409, 0.04853730291676087, 0.08715271570444624, 0.08071644769916314, 0.09782554946965667;
}

probability ( d7_urinary_urgency | variable410 ) {
	(state0) 0.020827325915294865, 0.07401859688863698, 0.08671062114423757, 0.08493314487685749, 0.053160949442320846, 0.11707848078298666, 0.08829787848080739, 0.1559899603125279, 0.03907687898457166, 0.029068129360491118, 0.08400738675370299, 0.01692434812679444, 0.14990629893076995;
	(state1) 0.0225818280618663, 0.07227242375238337, 0.04436119753752505, 0.11561651509404039, 0.08237897574323266, 0.16760963245050753, 0.057146878988674134, 0.11500104250544439, 0.037042799690090805, 0.020968073128110627, 0.09012770819513004, 0.12813902036526761, 0.04675390448772714;
}

probability ( d7_urinary_frequency | variable410 ) {
	(state0) 0.11473599081536483, 0.03365115149778514, 0.07339373764646012, 0.07526351342325341, 0.09474013286850458, 0.021048103980840064, 0.06628187677181671, 0.07793669745761164, 0.10800850466120653, 0.10792458552412443, 0.022091830073597732, 0.11031429088381618, 0.0946095843956186;
	(state1) 0.02041529024338521, 0.08766142144383816, 0.020329231185670593, 0.11156092403404765, 0.01633605951693755, 0.14671254650402452, 0.09871243035787258, 0.04398879245945607, 0.13838853492598308, 0.10476875389261978, 0.01848907753853748, 0.04312721920884069, 0.1495097186887868;
}

probability ( d7_nocturia | variable410 ) {
	(state0) 0.0691403431138292, 0.1496771842584845, 0.00458173381869458, 0.13285435826951347, 0.12371495883893627, 0.015818524741978448, 0.016184508410590114, 0.09434727673656583, 0.03351956105597153, 0.013506687027674073, 0.0966000756957707, 0.15026299235985227, 0.09979179567213908;
	(state1) 0.0639574512614341, 0.13239685153559463, 0.13349943178337545, 0.03766373933719809, 0.033526603616874394, 0.07076986678783595, 0.14034412129240464, 0.052281768893444776, 0.06351607793281491, 0.14239504262839317, 0.08460236638263868, 0.014338968814941296, 0.03070770973304984;
}

probability ( d8_sex_drive | variable410 ) {
	(state0) 0.10695571481898816, 0.06636400735538801, 0.10041758566046562, 0.09686305491357239, 0.01507773828240888, 0.05685138936940965, 0.02323642872104701, 0.10539843491573468, 0.06171896546763481, 0.10665325712308497, 0.08314337906992884, 0.07704970286083981, 0.10027034144149721;
	(state1) 0.08726220525820132, 0.134392420117361, 0.04901755730425261, 0.07931659659642241, 0.06521222358568018, 0.01746471646250793, 0.1878424947694936, 0.10177446703046565, 0.013984579389024254, 0.055730559498939077, 0.027265696353434517, 0.11406726797865444, 0.06666921565556302;
}

probability ( d8_sex_dysfunction | variable410 ) {
	(state0) 0.05529553904816081, 0.08787929952864575, 0.03371345817240058, 0.026919978516541227, 0.11203603822416691, 0.07407789809804394, 0.01680255121329059, 0.08374391719245593, 0.09798910075828376, 0.1248779670909343, 0.1253286477836467, 0.09564390949292319, 0.06569169488050636;
	(state1) 0.06439734139340304, 0.07208564742427581, 0.11006118357600074, 0.06072675655571289, 0.11431124035564309, 0.11325731108364193, 0.03918080441979568, 0.04988399280698593, 0.06355935339934023, 0.015099784953965733, 0.07077067821741691, 0.13156206437367207, 0.09510384144014607;
}

probability ( d9_unexplained_pain | variable410 ) {
	(state0) 0.020395943279740862, 0.05372636304731831, 0.006869329180822785, 0.03418166265536343, 0.02474536995365118, 0.10740103166892265, 0.049590223919192294, 0.08759412209327065, 0.1392673588704669, 0.16339773005582017, 0.013506408413954086, 0.16986297542274528, 0.12946148143873143;
	(state1) 0.1785702574028361, 0.17612651464187878, 0.0314963781659555, 0.028885995458763688, 0.0013363868349859228, 0.028085481327910073, 0.01332433130318882, 0.16928838098949042, 0.04849743104472362, 0.1623505305852708, 0.03444963850910424, 0.011746216791349389, 0.1158424569445427;
}

probability ( d9_taste_smell | variable410 ) {
	(state0) 0.07999450736684527, 0.02639551991822788, 0.12836193958546913, 0.08106671095781094, 0.12820583843756642, 0.12637112275067577, 0.057320532793705935, 0.03204036227292783, 0.08440849900055934, 0.053026494506738214, 0.03936668891092985, 0.12382538588403705, 0.03961639761450634;
	(state1) 0.09109639879515309, 0.13782118389749445, 0.08031095822860068, 0.1602926730731243, 0.05945464765235833, 0.022703820692906208, 0.05213553952787833, 0.0031261872069065577, 0.02980969959297161, 0.07956137496725235, 0.11856886665459734, 0.1026301946556542, 0.06248845505510256;
}

probability ( d9_weight_change | variable410 ) {
	(state0) 0.1003196797948992, 0.0012203902611617043, 0.1708743132626017, 0.053956939217948176, 0.09339959937758006, 0.1411840034057619, 0.025974794440898986, 0.09023474189687739, 0.0376574702303104, 0.08395434881490994, 0.12337847979881764, 0.013279911480266604, 0.0645653280179663;
	(state1) 0.09357791598269861, 0.024791731352832403, 0.02969095057668235, 0.07116399984685208, 0.0808797952682809, 0.1037175388161911, 0.1403434566654377, 0.03827831437017814, 0.07681185388976808, 0.002008886264388895, 0.047242168999485246, 0.14629279284002614, 0.1452005951271782;
}

probability ( d9_sweating | variable410 ) {
	(state0) 0.12356618636231714, 0.04269639149120625, 0.11140546256132049, 0.12248005613497667, 0.12604094388508963, 0.0016666425821654464, 0.028517945376588458, 0.06990121968115291, 0.09587534099172834, 0.027157362527117368, 0.07728268909196834, 0.09440263043097369, 0.07900712888339555;
	(state1) 0.06740512025423005, 0.061200927255606344, 0.0597582816167693, 0.048955730219656886, 0.09818958470410083, 0.1350613075787641, 0.057587212280824085, 0.14808504564574818, 0.020777082441380653, 0.0014587526308741986, 0.12081762032286782, 0.16148970810785995, 0.019213626941317702;
}

