network HLCM14 {
}

variable variable294 {
	type discrete[2] { state0, state1 };
}

variable d1_lightheaded {
	type discrete[7] { s0, s1, s2, s3, s4, s5, s6 };
}

variable d1_fainting {
	type discrete[7] { s0, s1, s2, s3, s4, s5, s6 };
}

variable d2_drowsiness {
	type discrete[7] { s0, s1, s2, s3, s4, s5, s6 };
}

variable d2_fatigue {
	type discrete[7] { s0, s1, s2, s3, s4, s5, s6 };
}

variable d2_insomnia {
	type discrete[7] { s0, s1, s2, s3, s4, s5, s6 };
}

variable d2_rls {
	type discrete[7] { s0, s1, s2, s3, s4, s5, s6 };
}

variable d3_loss_interest {
	type discrete[7] { s0, s1, s2, s3, s4, s5, s6 };
}

variable d3_loss_activities {
	type discrete[7] { s0, s1, s2, s3, s4, s5, s6 };
}

variable d3_anxiety {
	type discrete[7] { s0, s1, s2, s3, s4, s5, s6 };
}

variable d3_depression {
	type discrete[7] { s0, s1, s2, s3, s4, s5, s6 };
}

variable d3_flat_affect {
	type discrete[7] { s0, s1, s2, s3, s4, s5, s6 };
}

variable d3_loss_pleasure {
	type discrete[7] { s0, s1, s2, s3, s4, s5, s6 };
}

variable d4_hallucination {
	type discrete[7] { s0, s1, s2, s3, s4, s5, s6 };
}

variable d4_delusion {
	type discrete[7] { s0, s1, s2, s3, s4, s5, s6 };
}

variable d4_diplopia {
	type discrete[7] { s0, s1, s2, s3, s4, s5, s6 };
}

variable d5_loss_concentration {
	type discrete[7] { s0, s1, s2, s3, s4, s5, s6 };
}

variable d5_forget_explicit {
	type discrete[7] { s0, s1, s2, s3, s4, s5, s6 };
}

variable d5_forget_implicit {
	type discrete[7] { s0, s1, s2, s3, s4, s5, s6 };
}

variable d6_drooling {
	type discrete[7] { s0, s1, s2, s3, s4, s5, s6 };
}

variable d6_swallowing {
	type discrete[7] { s0, s1, s2, s3, s4, s5, s6 };
}

variable d6_constipation {
	type discrete[7] { s0, s1, s2, s3, s4, s5, s6 };
}

variable d7_urinary_urgency {
	type discrete[7] { s0, s1, s2, s3, s4, s5, s6 };
}

variable d7_urinary_frequency {
	type discrete[7] { s0, s1, s2, s3, s4, s5, s6 };
}

variable d7_nocturia {
	type discrete[7] { s0, s1, s2, s3, s4, s5, s6 };
}

variable d8_sex_drive {
	type discrete[7] { s0, s1, s2, s3, s4, s5, s6 };
}

variable d8_sex_dysfunction {
	type discrete[7] { s0, s1, s2, s3, s4, s5, s6 };
}

variable d9_unexplained_pain {
	type discrete[7] { s0, s1, s2, s3, s4, s5, s6 };
}

variable d9_taste_smell {
	type discrete[7] { s0, s1, s2, s3, s4, s5, s6 };
}

variable d9_weight_change {
	type discrete[7] { s0, s1, s2, s3, s4, s5, s6 };
}

variable d9_sweating {
	type discrete[7] { s0, s1, s2, s3, s4, s5, s6 };
}

probability ( variable294 ) {
	table 0.6901147317899029, 0.30988526821009704;
}

probability ( d1_lightheaded | variable294 ) {
	(state0) 0.049313185763506864, 0.22386403327687424, 0.009986319195959716, 0.1232829123232166, 0.21868954678267358, 0.22414458603560558, 0.1507194166221634;
	(state1) 0.013450517585940232, 0.2646814146408657, 0.08952236815540425, 0.21784877381129447, 0.17638601345154045, 0.008518094326683337, 0.2295928180282717;
}

probability ( d1_fainting | variable294 ) {
	(state0) 0.2973535423086117, 0.04969265631321131, 0.08898691075085197, 0.1357854921816262, 0.28686460422645893, 0.05233008288409524, 0.08898671133514456;
	(state1) 0.1070658737343404, 0.05514499818351596, 0.11470626712284367, 0.2798097287238445, 0.04152433365987561, 0.1310891477767981, 0.2706596507987818;
}

probability ( d2_drowsiness | variable294 ) {
	(state0) 0.16489211423497607, 0.1487633727582555, 0.2500519327042333, 0.24970339070667621, 0.086740695276363, 0.09317039702383015, 0.006678097295665713;
	(state1) 0.06359199878442243, 0.18931881011115986, 0.0470489112264163, 0.24599354685696512, 0.14952391309337043, 0.2246806747310119, 0.07984214519665403;
}

probability ( d2_fatigue | variable294 ) {
	(state0) 0.10349384604286865, 0.3099026683799897, 0.1442935491691531, 0.1280474787134044, 0.016105180163208284, 0.17759486279419495, 0.12056241473718092;
	(state1) 0.27788954045118175, 0.2454819785216274, 0.0303238309193023, 0.1489603883838914, 0.18714258415074492, 0.09245916664688572, 0.01774251092636649;
}

probability ( d2_insomnia | variable294 ) {
	(state0) 0.11090130824709948, 0.08970737683149366, 0.08953662570209647, 0.10058916514592245, 0.06325490096917707, 0.21492248186470406, 0.3310881412395068;
	(state1) 0.05463473786120284, 0.11505524353915303, 0.14534125335824993, 0.03718928918331275, 0.17656695103977435, 0.2333503553725105, 0.23786216964579662;
}

probability ( d2_rls | variable294 ) {
	(state0) 0.1403615712812754, 0.24940726631667995, 0.2476411865459852, 0.19479997588758036, 0.026470393997048276, 0.1259751322584216, 0.015344473713009092;
	(state1) 0.08279924398006434, 0.23082619479747607, 0.06620501364483841, 0.2282985594913256, 0.010695420584130188, 0.13699348162560682, 0.2441820858765585;
}

probability ( d3_loss_interest | variable294 ) {
	(state0) 0.09446362204610616, 0.1797027421639498, 0.2235384052315857, 0.01757882565005029, 0.05941953122568385, 0.18559886783971455, 0.23969800584290965;
	(state1) 0.2076580488945499, 0.018168028053729923, 0.18181344002081934, 0.09174472077697393, 0.2195341974818802, 0.03253862562891823, 0.24854293914312847;
}

probability ( d3_loss_activities | variable294 ) {
	(state0) 0.13132072880568368, 0.23721537079784386, 0.1521114066790418, 0.043258410370746694, 0.2143472750120283, 0.2167726441971681, 0.004974164137487531;
	(state1) 0.1703933035394762, 0.010115519804904192, 0.05783394052171808, 0.11908935216095357, 0.30317972059527754, 0.16762361083370472, 0.17176455254396578;
}

probability ( d3_anxiety | variable294 ) {
	(state0) 0.22282037741591995, 0.07576007421301174, 0.06225047197018596, 0.015178743829861159, 0.24916668107653947, 0.25595467201045197, 0.11886897948402975;
	(state1) 0.1507374056817455, 0.21371499877465297, 0.2415249381316148, 0.10698974829601283, 0.055798649535024135, 0.12704054311024213, 0.10419371647070759;
}

probability ( d3_depression | variable294 ) {
	(state0) 0.17077018295235918, 0.17765739833204391, 0.09045945804069924, 0.05285026534836542, 0.15202671755539066, 0.19694199013951477, 0.15929398763162678;
	(state1) 0.17288955853538324, 0.18792786832329067, 0.05740154742694224, 0.1844322160622, 0.16951682526818132, 0.1321390814563419, 0.0956929029276607;
}

probability ( d3_flat_affect | variable294 ) {
	(state0) 0.18416154371556528, 0.20090672785529806, 0.07318194525421332, 0.1766603061658576, 0.1466326850533867, 0.18569436680381093, 0.03276242515186803;
	(state1) 0.2828575198048988, 0.0033035285658533594, 0.261722988075382, 0.19147971496713428, 0.04527195517870241, 0.20919823237087073, 0.006166061037158267;
}

probability ( d3_loss_pleasure | variable294 ) {
	(state0) 0.07038116943435617, 0.18908456038424157, 0.24763994309733117, 0.04958967357833477, 0.2210330119132886, 0.005000965447536655, 0.21727067614491105;
	(state1) 0.06811851875931597, 0.21582844301294302, 0.2360561311848099, 0.23060133281374962, 0.2142222348159384, 0.017428940181315855, 0.01774439923192721;
}

probability ( d4_hallucination | variable294 ) {
	(state0) 0.1173996011436503, 0.24325325717308818, 0.032664862243030314, 0.20223082829970054, 0.18758044685444095, 0.07233030603068699, 0.14454069825540267;
	(state1) 0.15934351195544136, 0.10733152557244603, 0.12466147080034312, 0.02401042701616355, 0.14964522131899954, 0.16432542091288635, 0.2706824224237201;
}

probability ( d4_delusion | variable294 ) {
	(state0) 0.10585769937042061, 0.012268747419719232, 0.24023276290228457, 0.24217474454544788, 0.15823337674992088, 0.029523184168963934, 0.21170948484324303;
	(state1) 0.18082798625331348, 0.16657831104908202, 0.24126539673575648, 0.15827425714236232, 0.1167485983131242, 0.0379881853619956, 0.0983172651443659;
}

probability ( d4_diplopia | variable294 ) {
	(state0) 0.047313163114834286, 0.18540353606675308, 0.13603617420209346, 0.18577633504813065, 0.13169600564051112, 0.10393408109167802, 0.20984070483599937;
	(state1) 0.20514756102566797, 0.03433344709699835, 0.1905636984402676, 0.16183261743214974, 0.0903689913513188, 0.07369439148521767, 0.24405929316837982;
}

probability ( d5_loss_concentration | variable294 ) {
	(state0) 0.12846342277075806, 0.06290389224898764, 0.034173158450485866, 0.258965430528554, 0.24411226655404553, 0.04276974807576818, 0.22861208137140077;
	(state1) 0.001420884951360615, 0.24195104400240625, 0.18830633656565113, 0.11065981860563455, 0.10939537346294835, 0.20078385689142264, 0.1474826855205764;
}

probability ( d5_forget_explicit | variable294 ) {
	(state0) 0.06402950447483909, 0.22286342086552993, 0.028737849095521194, 0.10600728082070834, 0.26128173584194964, 0.1817093140711611, 0.13537089483029072;
	(state1) 0.07056130135220702, 0.016044161414005553, 0.31701595050435694, 0.2414443049982209, 0.1826260366303956, 0.14317493624111002, 0.029133308859704006;
}

probability ( d5_forget_implicit | variable294 ) {
	(state0) 0.27983173799185646, 0.20269658094850218, 0.10583047705281753, 0.01738012915135126, 0.15359286081208162, 0.07929382514062033, 0.1613743889027706;
	(state1) 0.18987838707402155, 0.25484714090993743, 0.2276534167402331, 0.0598594108657495, 0.17662792023561288, 0.014958436685516767, 0.07617528748892885;
}

probability ( d6_drooling | variable294 ) {
	(state0) 0.18257477907631015, 0.19738456275895166, 0.04382635574291297, 0.14912914102763322, 0.06990310281908345, 0.308897870763234, 0.04828418781187445;
	(state1) 0.19623064911083013, 0.026274567589379478, 0.09450427525006129, 0.037819430729686854, 0.3865700273060224, 0.13574760834668056, 0.12285344166733923;
}

probability ( d6_swallowing | variable294 ) {
	(state0) 0.030095864374204598, 0.1740417508393324, 0.05708235352299946, 0.24572578851077012, 0.2018481363761784, 0.149184212368077, 0.14202189400843798;
	(state1) 0.014923176006634453, 0.0013967038204000539, 0.2187528009082265, 0.3302134477862706, 0.07072225115069149, 0.33335120546855534, 0.03064041485922145;
}

probability ( d6_constipation | variable294 ) {
	(state0) 0.18028152015624443, 0.027459455860947685, 0.26589183827455415, 0.03285279808054893, 0.2280570279327561, 0.07258332877758018, 0.1928740309173684;
	(state1) 0.04969477497241263, 0.2301441179757448, 0.19405530162895138, 0.1567251339188555, 0.08435040081719229, 0.1551375462689806, 0.12989272441786273;
}

probability ( d7_urinary_urgency | variable294 ) {
	(state0) 0.25259118952868204, 0.1858991722248388, 0.0246043188182959, 0.02376828162721332, 0.10384570826562513, 0.2616024108872956, 0.14768891864804934;
	(state1) 0.019752585808548582, 0.06294509238863906, 0.14456598266838563, 0.02395960681907915, 0.2174272094142072, 0.07315725040025856, 0.45819227250088185;
}

probability ( d7_urinary_frequency | variable294 ) {
	(state0) 0.05363688580991801, 0.2113982525800623, 0.15174243249716562, 0.21244161798662506, 0.021947150394790352, 0.24773656577554412, 0.10109709495589451;
	(state1) 0.24597079457073776, 0.11255382179723038, 0.03653101434702169, 0.3840342333426548, 0.053751367085689485, 0.14581792800088642, 0.0213408408557794;
}

probability ( d7_nocturia | variable294 ) {
	(state0) 0.1890056930012176, 0.1203530030252579, 0.18149392193661806, 0.10977606101614469, 0.058301762557677314, 0.2083390064422139, 0.13273055202087047;
	(state1) 0.22632303072592821, 0.13616783753223907, 0.11049957854643475, 0.1872181072258473, 0.00834471143160735, 0.12310885425542689, 0.2083378802825164;
}

probability ( d8_sex_drive | variable294 ) {
	(state0) 0.13893965243677864, 0.2131876191292549, 0.13587805240180822, 0.11483721771948277, 0.20831764784267992, 0.0478643327919612, 0.14097547767803414;
	(state1) 0.09755821808929288, 0.13642777572111037, 0.17020824200348555, 0.20194881883468152, 0.12901078366837443, 0.17186883706921244, 0.09297732461384264;
}

probability ( d8_sex_dysfunction | variable294 ) {
	(state0) 0.19957263484319437, 0.025677662300036055, 0.22344037835275649, 0.09750629662389698, 0.16747505517606154, 0.09607561139695811, 0.19025236130709666;
	(state1) 0.22094289527578642, 0.08086319069156822, 0.13901601358330318, 0.16215652066893838, 0.15639461495006557, 0.041560566675089075, 0.19906619815524917;
}

probability ( d9_unexplained_pain | variable294 ) {
	(state0) 0.004234060008554852, 0.23286207966884842, 0.12295249234341783, 0.14875118071489304, 0.0950442495444942, 0.2168437841960456, 0.17931215352374594;
	(state1) 0.006548247468631536, 0.2298577495792717, 0.15731273603114093, 0.20063646109000505, 0.16138417031280763, 0.178559624084785, 0.06570101143335808;
}

probability ( d9_taste_smell | variable294 ) {
	(state0) 0.06907174327707725, 0.15348739203811648, 0.08057180111283502, 0.2864656219934468, 0.16884123582203045, 0.166432622802301, 0.07512958295419309;
	(state1) 0.13743073718301108, 0.08966859723762054, 0.11681252783026455, 0.12076793162428404, 0.04807851158727643, 0.2512602831374728, 0.23598141140007056;
}

probability ( d9_weight_change | variable294 ) {
	(state0) 0.15245909019231596, 0.006559379380332933, 0.17145443878735317, 0.22501969862735113, 0.17067953075824122, 0.022980004180343502, 0.2508478580740621;
	(state1) 0.23414501420221492, 0.23567892345915958, 0.16187339056682773, 0.12941154299681473, 0.08659787756877423, 0.06182303353743536, 0.09047021766877338;
}

probability ( d9_sweating | variable294 ) {
	(state0) 0.16605059491411542, 0.14055915816617132, 0.1582879110829439, 0.13410192738959478, 0.22267164572136386, 0.07492082183245007, 0.10340794089336057;
	(state1) 0.027058683750247566, 0.1918789730914255, 0.11490839102355765, 0.20101771923274456, 0.1335517633000685, 0.17802434298982328, 0.15356012661213286;
}

