network Best LCM {
}

variable variable205 {
	type discrete[10] { state0, state1, state2, state3, state4, state5, state6, state7, state8, state9 };
}

variable scm1rue {
	type discrete[4] { s0, s1, s2, s3 };
}

variable scm1lue {
	type discrete[4] { s0, s1, s2, s3 };
}

variable scm2rue {
	type discrete[4] { s0, s1, s2, s3 };
}

variable scm2lue {
	type discrete[4] { s0, s1, s2, s3 };
}

variable scm3rue {
	type discrete[4] { s0, s1, s2, s3 };
}

variable scm3lue {
	type discrete[4] { s0, s1, s2, s3 };
}

variable scm4rue {
	type discrete[4] { s0, s1, s2, s3 };
}

variable scm4lue {
	type discrete[4] { s0, s1, s2, s3 };
}

variable scm5rise {
	type discrete[4] { s0, s1, s2, s3 };
}

variable scm6post {
	type discrete[4] { s0, s1, s2, s3 };
}

variable scm7gait {
	type discrete[4] { s0, s1, s2, s3 };
}

variable scm8spee {
	type discrete[4] { s0, s1, s2, s3 };
}

variable scm9free {
	type discrete[4] { s0, s1, s2, s3 };
}

variable scm10swa {
	type discrete[4] { s0, s1, s2, s3 };
}

variable scm11spe {
	type discrete[4] { s0, s1, s2, s3 };
}

variable scm12fee {
	type discrete[4] { s0, s1, s2, s3 };
}

variable scm13dre {
	type discrete[4] { s0, s1, s2, s3 };
}

variable scm14hyg {
	type discrete[4] { s0, s1, s2, s3 };
}

variable scm15cha {
	type discrete[4] { s0, s1, s2, s3 };
}

variable scm16wal {
	type discrete[4] { s0, s1, s2, s3 };
}

variable scm17han {
	type discrete[4] { s0, s1, s2, s3 };
}

variable scm18dpr {
	type discrete[4] { s0, s1, s2, s3 };
}

variable scm19dsv {
	type discrete[4] { s0, s1, s2, s3 };
}

variable scm20fpr {
	type discrete[4] { s0, s1, s2, s3 };
}

variable scm21fsv {
	type discrete[4] { s0, s1, s2, s3 };
}

probability ( variable205 ) {
	table 0.016084619760708338, 0.02640968186200126, 0.024832486241288268, 0.23902816144702824, 0.07296528155474717, 0.08969115070895982, 0.07828783979915975, 0.14276695334657577, 0.03907925992067928, 0.2708545653588521;
}

probability ( scm1rue | variable205 ) {
	(state0) 0.5844264291480856, 0.16557611891193624, 0.1675969605713756, 0.08240049136860232;
	(state1) 0.44441343372828673, 0.3332595220898989, 0.11110847329166203, 0.11121857089015214;
	(state2) 0.11627800019819985, 0.23566782199333602, 0.2973537523267705, 0.3507004254816938;
	(state3) 0.5937305352320544, 0.2685242062180142, 0.1305296506339039, 0.007215607916027702;
	(state4) 0.6378361060052558, 0.19722957420578216, 0.14240684876124496, 0.02252747102771718;
	(state5) 0.8154289650657146, 0.14553404355989516, 0.019874047586514156, 0.019162943787876016;
	(state6) 0.5694058157405631, 0.17503962128136286, 0.17138256689265186, 0.08417199608542207;
	(state7) 0.012355047982846487, 0.4677258341286508, 0.40034177858034037, 0.1195773393081623;
	(state8) 0.0824700401954758, 0.18838073203131772, 0.4200789638983553, 0.3090702638748512;
	(state9) 0.5358559702228051, 0.39334514012723615, 0.06362937460191924, 0.007169515048039311;
}

probability ( scm1lue | variable205 ) {
	(state0) 0.585271293634528, 0.24711820278405727, 0.08520992565508838, 0.08240057792632617;
	(state1) 0.38885785186840716, 0.22215471460123792, 0.3333269740743293, 0.05566045945602559;
	(state2) 0.2322833510638215, 0.4115195611497752, 0.12253819683203836, 0.23365889095436487;
	(state3) 0.5837937015393412, 0.2571944148600885, 0.12341633615549062, 0.035595547445079666;
	(state4) 0.6647751203102426, 0.2596674280532027, 0.05303662131897956, 0.022520830317575118;
	(state5) 0.7491129311394329, 0.12175029739756922, 0.11028483424535489, 0.01885193721764282;
	(state6) 0.5106618262331459, 0.2539851288093953, 0.08797333330346492, 0.14737971165399386;
	(state7) 0.12022256135690834, 0.5071628018055112, 0.3360985956927164, 0.036516041144863995;
	(state8) 0.4096878458272823, 0.2188661190600393, 0.22077966547851544, 0.15066636963416302;
	(state9) 0.5501204163351888, 0.35669026823405675, 0.08565854632829507, 0.0075307691024594685;
}

probability ( scm2rue | variable205 ) {
	(state0) 0.4161181018754824, 0.3337094743830606, 0.08538048846669778, 0.16479193527475927;
	(state1) 0.44446363171816594, 0.2776450452093396, 0.22233280565195773, 0.05555851742053664;
	(state2) 0.17367462542992804, 0.1752671279994197, 0.4171925790338832, 0.23386566753676888;
	(state3) 0.5839121083819526, 0.3719621147723122, 0.03691906783099473, 0.00720670901474044;
	(state4) 0.632185840004292, 0.3225341798562392, 0.022767513632840842, 0.022512466506627894;
	(state5) 0.7948949649434228, 0.167626440136886, 0.018696167476398014, 0.01878242744329324;
	(state6) 0.5304973656157148, 0.3229973429121145, 0.0833084543542738, 0.06319683711789677;
	(state7) 0.03967578236128829, 0.5727221563284839, 0.363981100176286, 0.023620961133941788;
	(state8) 0.07580941928746086, 0.1793694902188268, 0.5067499300040615, 0.23807116048965068;
	(state9) 0.5517857262900977, 0.42046497150397905, 0.02136645950187693, 0.006382842704046219;
}

probability ( scm2lue | variable205 ) {
	(state0) 0.5852134494659929, 0.24696834546666532, 0.0854189918847438, 0.08239921318259802;
	(state1) 0.38890926931952335, 0.27764419472472146, 0.16678615571739347, 0.16666038023836177;
	(state2) 0.2907353908392611, 0.29060333232182145, 0.18522239754898168, 0.23343887928993579;
	(state3) 0.5836556313572091, 0.31485146632451855, 0.08723238216534655, 0.014260520152925962;
	(state4) 0.6398344636375309, 0.27718822426180295, 0.06047573981158655, 0.022501572289079504;
	(state5) 0.6725502896927628, 0.2735880295641446, 0.035300494029134974, 0.018561186713957536;
	(state6) 0.4943088481020516, 0.2934755026227106, 0.14902615053365484, 0.0631894987415829;
	(state7) 0.1835496648533764, 0.594620023410887, 0.198061800277505, 0.023768511458231577;
	(state8) 0.41521054873308955, 0.2511142761302952, 0.21475334961116171, 0.11892182552545359;
	(state9) 0.5537515790462213, 0.38894663373285837, 0.050721063762065415, 0.006580723458854951;
}

probability ( scm3rue | variable205 ) {
	(state0) 0.4176294182902809, 0.2513738529562757, 0.08435926682084122, 0.2466374619326023;
	(state1) 0.055555924705819326, 0.222143648223015, 0.27787400081079877, 0.4444264262603669;
	(state2) 0.11751825365977583, 0.46983613854542144, 0.35409543915010366, 0.05855016864469917;
	(state3) 0.3534003771314373, 0.5542330565507063, 0.08515920072495019, 0.007207365592906092;
	(state4) 0.41953305084729725, 0.46912552954597175, 0.08883147700594791, 0.022509942600783175;
	(state5) 0.07416920557498853, 0.6543806516398992, 0.23432913638171224, 0.037121006403400075;
	(state6) 0.02119819899077949, 0.2733967693357405, 0.6010460758194983, 0.10435895585398158;
	(state7) 0.036505320963051105, 0.30144006419239383, 0.5782638200967215, 0.0837907947478336;
	(state8) 0.061964414261723035, 0.35379697720495495, 0.5444469803099118, 0.039791628223410196;
	(state9) 0.2333289851644631, 0.5968512905988618, 0.15706924524404384, 0.012750478992631391;
}

probability ( scm3lue | variable205 ) {
	(state0) 0.41786113556994336, 0.08412120805546211, 0.16608274099025047, 0.3319349153843441;
	(state1) 0.05555592675763079, 0.055558790327945105, 0.27785291248420985, 0.6110323704302143;
	(state2) 0.2354010614831674, 0.3506590653019868, 0.2413984525027482, 0.17254142071209755;
	(state3) 0.3316475846044783, 0.4573552669617546, 0.20375517946032223, 0.007241968973444881;
	(state4) 0.32335944250535664, 0.5005627483402558, 0.15349946312234458, 0.02257834603204294;
	(state5) 0.06815357893684502, 0.39963481681317903, 0.4576453471329056, 0.07456625711707042;
	(state6) 0.021091250222829663, 0.18106846219497907, 0.5667176635878616, 0.23112262399432973;
	(state7) 0.042325089872745456, 0.41989428597546324, 0.500689815004928, 0.03709080914686318;
	(state8) 0.48681026485121476, 0.16115281528724604, 0.20106598428964317, 0.15097093557189603;
	(state9) 0.14030184690413777, 0.6295654807165335, 0.2103897997797896, 0.019742872599539215;
}

probability ( scm4rue | variable205 ) {
	(state0) 0.49434101528249663, 0.33739961058557755, 0.08306980282456587, 0.08518957130735991;
	(state1) 0.05555755859121792, 0.2776481387339635, 0.27792809093430404, 0.38886621174051456;
	(state2) 0.05854582638720099, 0.46968207287725994, 0.24107048317116347, 0.2307016175643756;
	(state3) 0.3092549042383884, 0.5807589427163524, 0.10276642326013796, 0.00721972978512112;
	(state4) 0.4580114370660152, 0.4222461039134265, 0.09724194285215698, 0.02250051616840152;
	(state5) 0.14632583411705427, 0.5462135667370398, 0.28890093071871126, 0.018559668427194642;
	(state6) 0.06462195173948343, 0.2360280972470021, 0.6361226512349762, 0.06322729977853835;
	(state7) 0.03982783741070781, 0.2587764410755219, 0.6539006714810913, 0.04749505003267891;
	(state8) 0.07974643205078581, 0.3480072830219494, 0.4917538414428053, 0.08049244348445952;
	(state9) 0.16837596552332373, 0.6332211242897805, 0.18569150217455846, 0.012711408012337262;
}

probability ( scm4lue | variable205 ) {
	(state0) 0.41155383221921116, 0.25479537777606986, 0.24865562759661639, 0.08499516240810241;
	(state1) 0.05555753963583822, 0.055557253871393174, 0.44447507962275984, 0.4444101268700088;
	(state2) 0.35060747824062993, 0.2933372461118882, 0.24205104916565542, 0.11400422648182644;
	(state3) 0.3425971772382058, 0.4975951578313618, 0.14535925528377727, 0.014448409646654975;
	(state4) 0.4269523673900765, 0.4384016766200349, 0.11214582312201007, 0.022500132867878667;
	(state5) 0.14611102150342192, 0.37341444354334624, 0.46192883922652855, 0.018545695726703306;
	(state6) 0.04247658459743563, 0.28445778289129736, 0.5045302267796932, 0.16853540573157402;
	(state7) 0.0276648993386817, 0.4655676367225419, 0.48306286839780216, 0.02370459554097428;
	(state8) 0.370235090020742, 0.30127486926121294, 0.2092129362093121, 0.1192771045087329;
	(state9) 0.23550400027358417, 0.5353536073410688, 0.21629778647175613, 0.012844605913590868;
}

probability ( scm5rise | variable205 ) {
	(state0) 0.08498786263630843, 0.2540274443700612, 0.4122685254514601, 0.24871616754217024;
	(state1) 0.11108547258141294, 0.05555463714045344, 0.16663933278977502, 0.6667205574883587;
	(state2) 0.3513381414459579, 0.47302946280862884, 0.058622249771005455, 0.11701014597440783;
	(state3) 0.9066313330812955, 0.07882506444299503, 0.007337329913021433, 0.0072062725626878404;
	(state4) 0.7016525027687142, 0.20629988561828858, 0.0687124673270396, 0.023335144285957645;
	(state5) 0.3248468982723784, 0.5146403216058087, 0.10582220477460687, 0.054690575347205984;
	(state6) 0.06092178882793771, 0.23650400429126586, 0.555291982016056, 0.14728222486474055;
	(state7) 0.18074432104818755, 0.6863339406885094, 0.12102861679079988, 0.011893121472503178;
	(state8) 0.7415963643764545, 0.17894774434329797, 0.03976553305655086, 0.039690358223696556;
	(state9) 0.6035426925890203, 0.34751766691780767, 0.04256390324944475, 0.006375737243727196;
}

probability ( scm6post | variable205 ) {
	(state0) 0.2564789547249291, 0.16520258432876936, 0.33081581770091956, 0.24750264324538193;
	(state1) 0.11108542709785335, 0.055554727173003214, 0.22219511429975905, 0.6111647314293843;
	(state2) 0.3539571989469169, 0.4701903833856918, 0.05885842333115887, 0.11699399433623238;
	(state3) 0.919207881480413, 0.05912343724268982, 0.014462408648246806, 0.007206272628650273;
	(state4) 0.6082165093069446, 0.32234735375742457, 0.04689755730922994, 0.022538579626401028;
	(state5) 0.3219731089115531, 0.46476205913226565, 0.15830716388345786, 0.054957668072723315;
	(state6) 0.02114939001477474, 0.23613559205998932, 0.6793407101146343, 0.06337430781060156;
	(state7) 0.16467094585103104, 0.6071976055636318, 0.21623374104972204, 0.011897707535615165;
	(state8) 0.7436477657645663, 0.09728934422304593, 0.11937243199307322, 0.03969045801931449;
	(state9) 0.690407321711831, 0.24629221788732739, 0.05680643959843349, 0.006494020802408075;
}

probability ( scm7gait | variable205 ) {
	(state0) 0.08491057890506054, 0.0836080458999372, 0.6663769201156174, 0.16510445507938473;
	(state1) 0.055553446033586286, 0.055554529946546805, 0.3333417564943612, 0.5555502675255057;
	(state2) 0.11468070161884968, 0.5331043919898795, 0.2354212761986637, 0.1167936301926071;
	(state3) 0.6954470752756627, 0.2829852234898015, 0.01436142867188982, 0.007206272562645984;
	(state4) 0.3764600197145487, 0.4864009740894733, 0.11463892283483841, 0.02250008336113972;
	(state5) 0.08729116256832979, 0.5722283356934504, 0.32194275894466223, 0.018537742793557615;
	(state6) 0.02109003226478052, 0.17087585306463227, 0.7659394853399185, 0.04209462933066872;
	(state7) 0.033245783830779564, 0.7162336834513343, 0.23862831133130175, 0.011892221386584184;
	(state8) 0.48410055245807077, 0.3750947997014983, 0.10111434900698672, 0.039690298833444236;
	(state9) 0.21082590810629798, 0.74161828433896, 0.0411801022780696, 0.0063757052766724165;
}

probability ( scm8spee | variable205 ) {
	(state0) 0.08240849728307385, 0.5041378025322956, 0.2486274397526586, 0.16482626043197204;
	(state1) 0.055553397338091295, 0.05557083936243623, 0.6667100065824709, 0.22216575671700162;
	(state2) 0.05926649949023563, 0.5890093013008146, 0.2932612473125084, 0.05846295189644133;
	(state3) 0.6583136207729721, 0.3062949074930803, 0.02100192262778595, 0.014389549106161786;
	(state4) 0.26884399598009634, 0.5466901825702298, 0.1170076780501689, 0.06745814339950487;
	(state5) 0.020746965433507805, 0.6887648599573377, 0.2548447664250476, 0.035643408184106835;
	(state6) 0.021067057326128874, 0.21469812866423504, 0.7431562353844849, 0.021078578625151143;
	(state7) 0.10836023946144092, 0.7965797555862931, 0.08316816336827322, 0.01189184158399278;
	(state8) 0.7726710951997806, 0.14776124116871428, 0.039827204754938846, 0.039740458876566256;
	(state9) 0.15929263851434367, 0.7966456315628477, 0.03717010179206553, 0.006891628130743028;
}

probability ( scm9free | variable205 ) {
	(state0) 0.1670411525996237, 0.2502548575814068, 0.2517547732524397, 0.3309492165665298;
	(state1) 0.05559929109641604, 0.05556051351248636, 0.2222175893595662, 0.6666226060315315;
	(state2) 0.4689792039454455, 0.11861686774108829, 0.35389746555630747, 0.058506462757158685;
	(state3) 0.939523453599582, 0.0384469568200781, 0.014823316960930309, 0.0072062726194096075;
	(state4) 0.36650805707476575, 0.49267626769715506, 0.09503119379092906, 0.0457844814371501;
	(state5) 0.2901876591996853, 0.303781261669467, 0.36920090572514863, 0.03683017340569906;
	(state6) 0.14816559584719494, 0.1768256209633107, 0.5489368241656907, 0.12607195902380355;
	(state7) 0.2973522415934611, 0.5264620302341579, 0.14082307087873244, 0.03536265729364856;
	(state8) 0.7640424593661543, 0.1565372301609233, 0.039731866287353756, 0.039688444185568654;
	(state9) 0.7290085475774227, 0.20852285162291093, 0.05607082594300894, 0.0063977748566574;
}

probability ( scm10swa | variable205 ) {
	(state0) 0.4998452514298637, 0.08844436718596245, 0.3292877737415443, 0.0824226076426295;
	(state1) 0.2778625575908555, 0.3888306524145187, 0.22219994111441077, 0.11110684888021502;
	(state2) 0.4114040991570089, 0.35464792632688025, 0.17548488788372837, 0.058463086632382574;
	(state3) 0.872363364398524, 0.09859684310949214, 0.021833519929338345, 0.007206272562645518;
	(state4) 0.8364597862004939, 0.07144175381478811, 0.06959837336977226, 0.022500086614945746;
	(state5) 0.5355903670811079, 0.372821804278088, 0.07304947739845595, 0.01853835124234813;
	(state6) 0.2633970826621798, 0.4219286971255042, 0.2725471391852484, 0.04212708102706769;
	(state7) 0.41804990712683615, 0.5216242915830108, 0.04843401127562379, 0.011891790014529226;
	(state8) 0.8767317815810687, 0.04352147854554668, 0.04005950644308231, 0.03968723343030241;
	(state9) 0.7014718744803519, 0.248037166729735, 0.044115253516819705, 0.00637570527309342;
}

probability ( scm11spe | variable205 ) {
	(state0) 0.08298555197834241, 0.500587037318545, 0.16950029702522207, 0.24692711367789047;
	(state1) 0.05556760611590852, 0.11115310081741858, 0.6666669336211701, 0.16661235944550273;
	(state2) 0.12090426454219146, 0.5289348281165785, 0.29169791342328505, 0.05846299391794492;
	(state3) 0.7356658009171516, 0.23611770964455459, 0.013826940098732888, 0.014389549339560949;
	(state4) 0.32954162253373925, 0.37704774829354015, 0.22595523892272484, 0.06745539024999574;
	(state5) 0.09160766490719816, 0.614071458048563, 0.2757815523805758, 0.01853932466366312;
	(state6) 0.042161273227985456, 0.32006244087840646, 0.616697705733924, 0.021078580159684144;
	(state7) 0.19801555903179444, 0.6969563374415707, 0.09313629669858327, 0.011891806828051705;
	(state8) 0.729752600442091, 0.19054542106483718, 0.039960905753999784, 0.03974107273907214;
	(state9) 0.2691146933670807, 0.6670626630377121, 0.05740026563122265, 0.0064223779639845276;
}

probability ( scm12fee | variable205 ) {
	(state0) 0.08258915588718893, 0.4991843221977244, 0.2533739103443311, 0.1648526115707556;
	(state1) 0.0555534005050349, 0.0555558128277092, 0.3334359083516482, 0.5554548783156078;
	(state2) 0.05933606349276921, 0.06232652359484958, 0.8198710413571983, 0.05846637155518294;
	(state3) 0.8443738572145992, 0.14119353444493593, 0.0072263357777492526, 0.007206272562715646;
	(state4) 0.6052602108284877, 0.3047822818540207, 0.06745742402071804, 0.02250008329677345;
	(state5) 0.17596214238813424, 0.7434855992597539, 0.0620143342906795, 0.018537924061432433;
	(state6) 0.02109483048169154, 0.28291023909807, 0.6538453280739992, 0.042149602346239164;
	(state7) 0.023901675228193742, 0.7988096640962651, 0.1653968706366318, 0.011891790038909385;
	(state8) 0.13681104954829335, 0.6214687955815065, 0.16234779523145917, 0.07937235963874101;
	(state9) 0.20376532853708415, 0.735554556850727, 0.0543044093390599, 0.00637570527312887;
}

probability ( scm13dre | variable205 ) {
	(state0) 0.08250499407668814, 0.49752623472243734, 0.2551417982140025, 0.1648269729868721;
	(state1) 0.05555340049166536, 0.05556759176911579, 0.16666966237564526, 0.7222093453635735;
	(state2) 0.05846405473376638, 0.1774907484342838, 0.7053809961485108, 0.05866420068343887;
	(state3) 0.7779013985139148, 0.2076538389488709, 0.007238489974567777, 0.007206272562646234;
	(state4) 0.25922179639631804, 0.6224191371994702, 0.09585898020383431, 0.02250008620037767;
	(state5) 0.05589034281017602, 0.6880206965520258, 0.23743727234552067, 0.018651688292277563;
	(state6) 0.021093837990346257, 0.04655573397867878, 0.8693647119694565, 0.06298571606151857;
	(state7) 0.011899716701105874, 0.7077601510183306, 0.2684483286170318, 0.011891803663531927;
	(state8) 0.04073379777262222, 0.7419164244803613, 0.17766254429392223, 0.03968723345309415;
	(state9) 0.0732355704785572, 0.8537799356556239, 0.06660878298450121, 0.006375710881317629;
}

probability ( scm14hyg | variable205 ) {
	(state0) 0.08278573297513238, 0.6659298296507948, 0.08645426583158074, 0.16483017154249213;
	(state1) 0.0555534005017685, 0.055570962156123505, 0.22228068112598406, 0.666594956216124;
	(state2) 0.05850018020675514, 0.1798747667658247, 0.7031547778728603, 0.05847027515455984;
	(state3) 0.7981014547231308, 0.1874849760555795, 0.007207296658643494, 0.007206272562646237;
	(state4) 0.39384179401523844, 0.47276791958494446, 0.11089020019917904, 0.02250008620063799;
	(state5) 0.042712803217141514, 0.8428072834757929, 0.09582820754199163, 0.01865170576507386;
	(state6) 0.021099287276753243, 0.1080401969404966, 0.8077826271279561, 0.063077888654794;
	(state7) 0.04419241387174849, 0.7616330289272562, 0.18228275352859938, 0.011891803672396083;
	(state8) 0.08100990402577654, 0.8377828986703694, 0.04151996384884717, 0.039687233455007104;
	(state9) 0.13182817166626548, 0.8292406127824354, 0.03255550466998065, 0.006375710881318365;
}

probability ( scm15cha | variable205 ) {
	(state0) 0.08244048719889206, 0.3382412041530078, 0.4144548165151532, 0.1648634921329468;
	(state1) 0.0555533974609611, 0.05556674042798459, 0.0556781436038912, 0.8332017185071631;
	(state2) 0.11736229271750094, 0.5326788660878133, 0.29123392401944376, 0.058724917175242086;
	(state3) 0.8638965337685206, 0.12166365616179912, 0.007233537507034849, 0.007206272562645518;
	(state4) 0.31606588803858066, 0.5008755506919531, 0.16055847501617534, 0.022500086253290884;
	(state5) 0.03894994136060067, 0.7016819688200131, 0.24081196556259038, 0.018556124256795866;
	(state6) 0.0210851994296312, 0.04665896023111955, 0.8270420996121299, 0.10521374072711938;
	(state7) 0.058214387573937244, 0.6374354897521207, 0.2924431513355851, 0.011906971338356909;
	(state8) 0.49487008207211025, 0.4243020809552033, 0.04114060353025692, 0.03968723344242955;
	(state9) 0.16957417147898024, 0.7859875059486265, 0.03806261717096975, 0.006375705401423451;
}

probability ( scm16wal | variable205 ) {
	(state0) 0.0847797234629156, 0.332427013570155, 0.33561085766505605, 0.24718240530187333;
	(state1) 0.05555344632471605, 0.05555347202589864, 0.16676775392569634, 0.722125327723689;
	(state2) 0.11463420860119186, 0.3578254439130894, 0.4690753181746976, 0.058465029311021086;
	(state3) 0.7348173932295542, 0.2507668224808842, 0.007209511726915769, 0.007206272562645979;
	(state4) 0.2535512850265895, 0.6113506593129476, 0.11256287506010978, 0.022535180600353043;
	(state5) 0.018722009679008774, 0.6774724197272218, 0.267026615841231, 0.03677895475253826;
	(state6) 0.04090206391227625, 0.09473183559499816, 0.8429662549670188, 0.02139984552570683;
	(state7) 0.012662859093678109, 0.8638469445111707, 0.1115984062355246, 0.011891790159626686;
	(state8) 0.40121552109859254, 0.5191168666984515, 0.039980378666548126, 0.03968723353640803;
	(state9) 0.1316361235044394, 0.8167948158366968, 0.04519335538177297, 0.006375705277090632;
}

probability ( scm17han | variable205 ) {
	(state0) 0.08250380013408527, 0.08865412690082672, 0.41736948656562217, 0.41147258639946593;
	(state1) 0.05555339731511197, 0.11110453975358717, 0.22221393746852916, 0.6111281254627717;
	(state2) 0.058480032039334606, 0.1270733201498289, 0.46526049707170974, 0.34918615073912673;
	(state3) 0.42178240285853996, 0.521281562204751, 0.04311849163811584, 0.013817543298593362;
	(state4) 0.051198757096771304, 0.5991525943104249, 0.305346244531216, 0.04430240406158772;
	(state5) 0.061464936213942785, 0.5865041969163625, 0.31520248225796865, 0.03682838461172611;
	(state6) 0.02106742662928405, 0.23484441222821673, 0.574714014549768, 0.16937414659273128;
	(state7) 0.014833622264351748, 0.6732227358129715, 0.2995683436074849, 0.01237529831519174;
	(state8) 0.08136566416738975, 0.604752356467844, 0.23450684961621482, 0.07937512974855149;
	(state9) 0.13121056295937064, 0.6767677683743102, 0.18514051869875872, 0.006881149967560457;
}

probability ( scm18dpr | variable205 ) {
	(state0) 0.7519609666753351, 0.08256824950288634, 0.08265684413166857, 0.08281393969011011;
	(state1) 0.2223359669668664, 0.3331965039438214, 0.11116208185198982, 0.33330544723732247;
	(state2) 0.35596412042136, 0.11820319705375587, 0.40655013529580897, 0.11928254722907514;
	(state3) 0.9126029047202867, 0.06576986093231338, 0.014412558445555208, 0.0072146759018446895;
	(state4) 0.03494318478864189, 0.49321014344706204, 0.2919650249647565, 0.17988164679953939;
	(state5) 0.3058217199815415, 0.4500555344381154, 0.11464731275142148, 0.12947543282892154;
	(state6) 0.47297168230572395, 0.2307622848493286, 0.2534951826806987, 0.042770850164248794;
	(state7) 0.35972293357491086, 0.4990041917669704, 0.08251107754343295, 0.05876179711468565;
	(state8) 0.8796555024244916, 0.04042711458760421, 0.04015269733516319, 0.03976468565274113;
	(state9) 0.9004252317157619, 0.07471515103199045, 0.018477549054792507, 0.006382068197455101;
}

probability ( scm19dsv | variable205 ) {
	(state0) 0.7519950408102744, 0.08267180549301581, 0.08280535745403074, 0.08252779624267916;
	(state1) 0.27773236049437333, 0.2221526325811568, 0.22232218708505103, 0.27779281983941895;
	(state2) 0.35491843788351224, 0.11761335493145167, 0.1775506672469556, 0.3499175399380805;
	(state3) 0.925846375400484, 0.05223646497324314, 0.014702507080099845, 0.007214652546172977;
	(state4) 0.0349017747466657, 0.55819170793134, 0.33786577681717433, 0.06904074050481994;
	(state5) 0.3402079539321678, 0.3641042530813627, 0.1680675406883409, 0.12762025229812868;
	(state6) 0.4544000172734406, 0.16581678527358945, 0.3156014813133834, 0.06418171613958672;
	(state7) 0.3532742282839672, 0.48121943901550174, 0.12984302347809973, 0.03566330922243139;
	(state8) 0.8640441619397055, 0.05602934959510957, 0.039934767163015174, 0.03999172130216989;
	(state9) 0.8949842717483223, 0.07356412848110108, 0.025041258683829115, 0.006410341086747464;
}

probability ( scm20fpr | variable205 ) {
	(state0) 0.4187112189970925, 0.1651325311755767, 0.1692950705654442, 0.2468611792618866;
	(state1) 0.11105289711708281, 0.11111446699573235, 0.2778682048433371, 0.49996443104384775;
	(state2) 0.41286213190654136, 0.1187493821673495, 0.3491060578447678, 0.11928242808134132;
	(state3) 0.9052962726986857, 0.07294540023963876, 0.014552054498507905, 0.007206272563167601;
	(state4) 0.0701236766729575, 0.6674191368135436, 0.23995137474184033, 0.022505811771658654;
	(state5) 0.02246247176393055, 0.5145868601144374, 0.38881452167519814, 0.07413614644643385;
	(state6) 0.13023190543939467, 0.26320576211943697, 0.4801035799276288, 0.1264587525135397;
	(state7) 0.09066761235715468, 0.6468966992123601, 0.2391375239856255, 0.023298164444859815;
	(state8) 0.6264131469710843, 0.2384723968458703, 0.09542230608915825, 0.0396921500938872;
	(state9) 0.6331912501127835, 0.33484493023670564, 0.02557168173124239, 0.0063921379192684435;
}

probability ( scm21fsv | variable205 ) {
	(state0) 0.41854185948903666, 0.16466388696739107, 0.251984021385771, 0.16481023215780133;
	(state1) 0.11105289712386898, 0.16661262711283698, 0.16677301030892175, 0.5555614654543723;
	(state2) 0.4136504867021932, 0.11714561886175597, 0.23385327688753071, 0.23535061754852007;
	(state3) 0.9190780293247265, 0.06648058562232745, 0.007235111017901018, 0.007206274035045019;
	(state4) 0.029066674318363492, 0.5770358636820075, 0.3713402155453106, 0.022557246454318412;
	(state5) 0.022485250888705902, 0.30233639722954203, 0.564521156807766, 0.11065719507398594;
	(state6) 0.13023159977139928, 0.19342289666693885, 0.4445210912656401, 0.2318244122960218;
	(state7) 0.07366297833469697, 0.5770386594805301, 0.32590460769508195, 0.023393754489690888;
	(state8) 0.6438161065645633, 0.23572596899820022, 0.04105449886628757, 0.07940342557094897;
	(state9) 0.670751060304759, 0.25613110657371124, 0.06655243912187882, 0.006565393999650929;
}

