network HLCM1115 {
}

variable d1_lightheaded {
	type discrete[13] { 0, 1, 2, 3, 4, 5, 6, 7, 8, 9, 10, 11, 12 };
}

variable d1_fainting {
	type discrete[13] { 0, 1, 2, 3, 4, 5, 6, 7, 8, 9, 10, 11, 12 };
}

variable d2_drowsiness {
	type discrete[13] { 0, 1, 2, 3, 4, 5, 6, 7, 8, 9, 10, 11, 12 };
}

variable d2_fatigue {
	type discrete[13] { 0, 1, 2, 3, 4, 5, 6, 7, 8, 9, 10, 11, 12 };
}

variable d2_insomnia {
	type discrete[13] { 0, 1, 2, 3, 4, 5, 6, 7, 8, 9, 10, 11, 12 };
}

variable d2_rls {
	type discrete[13] { 0, 1, 2, 3, 4, 5, 6, 7, 8, 9, 10, 11, 12 };
}

variable d3_loss_interest {
	type discrete[13] { 0, 1, 2, 3, 4, 5, 6, 7, 8, 9, 10, 11, 12 };
}

variable d3_loss_activities {
	type discrete[13] { 0, 1, 2, 3, 4, 5, 6, 7, 8, 9, 10, 11, 12 };
}

variable d3_anxiety {
	type discrete[13] { 0, 1, 2, 3, 4, 5, 6, 7, 8, 9, 10, 11, 12 };
}

variable d3_depression {
	type discrete[13] { 0, 1, 2, 3, 4, 5, 6, 7, 8, 9, 10, 11, 12 };
}

variable d3_flat_affect {
	type discrete[13] { 0, 1, 2, 3, 4, 5, 6, 7, 8, 9, 10, 11, 12 };
}

variable d3_loss_pleasure {
	type discrete[13] { 0, 1, 2, 3, 4, 5, 6, 7, 8, 9, 10, 11, 12 };
}

variable d4_hallucination {
	type discrete[13] { 0, 1, 2, 3, 4, 5, 6, 7, 8, 9, 10, 11, 12 };
}

variable d4_delusion {
	type discrete[13] { 0, 1, 2, 3, 4, 5, 6, 7, 8, 9, 10, 11, 12 };
}

variable d4_diplopia {
	type discrete[13] { 0, 1, 2, 3, 4, 5, 6, 7, 8, 9, 10, 11, 12 };
}

variable d5_loss_concentration {
	type discrete[13] { 0, 1, 2, 3, 4, 5, 6, 7, 8, 9, 10, 11, 12 };
}

variable d5_forget_explicit {
	type discrete[13] { 0, 1, 2, 3, 4, 5, 6, 7, 8, 9, 10, 11, 12 };
}

variable d5_forget_implicit {
	type discrete[13] { 0, 1, 2, 3, 4, 5, 6, 7, 8, 9, 10, 11, 12 };
}

variable d6_drooling {
	type discrete[13] { 0, 1, 2, 3, 4, 5, 6, 7, 8, 9, 10, 11, 12 };
}

variable d6_swallowing {
	type discrete[13] { 0, 1, 2, 3, 4, 5, 6, 7, 8, 9, 10, 11, 12 };
}

variable d6_constipation {
	type discrete[13] { 0, 1, 2, 3, 4, 5, 6, 7, 8, 9, 10, 11, 12 };
}

variable d7_urinary_urgency {
	type discrete[13] { 0, 1, 2, 3, 4, 5, 6, 7, 8, 9, 10, 11, 12 };
}

variable d7_urinary_frequency {
	type discrete[13] { 0, 1, 2, 3, 4, 5, 6, 7, 8, 9, 10, 11, 12 };
}

variable d7_nocturia {
	type discrete[13] { 0, 1, 2, 3, 4, 5, 6, 7, 8, 9, 10, 11, 12 };
}

variable d8_sex_drive {
	type discrete[13] { 0, 1, 2, 3, 4, 5, 6, 7, 8, 9, 10, 11, 12 };
}

variable d8_sex_dysfunction {
	type discrete[13] { 0, 1, 2, 3, 4, 5, 6, 7, 8, 9, 10, 11, 12 };
}

variable d9_unexplained_pain {
	type discrete[13] { 0, 1, 2, 3, 4, 5, 6, 7, 8, 9, 10, 11, 12 };
}

variable d9_taste_smell {
	type discrete[13] { 0, 1, 2, 3, 4, 5, 6, 7, 8, 9, 10, 11, 12 };
}

variable d9_weight_change {
	type discrete[13] { 0, 1, 2, 3, 4, 5, 6, 7, 8, 9, 10, 11, 12 };
}

variable d9_sweating {
	type discrete[13] { 0, 1, 2, 3, 4, 5, 6, 7, 8, 9, 10, 11, 12 };
}

variable variable121 {
	type discrete[2] { state0, state1 };
}

variable variable130 {
	type discrete[2] { state0, state1 };
}

variable variable139 {
	type discrete[2] { state0, state1 };
}

variable variable148 {
	type discrete[2] { state0, state1 };
}

variable variable157 {
	type discrete[2] { state0, state1 };
}

variable variable166 {
	type discrete[2] { state0, state1 };
}

variable variable175 {
	type discrete[2] { state0, state1 };
}

variable variable184 {
	type discrete[2] { state0, state1 };
}

variable variable193 {
	type discrete[2] { state0, state1 };
}

variable variable202 {
	type discrete[2] { state0, state1 };
}

probability ( d1_lightheaded | variable193 ) {
	(state0) 0.05088363955882539, 0.11230730611067222, 0.1210514442572811, 0.021263637371224945, 0.23354076313913452, 0.013538524103414131, 0.16498854014837233, 0.013538524103414131, 0.10018215393101434, 0.06851534075386322, 0.013538524103414131, 0.013538524103414131, 0.07311307831595554;
	(state1) 0.6877922408787179, 0.11920383696805682, 0.051723953739152985, 0.03238821322893759, 0.03692392449653944, 0.0034348125224275107, 0.026837573725010437, 0.0034348125224275107, 0.01580087955135137, 0.006660895514944374, 0.0034348125224275107, 0.0034348125224275107, 0.008929231807579041;
}

probability ( d1_fainting | variable193 ) {
	(state0) 0.463740780368026, 0.10830007997941761, 0.05709426487496433, 0.0331879658034609, 0.130190347573958, 0.013538524103414126, 0.05181796477120699, 0.013538524103414126, 0.0171350802604924, 0.03053202610514672, 0.013538524103414126, 0.013538524103414126, 0.053847393849670334;
	(state1) 0.9299637362659501, 0.013741308372528082, 0.009558497509724866, 0.005319245097668365, 0.008187603649717457, 0.0034348125224275103, 0.004027504470104525, 0.0034348125224275103, 0.005957155115962924, 0.0059930744504765755, 0.0034348125224275103, 0.0034348125224275103, 0.0035126249781570573;
}

probability ( d2_drowsiness | variable184 ) {
	(state0) 0.27481882355033455, 0.09139534066121924, 0.03032971106842111, 0.06935329696595606, 0.15867504062486062, 0.011161070217906842, 0.17992594091148656, 0.011161070217906842, 0.03443796756320006, 0.04457436030618715, 0.011161070217906842, 0.011161070217906842, 0.07184523747670722;
	(state1) 0.6658500947031792, 0.10824593074820685, 0.06275368642100182, 0.021009741206308066, 0.06820252314898602, 0.0036310443888599065, 0.017716409550242396, 0.0036310443888599065, 0.025106698509103704, 0.003653791730454468, 0.0036310443888599065, 0.0036310443888599065, 0.012936946427077883;
}

probability ( d2_fatigue | variable184 ) {
	(state0) 0.06071273753270737, 0.013879724198775744, 0.10148819149420771, 0.027242019360743375, 0.1614282496492082, 0.011161070217906844, 0.18215568312905644, 0.011161070217906844, 0.16292077214227765, 0.10877125468524144, 0.011161070217906844, 0.011161070217906844, 0.13675708693615468;
	(state1) 0.38329417928923853, 0.1298331350317182, 0.08680718951147198, 0.045602986931162305, 0.09998621784765899, 0.0036310443888599056, 0.07145667066749628, 0.0036310443888599056, 0.052297076655896606, 0.029972115976874082, 0.0036310443888599056, 0.0036310443888599056, 0.08622625053304324;
}

probability ( d2_insomnia | variable184 ) {
	(state0) 0.18548236828535153, 0.07403067333347395, 0.024031101030729383, 0.055817203301335286, 0.20622759130872254, 0.011161070217906844, 0.1586385684458401, 0.011161070217906844, 0.09140281962977763, 0.036865160541423, 0.011161070217906844, 0.011161070217906844, 0.12286023325171928;
	(state1) 0.5641964330720907, 0.1211572876188438, 0.046647598850777246, 0.029044499216568435, 0.049101150291124246, 0.0036310443888599065, 0.03916603357594468, 0.0036310443888599065, 0.03562260982917843, 0.017054968122453183, 0.0036310443888599065, 0.0036310443888599065, 0.08348524186757987;
}

probability ( d2_rls | variable184 ) {
	(state0) 0.3849029517558324, 0.03657617691670324, 0.011491869394870777, 0.0682021044680645, 0.1642499071192529, 0.011161070217906844, 0.07410863075851817, 0.011161070217906844, 0.0726389489312176, 0.08830001121620902, 0.011161070217906844, 0.011161070217906844, 0.054885118567704096;
	(state1) 0.6663467368488417, 0.13334240395593946, 0.039833868983618556, 0.017753215656444468, 0.048233623187445014, 0.0036310443888599056, 0.019462682747977102, 0.0036310443888599056, 0.03809603804761269, 0.011214739497715863, 0.0036310443888599056, 0.0036310443888599056, 0.011192513518965344;
}

probability ( d3_loss_interest | variable175 ) {
	(state0) 0.13027031064135564, 0.061037242130308575, 0.11105783609319331, 0.021663141921228993, 0.22589721597389323, 0.010117679318671637, 0.17304245776839594, 0.010117679318671637, 0.06004556642685682, 0.06523049768765371, 0.010117679318671637, 0.010117679318671637, 0.11128501408242727;
	(state1) 0.7706721277159759, 0.10131858235867311, 0.04141591440099788, 0.01825528117209181, 0.025071171122619116, 0.0037570947215139826, 0.014641476712191634, 0.0037570947215139826, 0.004002368031933474, 0.00583409259120057, 0.0037570947215139826, 0.0037570947215139826, 0.0037606070082608165;
}

probability ( d3_loss_activities | variable175 ) {
	(state0) 0.10308732783431211, 0.06728146723369967, 0.03234990748320003, 0.04549290263495099, 0.19894571793635452, 0.010117679318671637, 0.15708828894744759, 0.010117679318671637, 0.0802435605088889, 0.09669721975599295, 0.010117679318671637, 0.010117679318671637, 0.17834289039046672;
	(state1) 0.6943530663591728, 0.08397147558680626, 0.08191456719504184, 0.009406347995563655, 0.053864802512662166, 0.003757094721513981, 0.016808796233844004, 0.003757094721513981, 0.011530432412989206, 0.016691821772622416, 0.003757094721513981, 0.003757094721513981, 0.01643031104524163;
}

probability ( d3_anxiety | variable175 ) {
	(state0) 0.11135297599977653, 0.09812131138813207, 0.01748611231034311, 0.04096326861321193, 0.21915655887836966, 0.010117679318671637, 0.15256797762355795, 0.010117679318671637, 0.06894724844926273, 0.06049823877355989, 0.010117679318671637, 0.010117679318671637, 0.19043559068909957;
	(state1) 0.5672995782859652, 0.1100903682313784, 0.09119117727444499, 0.026116759246695598, 0.0952019488398387, 0.003757094721513981, 0.03727284031984803, 0.003757094721513981, 0.030753578999724574, 0.007591367597354213, 0.003757094721513981, 0.003757094721513981, 0.01945400231869436;
}

probability ( d3_depression | variable175 ) {
	(state0) 0.05463581127742161, 0.03831734988684657, 0.028648987559887384, 0.02648012158848234, 0.12380191735480857, 0.010117679318671637, 0.24341762613898743, 0.010117679318671637, 0.11093392227925537, 0.11293928128507587, 0.010117679318671637, 0.010117679318671637, 0.22035426535454825;
	(state1) 0.5808467165927059, 0.12102666161551932, 0.07577467577734896, 0.027737830162147727, 0.09303995352524848, 0.0037570947215139817, 0.044864812537548295, 0.0037570947215139817, 0.007648076010172237, 0.010660501574046036, 0.0037570947215139817, 0.0037570947215139817, 0.02337239331920725;
}

probability ( d3_flat_affect | variable175 ) {
	(state0) 0.32926409482821745, 0.09560200559565801, 0.04221069372492758, 0.017770508224518203, 0.1540087152017235, 0.010117679318671639, 0.09801311710244603, 0.010117679318671639, 0.046969972701258494, 0.07081674093405105, 0.010117679318671639, 0.010117679318671639, 0.10487343441251328;
	(state1) 0.775676849948, 0.06969784423284665, 0.03692482510246372, 0.01970077010824635, 0.032980742720745, 0.00375709472151398, 0.012446082291900723, 0.00375709472151398, 0.023886232313385047, 0.0037596994074395157, 0.00375709472151398, 0.00375709472151398, 0.009898574988916884;
}

probability ( d3_loss_pleasure | variable175 ) {
	(state0) 0.11619694890201687, 0.07380701206200824, 0.07775141430546215, 0.010670710821322349, 0.2793022987074108, 0.010117679318671637, 0.08083265389765501, 0.010117679318671637, 0.05735901438949125, 0.0708040928180969, 0.010117679318671637, 0.010117679318671637, 0.19280513682184983;
	(state1) 0.7984406921889827, 0.07403409311134093, 0.031241338528471913, 0.011065921682297081, 0.02402522409306413, 0.0037570947215139817, 0.007554584003825975, 0.0037570947215139817, 0.027542559448362258, 0.0037643961534216427, 0.0037570947215139817, 0.0037570947215139817, 0.00730281190417763;
}

probability ( d4_hallucination | variable166 ) {
	(state0) 0.8519843951144369, 0.04687783415141024, 0.013372643755456408, 0.014835837970539183, 0.027524412430918375, 0.0030990865045585777, 0.006793158568519978, 0.0030990865045585777, 0.010663058987352715, 0.006424168278485712, 0.0030990865045585777, 0.0030990865045585777, 0.009128144724646394;
	(state1) 0.12015123717628186, 0.1151504949796919, 0.06343812689700472, 0.05228288994422245, 0.26269892219035873, 0.023627105642681147, 0.13722652728171342, 0.023627105642681147, 0.060468607117001624, 0.06915835304940926, 0.023627105642681147, 0.023627105642681147, 0.024916418793591424;
}

probability ( d4_delusion | variable166 ) {
	(state0) 0.9123351294736596, 0.028402526377229932, 0.0031221024410915416, 0.003099086504558577, 0.008911594468420775, 0.003099086504558577, 0.005384372287998204, 0.003099086504558577, 0.005233738005888074, 0.009160277835733583, 0.003099086504558577, 0.003099086504558577, 0.011954826587185505;
	(state1) 0.27434840888887313, 0.06698742978904869, 0.04707874023506096, 0.02362710564268115, 0.1683300087534419, 0.02362710564268115, 0.10071275264724379, 0.02362710564268115, 0.05460696109511268, 0.11917986194564917, 0.02362710564268115, 0.02362710564268115, 0.05062030843216408;
}

probability ( d4_diplopia | variable166 ) {
	(state0) 0.8607392508087331, 0.04255903091092142, 0.014898962372863969, 0.015260492839913079, 0.015446487440270393, 0.0030990865045585764, 0.005237951237593972, 0.0030990865045585764, 0.015012638516211249, 0.0030990865045585764, 0.0030990865045585764, 0.0030990865045585764, 0.015349753350699727;
	(state1) 0.24242199437494327, 0.10082237990457936, 0.051801636219886225, 0.02541826077787792, 0.28389841981159, 0.023627105642681147, 0.10182905115040736, 0.023627105642681147, 0.027307875760062023, 0.023627105642681147, 0.023627105642681147, 0.023627105642681147, 0.048364853787248065;
}

probability ( d5_loss_concentration | variable157 ) {
	(state0) 0.12688688410483023, 0.04664294600723505, 0.03339318401729177, 0.05925376176538396, 0.3020614285477047, 0.010603414960157341, 0.13248016070315394, 0.010603414960157341, 0.05474315987349847, 0.05654328883294627, 0.010603414960157341, 0.010603414960157341, 0.14558152630732646;
	(state1) 0.6133692709171058, 0.13890809998798248, 0.07702780164434024, 0.031075396801501166, 0.05361400731926569, 0.0036942524296214915, 0.024034425088653014, 0.0036942524296214915, 0.02156414285007715, 0.017242721644447158, 0.0036942524296214915, 0.0036942524296214915, 0.008387124028141638;
}

probability ( d5_forget_explicit | variable157 ) {
	(state0) 0.03819873635426642, 0.06290173272372418, 0.040196948881759294, 0.03214126255837108, 0.3099641292745637, 0.01060341496015734, 0.17491291528994468, 0.01060341496015734, 0.09999684921200111, 0.07330889154933518, 0.01060341496015734, 0.01060341496015734, 0.12596487431540507;
	(state1) 0.6590454208217724, 0.1701860282502045, 0.10051712243454479, 0.01835593488180492, 0.010223912773607069, 0.00369425242962149, 0.012945015149424026, 0.00369425242962149, 0.0057976607859234535, 0.004013044973875816, 0.00369425242962149, 0.00369425242962149, 0.004138850210356892;
}

probability ( d5_forget_implicit | variable157 ) {
	(state0) 0.10597871081877053, 0.11238337947245437, 0.014445094475540016, 0.042266214895324575, 0.2408068050321808, 0.01060341496015734, 0.18269939860548154, 0.01060341496015734, 0.06165161603249117, 0.07288923086049422, 0.01060341496015734, 0.01060341496015734, 0.12446588996663349;
	(state1) 0.7425640533443103, 0.13447525464187063, 0.054075337092216756, 0.0074398749932492745, 0.01954146259735685, 0.003694252429621491, 0.01392644015366271, 0.003694252429621491, 0.004380212243727172, 0.0041592556546039385, 0.003694252429621491, 0.003694252429621491, 0.00466109956051642;
}

probability ( d6_drooling | variable148 ) {
	(state0) 0.1983353287873056, 0.034528551032312726, 0.15293148372976673, 0.013036766867112212, 0.1568489960426069, 0.012893238255237726, 0.10956338049663254, 0.012893238255237726, 0.12746882202305554, 0.03322355021356876, 0.012893238255237726, 0.012893238255237726, 0.12249016778668802;
	(state1) 0.7362132281298303, 0.1089687173936935, 0.014398237490783271, 0.013877220952298493, 0.04465205966468696, 0.003478987332920348, 0.012184319783280058, 0.003478987332920348, 0.014310862420362122, 0.008430213601278679, 0.003478987332920348, 0.003478987332920348, 0.03304919123210553;
}

probability ( d6_swallowing | variable148 ) {
	(state0) 0.13241111454068874, 0.11713711585120512, 0.1403821914546241, 0.01310367734041785, 0.2511550782334826, 0.012893238255237728, 0.0869560753719586, 0.012893238255237728, 0.0700504109566326, 0.0636926914139003, 0.012893238255237728, 0.012893238255237728, 0.07353869181613923;
	(state1) 0.771396520346113, 0.09363639191101207, 0.024742392416234108, 0.010380179141173222, 0.0400793379969031, 0.003478987332920347, 0.011326482771240575, 0.003478987332920347, 0.022846119231520582, 0.007166688424916975, 0.003478987332920347, 0.003478987332920347, 0.004509938429204875;
}

probability ( d6_constipation | variable148 ) {
	(state0) 0.1075557889665708, 0.045784816219448896, 0.0830752734548829, 0.025224977766412224, 0.09640605444117317, 0.012893238255237728, 0.15795273979315022, 0.012893238255237728, 0.09633969830049542, 0.1168449920375479, 0.012893238255237728, 0.012893238255237728, 0.2192427059993676;
	(state1) 0.5276161542339382, 0.09549447312132435, 0.054121489008753, 0.014067458749205189, 0.11662519868145751, 0.003478987332920347, 0.04783322340582107, 0.003478987332920347, 0.047063356925473816, 0.024135469131233538, 0.003478987332920347, 0.003478987332920347, 0.0591272274111118;
}

probability ( d7_urinary_urgency | variable139 ) {
	(state0) 0.6876486630877555, 0.09991622163504271, 0.05840779252480857, 0.023975314975162976, 0.04532846764119645, 0.0040758425693681296, 0.0424560308898012, 0.0040758425693681296, 0.014131794569745223, 0.0071752593995167745, 0.0040758425693681296, 0.0040758425693681296, 0.004657084999498321;
	(state1) 0.08597223311831807, 0.0374899887914481, 0.05574302814588613, 0.026056434593638954, 0.19956839693681372, 0.008357573325452517, 0.11352506288740707, 0.008357573325452517, 0.14653159349628786, 0.07722033483487406, 0.008357573325452517, 0.008357573325452517, 0.22446263389351598;
}

probability ( d7_urinary_frequency | variable139 ) {
	(state0) 0.6953650684916556, 0.12745422115123575, 0.02633308641823205, 0.025447824912246796, 0.07155524922153, 0.004075842569368127, 0.00567320178604145, 0.004075842569368127, 0.016520755421048274, 0.005286744449792807, 0.004075842569368127, 0.004075842569368127, 0.010060477870744631;
	(state1) 0.1453677937015056, 0.014453221289057466, 0.037936937269773714, 0.03975217861498083, 0.17922030051484053, 0.00835757332545252, 0.12208819202360245, 0.00835757332545252, 0.1750632884968647, 0.08109276167666404, 0.00835757332545252, 0.00835757332545252, 0.17159503311090069;
}

probability ( d7_nocturia | variable139 ) {
	(state0) 0.46783827923538424, 0.16788665412667078, 0.03918011681512606, 0.04673484080834886, 0.1738200880981016, 0.004075842569368129, 0.030487576342751094, 0.004075842569368129, 0.015283606438329808, 0.00931496004379254, 0.004075842569368129, 0.004075842569368129, 0.033150507814022546;
	(state1) 0.09374517428781386, 0.015121674007713201, 0.036666638169954226, 0.029533142188305557, 0.15339140287418246, 0.008357573325452517, 0.07120596304803745, 0.008357573325452517, 0.21103037343417247, 0.06447527481809306, 0.008357573325452517, 0.008357573325452517, 0.29140006386991757;
}

probability ( d8_sex_drive | variable130 ) {
	(state0) 0.7969507011880229, 0.052807008280251255, 0.028987938843520376, 0.006710091838739842, 0.03656011819770529, 0.0031466329166610152, 0.01540121484107941, 0.0031466329166610152, 0.013677855649606718, 0.005602886961738572, 0.0031466329166610152, 0.0031466329166610152, 0.030715652532691436;
	(state1) 0.03663247639315567, 0.04699009871420661, 0.03787358479612851, 0.0819392844543692, 0.11400838752193168, 0.02118644910642715, 0.06579438283369361, 0.02118644910642715, 0.1833300987321705, 0.08939415459596393, 0.02118644910642715, 0.02118644910642715, 0.2592917355326717;
}

probability ( d8_sex_dysfunction | variable130 ) {
	(state0) 0.9041484371385028, 0.021468808274458722, 0.02710818102071638, 0.0035908075240873366, 0.010219131270127342, 0.0031466329166610157, 0.006034929545631949, 0.0031466329166610157, 0.0033859031803052894, 0.003414527682993184, 0.0031466329166610157, 0.0031466329166610157, 0.008042742696533125;
	(state1) 0.09876295666218579, 0.06731384727163167, 0.029343646474411893, 0.060568695735876955, 0.18543142738049848, 0.02118644910642715, 0.06529873947478496, 0.02118644910642715, 0.10432122594464605, 0.040569148305223714, 0.02118644910642715, 0.02118644910642715, 0.26364451632503194;
}

probability ( d9_unexplained_pain | variable121 ) {
	(state0) 0.6234391900816493, 0.08374336292238882, 0.03541584282162358, 0.02220438655819124, 0.051232955275755214, 0.003183413652093143, 0.027323112365895217, 0.003183413652093143, 0.056647891536827054, 0.017636520203653853, 0.003183413652093143, 0.003183413652093143, 0.069623083625643;
	(state1) 0.1014347727763805, 0.072610918909851, 0.03685509541210054, 0.02014821607691179, 0.2143876166891945, 0.01965725603590918, 0.20477042040004334, 0.01965725603590918, 0.08266465496748385, 0.08766883903536186, 0.01965725603590918, 0.01965725603590918, 0.10083044158903588;
}

probability ( d9_taste_smell | variable121 ) {
	(state0) 0.5792203469444287, 0.044441405800483245, 0.026200309733896976, 0.0034769282650386835, 0.14316865661229788, 0.0031834136520931438, 0.021210307405881677, 0.0031834136520931438, 0.09750248790442884, 0.012499581647844416, 0.0031834136520931438, 0.0031834136520931438, 0.059546321077327095;
	(state1) 0.1385945664316689, 0.02043767260733995, 0.11341733245596779, 0.037502089142376696, 0.15778265365452265, 0.019657256035909183, 0.06560106596859228, 0.019657256035909183, 0.10559325555760363, 0.09973165694142538, 0.019657256035909183, 0.019657256035909183, 0.1827106830968662;
}

probability ( d9_weight_change | variable121 ) {
	(state0) 0.42621461162846724, 0.3605141699688206, 0.019030210748685657, 0.019777344293488996, 0.07575817998042231, 0.0031834136520931438, 0.00804906128807281, 0.0031834136520931438, 0.03967741906531989, 0.004069362316146975, 0.0031834136520931438, 0.0031834136520931438, 0.03417598610220319;
	(state1) 0.15949841106294452, 0.2506758700609868, 0.020091173337007873, 0.03513495560284666, 0.1612331247777938, 0.019657256035909183, 0.06824140011877207, 0.019657256035909183, 0.04985480692892171, 0.09281563714434783, 0.019657256035909183, 0.019657256035909183, 0.08382559682274206;
}

probability ( d9_sweating | variable121 ) {
	(state0) 0.6905845525537478, 0.06090925898720447, 0.00882943911331638, 0.015892243349142073, 0.07675529847653047, 0.0031834136520931433, 0.0276157914883831, 0.0031834136520931433, 0.049936378078635345, 0.013446987566302995, 0.0031834136520931433, 0.0031834136520931433, 0.043296395778364714;
	(state1) 0.23722214691957766, 0.03669388765411936, 0.04376539025692747, 0.019810547342440067, 0.19439053139042958, 0.01965725603590918, 0.14399138843160872, 0.01965725603590918, 0.025821288858931844, 0.13319603367288957, 0.01965725603590918, 0.01965725603590918, 0.08647976132943899;
}

probability ( variable121 | variable202 ) {
	(state0) 0.9905172059243933, 0.009482794075606574;
	(state1) 0.5182142771167628, 0.48178572288323723;
}

probability ( variable130 | variable202 ) {
	(state0) 0.946853813510137, 0.05314618648986287;
	(state1) 0.7150715897699372, 0.28492841023006277;
}

probability ( variable139 | variable202 ) {
	(state0) 0.8253534635452777, 0.17464653645472228;
	(state1) 0.19661460707446451, 0.8033853929255355;
}

probability ( variable148 | variable202 ) {
	(state0) 0.04937007689524938, 0.9506299231047506;
	(state1) 0.6894318539020898, 0.3105681460979102;
}

probability ( variable157 | variable202 ) {
	(state0) 0.10174752137443738, 0.8982524786255627;
	(state1) 0.7261223826282028, 0.2738776173717973;
}

probability ( variable166 | variable202 ) {
	(state0) 0.9929124278329342, 0.007087572167065711;
	(state1) 0.6202566127242197, 0.3797433872757804;
}

probability ( variable175 | variable202 ) {
	(state0) 0.10357346096674462, 0.8964265390332554;
	(state1) 0.778266801995463, 0.22173319800453697;
}

probability ( variable184 | variable202 ) {
	(state0) 0.02857435514593272, 0.9714256448540673;
	(state1) 0.9158852818624782, 0.08411471813752192;
}

probability ( variable193 | variable202 ) {
	(state0) 0.05369529160281203, 0.9463047083971879;
	(state1) 0.6269433481273738, 0.3730566518726262;
}

probability ( variable202 ) {
	table 0.7755621881957089, 0.2244378118042912;
}

