network HLCM562 {
}

variable d1_lightheaded {
	type discrete[13] { 0, 1, 2, 3, 4, 5, 6, 7, 8, 9, 10, 11, 12 };
}

variable d1_fainting {
	type discrete[13] { 0, 1, 2, 3, 4, 5, 6, 7, 8, 9, 10, 11, 12 };
}

variable d2_drowsiness {
	type discrete[13] { 0, 1, 2, 3, 4, 5, 6, 7, 8, 9, 10, 11, 12 };
}

variable d2_fatigue {
	type discrete[13] { 0, 1, 2, 3, 4, 5, 6, 7, 8, 9, 10, 11, 12 };
}

variable d2_insomnia {
	type discrete[13] { 0, 1, 2, 3, 4, 5, 6, 7, 8, 9, 10, 11, 12 };
}

variable d2_rls {
	type discrete[13] { 0, 1, 2, 3, 4, 5, 6, 7, 8, 9, 10, 11, 12 };
}

variable d3_loss_interest {
	type discrete[13] { 0, 1, 2, 3, 4, 5, 6, 7, 8, 9, 10, 11, 12 };
}

variable d3_loss_activities {
	type discrete[13] { 0, 1, 2, 3, 4, 5, 6, 7, 8, 9, 10, 11, 12 };
}

variable d3_anxiety {
	type discrete[13] { 0, 1, 2, 3, 4, 5, 6, 7, 8, 9, 10, 11, 12 };
}

variable d3_depression {
	type discrete[13] { 0, 1, 2, 3, 4, 5, 6, 7, 8, 9, 10, 11, 12 };
}

variable d3_flat_affect {
	type discrete[13] { 0, 1, 2, 3, 4, 5, 6, 7, 8, 9, 10, 11, 12 };
}

variable d3_loss_pleasure {
	type discrete[13] { 0, 1, 2, 3, 4, 5, 6, 7, 8, 9, 10, 11, 12 };
}

variable d4_hallucination {
	type discrete[13] { 0, 1, 2, 3, 4, 5, 6, 7, 8, 9, 10, 11, 12 };
}

variable d4_delusion {
	type discrete[13] { 0, 1, 2, 3, 4, 5, 6, 7, 8, 9, 10, 11, 12 };
}

variable d4_diplopia {
	type discrete[13] { 0, 1, 2, 3, 4, 5, 6, 7, 8, 9, 10, 11, 12 };
}

variable d5_loss_concentration {
	type discrete[13] { 0, 1, 2, 3, 4, 5, 6, 7, 8, 9, 10, 11, 12 };
}

variable d5_forget_explicit {
	type discrete[13] { 0, 1, 2, 3, 4, 5, 6, 7, 8, 9, 10, 11, 12 };
}

variable d5_forget_implicit {
	type discrete[13] { 0, 1, 2, 3, 4, 5, 6, 7, 8, 9, 10, 11, 12 };
}

variable d6_drooling {
	type discrete[13] { 0, 1, 2, 3, 4, 5, 6, 7, 8, 9, 10, 11, 12 };
}

variable d6_swallowing {
	type discrete[13] { 0, 1, 2, 3, 4, 5, 6, 7, 8, 9, 10, 11, 12 };
}

variable d6_constipation {
	type discrete[13] { 0, 1, 2, 3, 4, 5, 6, 7, 8, 9, 10, 11, 12 };
}

variable d7_urinary_urgency {
	type discrete[13] { 0, 1, 2, 3, 4, 5, 6, 7, 8, 9, 10, 11, 12 };
}

variable d7_urinary_frequency {
	type discrete[13] { 0, 1, 2, 3, 4, 5, 6, 7, 8, 9, 10, 11, 12 };
}

variable d7_nocturia {
	type discrete[13] { 0, 1, 2, 3, 4, 5, 6, 7, 8, 9, 10, 11, 12 };
}

variable d8_sex_drive {
	type discrete[13] { 0, 1, 2, 3, 4, 5, 6, 7, 8, 9, 10, 11, 12 };
}

variable d8_sex_dysfunction {
	type discrete[13] { 0, 1, 2, 3, 4, 5, 6, 7, 8, 9, 10, 11, 12 };
}

variable d9_unexplained_pain {
	type discrete[13] { 0, 1, 2, 3, 4, 5, 6, 7, 8, 9, 10, 11, 12 };
}

variable d9_taste_smell {
	type discrete[13] { 0, 1, 2, 3, 4, 5, 6, 7, 8, 9, 10, 11, 12 };
}

variable d9_weight_change {
	type discrete[13] { 0, 1, 2, 3, 4, 5, 6, 7, 8, 9, 10, 11, 12 };
}

variable d9_sweating {
	type discrete[13] { 0, 1, 2, 3, 4, 5, 6, 7, 8, 9, 10, 11, 12 };
}

variable variable39 {
	type discrete[2] { state0, state1 };
}

variable variable48 {
	type discrete[2] { state0, state1 };
}

variable variable57 {
	type discrete[2] { state0, state1 };
}

variable variable66 {
	type discrete[2] { state0, state1 };
}

variable variable75 {
	type discrete[2] { state0, state1 };
}

variable variable84 {
	type discrete[2] { state0, state1 };
}

variable variable93 {
	type discrete[2] { state0, state1 };
}

variable variable102 {
	type discrete[2] { state0, state1 };
}

variable variable111 {
	type discrete[2] { state0, state1 };
}

probability ( d1_lightheaded | variable39 ) {
	(state0) 0.6277745875195454, 0.12886719654645895, 0.06500907672678628, 0.030085085864883107, 0.05064519077985141, 0.003095993412270964, 0.037319677218793194, 0.003095993412270964, 0.027942345692829166, 0.010905089814531317, 0.003095993412270964, 0.003095993412270964, 0.009067776187237413;
	(state1) 0.029284366338111472, 0.03276375701582199, 0.07147752258480432, 0.03053610500466196, 0.2771708030358296, 0.023808448632636238, 0.18917752928319403, 0.023808448632636238, 0.07082240501683709, 0.08279808644348796, 0.023808448632636238, 0.023808448632636238, 0.12073563074670662;
}

probability ( d1_fainting | variable39 ) {
	(state0) 0.9149591071052156, 0.018928332608499136, 0.016392948547237107, 0.00899158616309559, 0.00891768135481213, 0.0030959934122709643, 0.00383018893936294, 0.0030959934122709643, 0.006177168353408737, 0.00603820935021931, 0.0030959934122709643, 0.0030959934122709643, 0.003380803929065728;
	(state1) 0.22546467065507517, 0.14014092056715363, 0.04059599317580541, 0.026087743882796343, 0.21712366710918113, 0.023808448632636234, 0.0895877694376625, 0.023808448632636234, 0.02392240391671096, 0.04879945892181715, 0.023808448632636234, 0.023808448632636234, 0.09304357780325262;
}

probability ( d2_drowsiness | variable93 ) {
	(state0) 0.6372465777419039, 0.11385310349638499, 0.06225502468158756, 0.02891921036195321, 0.07259476486652228, 0.0037351777676968264, 0.02107127383256361, 0.0037351777676968264, 0.028623992509744386, 0.003845214117506397, 0.0037351777676968264, 0.0037351777676968264, 0.01665012732104647;
	(state1) 0.3844070073907898, 0.07729306035288076, 0.03426139319985924, 0.04376872316466465, 0.1394454711138615, 0.010280120404465834, 0.1578892426192543, 0.010280120404465834, 0.02402099390270705, 0.04081763474008064, 0.010280120404465834, 0.010280120404465834, 0.05697599189803879;
}

probability ( d2_fatigue | variable93 ) {
	(state0) 0.38867317520815453, 0.133756696014272, 0.09794415956734316, 0.0461791496067983, 0.10533164102405176, 0.0037351777676968264, 0.06652503803983667, 0.0037351777676968264, 0.05949949004407224, 0.023404952313938764, 0.0037351777676968264, 0.0037351777676968264, 0.06374498711074525;
	(state1) 0.07136997082291818, 0.012233397904966121, 0.06967775297244248, 0.027105521054975237, 0.1418666854851796, 0.010280120404465834, 0.1869912012497721, 0.010280120404465834, 0.1343663803686382, 0.1206260289297776, 0.010280120404465834, 0.010280120404465834, 0.19464257959346717;
}

probability ( d2_insomnia | variable93 ) {
	(state0) 0.5769833833199656, 0.13819801854366193, 0.047959677049393454, 0.0324142434076733, 0.05385646181870468, 0.0037351777676968264, 0.03760871139554434, 0.0037351777676968264, 0.025979513759649103, 0.01698095074506614, 0.0037351777676968264, 0.0037351777676968264, 0.055078328889554176;
	(state1) 0.180181684942651, 0.03085015606737726, 0.02220507517750357, 0.04442966002228043, 0.18073773186160896, 0.010280120404465834, 0.15349466179509438, 0.010280120404465834, 0.11354020777301971, 0.035505244322614746, 0.010280120404465834, 0.010280120404465834, 0.1979350964199867;
}

probability ( d2_rls | variable93 ) {
	(state0) 0.6753238947453458, 0.13585963727190206, 0.04086200220955795, 0.012609713846056586, 0.04854548213422467, 0.0037351777676968264, 0.013380556633464146, 0.0037351777676968264, 0.029319308579297425, 0.010864113140223187, 0.0037351777676968264, 0.0037351777676968264, 0.018294580369140754;
	(state1) 0.38241014617073454, 0.03728595176982974, 0.010899246584289264, 0.07837631583496835, 0.1542343619363418, 0.010280120404465834, 0.08653488884321747, 0.010280120404465834, 0.09406815728985064, 0.08318063481257702, 0.010280120404465834, 0.010280120404465834, 0.031889815140327876;
}

probability ( d3_loss_interest | variable102 ) {
	(state0) 0.7723862254519687, 0.09778639949076977, 0.04513845181175851, 0.013419292723128945, 0.02653495741975132, 0.00378104117181172, 0.01752943829399093, 0.00378104117181172, 0.003816247082321228, 0.004476580735386758, 0.00378104117181172, 0.00378104117181172, 0.003788242303677053;
	(state1) 0.13649954278154489, 0.07100599140010062, 0.10009590400524604, 0.03432960042158493, 0.21867825327019239, 0.009948013302829824, 0.1627878915044062, 0.009948013302829824, 0.05959545219136676, 0.06780611124003634, 0.009948013302829824, 0.009948013302829824, 0.1094091999742024;
}

probability ( d3_loss_activities | variable102 ) {
	(state0) 0.6953284941828941, 0.09016721240707824, 0.08227306627017275, 0.00877148109414618, 0.053453849546798174, 0.00378104117181172, 0.018532707305781784, 0.00378104117181172, 0.011496941469550881, 0.009503367033304231, 0.00378104117181172, 0.00378104117181172, 0.015348716003026732;
	(state1) 0.1104360430963675, 0.051260208784928867, 0.032237850273016816, 0.04655810834127337, 0.19759404551467277, 0.009948013302829826, 0.15020025249476873, 0.009948013302829826, 0.07917940756213293, 0.1142685913637423, 0.009948013302829826, 0.009948013302829826, 0.17847343935777743;
}

probability ( d3_anxiety | variable102 ) {
	(state0) 0.5620228371308595, 0.11619762264972558, 0.0907751753497202, 0.025534745406951286, 0.09683284955572123, 0.00378104117181172, 0.03895515327129955, 0.00378104117181172, 0.030382343077367296, 0.007581892929520282, 0.00378104117181172, 0.00378104117181172, 0.0165932159415881;
	(state1) 0.13288210119002902, 0.0822536854651041, 0.019816603263105435, 0.04224559648573503, 0.21278699121982259, 0.009948013302829824, 0.14620835606286328, 0.009948013302829824, 0.0692834997365665, 0.0596359576730817, 0.009948013302829824, 0.009948013302829824, 0.19509515569237296;
}

probability ( d3_depression | variable102 ) {
	(state0) 0.5790580884472231, 0.1222968606548512, 0.08013464490167611, 0.029164248756940125, 0.0954752371835545, 0.00378104117181172, 0.04122064289031204, 0.00378104117181172, 0.008841064514348417, 0.010955244449267902, 0.00378104117181172, 0.00378104117181172, 0.017729803514579708;
	(state1) 0.06816590495076759, 0.03636239876531834, 0.01796806343947443, 0.022748269655844696, 0.11687877008687403, 0.009948013302829826, 0.24967594289641776, 0.009948013302829826, 0.10606311245016727, 0.11044866579515503, 0.009948013302829826, 0.009948013302829826, 0.2318968187486616;
}

probability ( d3_flat_affect | variable102 ) {
	(state0) 0.7759388047951928, 0.07417651072995435, 0.037666256860018774, 0.021223068044911267, 0.032879577172164796, 0.00378104117181172, 0.011680680074759874, 0.00378104117181172, 0.02065432043491577, 0.003782007180750482, 0.00378104117181172, 0.00378104117181172, 0.0068746100200849855;
	(state1) 0.33606089758769564, 0.08338412905202332, 0.040171328226022075, 0.013797673582981493, 0.15224533448853853, 0.009948013302829824, 0.09859201333056676, 0.009948013302829824, 0.055086115892723865, 0.06963355152628023, 0.009948013302829824, 0.009948013302829824, 0.1112369031018487;
}

probability ( d3_loss_pleasure | variable102 ) {
	(state0) 0.7959474241674326, 0.07754852295240627, 0.032928516179842535, 0.00773456089297477, 0.025753003181622876, 0.00378104117181172, 0.0076425337149219185, 0.00378104117181172, 0.02693343019473395, 0.0037876673103296897, 0.00378104117181172, 0.00378104117181172, 0.006600176718488437;
	(state1) 0.1341975231519884, 0.06456426777876187, 0.0725324683202947, 0.019442231255270045, 0.2704756608207468, 0.009948013302829826, 0.0793724368650906, 0.009948013302829826, 0.058461648649682764, 0.0696186595846718, 0.009948013302829826, 0.009948013302829826, 0.1915430503621738;
}

probability ( d4_hallucination | variable75 ) {
	(state0) 0.12578078389816624, 0.1479333839439595, 0.06893048845208949, 0.056066806845141696, 0.23164620629193453, 0.022590609422707984, 0.1416447006031222, 0.022590609422707984, 0.04807808034890168, 0.06617540354607618, 0.022590609422707984, 0.022590609422707984, 0.023381708379776607;
	(state1) 0.8556383786660381, 0.041939930496374164, 0.012311487912696529, 0.014086873048202973, 0.030386278517953464, 0.003117850192237759, 0.005393662834234219, 0.003117850192237759, 0.01207158950106863, 0.006456031453611107, 0.003117850192237759, 0.003117850192237759, 0.009244366800869845;
}

probability ( d4_delusion | variable75 ) {
	(state0) 0.250246865591269, 0.10977166819105476, 0.04511982395722089, 0.022590609422707984, 0.16393081760775427, 0.022590609422707984, 0.09190904971704177, 0.022590609422707984, 0.06659200325296512, 0.13146675465452612, 0.022590609422707984, 0.022590609422707984, 0.028009969914628268;
	(state1) 0.9195242575494412, 0.022264030376222942, 0.003126323627388605, 0.003117850192237758, 0.008553537645041081, 0.003117850192237758, 0.006022244230504372, 0.003117850192237758, 0.0032806841194456815, 0.006798375302969903, 0.003117850192237758, 0.003117850192237758, 0.014841296187797205;
}

probability ( d4_diplopia | variable75 ) {
	(state0) 0.2862167149639614, 0.08352876869104649, 0.048311208905449474, 0.023048380438695264, 0.2726847287004286, 0.022590609422707984, 0.11177174525847663, 0.022590609422707984, 0.02413949419516087, 0.022590609422707984, 0.022590609422707984, 0.022590609422707984, 0.03734591173324145;
	(state1) 0.8584385638116385, 0.044593053706247804, 0.01515726438093442, 0.015526071547854233, 0.015368783131860221, 0.003117850192237758, 0.0032808879459779307, 0.003117850192237758, 0.015375481133417251, 0.003117850192237758, 0.003117850192237758, 0.003117850192237758, 0.016670643380880614;
}

probability ( d5_loss_concentration | variable84 ) {
	(state0) 0.6125895058898878, 0.1387537932459167, 0.0783981587802644, 0.03087173880702889, 0.05420721146563929, 0.003687736956199776, 0.02346966837919544, 0.003687736956199776, 0.021533696168915026, 0.017666067214703804, 0.003687736956199776, 0.003687736956199776, 0.007759212223649659;
	(state1) 0.1266607914633229, 0.046618614392864216, 0.029210483924433542, 0.059985952531727685, 0.3016134168866968, 0.010657460387990906, 0.13466503846026895, 0.010657460387990906, 0.05500026285337115, 0.0555201458780268, 0.010657460387990906, 0.010657460387990906, 0.14809545205732436;
}

probability ( d5_forget_explicit | variable84 ) {
	(state0) 0.6589030534387434, 0.16936382278177867, 0.10020653805385882, 0.017553275266237896, 0.006764400182424943, 0.003687736956199776, 0.01498786024850806, 0.003687736956199776, 0.008178850269681426, 0.004629411103771802, 0.003687736956199776, 0.003687736956199776, 0.004661840830195922;
	(state1) 0.035445729137461336, 0.0647310581110418, 0.04078707845833007, 0.03453119079242287, 0.32148979824579393, 0.010657460387990906, 0.16983469569011153, 0.010657460387990906, 0.09359540747710134, 0.07188080981546582, 0.010657460387990906, 0.010657460387990906, 0.12507439072030763;
}

probability ( d5_forget_implicit | variable84 ) {
	(state0) 0.7370586498679939, 0.13368903279237457, 0.05398768683071816, 0.007683776554744683, 0.018701365544426213, 0.0036877369561997752, 0.01796458160367333, 0.0036877369561997752, 0.005806964454006785, 0.005321997609042743, 0.0036877369561997752, 0.0036877369561997752, 0.005034996918220406;
	(state1) 0.11864451365719045, 0.11454293750580169, 0.014496406687835101, 0.041738855226926996, 0.24436244859893455, 0.010657460387990906, 0.1718895116092701, 0.010657460387990906, 0.05782025199023041, 0.06987925348624528, 0.010657460387990906, 0.010657460387990906, 0.12399597968560172;
}

probability ( d6_drooling | variable57 ) {
	(state0) 0.05876010086113268, 0.03604017591714156, 0.11142138859524567, 0.022623893868136596, 0.23520645537333842, 0.022564363712263665, 0.122751101924932, 0.022564363712263665, 0.15901532538003527, 0.028461294255541485, 0.022564363712263665, 0.022564363712263665, 0.13546280897544166;
	(state1) 0.6997450983267806, 0.1010432452128988, 0.03449539534562354, 0.012465176202830226, 0.04545369910812374, 0.0031183507883898874, 0.020456248041491865, 0.0031183507883898874, 0.02168130509580247, 0.011658458923657928, 0.0031183507883898874, 0.0031183507883898874, 0.040527970589231334;
}

probability ( d6_swallowing | variable57 ) {
	(state0) 0.07815254851742869, 0.04269724214802293, 0.061472942629792006, 0.02262082098397197, 0.2820759671433232, 0.022564363712263665, 0.144001746370792, 0.022564363712263665, 0.09132530837303951, 0.07499239127790049, 0.022564363712263665, 0.022564363712263665, 0.11240357770667449;
	(state1) 0.7126568540552217, 0.10635995329931705, 0.04763487414410574, 0.009347250081002163, 0.05768652928097372, 0.003118350788389888, 0.011282749101109732, 0.003118350788389888, 0.02479923104548683, 0.011464654197020077, 0.003118350788389888, 0.003118350788389888, 0.0062945016422035855;
}

probability ( d6_constipation | variable57 ) {
	(state0) 0.07492917389263343, 0.05339234729480746, 0.03243632820228688, 0.02398714490689473, 0.08812071348802436, 0.022564363712263665, 0.18894281372311944, 0.022564363712263665, 0.10398507672571819, 0.14365254486691828, 0.022564363712263665, 0.022564363712263665, 0.20029640205054253;
	(state1) 0.4885810613392692, 0.08929015681242039, 0.06412108043480723, 0.01539512837268631, 0.1156742726337258, 0.0031183507883898874, 0.05496559439231251, 0.0031183507883898874, 0.05111483299613025, 0.030041112794068046, 0.0031183507883898874, 0.0031183507883898874, 0.07834335707102069;
}

probability ( d7_urinary_urgency | variable66 ) {
	(state0) 0.08138793396535232, 0.03209101240126173, 0.04398818719870564, 0.02910497631890269, 0.16338260352436362, 0.009554380573850382, 0.1181237287370225, 0.009554380573850382, 0.15145585031317713, 0.08515565259409341, 0.009554380573850382, 0.009554380573850382, 0.2570925326517192;
	(state1) 0.654852313867983, 0.09849282636187923, 0.0629802293745963, 0.022869509231097665, 0.06875622310576648, 0.0038411903281965914, 0.044698757224104144, 0.0038411903281965914, 0.019774524414610688, 0.00801758596972519, 0.0038411903281965914, 0.0038411903281965914, 0.004193269137450904;
}

probability ( d7_urinary_frequency | variable66 ) {
	(state0) 0.10971160665555027, 0.013994541563179122, 0.02285135017419343, 0.04310199437318185, 0.14645464039023895, 0.009554380573850383, 0.13780345104728942, 0.009554380573850383, 0.20063729161267688, 0.09292118113293714, 0.009554380573850383, 0.009554380573850383, 0.1943064207553515;
	(state1) 0.6780359340891935, 0.12113299273315614, 0.03306606315885491, 0.0249246061553731, 0.0909266091018351, 0.0038411903281965923, 0.0060573078738742755, 0.0038411903281965923, 0.01536665105095833, 0.004895575820958413, 0.0038411903281965923, 0.0038411903281965923, 0.01022949870301002;
}

probability ( d7_nocturia | variable66 ) {
	(state0) 0.09704559172437717, 0.013433522805056778, 0.017094770847813582, 0.02754646763321004, 0.1141480180240371, 0.009554380573850383, 0.07133103861641091, 0.009554380573850383, 0.2229339494203685, 0.07256883223092474, 0.009554380573850383, 0.009554380573850383, 0.3256802864023997;
	(state1) 0.44497430833823315, 0.15977044489408695, 0.04690397746073997, 0.0465432254133955, 0.1884211721159185, 0.0038411903281965905, 0.03278150896130144, 0.0038411903281965905, 0.021767387363901155, 0.009236731292599196, 0.0038411903281965905, 0.0038411903281965905, 0.034236482847037446;
}

probability ( d8_sex_drive | variable48 ) {
	(state0) 0.030354547010782777, 0.08320981896028945, 0.09462702022389129, 0.07982445598551763, 0.10551654803024169, 0.02018868531497061, 0.05525550222545798, 0.02018868531497061, 0.1626854432206353, 0.08345638586898899, 0.02018868531497061, 0.02018868531497061, 0.2243155372143125;
	(state1) 0.8035585741014076, 0.04716302820170819, 0.02001116610009894, 0.006485868764241716, 0.037320764452828385, 0.0031699006058057053, 0.016683332829722758, 0.0031699006058057053, 0.01566486106349505, 0.005915605938394283, 0.0031699006058057053, 0.0031699006058057053, 0.034517196124880356;
}

probability ( d8_sex_dysfunction | variable48 ) {
	(state0) 0.05612610184863241, 0.10244279129761148, 0.08743241769015395, 0.05879217301469883, 0.16701466807018148, 0.020188685314970607, 0.05512191505158266, 0.020188685314970607, 0.09752660892856582, 0.0392709738996479, 0.020188685314970607, 0.020188685314970607, 0.2555176089390429;
	(state1) 0.9167984087921034, 0.015614082194593535, 0.017970916810088104, 0.0034484245655080673, 0.011815212754500894, 0.003169900605805704, 0.007194606031569583, 0.003169900605805704, 0.0037063878588346017, 0.0033436200734630428, 0.003169900605805704, 0.003169900605805704, 0.007428738496115977;
}

probability ( d9_unexplained_pain | variable111 ) {
	(state0) 0.053863528272058425, 0.11390782270666137, 0.025228276043647836, 0.02503822934684035, 0.21694498611168017, 0.024502460065279834, 0.18394673405512474, 0.024502460065279834, 0.07358168589585135, 0.08713144228186978, 0.024502460065279834, 0.024502460065279834, 0.12234745502514668;
	(state1) 0.6132301304253772, 0.078199025808398, 0.03692421147947173, 0.021524976189663078, 0.05597370796660984, 0.00308463208065932, 0.0354508246830365, 0.00308463208065932, 0.0585986551352371, 0.0198772817231414, 0.00308463208065932, 0.00308463208065932, 0.06788265826642767;
}

probability ( d9_taste_smell | variable111 ) {
	(state0) 0.12899422516616027, 0.02510304263201531, 0.1405068065087875, 0.03672961921874061, 0.14543564110346577, 0.024502460065279834, 0.029361840733973202, 0.024502460065279834, 0.1329470794724052, 0.07335343673830744, 0.024502460065279834, 0.024502460065279834, 0.18955846816502545;
	(state1) 0.5667562887246963, 0.04310924136382647, 0.025496347576598816, 0.004629978421045702, 0.14517650423847264, 0.00308463208065932, 0.027149937846109883, 0.00308463208065932, 0.09430995275089171, 0.018527172535038376, 0.00308463208065932, 0.00308463208065932, 0.06250604822068268;
}

probability ( d9_weight_change | variable111 ) {
	(state0) 0.12053989191727725, 0.22243595430896426, 0.025712276707151753, 0.026921516436333635, 0.20408874553258774, 0.024502460065279834, 0.07261575710879475, 0.024502460065279834, 0.04034989679594246, 0.07858832237216583, 0.024502460065279834, 0.024502460065279834, 0.11073779855966298;
	(state1) 0.422842902944258, 0.3606610220700104, 0.018355487808617562, 0.02128788784188635, 0.0730153496171481, 0.0030846320806593207, 0.009366143304959688, 0.0030846320806593207, 0.04118980407639152, 0.00861425282677331, 0.0030846320806593207, 0.0030846320806593207, 0.03232862118731783;
}

probability ( d9_sweating | variable111 ) {
	(state0) 0.07654622945067519, 0.04200697238429604, 0.050250125142290464, 0.024878032488279436, 0.228383263214994, 0.024502460065279834, 0.1613485312737745, 0.024502460065279834, 0.058404491207127616, 0.14776850090034646, 0.024502460065279834, 0.024502460065279834, 0.112404013677097;
	(state1) 0.6967442873404318, 0.05948898613893281, 0.009097136499652114, 0.015375879324518834, 0.07612615971191014, 0.0030846320806593194, 0.029041832221286434, 0.0030846320806593194, 0.04508616253862282, 0.015328271475926294, 0.0030846320806593194, 0.0030846320806593194, 0.04137275642608127;
}

probability ( variable39 | variable57 ) {
	(state0) 0.3046038035550764, 0.6953961964449235;
	(state1) 0.9747066084119741, 0.025293391588025956;
}

probability ( variable48 | variable75 ) {
	(state0) 0.28349375872051574, 0.7165062412794843;
	(state1) 0.09395790501498595, 0.9060420949850141;
}

probability ( variable57 | variable75 ) {
	(state0) 0.6548379023438075, 0.34516209765619243;
	(state1) 0.03723749930878642, 0.9627625006912136;
}

probability ( variable66 | variable84 ) {
	(state0) 0.15605099062686603, 0.8439490093731339;
	(state1) 0.6406346653727726, 0.3593653346272275;
}

probability ( variable75 | variable84 ) {
	(state0) 0.004662179704833087, 0.9953378202951669;
	(state1) 0.3869714486490868, 0.6130285513509132;
}

probability ( variable84 | variable102 ) {
	(state0) 0.8856281358349989, 0.11437186416500106;
	(state1) 0.39858416057175705, 0.6014158394282428;
}

probability ( variable93 | variable102 ) {
	(state0) 0.9389619979487291, 0.06103800205127087;
	(state1) 0.2091004608464852, 0.7908995391535147;
}

probability ( variable102 | variable111 ) {
	(state0) 0.08981394984044165, 0.9101860501595584;
	(state1) 0.8007971100563027, 0.1992028899436974;
}

probability ( variable111 ) {
	table 0.08449333882980116, 0.9155066611701987;
}

