network Current LCM {
}

variable variable538 {
	type discrete[3] { state0, state1, state2 };
}

variable d1_lightheaded {
	type discrete[7] { s0, s1, s2, s3, s4, s5, s6 };
}

variable d1_fainting {
	type discrete[7] { s0, s1, s2, s3, s4, s5, s6 };
}

variable d2_drowsiness {
	type discrete[7] { s0, s1, s2, s3, s4, s5, s6 };
}

variable d2_fatigue {
	type discrete[7] { s0, s1, s2, s3, s4, s5, s6 };
}

variable d2_insomnia {
	type discrete[7] { s0, s1, s2, s3, s4, s5, s6 };
}

variable d2_rls {
	type discrete[7] { s0, s1, s2, s3, s4, s5, s6 };
}

variable d3_loss_interest {
	type discrete[7] { s0, s1, s2, s3, s4, s5, s6 };
}

variable d3_loss_activities {
	type discrete[7] { s0, s1, s2, s3, s4, s5, s6 };
}

variable d3_anxiety {
	type discrete[7] { s0, s1, s2, s3, s4, s5, s6 };
}

variable d3_depression {
	type discrete[7] { s0, s1, s2, s3, s4, s5, s6 };
}

variable d3_flat_affect {
	type discrete[7] { s0, s1, s2, s3, s4, s5, s6 };
}

variable d3_loss_pleasure {
	type discrete[7] { s0, s1, s2, s3, s4, s5, s6 };
}

variable d4_hallucination {
	type discrete[7] { s0, s1, s2, s3, s4, s5, s6 };
}

variable d4_delusion {
	type discrete[7] { s0, s1, s2, s3, s4, s5, s6 };
}

variable d4_diplopia {
	type discrete[7] { s0, s1, s2, s3, s4, s5, s6 };
}

variable d5_loss_concentration {
	type discrete[7] { s0, s1, s2, s3, s4, s5, s6 };
}

variable d5_forget_explicit {
	type discrete[7] { s0, s1, s2, s3, s4, s5, s6 };
}

variable d5_forget_implicit {
	type discrete[7] { s0, s1, s2, s3, s4, s5, s6 };
}

variable d6_drooling {
	type discrete[7] { s0, s1, s2, s3, s4, s5, s6 };
}

variable d6_swallowing {
	type discrete[7] { s0, s1, s2, s3, s4, s5, s6 };
}

variable d6_constipation {
	type discrete[7] { s0, s1, s2, s3, s4, s5, s6 };
}

variable d7_urinary_urgency {
	type discrete[7] { s0, s1, s2, s3, s4, s5, s6 };
}

variable d7_urinary_frequency {
	type discrete[7] { s0, s1, s2, s3, s4, s5, s6 };
}

variable d7_nocturia {
	type discrete[7] { s0, s1, s2, s3, s4, s5, s6 };
}

variable d8_sex_drive {
	type discrete[7] { s0, s1, s2, s3, s4, s5, s6 };
}

variable d8_sex_dysfunction {
	type discrete[7] { s0, s1, s2, s3, s4, s5, s6 };
}

variable d9_unexplained_pain {
	type discrete[7] { s0, s1, s2, s3, s4, s5, s6 };
}

variable d9_taste_smell {
	type discrete[7] { s0, s1, s2, s3, s4, s5, s6 };
}

variable d9_weight_change {
	type discrete[7] { s0, s1, s2, s3, s4, s5, s6 };
}

variable d9_sweating {
	type discrete[7] { s0, s1, s2, s3, s4, s5, s6 };
}

probability ( variable538 ) {
	table 0.6117452994645499, 0.26822203792562427, 0.1200326626098259;
}

probability ( d1_lightheaded | variable538 ) {
	(state0) 0.6961762453258172, 0.2151350772200818, 0.06331061194042703, 0.012736452517242607, 0.005437806954272154, 0.0035690909681793553, 0.0036347150739799235;
	(state1) 0.49937480601681117, 0.1687518985605624, 0.14199880829738096, 0.06432319509541702, 0.05698494716885622, 0.020319693572770293, 0.04824665128820193;
	(state2) 0.24540520371076027, 0.2149701181682224, 0.2510991313695664, 0.12275531987567916, 0.06906472693427944, 0.0437295963452051, 0.052975903596287205;
}

probability ( d1_fainting | variable538 ) {
	(state0) 0.9317694317455127, 0.04348526318884529, 0.012206731868833554, 0.005380189183332559, 0.0017967167222593266, 0.003564950584613013, 0.0017967167066037196;
	(state1) 0.8985119797622215, 0.03966351011365685, 0.03472241908555004, 0.008066108974124627, 0.006846529738087865, 0.004106117207426296, 0.008083335118932765;
	(state2) 0.6148647440501046, 0.14017988600178988, 0.11940578100005558, 0.07024495612760724, 0.011454674948030055, 0.017539336853641643, 0.026310621018770877;
}

probability ( d2_drowsiness | variable538 ) {
	(state0) 0.629885895222127, 0.1889297778801797, 0.13200551311088676, 0.02738720828075883, 0.007386510213209059, 0.005379901170539854, 0.009025194122298677;
	(state1) 0.4626334687603056, 0.09551968113253104, 0.19748169402600563, 0.08778903116921126, 0.0677701983578884, 0.016089653586934156, 0.07271627296712391;
	(state2) 0.21019561551127264, 0.1685149223532605, 0.2514496485904074, 0.20203639938408174, 0.04492305192955312, 0.061608031453782776, 0.061272330777641756;
}

probability ( d2_fatigue | variable538 ) {
	(state0) 0.4846051384248352, 0.27127379006337515, 0.15850473032948395, 0.05235934661414597, 0.016997144669962907, 0.005793034977680436, 0.010466814920516486;
	(state1) 0.2641000256772992, 0.06179582869502529, 0.12204858346608805, 0.11181591795400156, 0.1834257551439426, 0.0645007562213634, 0.19231313284227994;
	(state2) 0.06967188200366188, 0.1291654662453384, 0.26822996474527894, 0.21218281761507832, 0.06279419993753203, 0.13872115595186396, 0.11923451350124632;
}

probability ( d2_insomnia | variable538 ) {
	(state0) 0.6420169816254051, 0.17442869702963232, 0.08714840855284307, 0.033473065148597235, 0.0359058618694933, 0.0079535415174873, 0.019073444256541824;
	(state1) 0.43506074422808905, 0.07535954685674481, 0.11947944940232463, 0.06219641346243941, 0.10127730052652492, 0.029214811731518277, 0.17741173379235903;
	(state2) 0.2371156859456827, 0.17779754277970625, 0.1748369092828613, 0.18400946308306856, 0.06980532855780501, 0.09072705838906839, 0.06570801196180759;
}

probability ( d2_rls | variable538 ) {
	(state0) 0.7266294202303457, 0.16451808769413231, 0.06529400364521462, 0.01725837761018339, 0.011391015309752117, 0.003668059543953672, 0.01124103596641797;
	(state1) 0.6731907936202349, 0.03699412823577814, 0.10567280196621161, 0.02066130442818287, 0.07541753588975576, 0.04011861966932583, 0.04794481619051083;
	(state2) 0.4124551672840279, 0.11647610676084519, 0.23253505952386755, 0.10771685721096802, 0.017555192237316077, 0.08798718353687653, 0.025274433446098726;
}

probability ( d3_loss_interest | variable538 ) {
	(state0) 0.7715572373213281, 0.1756525795002944, 0.03522726187861946, 0.01037016698122823, 0.0017982724482248995, 0.003597741369472939, 0.001796740500832184;
	(state1) 0.6056584861623666, 0.04464678238811214, 0.14333003862228222, 0.07938422742478332, 0.052601435033034896, 0.009045252290682898, 0.06533377807873797;
	(state2) 0.07659415868731774, 0.22091936736403237, 0.3677447159193764, 0.15424639653222572, 0.0349519329661421, 0.0680509469445896, 0.07749248158631597;
}

probability ( d3_loss_activities | variable538 ) {
	(state0) 0.6844381087690432, 0.24002165071035542, 0.04687392693494105, 0.01280648180351021, 0.008600084625752553, 0.005419294874656584, 0.001840452281740781;
	(state1) 0.513322497456338, 0.0698588445135284, 0.1262168628980657, 0.06219495325481103, 0.08654727369723927, 0.0281936197226317, 0.11366594845738592;
	(state2) 0.026886526506356066, 0.14143632373901788, 0.3480270240868517, 0.2234973284492493, 0.042108993630633834, 0.11408182850131496, 0.10396197508657617;
}

probability ( d3_anxiety | variable538 ) {
	(state0) 0.6228480810810201, 0.24515278546459518, 0.09694013164357608, 0.02085559994140334, 0.007036625009523434, 0.0018075021393593653, 0.005359274720522679;
	(state1) 0.4794024557486715, 0.07796189077751034, 0.09835663307211233, 0.09394346429252459, 0.08542076452557816, 0.03238467331865935, 0.13253011826494385;
	(state2) 0.164316192004942, 0.1601987494656696, 0.28687814435101383, 0.22056404763429183, 0.01710556480124427, 0.0787694631691572, 0.07216783857368128;
}

probability ( d3_depression | variable538 ) {
	(state0) 0.63842435052118, 0.23024038158763957, 0.08743840981019012, 0.02799972626680811, 0.010482569686133088, 0.00359888304212211, 0.0018156790859272776;
	(state1) 0.42606330819396604, 0.08623023590113063, 0.12137094185705263, 0.11683524258045665, 0.06512415928696456, 0.02824093736787763, 0.1561351748125518;
	(state2) 0.09877870561997835, 0.11857984010603166, 0.3096323159905405, 0.26757267991443756, 0.00924324736743567, 0.12286449041968886, 0.07332872058188736;
}

probability ( d3_flat_affect | variable538 ) {
	(state0) 0.8070454800071432, 0.13732468601019612, 0.04483989770998337, 0.0034268678663091955, 0.003765947974806307, 0.0017996786271624054, 0.0017974418043995091;
	(state1) 0.6462052977680782, 0.07292162879125132, 0.07011982936308303, 0.06669034788380443, 0.07624458245071854, 0.007097222583555188, 0.06072109115950937;
	(state2) 0.27142994406380266, 0.19756567768618774, 0.30427057042759226, 0.11044103462019074, 0.017899650890025307, 0.06351432195134518, 0.03487880036085601;
}

probability ( d3_loss_pleasure | variable538 ) {
	(state0) 0.817984865230331, 0.14405464902282664, 0.02095842244693023, 0.0055570703188911035, 0.007442423290048932, 0.0018215722503584027, 0.0021809974406136533;
	(state1) 0.6117613691541661, 0.03702183358533769, 0.1073570095703099, 0.06220795033504068, 0.07643964702255379, 0.017002588525773667, 0.08820960180681812;
	(state2) 0.10860245904449738, 0.21629683609775707, 0.36635332350888394, 0.07469004286970601, 0.025840781782217714, 0.12084365076897029, 0.08737290592796776;
}

probability ( d4_hallucination | variable538 ) {
	(state0) 0.9137075261922387, 0.05247745195850116, 0.014696617820797387, 0.004045764407564691, 0.008004766206472901, 0.003592891862608722, 0.003474981551816755;
	(state1) 0.8141087554627655, 0.04977084951855041, 0.07393133650340669, 0.015311179639252045, 0.02234577028758946, 0.00405830661121905, 0.02047380197721678;
	(state2) 0.37750553228624634, 0.23221454391068355, 0.21511726368299663, 0.07857853127494194, 0.017683521219011164, 0.05258536150109758, 0.026315246125022743;
}

probability ( d4_delusion | variable538 ) {
	(state0) 0.9595258747115998, 0.02152242165494909, 0.008992617555452226, 0.0017977526036059722, 0.0035794801507383085, 0.0018274611962983782, 0.002754392127356216;
	(state1) 0.9197896636873693, 0.009925566821079236, 0.01258662186793774, 0.011292258487037788, 0.012157504310038375, 0.012140118601362692, 0.02210826622517489;
	(state2) 0.5121498243051458, 0.16281473222574666, 0.1129624831596096, 0.09827045421731488, 0.01753934943349933, 0.06997691334757179, 0.02628624331111206;
}

probability ( d4_diplopia | variable538 ) {
	(state0) 0.9116718081726358, 0.05020008982789142, 0.026674524079068913, 0.0018066181805986832, 0.006053480247610783, 0.001796716706602912, 0.0017967627855913775;
	(state1) 0.8045666317048665, 0.06182818032735687, 0.046110976834668055, 0.016121326917753667, 0.030818659719921215, 0.004042039924613606, 0.03651218457082016;
	(state2) 0.49584116688342356, 0.1470131067395229, 0.21701326481173078, 0.07898029641400488, 0.01759439759967869, 0.01753933684760464, 0.02601843070403471;
}

probability ( d5_loss_concentration | variable538 ) {
	(state0) 0.6195160560978438, 0.2645211127123668, 0.0744172523477307, 0.021813482203601242, 0.009735832994773024, 0.004235339041468385, 0.0057609246022161335;
	(state1) 0.42660784608434393, 0.09075928260209838, 0.17491291882709825, 0.0806207171536247, 0.11951880259158874, 0.022841036774355283, 0.08473939596689077;
	(state2) 0.1372695293395472, 0.12559436198616505, 0.3710280580668586, 0.20094556409365388, 0.008878307117939731, 0.096395015084448, 0.05988916431138758;
}

probability ( d5_forget_explicit | variable538 ) {
	(state0) 0.6237567547184707, 0.2602081900474123, 0.07643601138313709, 0.01986108103556083, 0.009902743680416578, 0.0063743181471507225, 0.00346090098785191;
	(state1) 0.4365259991974264, 0.1765560867497398, 0.15563662751575952, 0.06152999588863528, 0.0905793208344655, 0.009696634278250646, 0.06947533553572281;
	(state2) 0.08628269159576825, 0.19728053969971887, 0.27145170880736225, 0.24312495685505356, 0.02700280346743388, 0.09693373362939073, 0.07792356594527235;
}

probability ( d5_forget_implicit | variable538 ) {
	(state0) 0.6940209325897965, 0.21836599217811478, 0.04941300469784774, 0.019374089590509926, 0.00957529946504927, 0.005140875834512655, 0.004109805644169304;
	(state1) 0.5217721336091196, 0.14408564780628405, 0.15302005753732395, 0.06563927356202441, 0.04278006044001303, 0.012712399195349474, 0.05999042784988552;
	(state2) 0.12840457500878233, 0.18255912067560562, 0.3125600085465476, 0.17519870573479998, 0.009531650487604895, 0.09641104557629365, 0.09533489397036575;
}

probability ( d6_drooling | variable538 ) {
	(state0) 0.6996804634685116, 0.18344826041423917, 0.07251712166818752, 0.018521329219452126, 0.010640481539010349, 0.0054085370261434075, 0.009783806664455899;
	(state1) 0.5138057825149223, 0.0734195235565412, 0.12737963077930337, 0.03951624401463591, 0.12565515015960957, 0.009003655336482133, 0.11122001363850555;
	(state2) 0.22330067048549904, 0.17306136151157928, 0.2641896846582302, 0.11326252477508662, 0.0525369412288248, 0.05053314086594978, 0.1231156764748302;
}

probability ( d6_swallowing | variable538 ) {
	(state0) 0.8133694560773028, 0.13164716794722794, 0.03373548546815572, 0.005296867605626131, 0.008890431131547314, 0.0036838528599257734, 0.0033767389102142917;
	(state1) 0.5725955716817754, 0.1344681894340043, 0.13286501768272774, 0.04479435495467963, 0.07701081270154053, 0.023758227310506287, 0.01450782623476611;
	(state2) 0.3739587144589569, 0.2495990295477557, 0.16971967032889776, 0.07866219257510741, 0.03507326832388549, 0.035709157580628974, 0.057277967184767735;
}

probability ( d6_constipation | variable538 ) {
	(state0) 0.5725552012952694, 0.18361377866450634, 0.11228980318706287, 0.049615597381571425, 0.03315665452876908, 0.024463063041910347, 0.024305901900910486;
	(state1) 0.52944335396617, 0.08025726516572677, 0.08412859626518687, 0.037496505782713206, 0.0754273024029281, 0.03056606933602034, 0.1626809070812546;
	(state2) 0.20475696458125298, 0.11356987092151645, 0.155129972057121, 0.16757766054963438, 0.08669056828510466, 0.0773706954228973, 0.1949042681824733;
}

probability ( d7_urinary_urgency | variable538 ) {
	(state0) 0.6022792935565761, 0.1916755848347058, 0.13779551297515358, 0.0409681164128819, 0.014765093811485852, 0.005727978768617969, 0.0067884196405789705;
	(state1) 0.3828023767251724, 0.10968889596975427, 0.11847248690201667, 0.05966035980354775, 0.15270514630646853, 0.05178215243943981, 0.1248885818536005;
	(state2) 0.20243644491665835, 0.11560139756624058, 0.26306349642174687, 0.19677716028605938, 0.03510456633132754, 0.05262746902595114, 0.13438946545201622;
}

probability ( d7_urinary_frequency | variable538 ) {
	(state0) 0.649077813188124, 0.15694712039452566, 0.1272712588417812, 0.028603493340532894, 0.02183144701219208, 0.012326387726926699, 0.0039424794959174595;
	(state1) 0.4168539590959937, 0.07368426626329048, 0.11335050623239729, 0.0561453377660762, 0.16510393353377445, 0.01678984579994161, 0.15807215130852628;
	(state2) 0.1983055459622627, 0.1439834437638139, 0.2641568056358922, 0.19459705269330763, 0.026331534340261708, 0.07880150311356023, 0.0938241144909015;
}

probability ( d7_nocturia | variable538 ) {
	(state0) 0.4282237658030972, 0.22740271750188423, 0.23187605331597794, 0.04316423675705438, 0.04038498632532157, 0.015353172783739471, 0.013595067512925182;
	(state1) 0.2758018848280005, 0.06129207852233502, 0.20739567204601697, 0.02851400977087089, 0.17355459702886414, 0.013946983775843348, 0.23949477402806893;
	(state2) 0.10900547559661498, 0.15145782598496807, 0.2949670241707726, 0.15716724650419353, 0.04898314596772235, 0.07896552665124272, 0.15945375512448587;
}

probability ( d8_sex_drive | variable538 ) {
	(state0) 0.7410523284230736, 0.11586245911723392, 0.09202734534412753, 0.031159055256890354, 0.006373680024766387, 0.007287113217349525, 0.006238018616558818;
	(state1) 0.5836688441294086, 0.04329489933593711, 0.07987023081912041, 0.03921769394968997, 0.06692295199469156, 0.020257778720786258, 0.1667676010503662;
	(state2) 0.39597122791048095, 0.09474040381038513, 0.18434183115365546, 0.07853527201516283, 0.05170481445622353, 0.052025485388686656, 0.14268096526540527;
}

probability ( d8_sex_dysfunction | variable538 ) {
	(state0) 0.7607375996772666, 0.1035090649152784, 0.06508928418324714, 0.026477812961427045, 0.01376965901390357, 0.011798917465418413, 0.018617661783458663;
	(state1) 0.6646899202201941, 0.02578383183743876, 0.06087783228672523, 0.03356325893510349, 0.04985725266192877, 0.034112926510378457, 0.13111497754823126;
	(state2) 0.4924301498720573, 0.04394449614359269, 0.155328730763834, 0.07857341052637817, 0.026322460206280228, 0.05256131539971469, 0.15083943708814276;
}

probability ( d9_unexplained_pain | variable538 ) {
	(state0) 0.7173514021500996, 0.1488814605114245, 0.05333760674575276, 0.029990289819527366, 0.020270974718834097, 0.008739084255378247, 0.021429181798983635;
	(state1) 0.6002237814139156, 0.07630945198565714, 0.07747297107328203, 0.02434450316436758, 0.07086239479314126, 0.021716128101274, 0.12907076946836243;
	(state2) 0.3441911943990663, 0.1951951505912537, 0.21176159612443962, 0.1252787064526414, 0.045483212661193644, 0.04177444425172979, 0.036315695519675645;
}

probability ( d9_taste_smell | variable538 ) {
	(state0) 0.6779134165264531, 0.0677841308425517, 0.1451218116334075, 0.016005795350960125, 0.049424868767176236, 0.011231009648664797, 0.03251896723078666;
	(state1) 0.48488899623671855, 0.025519788334658552, 0.20370309758915978, 0.01260606580455338, 0.15287566857795645, 0.021580626582890335, 0.09882575687406293;
	(state2) 0.40105229282645566, 0.09611331012585492, 0.2002407256417696, 0.061150052520827385, 0.04972531548275654, 0.06498416301015558, 0.1267341403921804;
}

probability ( d9_weight_change | variable538 ) {
	(state0) 0.5265737468525001, 0.37348057841652565, 0.05632017248482794, 0.005420559137718964, 0.027918845339433652, 0.0018038983793781003, 0.008482199389615587;
	(state1) 0.2849553670298116, 0.40354589937449187, 0.15095891110530302, 0.012130272349172634, 0.058451753695760715, 0.008081478669452769, 0.08187631777600739;
	(state2) 0.4246846472783912, 0.23936317628854537, 0.15177339569020215, 0.061230244883235904, 0.035080713608439, 0.04381893238475677, 0.04404888986642964;
}

probability ( d9_sweating | variable538 ) {
	(state0) 0.7626747007090583, 0.10248023874862097, 0.06161775038819116, 0.028674475161924482, 0.016522104302558113, 0.010233336372920891, 0.017797394316726098;
	(state1) 0.6184316005553295, 0.0494227208267268, 0.10246934942923518, 0.020102123425106554, 0.08795054295631317, 0.02427938946420975, 0.09734427334307914;
	(state2) 0.4956413113110159, 0.08537554381645966, 0.21358055008419835, 0.07951776982811747, 0.009167197130154778, 0.08153780929826633, 0.03517981853178751;
}

