network Current LCM {
}

variable variable212 {
	type discrete[4] { state0, state1, state2, state3 };
}

variable scm1rue {
	type discrete[4] { s0, s1, s2, s3 };
}

variable scm1lue {
	type discrete[4] { s0, s1, s2, s3 };
}

variable scm2rue {
	type discrete[4] { s0, s1, s2, s3 };
}

variable scm2lue {
	type discrete[4] { s0, s1, s2, s3 };
}

variable scm3rue {
	type discrete[4] { s0, s1, s2, s3 };
}

variable scm3lue {
	type discrete[4] { s0, s1, s2, s3 };
}

variable scm4rue {
	type discrete[4] { s0, s1, s2, s3 };
}

variable scm4lue {
	type discrete[4] { s0, s1, s2, s3 };
}

variable scm5rise {
	type discrete[4] { s0, s1, s2, s3 };
}

variable scm6post {
	type discrete[4] { s0, s1, s2, s3 };
}

variable scm7gait {
	type discrete[4] { s0, s1, s2, s3 };
}

variable scm8spee {
	type discrete[4] { s0, s1, s2, s3 };
}

variable scm9free {
	type discrete[4] { s0, s1, s2, s3 };
}

variable scm10swa {
	type discrete[4] { s0, s1, s2, s3 };
}

variable scm11spe {
	type discrete[4] { s0, s1, s2, s3 };
}

variable scm12fee {
	type discrete[4] { s0, s1, s2, s3 };
}

variable scm13dre {
	type discrete[4] { s0, s1, s2, s3 };
}

variable scm14hyg {
	type discrete[4] { s0, s1, s2, s3 };
}

variable scm15cha {
	type discrete[4] { s0, s1, s2, s3 };
}

variable scm16wal {
	type discrete[4] { s0, s1, s2, s3 };
}

variable scm17han {
	type discrete[4] { s0, s1, s2, s3 };
}

variable scm18dpr {
	type discrete[4] { s0, s1, s2, s3 };
}

variable scm19dsv {
	type discrete[4] { s0, s1, s2, s3 };
}

variable scm20fpr {
	type discrete[4] { s0, s1, s2, s3 };
}

variable scm21fsv {
	type discrete[4] { s0, s1, s2, s3 };
}

probability ( variable212 ) {
	table 0.2239796008565606, 0.2670018315593599, 0.4038885072014969, 0.10513006038258262;
}

probability ( scm1rue | variable212 ) {
	(state0) 0.24536228489638856, 0.3576892105564745, 0.2942570765452455, 0.10269142800189145;
	(state1) 0.5602063361053796, 0.27394266030766284, 0.14463248227985803, 0.021218521307099454;
	(state2) 0.5483755206443919, 0.32286101169740933, 0.10509133668483508, 0.023672130973363716;
	(state3) 0.5882089322018662, 0.18878975183138513, 0.1090630511310751, 0.11393826483567367;
}

probability ( scm1lue | variable212 ) {
	(state0) 0.27339327164165556, 0.43214096215272285, 0.25438215105450257, 0.040083615151119106;
	(state1) 0.5874790227872826, 0.24906639456505625, 0.1251047135065188, 0.038349869141142405;
	(state2) 0.5834224876820446, 0.32427602794811256, 0.08394909501942815, 0.008352389350414678;
	(state3) 0.5584577250149242, 0.15475344501750046, 0.1411196226396182, 0.14566920732795713;
}

probability ( scm2rue | variable212 ) {
	(state0) 0.22737010052266718, 0.48408838090263706, 0.2529325425032178, 0.03560897607147788;
	(state1) 0.5420068333573993, 0.3715163009786069, 0.07204588275444072, 0.014430982909552961;
	(state2) 0.5679568415681254, 0.36032447679033, 0.05371396961225252, 0.01800471202929198;
	(state3) 0.5817801135480646, 0.20747323726536962, 0.129222294408815, 0.08152435477775075;
}

probability ( scm2lue | variable212 ) {
	(state0) 0.2909685571615833, 0.529207642410647, 0.15053269510962608, 0.029291105318143485;
	(state1) 0.5808800568030961, 0.3112082900858603, 0.08861280828124553, 0.019298844829798236;
	(state2) 0.5828197594338831, 0.35412344222653647, 0.05772057259009128, 0.005336225749489111;
	(state3) 0.5565825234096391, 0.18881722937599704, 0.14113900658726589, 0.11346124062709799;
}

probability ( scm3rue | variable212 ) {
	(state0) 0.051774776724742344, 0.39314054700300105, 0.47792689944593436, 0.07715777682632212;
	(state1) 0.3185423627843791, 0.5664457700161878, 0.10845799853440428, 0.006553868665029002;
	(state2) 0.24992737538285176, 0.5729793224958727, 0.16835122328786034, 0.008742078833415132;
	(state3) 0.0498252035887946, 0.2232361266717826, 0.5329644375338792, 0.19397423220554363;
}

probability ( scm3lue | variable212 ) {
	(state0) 0.04600702459064318, 0.3850450635303898, 0.4952821992492741, 0.0736657126296929;
	(state1) 0.35232750073159447, 0.44177376375171046, 0.1931099874712281, 0.012788748045466945;
	(state2) 0.18743140366886796, 0.5719773645682601, 0.2209459311024364, 0.019645300660435495;
	(state3) 0.06505479256154519, 0.1162091004348165, 0.44777030426428066, 0.37096580273935764;
}

probability ( scm4rue | variable212 ) {
	(state0) 0.08805994591781575, 0.36012106708468433, 0.520867272628625, 0.030951714368874946;
	(state1) 0.2864778708244684, 0.5771364937924406, 0.1297597958252249, 0.006625839557866166;
	(state2) 0.21079885311958318, 0.5749842108629204, 0.20024511944487175, 0.01397181657262465;
	(state3) 0.06964237626455708, 0.22578226597954448, 0.5147713633921047, 0.18980399436379372;
}

probability ( scm4lue | variable212 ) {
	(state0) 0.07697255169402614, 0.43509997314029264, 0.472448535294405, 0.01547893987127615;
	(state1) 0.3547784385846623, 0.4850394667805827, 0.140857358863011, 0.01932473577174406;
	(state2) 0.2679976880756716, 0.507005889091272, 0.2150791993601608, 0.009917223472895642;
	(state3) 0.08285476530958603, 0.1463227761025128, 0.5007559595212896, 0.2700664990666116;
}

probability ( scm5rise | variable212 ) {
	(state0) 0.18735300287820222, 0.6478610426450306, 0.14981635553855988, 0.014969598938207353;
	(state1) 0.9138587038460868, 0.07286793620052542, 0.006739762169371493, 0.0065335977840163045;
	(state2) 0.6019269858523051, 0.34177842372716205, 0.05161844123130133, 0.004676149189231542;
	(state3) 0.10549635611229542, 0.14092535036678888, 0.3992898264424068, 0.3542884670785089;
}

probability ( scm6post | variable212 ) {
	(state0) 0.17845072877337018, 0.5894438083295686, 0.22285375344274588, 0.009251709454315476;
	(state1) 0.9200723804937315, 0.05991094883174881, 0.013483072446154933, 0.006533598228364761;
	(state2) 0.6569063894246848, 0.26415248432068344, 0.07106925408707013, 0.007871872167561548;
	(state3) 0.06606215685983083, 0.1629051024462106, 0.4972503728155388, 0.27378236787841986;
}

probability ( scm7gait | variable212 ) {
	(state0) 0.028304886489601305, 0.6448401980996458, 0.3190754174623233, 0.007779497948429767;
	(state1) 0.6915156915901352, 0.28923520039933825, 0.012715510228181527, 0.006533597782345088;
	(state2) 0.23328436198914976, 0.6776786396628093, 0.0846888880112206, 0.004348110336820255;
	(state3) 0.029963491709486853, 0.12515764860948533, 0.6355239001859655, 0.20935495949506225;
}

probability ( scm8spee | variable212 ) {
	(state0) 0.05625277833811841, 0.7567072245352408, 0.17924506842510432, 0.0077949287015363555;
	(state1) 0.6686393896254583, 0.30379543788757174, 0.014055071436637935, 0.013510101050332153;
	(state2) 0.19318580474687777, 0.7226214358592472, 0.067115028911246, 0.017077730482629047;
	(state3) 0.03192193067307371, 0.17377415751610525, 0.7137666883222414, 0.08053722348857954;
}

probability ( scm9free | variable212 ) {
	(state0) 0.2622279074996722, 0.4445097160582765, 0.25749282745429874, 0.035769548987752545;
	(state1) 0.9490914592149696, 0.031000717990832063, 0.013374193024151028, 0.006533629770047251;
	(state2) 0.6357147344479627, 0.2748897460847265, 0.07902245426721202, 0.010373065200098773;
	(state3) 0.12461821871755559, 0.12479564759743078, 0.44447241729083403, 0.3061137163941795;
}

probability ( scm10swa | variable212 ) {
	(state0) 0.4166431587448098, 0.49081492486684625, 0.08478252102374423, 0.007759395364599822;
	(state1) 0.8830273681070571, 0.09095555507669408, 0.01948347903552932, 0.006533597780719491;
	(state2) 0.7411630894302891, 0.20470745641179444, 0.04978135094638232, 0.004348103211534214;
	(state3) 0.3172529945358383, 0.3985715260904203, 0.23585320971438367, 0.04832226965935776;
}

probability ( scm11spe | variable212 ) {
	(state0) 0.12167899165639515, 0.6795111575259094, 0.19103979465250595, 0.007770056165189511;
	(state1) 0.7505666443413229, 0.22837544854126218, 0.007547797645542212, 0.013510109471872712;
	(state2) 0.2802889737170291, 0.6083772542190888, 0.09424215757355296, 0.01709161449032914;
	(state3) 0.06407667300919014, 0.2344453838479626, 0.6370479858600072, 0.06442995728284015;
}

probability ( scm12fee | variable212 ) {
	(state0) 0.040777684070312105, 0.7463308758071067, 0.20501475875981315, 0.00787668136276798;
	(state1) 0.7910363139955191, 0.18227798700691797, 0.02014070686277839, 0.006544992134784511;
	(state2) 0.26812509946632873, 0.6689857670336921, 0.058535242561110576, 0.004353890938868593;
	(state3) 0.016232835563309227, 0.14593312356014448, 0.628730326566886, 0.20910371430966032;
}

probability ( scm13dre | variable212 ) {
	(state0) 0.015324885548305182, 0.6194415716178384, 0.3574590348527254, 0.007774507981131001;
	(state1) 0.7087666108736014, 0.2650781057498137, 0.019621685595864767, 0.006533597780720288;
	(state2) 0.09799335449107521, 0.8065708781489921, 0.0910876361515797, 0.004348131208353056;
	(state3) 0.01623070475499604, 0.09821515109103135, 0.6278665694554576, 0.2576875746985151;
}

probability ( scm14hyg | variable212 ) {
	(state0) 0.026918818735433864, 0.7018982747153576, 0.2634083782372078, 0.007774528312000778;
	(state1) 0.7360480476269068, 0.2508663281218054, 0.006552026470567642, 0.006533597780720288;
	(state2) 0.16465378518691764, 0.7879477768988209, 0.04305030670584748, 0.004348131208413923;
	(state3) 0.016219929927410344, 0.14382322111089177, 0.5983767611296212, 0.24158008783207663;
}

probability ( scm15cha | variable212 ) {
	(state0) 0.0441373707773693, 0.6085295250847816, 0.3252828449514303, 0.02205025918641864;
	(state1) 0.8461265899147654, 0.14078225919406612, 0.006557553110448786, 0.006533597780719679;
	(state2) 0.18185811722222703, 0.7423551295844655, 0.07143862472845444, 0.004348128464852932;
	(state3) 0.03194263174064265, 0.06920712561606762, 0.6063675065818546, 0.29248273606143516;
}

probability ( scm16wal | variable212 ) {
	(state0) 0.0157354083155011, 0.718120415333974, 0.258383658134942, 0.007760518215582934;
	(state1) 0.7275289237575768, 0.2594017910716066, 0.006535687388475497, 0.006533597782341087;
	(state2) 0.12978149738668568, 0.8044680213743616, 0.061402372390697804, 0.004348108848254993;
	(state3) 0.04465422397928601, 0.07622892755444144, 0.621400149981378, 0.25771669848489454;
}

probability ( scm17han | variable212 ) {
	(state0) 0.014281635030036452, 0.568061689689667, 0.3634625055566552, 0.054194169723641356;
	(state1) 0.39944070500777323, 0.5470506498890244, 0.03948810563855183, 0.014020539464650494;
	(state2) 0.09575837568543562, 0.6561545165011121, 0.23098374929561383, 0.017103358517838507;
	(state3) 0.01610745819568599, 0.1796850502766912, 0.46697869051213214, 0.33722880101549063;
}

probability ( scm18dpr | variable212 ) {
	(state0) 0.32152500532844475, 0.4827881687607831, 0.12283988516297795, 0.07284694074779426;
	(state1) 0.9148538283423865, 0.06039850775717475, 0.013089236239706791, 0.011658427660731871;
	(state2) 0.7152358747157725, 0.17938651416345577, 0.0713823152524896, 0.03399529586828221;
	(state3) 0.4517530182457563, 0.18168181724563778, 0.22145419518465995, 0.145110969323946;
}

probability ( scm19dsv | variable212 ) {
	(state0) 0.333695060590894, 0.42615972406782204, 0.15403442702178755, 0.0861107883194964;
	(state1) 0.9264486721308633, 0.04921732940436338, 0.013132732843965843, 0.011201265620807518;
	(state2) 0.7093757950648576, 0.18716135574455695, 0.08962477427082503, 0.013838074919760497;
	(state3) 0.45182789691744774, 0.13692428242193716, 0.2661942331580106, 0.14505358750260458;
}

probability ( scm20fpr | variable212 ) {
	(state0) 0.08752897566100332, 0.5276349893284057, 0.33916741918173454, 0.045668615828856444;
	(state1) 0.9045781944282726, 0.07579904057948166, 0.013089166909928271, 0.006533598082317587;
	(state2) 0.4661518765621032, 0.43516979221193786, 0.09382123619416453, 0.0048570950317943186;
	(state3) 0.16206068047130026, 0.21448887566925362, 0.3657743957583055, 0.2576760481011407;
}

probability ( scm21fsv | variable212 ) {
	(state0) 0.07296456040270347, 0.44956691114414826, 0.42918075096166686, 0.04828777749148139;
	(state1) 0.9176063902651891, 0.06882545173813968, 0.007023156289100866, 0.006545001707570388;
	(state2) 0.4873836592045088, 0.3436953599471804, 0.1556115544649785, 0.01330942638333225;
	(state3) 0.16206038594089447, 0.13662975358418394, 0.3193359828248221, 0.3819738776500993;
}

