network Current LCM {
}

variable variable179 {
	type discrete[2] { state0, state1 };
}

variable d1_lightheaded {
	type discrete[7] { 0, 1, 2, 3, 4, 5, 6 };
}

variable d1_fainting {
	type discrete[7] { 0, 1, 2, 3, 4, 5, 6 };
}

variable d2_drowsiness {
	type discrete[7] { 0, 1, 2, 3, 4, 5, 6 };
}

variable d2_fatigue {
	type discrete[7] { 0, 1, 2, 3, 4, 5, 6 };
}

variable d2_insomnia {
	type discrete[7] { 0, 1, 2, 3, 4, 5, 6 };
}

variable d2_rls {
	type discrete[7] { 0, 1, 2, 3, 4, 5, 6 };
}

variable d3_loss_interest {
	type discrete[7] { 0, 1, 2, 3, 4, 5, 6 };
}

variable d3_loss_activities {
	type discrete[7] { 0, 1, 2, 3, 4, 5, 6 };
}

variable d3_anxiety {
	type discrete[7] { 0, 1, 2, 3, 4, 5, 6 };
}

variable d3_depression {
	type discrete[7] { 0, 1, 2, 3, 4, 5, 6 };
}

variable d3_flat_affect {
	type discrete[7] { 0, 1, 2, 3, 4, 5, 6 };
}

variable d3_loss_pleasure {
	type discrete[7] { 0, 1, 2, 3, 4, 5, 6 };
}

variable d4_hallucination {
	type discrete[7] { 0, 1, 2, 3, 4, 5, 6 };
}

variable d4_delusion {
	type discrete[7] { 0, 1, 2, 3, 4, 5, 6 };
}

variable d4_diplopia {
	type discrete[7] { 0, 1, 2, 3, 4, 5, 6 };
}

variable d5_loss_concentration {
	type discrete[7] { 0, 1, 2, 3, 4, 5, 6 };
}

variable d5_forget_explicit {
	type discrete[7] { 0, 1, 2, 3, 4, 5, 6 };
}

variable d5_forget_implicit {
	type discrete[7] { 0, 1, 2, 3, 4, 5, 6 };
}

variable d6_drooling {
	type discrete[7] { 0, 1, 2, 3, 4, 5, 6 };
}

variable d6_swallowing {
	type discrete[7] { 0, 1, 2, 3, 4, 5, 6 };
}

variable d6_constipation {
	type discrete[7] { 0, 1, 2, 3, 4, 5, 6 };
}

variable d7_urinary_urgency {
	type discrete[7] { 0, 1, 2, 3, 4, 5, 6 };
}

variable d7_urinary_frequency {
	type discrete[7] { 0, 1, 2, 3, 4, 5, 6 };
}

variable d7_nocturia {
	type discrete[7] { 0, 1, 2, 3, 4, 5, 6 };
}

variable d8_sex_drive {
	type discrete[7] { 0, 1, 2, 3, 4, 5, 6 };
}

variable d8_sex_dysfunction {
	type discrete[7] { 0, 1, 2, 3, 4, 5, 6 };
}

variable d9_unexplained_pain {
	type discrete[7] { 0, 1, 2, 3, 4, 5, 6 };
}

variable d9_taste_smell {
	type discrete[7] { 0, 1, 2, 3, 4, 5, 6 };
}

variable d9_weight_change {
	type discrete[7] { 0, 1, 2, 3, 4, 5, 6 };
}

variable d9_sweating {
	type discrete[7] { 0, 1, 2, 3, 4, 5, 6 };
}

probability ( variable179 ) {
	table 0.7755259069446705, 0.2244740930553296;
}

probability ( d1_lightheaded | variable179 ) {
	(state0) 0.6614991323099424, 0.16574175326549945, 0.09404536316218731, 0.03831053692787313, 0.021917091939867264, 0.007394962643146351, 0.011091159751484106;
	(state1) 0.3040098148058081, 0.2444031952650151, 0.1401045568223106, 0.11676868984286659, 0.07356446200379285, 0.06057253590578113, 0.06057674535442552;
}

probability ( d1_fainting | variable179 ) {
	(state0) 0.923438461334511, 0.03243966220594576, 0.021936894671956766, 0.007394963991154792, 0.0036975721987664205, 0.007394960213758031, 0.0036974853839073112;
	(state1) 0.6693515063729826, 0.09966062640926664, 0.09772859282266876, 0.03634351858739986, 0.024228716975531847, 0.024229024512871896, 0.0484580143192784;
}

probability ( d2_drowsiness | variable179 ) {
	(state0) 0.6682022147853666, 0.15828384879908183, 0.09999994369874951, 0.022081587082876133, 0.029452078584376058, 0.0036974818788104023, 0.01828284517073948;
	(state1) 0.3305057219158093, 0.15980787035501376, 0.1932818841382797, 0.18205606475732003, 0.024647662304386638, 0.04845802580345074, 0.0612427707257398;
}

probability ( d2_fatigue | variable179 ) {
	(state0) 0.38687269159858356, 0.21925122749499, 0.149374873547656, 0.08062064461504168, 0.05148050530777103, 0.032958917841193834, 0.07944113959476393;
	(state1) 0.07715249117829634, 0.10542716147738218, 0.17688291552109206, 0.17197507714679197, 0.18264888986629352, 0.11007383290815329, 0.17583963190199078;
}

probability ( d2_insomnia | variable179 ) {
	(state0) 0.5625756906433469, 0.1660865107649298, 0.09517372202509797, 0.050928124617883354, 0.040617752068824564, 0.014789983868255597, 0.06982821601166181;
	(state1) 0.2404604280022888, 0.09789954722037045, 0.20909461710499624, 0.13600069563206485, 0.08498026931594409, 0.04845784116718666, 0.18310660155714897;
}

probability ( d2_rls | variable179 ) {
	(state0) 0.6564221104645427, 0.16833796382056812, 0.08337493249226903, 0.025717283543243638, 0.036756837386521045, 0.014601161627873817, 0.014789710664981701;
	(state1) 0.49024736497832366, 0.054179320297476324, 0.17506537757044233, 0.061113435277313596, 0.08551574394900399, 0.08542002163137043, 0.04845873629606964;
}

probability ( d3_loss_interest | variable179 ) {
	(state0) 0.7537442027884076, 0.15726914266209888, 0.040053423885627146, 0.02307477326147572, 0.014517087845202859, 0.007397388681567821, 0.003943980875619934;
	(state1) 0.1713792396120374, 0.12678895527232567, 0.2806613491144144, 0.1788019689261713, 0.0372374569162509, 0.07267909363396002, 0.13245193652484005;
}

probability ( d3_loss_activities | variable179 ) {
	(state0) 0.6832593058286244, 0.1692224020907598, 0.06715213173798215, 0.026029928728878316, 0.01883869979368431, 0.01457204502291672, 0.02092548679715424;
	(state1) 0.12368377211683781, 0.07551054127464583, 0.2524471119272017, 0.1570051297021757, 0.0715360635409139, 0.12185893923341974, 0.19795844220480538;
}

probability ( d3_anxiety | variable179 ) {
	(state0) 0.5456651649032668, 0.20167352507574868, 0.13154255577821963, 0.04780673223248662, 0.03289516341582486, 0.01099815880258643, 0.029418699791866947;
	(state1) 0.17472136138104044, 0.10244657864411809, 0.2474235984166055, 0.14622769049723783, 0.07393919987946025, 0.06088145559568917, 0.1943601155858487;
}

probability ( d3_depression | variable179 ) {
	(state0) 0.5644654331092684, 0.1947438335178742, 0.11989097820818455, 0.05832769544107717, 0.02442094374206422, 0.008553531575460833, 0.029597584406070528;
	(state1) 0.08889475911303717, 0.0524641253384112, 0.15233949829416168, 0.2450161590044705, 0.07747529638702239, 0.14157812174026196, 0.24223204012263524;
}

probability ( d3_flat_affect | variable179 ) {
	(state0) 0.7661805361737039, 0.116700458966036, 0.054825420789444926, 0.028364860124296887, 0.01895390096867112, 0.00375616566627172, 0.011218657311575493;
	(state1) 0.3850372139850571, 0.10222044957470981, 0.17168953928430353, 0.06455336680890607, 0.07115861601763421, 0.08460927237553781, 0.12073154195385129;
}

probability ( d3_loss_pleasure | variable179 ) {
	(state0) 0.7812697274073709, 0.11452397946921783, 0.042355671539129815, 0.01724852664739703, 0.029687587868509474, 0.007116530483680491, 0.007797976584694359;
	(state1) 0.15388107755353947, 0.1214660186700099, 0.29734722997005614, 0.06463163342581718, 0.06021955414524617, 0.0735993032689529, 0.22885518296637816;
}

probability ( d4_hallucination | variable179 ) {
	(state0) 0.8642833583049592, 0.06519070341600286, 0.0369478741730518, 0.0039047296267008176, 0.01121455154946614, 0.007394963757225628, 0.011063819172593185;
	(state1) 0.5603058537421276, 0.0892704861220696, 0.18180587865936693, 0.08412251432885123, 0.03594344900204804, 0.03634351935385024, 0.012208298791686417;
}

probability ( d4_delusion | variable179 ) {
	(state0) 0.9312201875322415, 0.029381265202937743, 0.007395030666049298, 0.003697572198766459, 0.007394167046518629, 0.009762796426430142, 0.01114898092705631;
	(state1) 0.655969803427462, 0.061223196091239475, 0.09691583238673622, 0.06057223632813933, 0.02423162326249483, 0.06492902255224547, 0.036158285951682724;
}

probability ( d4_diplopia | variable179 ) {
	(state0) 0.9032142281303066, 0.05882835743432152, 0.012095545059278366, 0.007394167050783426, 0.007403658690428898, 0.0036974818788024473, 0.007366561756078796;
	(state1) 0.5296679945805263, 0.08588719578617228, 0.21477454032499693, 0.04846063615025996, 0.04842953754491624, 0.012114506450869198, 0.060665589162258934;
}

probability ( d5_loss_concentration | variable179 ) {
	(state0) 0.6052239276957109, 0.21005713395520625, 0.0924451242136657, 0.029303207616932468, 0.022317393309902817, 0.011147534565333505, 0.029505678643248268;
	(state1) 0.17341389672002858, 0.08709285477477607, 0.363408729077308, 0.13416598429305704, 0.06013839982701484, 0.0846210506447594, 0.0971590846630561;
}

probability ( d5_forget_explicit | variable179 ) {
	(state0) 0.6289985300093762, 0.23351195960838653, 0.060300163951930066, 0.03670545702639053, 0.011297403822225206, 0.011049328436383362, 0.018137157145307982;
	(state1) 0.14397632153437148, 0.21619158634488164, 0.26278253509496274, 0.12202760698108099, 0.09624452234849157, 0.06071380234435738, 0.09806362535185412;
}

probability ( d5_forget_implicit | variable179 ) {
	(state0) 0.6928422369234231, 0.17941128718596297, 0.058102070301952996, 0.03270765898967829, 0.011231689765932328, 0.014746474474192361, 0.010958582358858115;
	(state1) 0.2861181607856846, 0.15115802451048177, 0.19729737609466894, 0.14724058198231094, 0.048001803444404016, 0.04860039624989694, 0.12158365693255258;
}

probability ( d6_drooling | variable179 ) {
	(state0) 0.7033488555289241, 0.14385775501839476, 0.05802332438863776, 0.02496450368582172, 0.021914348959504112, 0.0073998763225526796, 0.04049133609616498;
	(state1) 0.4455261605028658, 0.11015777214431617, 0.1490973550376944, 0.06357985884279593, 0.09780246206338444, 0.03632742372274354, 0.09750896768619965;
}

probability ( d6_swallowing | variable179 ) {
	(state0) 0.7419019100138304, 0.1323834153434181, 0.0565308984232018, 0.018453046020351048, 0.03270236401612129, 0.010875905775074473, 0.007152460408002886;
	(state1) 0.3797826640200054, 0.19621056286304142, 0.2145597027335631, 0.06068512112578273, 0.03822737248586483, 0.04916750150423048, 0.061367075267512165;
}

probability ( d6_constipation | variable179 ) {
	(state0) 0.5229203553753021, 0.13601587299880097, 0.13161924129044736, 0.06893687274979775, 0.04382131498855336, 0.036616412123104035, 0.06006993047399431;
	(state1) 0.22501391498919995, 0.17219459667793327, 0.1139127734514744, 0.08911096553294554, 0.11082756855742307, 0.07386132974883199, 0.21507885104219182;
}

probability ( d7_urinary_urgency | variable179 ) {
	(state0) 0.5937390463794638, 0.14546748673797955, 0.10946514384217226, 0.055464062522610595, 0.02586350608205107, 0.026789846962840015, 0.043210907472882615;
	(state1) 0.22315770693863013, 0.10488361369262005, 0.1501553992775524, 0.10902454798625412, 0.16966490677089913, 0.045484759753660425, 0.19762906558038376;
}

probability ( d7_urinary_frequency | variable179 ) {
	(state0) 0.6229834476663987, 0.12832897264413817, 0.11420153676838093, 0.029585339789599766, 0.04396540266477259, 0.014682947163666714, 0.0462523533030431;
	(state1) 0.23637130100442763, 0.08834955865406201, 0.20732402179055892, 0.09689808122801795, 0.15881350250480294, 0.08515205780262768, 0.12709147701550297;
}

probability ( d7_nocturia | variable179 ) {
	(state0) 0.41703001510370075, 0.16935680641488918, 0.2194856622540007, 0.028989173508745445, 0.06909872323534678, 0.014789816984325459, 0.08124980249899179;
	(state1) 0.16006200662572853, 0.11141369550713644, 0.17734609326728698, 0.09885137281724937, 0.12492419459190744, 0.07268740085090115, 0.25471523633979026;
}

probability ( d8_sex_drive | variable179 ) {
	(state0) 0.7743363367792965, 0.0850851715981702, 0.051508670271239905, 0.018061171631964208, 0.024827639412175313, 0.014333501703074604, 0.031847508604079436;
	(state1) 0.5521474826404528, 0.06043135657213878, 0.08564055798784259, 0.0377400536121906, 0.0761427902434907, 0.0257244559158488, 0.16217330302803573;
}

probability ( d8_sex_dysfunction | variable179 ) {
	(state0) 0.8719970968272103, 0.055410577696092374, 0.028822752284044906, 0.006710592032158246, 0.007394975508711748, 0.007394836435594444, 0.02226916921618789;
	(state1) 0.6804064779887002, 0.03651274807790584, 0.07516762587387966, 0.038585809093159666, 0.048457987301906154, 0.012114923611349623, 0.10875442805309878;
}

probability ( d9_unexplained_pain | variable179 ) {
	(state0) 0.624695912442145, 0.12163236027261635, 0.07312136177276177, 0.03683000095246578, 0.05549520444443583, 0.02178622530735785, 0.06643893480821735;
	(state1) 0.3882491296943229, 0.09817597211381222, 0.16020236391240597, 0.10950504222315015, 0.08469350104480691, 0.049764223255844856, 0.10940976775565708;
}

probability ( d9_taste_smell | variable179 ) {
	(state0) 0.5794579954607405, 0.08317856738272125, 0.1374458766714816, 0.02143908139663234, 0.09864731920951965, 0.018405851306363123, 0.06142530857254144;
	(state1) 0.39109350339706167, 0.0545636877865813, 0.20385282228595966, 0.0509016127776094, 0.11291210596239917, 0.04872524441639554, 0.13795102337399345;
}

probability ( d9_weight_change | variable179 ) {
	(state0) 0.4680429371307022, 0.3752902646974632, 0.07661199083243918, 0.010268410208344696, 0.03323373229964441, 0.00370297312819215, 0.03284969170321419;
	(state1) 0.1867543122068869, 0.3573915243444114, 0.2093381265902775, 0.039043406150225377, 0.07282990575401511, 0.060554540610753035, 0.0740881843434308;
}

probability ( d9_sweating | variable179 ) {
	(state0) 0.69407027844998, 0.07036040264692571, 0.08653499805568791, 0.03653035477120671, 0.044172081659028625, 0.020627041606565612, 0.04770484281060552;
	(state1) 0.5001556961285077, 0.060217869699353194, 0.17682617955214808, 0.07414328984461553, 0.061220283546867, 0.0656767032685313, 0.061759977959977216;
}

