network Current LCM {
}

variable variable139 {
	type discrete[2] { state0, state1 };
}

variable d1_lightheaded {
	type discrete[13] { s0, s1, s2, s3, s4, s5, s6, s7, s8, s9, s10, s11, s12 };
}

variable d1_fainting {
	type discrete[13] { s0, s1, s2, s3, s4, s5, s6, s7, s8, s9, s10, s11, s12 };
}

variable d2_drowsiness {
	type discrete[13] { s0, s1, s2, s3, s4, s5, s6, s7, s8, s9, s10, s11, s12 };
}

variable d2_fatigue {
	type discrete[13] { s0, s1, s2, s3, s4, s5, s6, s7, s8, s9, s10, s11, s12 };
}

variable d2_insomnia {
	type discrete[13] { s0, s1, s2, s3, s4, s5, s6, s7, s8, s9, s10, s11, s12 };
}

variable d2_rls {
	type discrete[13] { s0, s1, s2, s3, s4, s5, s6, s7, s8, s9, s10, s11, s12 };
}

variable d3_loss_interest {
	type discrete[13] { s0, s1, s2, s3, s4, s5, s6, s7, s8, s9, s10, s11, s12 };
}

variable d3_loss_activities {
	type discrete[13] { s0, s1, s2, s3, s4, s5, s6, s7, s8, s9, s10, s11, s12 };
}

variable d3_anxiety {
	type discrete[13] { s0, s1, s2, s3, s4, s5, s6, s7, s8, s9, s10, s11, s12 };
}

variable d3_depression {
	type discrete[13] { s0, s1, s2, s3, s4, s5, s6, s7, s8, s9, s10, s11, s12 };
}

variable d3_flat_affect {
	type discrete[13] { s0, s1, s2, s3, s4, s5, s6, s7, s8, s9, s10, s11, s12 };
}

variable d3_loss_pleasure {
	type discrete[13] { s0, s1, s2, s3, s4, s5, s6, s7, s8, s9, s10, s11, s12 };
}

variable d4_hallucination {
	type discrete[13] { s0, s1, s2, s3, s4, s5, s6, s7, s8, s9, s10, s11, s12 };
}

variable d4_delusion {
	type discrete[13] { s0, s1, s2, s3, s4, s5, s6, s7, s8, s9, s10, s11, s12 };
}

variable d4_diplopia {
	type discrete[13] { s0, s1, s2, s3, s4, s5, s6, s7, s8, s9, s10, s11, s12 };
}

variable d5_loss_concentration {
	type discrete[13] { s0, s1, s2, s3, s4, s5, s6, s7, s8, s9, s10, s11, s12 };
}

variable d5_forget_explicit {
	type discrete[13] { s0, s1, s2, s3, s4, s5, s6, s7, s8, s9, s10, s11, s12 };
}

variable d5_forget_implicit {
	type discrete[13] { s0, s1, s2, s3, s4, s5, s6, s7, s8, s9, s10, s11, s12 };
}

variable d6_drooling {
	type discrete[13] { s0, s1, s2, s3, s4, s5, s6, s7, s8, s9, s10, s11, s12 };
}

variable d6_swallowing {
	type discrete[13] { s0, s1, s2, s3, s4, s5, s6, s7, s8, s9, s10, s11, s12 };
}

variable d6_constipation {
	type discrete[13] { s0, s1, s2, s3, s4, s5, s6, s7, s8, s9, s10, s11, s12 };
}

variable d7_urinary_urgency {
	type discrete[13] { s0, s1, s2, s3, s4, s5, s6, s7, s8, s9, s10, s11, s12 };
}

variable d7_urinary_frequency {
	type discrete[13] { s0, s1, s2, s3, s4, s5, s6, s7, s8, s9, s10, s11, s12 };
}

variable d7_nocturia {
	type discrete[13] { s0, s1, s2, s3, s4, s5, s6, s7, s8, s9, s10, s11, s12 };
}

variable d8_sex_drive {
	type discrete[13] { s0, s1, s2, s3, s4, s5, s6, s7, s8, s9, s10, s11, s12 };
}

variable d8_sex_dysfunction {
	type discrete[13] { s0, s1, s2, s3, s4, s5, s6, s7, s8, s9, s10, s11, s12 };
}

variable d9_unexplained_pain {
	type discrete[13] { s0, s1, s2, s3, s4, s5, s6, s7, s8, s9, s10, s11, s12 };
}

variable d9_taste_smell {
	type discrete[13] { s0, s1, s2, s3, s4, s5, s6, s7, s8, s9, s10, s11, s12 };
}

variable d9_weight_change {
	type discrete[13] { s0, s1, s2, s3, s4, s5, s6, s7, s8, s9, s10, s11, s12 };
}

variable d9_sweating {
	type discrete[13] { s0, s1, s2, s3, s4, s5, s6, s7, s8, s9, s10, s11, s12 };
}

probability ( variable139 ) {
	table 0.8082026696852248, 0.1917973303147752;
}

probability ( d1_lightheaded | variable139 ) {
	(state0) 0.6447372411492273, 0.11494369997313325, 0.046385688111851925, 0.027833860897249315, 0.07286449520445726, 0.003477086396101109, 0.038196792627347806, 0.003477086396101109, 0.023743008668519038, 0.0069541881171839215, 0.003477086396101109, 0.003477086396101109, 0.010432679666625803;
	(state1) 0.23998370848065953, 0.12845158727172323, 0.13771591973881084, 0.03869444732293341, 0.09100928614124945, 0.01291941430979355, 0.1164648097440583, 0.01291941430979355, 0.06681377581443139, 0.06459701460767686, 0.01291941430979355, 0.01291941430979355, 0.0645917936392826;
}

probability ( d1_fainting | variable139 ) {
	(state0) 0.9027373213977345, 0.024075883877767386, 0.01391038705555571, 0.0036763392995378245, 0.02082688915782533, 0.003477086396101109, 0.006954172949478282, 0.003477086396101109, 0.0034778236909206793, 0.0069541727251545525, 0.003477086396101109, 0.003477086396101109, 0.0034786642616213056;
	(state1) 0.5862230100463017, 0.06557694927294515, 0.03875065766729618, 0.03801790158646358, 0.07764886929320412, 0.012919414309793553, 0.03875824234500788, 0.012919414309793553, 0.025836089137113164, 0.025838828868708485, 0.012919414309793553, 0.012919414309793553, 0.0516717945437855;
}

probability ( d2_drowsiness | variable139 ) {
	(state0) 0.6568894218721106, 0.09611070746762058, 0.055825119348975084, 0.021044405252848408, 0.0802428987582566, 0.0034770863961011084, 0.024327097432594355, 0.0034770863961011084, 0.0278132062063772, 0.00347708639610325, 0.0034770863961011084, 0.0034770863961011084, 0.02036171168070937;
	(state1) 0.24650889044557475, 0.13383012321550644, 0.05096524184132136, 0.07684066948723935, 0.12819126309743528, 0.01291941430979355, 0.1809182724377224, 0.01291941430979355, 0.02585177729798614, 0.051677657239166244, 0.01291941430979355, 0.01291941430979355, 0.05353844769887368;
}

probability ( d2_fatigue | variable139 ) {
	(state0) 0.36394269262194595, 0.12193483796170132, 0.09041637603365152, 0.04519462756147574, 0.11188896652004544, 0.0034770863961011084, 0.08291825717957585, 0.0034770863961011084, 0.051727107284133905, 0.034551488280776775, 0.0034770863961011084, 0.0034770863961011084, 0.08351730097228897;
	(state1) 0.08179453369229088, 0.024958925419024537, 0.09039083109221499, 0.02586667912249429, 0.12688229849538799, 0.012919414309793553, 0.15700898113477546, 0.012919414309793553, 0.18246648779958086, 0.10417042373350467, 0.012919414309793553, 0.012919414309793553, 0.15478318227155216;
}

probability ( d2_insomnia | variable139 ) {
	(state0) 0.53750323180671, 0.11847717259300106, 0.04520212059686851, 0.028282479696723747, 0.07354417473822676, 0.0034770863961011084, 0.04520180704152353, 0.0034770863961011084, 0.044683342140120395, 0.01391062897306523, 0.0034770863961011084, 0.0034770863961011084, 0.0792866968293563;
	(state1) 0.22499965832538107, 0.07656442215635026, 0.025838838103419904, 0.06286639411178101, 0.14016153546864382, 0.012919414309793553, 0.1550341462432754, 0.012919414309793553, 0.06652464711952176, 0.05166917311172421, 0.012919414309793553, 0.012919414309793553, 0.1446635281207283;
}

probability ( d2_rls | variable139 ) {
	(state0) 0.6478514218678747, 0.12547106507880107, 0.038247949968363795, 0.021606498236827577, 0.06252637805911473, 0.003477086396101109, 0.024340073815062598, 0.003477086396101109, 0.03822690426308392, 0.013905110417262959, 0.003477086396101109, 0.003477086396101109, 0.013916252709204427;
	(state1) 0.40928450184339893, 0.050578011590446496, 0.01291941575422177, 0.06183275023008589, 0.1294214517790159, 0.01291941430979355, 0.06459532878165611, 0.01291941430979355, 0.07759468443578231, 0.09044792071101507, 0.01291941430979355, 0.01291941430979355, 0.05164827763520322;
}

probability ( d3_loss_interest | variable139 ) {
	(state0) 0.7126885272496111, 0.10074885279406488, 0.05867498367739871, 0.01735967340900877, 0.03456479819266722, 0.0034770863961011075, 0.023944564124806313, 0.0034770863961011075, 0.020628512818765894, 0.007275159124572518, 0.0034770863961011075, 0.0034770863961011075, 0.010206583024700035;
	(state1) 0.1683766463429793, 0.051999622790984, 0.06621515382458569, 0.025934536812966574, 0.24623452701598322, 0.01291941430979355, 0.18233960792600679, 0.01291941430979355, 0.013788882136629543, 0.07632383346441093, 0.01291941430979355, 0.01291941430979355, 0.1171095324462796;
}

probability ( d3_loss_activities | variable139 ) {
	(state0) 0.649612905456269, 0.08692319456664, 0.0665252114753206, 0.017337747055683497, 0.05804744877741904, 0.0034770863961011084, 0.028011154642177898, 0.0034770863961011084, 0.027586250289645932, 0.017895120567928607, 0.0034770863961011084, 0.0034770863961011084, 0.034152621584510934;
	(state1) 0.10559302856493644, 0.05169239078656848, 0.07580519850001019, 0.026016006069304244, 0.22357978557097136, 0.01291941430979355, 0.1543104259149814, 0.01291941430979355, 0.03961446588523165, 0.11438093689465444, 0.01291941430979355, 0.01291941430979355, 0.1573301045741675;
}

probability ( d3_anxiety | variable139 ) {
	(state0) 0.5285626767278503, 0.10772624933048394, 0.08692428417003664, 0.0347174783418613, 0.10377239322719298, 0.003477086396101109, 0.05136775068669654, 0.003477086396101109, 0.031329517125681564, 0.010429686354732634, 0.003477086396101109, 0.003477086396101109, 0.03126161845105987;
	(state1) 0.12902491850509715, 0.10359099020609812, 0.012930099341818688, 0.01311777318081684, 0.22163719794985404, 0.012919414309793553, 0.13212405098301597, 0.012919414309793553, 0.07738369243913971, 0.06460291554771422, 0.012919414309793553, 0.012919414309793553, 0.19391070460727108;
}

probability ( d3_depression | variable139 ) {
	(state0) 0.5452369564821086, 0.11808767095083801, 0.06954543530658938, 0.027770537716390653, 0.08254184011415835, 0.0034770863961011075, 0.06339349780588643, 0.0034770863961011075, 0.027747901494882134, 0.010638484993006085, 0.0034770863961011075, 0.0034770863961011075, 0.041129329551735726;
	(state1) 0.04123136575089478, 0.026333991852661883, 0.03874446782235897, 0.026010315751539524, 0.17132700550696436, 0.012919414309793553, 0.22955490807250334, 0.012919414309793553, 0.0648526655136997, 0.14134359206270997, 0.012919414309793553, 0.012919414309793553, 0.20892403042749325;
}

probability ( d3_flat_affect | variable139 ) {
	(state0) 0.7339061209474096, 0.07640288889632454, 0.03828114643119415, 0.020841918590872935, 0.03737015257219832, 0.0034770863961011084, 0.03081526370176409, 0.0034770863961011084, 0.027792948691314014, 0.003680864750616152, 0.0034770863961011084, 0.0034770863961011084, 0.017000349833901616;
	(state1) 0.3608485480183081, 0.0778620792879331, 0.03863490005386154, 0.012995954589864023, 0.17121391938358754, 0.012919414309793553, 0.05345561675662928, 0.012919414309793553, 0.03884646015166219, 0.08967874412195796, 0.012919414309793553, 0.012919414309793553, 0.104786120397022;
}

probability ( d3_loss_pleasure | variable139 ) {
	(state0) 0.7433768254583255, 0.07331709811406599, 0.03500100660120629, 0.010418831989169295, 0.04159191365088301, 0.0034770863961011084, 0.020408794963073396, 0.0034770863961011084, 0.034758746306788824, 0.010053042361563243, 0.0034770863961011084, 0.0034770863961011084, 0.01716539497051989;
	(state1) 0.1318681141678348, 0.07640818669599016, 0.07666137103551, 0.012965588639687354, 0.28472174518044957, 0.012919414309793553, 0.053363505703584765, 0.012919414309793553, 0.03880326711846485, 0.06600236877973822, 0.012919414309793553, 0.012919414309793553, 0.20752819543956608;
}

probability ( d4_hallucination | variable139 ) {
	(state0) 0.8515172093100876, 0.05085134746412003, 0.01390659802900458, 0.010429526321472404, 0.021152385707143413, 0.0034770863961011084, 0.0069528338126546695, 0.0034770863961011084, 0.0138977133854216, 0.006954172795237757, 0.0034770863961011084, 0.0034770863961011084, 0.010429867590453525;
	(state1) 0.4535503951186631, 0.06944572013340482, 0.038764736122148424, 0.05168409585529761, 0.17979477327724797, 0.012919414309793556, 0.07752146095272118, 0.012919414309793556, 0.025878333471648717, 0.03875824291810185, 0.012919414309793556, 0.012919414309793556, 0.012924584911592336;
}

probability ( d4_delusion | variable139 ) {
	(state0) 0.9110102232348569, 0.02657888452832431, 0.003511654982826632, 0.003477086396101109, 0.0069564579712098635, 0.003477086396101109, 0.003477823690920722, 0.003477086396101109, 0.006954161386588753, 0.010428209684742073, 0.003477086396101109, 0.003477086396101109, 0.013697152540025232;
	(state1) 0.5684037442652344, 0.05627683453938896, 0.02571038605499859, 0.012919414309793553, 0.10334682369871034, 0.012919414309793553, 0.06459433206649366, 0.012919414309793553, 0.025838870998127362, 0.06460840224238718, 0.012919414309793553, 0.012919414309793553, 0.026623534585691676;
}

probability ( d4_diplopia | variable139 ) {
	(state0) 0.8778710961934213, 0.041723795993790336, 0.017387223937469956, 0.014194899216193978, 0.0070847911556021605, 0.0034770863961011084, 0.006954161388995732, 0.0034770863961011084, 0.010428199434127249, 0.0034770863961011084, 0.0034770863961011084, 0.0034770863961011084, 0.0069704006998937305;
	(state1) 0.45898557056882894, 0.07752109600737941, 0.025832170448977773, 0.024774113893137856, 0.19330589085537386, 0.01291941430979355, 0.05167769960877112, 0.01291941430979355, 0.03876961170984328, 0.01291941430979355, 0.01291941430979355, 0.01291941430979355, 0.06453677535871984;
}

probability ( d5_loss_concentration | variable139 ) {
	(state0) 0.5800476718308325, 0.13195210331349974, 0.06918075385599488, 0.031268655058159726, 0.07343650942644232, 0.003477086396101109, 0.02778440705203315, 0.003477086396101109, 0.02779097687529205, 0.013832090321938878, 0.003477086396101109, 0.003477086396101109, 0.03079848668140248;
	(state1) 0.14443860896208763, 0.05233598383396725, 0.0530188875057925, 0.0646904163889381, 0.2826751326255422, 0.012919414309793553, 0.1422335118272451, 0.012919414309793553, 0.03885378660410787, 0.07779981886141528, 0.012919414309793553, 0.012919414309793553, 0.0922761961517298;
}

probability ( d5_forget_explicit | variable139 ) {
	(state0) 0.6018561234039232, 0.1528840825278066, 0.09031750686836476, 0.013926279075636174, 0.047744149955970976, 0.0034770863961011084, 0.03765258697751196, 0.0034770863961011084, 0.013906941781259452, 0.010428510170142194, 0.0034770863961011084, 0.0034770863961011084, 0.017375473654980128;
	(state1) 0.11508508398969475, 0.10375555334153916, 0.06491935938105423, 0.051611023806221935, 0.2360237521045779, 0.012919414309793553, 0.11848685275910774, 0.012919414309793553, 0.09044111612018027, 0.06460728576297424, 0.012919414309793553, 0.012919414309793553, 0.10339231549547555;
}

probability ( d5_forget_implicit | variable139 ) {
	(state0) 0.6783134612319883, 0.12514314641028693, 0.04825477904422631, 0.01385976232879712, 0.04467234827735028, 0.0034770863961011084, 0.03414419047764525, 0.0034770863961011084, 0.017369096174071535, 0.013905551400970086, 0.0034770863961011084, 0.0034770863961011084, 0.010429319070259725;
	(state1) 0.20566426788678524, 0.14223232184602141, 0.027415836742458403, 0.026019343894793757, 0.19575963886250436, 0.012919414309793553, 0.1444420167688894, 0.012919414309793553, 0.025899525716916116, 0.051688039268647616, 0.012919414309793553, 0.012919414309793553, 0.12920135177380945;
}

probability ( d6_drooling | variable139 ) {
	(state0) 0.7006844843758937, 0.10778872065272231, 0.03128008526068524, 0.013908330301565177, 0.0519736968572923, 0.0034770863961011084, 0.02085926636390915, 0.0034770863961011084, 0.017668619371820245, 0.00698269402077392, 0.0034770863961011084, 0.0034770863961011084, 0.03494575721093357;
	(state1) 0.3292534314539035, 0.03876180107288412, 0.09048677510549442, 0.012919471094500541, 0.12987260573962547, 0.012919414309793553, 0.07752856899233741, 0.012919414309793553, 0.11522252161842464, 0.038652269845434475, 0.012919414309793553, 0.012919414309793553, 0.11562489783822123;
}

probability ( d6_swallowing | variable139 ) {
	(state0) 0.7221375951223966, 0.09070989753072246, 0.041220224728755896, 0.01042986733392905, 0.05549286356051934, 0.003477086396101109, 0.020644542946580097, 0.003477086396101109, 0.02478187586853393, 0.01352826611649105, 0.003477086396101109, 0.003477086396101109, 0.007146521207667255;
	(state1) 0.3141396202710705, 0.12805846959090267, 0.0793921584620777, 0.012924585864731141, 0.1943133242791734, 0.012919414309793553, 0.052487563743949646, 0.012919414309793553, 0.06295377515845194, 0.04017046096403318, 0.012919414309793553, 0.012919414309793553, 0.06388238442643564;
}

probability ( d6_constipation | variable139 ) {
	(state0) 0.5148579638969527, 0.08019825141322666, 0.06563340803884306, 0.013903585675517445, 0.11354736562767204, 0.0034770863961011084, 0.055886207606468286, 0.0034770863961011084, 0.044612286022419796, 0.034791712645022094, 0.0034770863961011084, 0.0034770863961011084, 0.06266087348947341;
	(state1) 0.15410713207118681, 0.10251832553793835, 0.0403605281328961, 0.02585651447147069, 0.10780095930893775, 0.012919414309793553, 0.1282547490121493, 0.012919414309793553, 0.10554690518089596, 0.07743902077568078, 0.012919414309793553, 0.012919414309793553, 0.20643820826967005;
}

probability ( d7_urinary_urgency | variable139 ) {
	(state0) 0.583586718401606, 0.085877244588619, 0.055571465049174186, 0.027816687746538147, 0.08666482754862842, 0.0034770863961011084, 0.05215825964127448, 0.0034770863961011084, 0.024981619388254803, 0.027769455281132997, 0.0034770863961011084, 0.0034770863961011084, 0.0416653767703675;
	(state1) 0.14420839059069526, 0.055578708114928536, 0.06482713057287877, 0.012919427025535496, 0.1301688615779505, 0.012919414309793556, 0.11626743249237541, 0.012919414309793556, 0.1784863396765706, 0.03893375194286383, 0.012919414309793556, 0.012919414309793556, 0.2069323007670276;
}

probability ( d7_urinary_frequency | variable139 ) {
	(state0) 0.6015778051847896, 0.09981548337233599, 0.024322692307887774, 0.02379951225367808, 0.0943904475732937, 0.0034770863961011084, 0.027821066979575135, 0.0034770863961011084, 0.05529176017364291, 0.013906364404275671, 0.0034770863961011084, 0.0034770863961011084, 0.04516652216611668;
	(state1) 0.19363568518909982, 0.055467637355399106, 0.051740496960457585, 0.053684417562066565, 0.15314131148876872, 0.012919414309793553, 0.1033390557761505, 0.012919414309793553, 0.1175440553941038, 0.09044326141414673, 0.012919414309793553, 0.012919414309793553, 0.12932642162063293;
}

probability ( d7_nocturia | variable139 ) {
	(state0) 0.4048046635154901, 0.13223566617798724, 0.02807161377536246, 0.045182591679750334, 0.1740656930421351, 0.0034770863961011075, 0.027747661179443855, 0.0034770863961011075, 0.07346675117232833, 0.01390822488734692, 0.0034770863961011075, 0.0034770863961011075, 0.08660878898575095;
	(state1) 0.12375957223946413, 0.06420179587109522, 0.07656929893390046, 0.025911399478815756, 0.14132818192010893, 0.012919414309793553, 0.10361180135581202, 0.012919414309793553, 0.10169096647405665, 0.07751693431908536, 0.012919414309793553, 0.012919414309793553, 0.2337323921684872;
}

probability ( d8_sex_drive | variable139 ) {
	(state0) 0.7509879054339783, 0.05540803551628347, 0.034770733264855955, 0.013910820310662682, 0.041484431102075364, 0.003477086396101109, 0.0168472803211733, 0.003477086396101109, 0.024958431662508634, 0.012776255881588518, 0.003477086396101109, 0.003477086396101109, 0.03494776092246955;
	(state1) 0.5040903338711813, 0.03959553847414397, 0.012919899922626979, 0.025829633560796095, 0.06549106259152984, 0.012919414309793556, 0.04075779182072031, 0.012919414309793556, 0.07521718119254908, 0.030045205522654606, 0.012919414309793556, 0.012919414309793556, 0.1543756958046238;
}

probability ( d8_sex_dysfunction | variable139 ) {
	(state0) 0.8577145255233696, 0.02781903559349931, 0.02781804202838068, 0.010431258845865177, 0.019726205173216695, 0.003477086396101109, 0.00415120572191002, 0.003477086396101109, 0.006954201896462541, 0.006953989862068691, 0.003477086396101109, 0.003477086396101109, 0.024523189770823104;
	(state1) 0.5855567040940787, 0.02583011770750626, 0.025833809384372793, 0.012919415582152021, 0.08173855554237489, 0.012919414309793553, 0.04917290875949025, 0.012919414309793553, 0.05167754909978552, 0.012920094002477471, 0.012919414309793553, 0.012919414309793553, 0.10267318858858787;
}

probability ( d9_unexplained_pain | variable139 ) {
	(state0) 0.6066293557952083, 0.08343545770048802, 0.041201724654087814, 0.024332935888464774, 0.052394425322326424, 0.0034770863961011084, 0.03476684514555474, 0.0034770863961011084, 0.0560925542025979, 0.020881007724297292, 0.0034770863961011084, 0.0034770863961011084, 0.06635734798257031;
	(state1) 0.3428185993631801, 0.07757079214594584, 0.014863825535672491, 0.012944193124210066, 0.15414818147087642, 0.012919414309793553, 0.11628966104348468, 0.012919414309793553, 0.0758103932032175, 0.05160895847362122, 0.012919414309793553, 0.012919414309793553, 0.10226773840061745;
}

probability ( d9_taste_smell | variable139 ) {
	(state0) 0.5596525926488002, 0.04867589103752501, 0.03469498218955546, 0.003501082170632546, 0.14531169640631778, 0.0034770863961011084, 0.020491427494735055, 0.0034770863961011084, 0.09384069237450555, 0.017679934323972364, 0.0034770863961011084, 0.0034770863961011084, 0.06224335576955157;
	(state1) 0.36233184159709214, 0.012931744511992681, 0.0519596025037772, 0.025749670250326092, 0.14481082120013825, 0.012919414309793553, 0.05305647740736494, 0.012919414309793553, 0.11642573140206898, 0.05058340838912571, 0.012919414309793553, 0.012919414309793553, 0.13047304549893984;
}

probability ( d9_weight_change | variable139 ) {
	(state0) 0.4441506692634083, 0.3643657116488283, 0.020859487171860164, 0.013784052331954231, 0.06282151165641822, 0.0034770863961011084, 0.010384114695753342, 0.0034770863961011084, 0.03495849631161162, 0.003479014044998356, 0.0034770863961011084, 0.0034770863961011084, 0.03128859729076301;
	(state1) 0.1842767243061805, 0.2740139846708119, 0.012930677012388914, 0.05213947953559932, 0.18000251469008283, 0.01291941430979355, 0.03893341235639322, 0.01291941430979355, 0.06389990737207328, 0.06458990920328221, 0.01291941430979355, 0.01291941430979355, 0.0775357336140135;
}

probability ( d9_sweating | variable139 ) {
	(state0) 0.684534820816272, 0.06605260394455148, 0.006954199441242288, 0.017385398157525, 0.06512910875613655, 0.003477086396101109, 0.034701005834703404, 0.003477086396101109, 0.04174482031643609, 0.020852061854830004, 0.003477086396101109, 0.003477086396101109, 0.048737635293898816;
	(state1) 0.41509772750291146, 0.02588355529108308, 0.03875814391257452, 0.012919539981994084, 0.19726726731754954, 0.012919414309793553, 0.07777604975043997, 0.012919414309793553, 0.0645235640140139, 0.06463592365722239, 0.012919414309793553, 0.012919414309793553, 0.05146057133303687;
}

