net 
{ 
}
node variable25 
{
  states = ( "state0" "state1" );
}
node scm18dpr 
{
  states = ( "s0" "s1" "s2" "s3" );
}
node scm19dsv 
{
  states = ( "s0" "s1" "s2" "s3" );
}
node variable72 
{
  states = ( "state0" "state1" );
}
node scm17han 
{
  states = ( "s0" "s1" "s2" "s3" );
}
node scm7gait 
{
  states = ( "s0" "s1" "s2" "s3" );
}
node scm15cha 
{
  states = ( "s0" "s1" "s2" "s3" );
}
node scm21fsv 
{
  states = ( "s0" "s1" "s2" "s3" );
}
node variable36 
{
  states = ( "state0" "state1" );
}
node scm5rise 
{
  states = ( "s0" "s1" "s2" "s3" );
}
node scm14hyg 
{
  states = ( "s0" "s1" "s2" "s3" );
}
node scm2lue 
{
  states = ( "s0" "s1" "s2" "s3" );
}
node scm4lue 
{
  states = ( "s0" "s1" "s2" "s3" );
}
node scm3rue 
{
  states = ( "s0" "s1" "s2" "s3" );
}
node scm12fee 
{
  states = ( "s0" "s1" "s2" "s3" );
}
node scm10swa 
{
  states = ( "s0" "s1" "s2" "s3" );
}
node scm3lue 
{
  states = ( "s0" "s1" "s2" "s3" );
}
node scm13dre 
{
  states = ( "s0" "s1" "s2" "s3" );
}
node scm2rue 
{
  states = ( "s0" "s1" "s2" "s3" );
}
node variable58 
{
  states = ( "state0" "state1" );
}
node scm1rue 
{
  states = ( "s0" "s1" "s2" "s3" );
}
node scm9free 
{
  states = ( "s0" "s1" "s2" "s3" );
}
node scm16wal 
{
  states = ( "s0" "s1" "s2" "s3" );
}
node variable29 
{
  states = ( "state0" "state1" );
}
node scm6post 
{
  states = ( "s0" "s1" "s2" "s3" );
}
node scm11spe 
{
  states = ( "s0" "s1" "s2" "s3" );
}
node scm8spee 
{
  states = ( "s0" "s1" "s2" "s3" );
}
node variable65 
{
  states = ( "state0" "state1" );
}
node scm20fpr 
{
  states = ( "s0" "s1" "s2" "s3" );
}
node scm1lue 
{
  states = ( "s0" "s1" "s2" "s3" );
}
node scm4rue 
{
  states = ( "s0" "s1" "s2" "s3" );
}
potential ( variable25 | variable36 ) 
{
  data = ((0.2790358 0.7209642)(0.7046598 0.2953402)) ;
}
potential ( scm18dpr | variable25 ) 
{
  data = ((0.957289852 0.026593035 0.006490550 0.009626562)(0.01043803 0.55108304 0.34595755 0.09252138)) ;
}
potential ( scm19dsv | variable25 ) 
{
  data = ((0.971851597 0.013769152 0.009298162 0.005081089)(0.01751391 0.53434809 0.33472912 0.11340889)) ;
}
potential ( variable72 ) 
{
  data = ( 0.7365749 0.2634251 );
}
potential ( scm17han | variable72 ) 
{
  data = ((0.23978489 0.63714552 0.10488957 0.01818003)(0.03289293 0.31300291 0.48843051 0.16567364)) ;
}
potential ( scm7gait | variable72 ) 
{
  data = ((0.32456829 0.62459792 0.04689808 0.00393571)(0.03774523 0.25040591 0.59335381 0.11849505)) ;
}
potential ( scm15cha | variable72 ) 
{
  data = ((0.334359010 0.582614437 0.078842978 0.004183575)(0.01093728 0.17145369 0.60283910 0.21476992)) ;
}
potential ( scm21fsv | variable72 ) 
{
  data = ((0.56745550 0.30695490 0.11491165 0.01067796)(0.1375520 0.1721534 0.4502165 0.2400781)) ;
}
potential ( variable36 | variable72 ) 
{
  data = ((0.005834475 0.994165525)(0.95004164 0.04995836)) ;
}
potential ( scm5rise | variable36 ) 
{
  data = ((0.1206314 0.1788777 0.4110316 0.2894593)(0.591559980 0.369088199 0.035395718 0.003956103)) ;
}
potential ( scm14hyg | variable36 ) 
{
  data = ((0.02146467 0.29634272 0.52622395 0.15596865)(0.299618192 0.670194705 0.026299658 0.003887445)) ;
}
potential ( scm2lue | variable36 ) 
{
  data = ((0.47989763 0.28062488 0.15050437 0.08897313)(0.555607651 0.364683750 0.071880735 0.007827865)) ;
}
potential ( scm4lue | variable36 ) 
{
  data = ((0.1263065 0.3031867 0.3924438 0.1780630)(0.278584106 0.512308754 0.205154481 0.003952659)) ;
}
potential ( scm3rue | variable36 ) 
{
  data = ((0.0968844 0.2037261 0.4663306 0.2330589)(0.2849633 0.5236902 0.1793722 0.0119743)) ;
}
potential ( scm12fee | variable36 ) 
{
  data = ((0.06663321 0.25501670 0.56695991 0.11139018)(0.373268161 0.579654133 0.043184677 0.003893029)) ;
}
potential ( scm10swa | variable36 ) 
{
  data = ((0.28732307 0.38586887 0.27110498 0.05570309)(0.727766282 0.230773434 0.037572838 0.003887446)) ;
}
potential ( scm3lue | variable36 ) 
{
  data = ((0.07493448 0.21598605 0.45377480 0.25530467)(0.24208581 0.46110050 0.26150234 0.03531136)) ;
}
potential ( scm13dre | variable36 ) 
{
  data = ((0.0259842 0.1514165 0.6666306 0.1559687)(0.274716464 0.658566617 0.062829473 0.003887445)) ;
}
potential ( scm2rue | variable36 ) 
{
  data = ((0.48833898 0.26678842 0.16688828 0.07798433)(0.591536545 0.330637443 0.073938568 0.003887445)) ;
}
potential ( variable58 | variable36 ) 
{
  data = ((0.94286604 0.05713396)(0.01474298 0.98525702)) ;
}
potential ( scm1rue | variable58 ) 
{
  data = ((0.4700533 0.2003840 0.2053748 0.1241879)(0.612772812 0.240875954 0.142451366 0.003899868)) ;
}
potential ( scm9free | variable58 ) 
{
  data = ((0.1553847 0.2484876 0.4598488 0.1362789)(0.720519717 0.224404641 0.047578648 0.007496995)) ;
}
potential ( scm16wal | variable58 ) 
{
  data = ((0.01766391 0.20439912 0.60573441 0.17220255)(0.272492852 0.657312970 0.063392056 0.006802122)) ;
}
potential ( variable29 | variable36 ) 
{
  data = ((0.1454418 0.8545582)(0.97903427 0.02096573)) ;
}
potential ( scm6post | variable29 ) 
{
  data = ((0.562788933 0.338102616 0.095086232 0.004022219)(0.08569856 0.09132745 0.60517431 0.21779967)) ;
}
potential ( scm11spe | variable29 ) 
{
  data = ((0.534556200 0.451238277 0.010426395 0.003779128)(0.04285429 0.44419891 0.40365726 0.10928954)) ;
}
potential ( scm8spee | variable29 ) 
{
  data = ((0.430293787 0.544638586 0.021288521 0.003779106)(0.01362717 0.41118666 0.42946610 0.14572007)) ;
}
potential ( variable65 | variable36 ) 
{
  data = ((0.04605115 0.95394885)(0.99022549 0.00977451)) ;
}
potential ( scm20fpr | variable65 ) 
{
  data = ((0.55386237 0.36089678 0.07774949 0.00749136)(0.1209397 0.2109088 0.5427606 0.1253909)) ;
}
potential ( scm1lue | variable65 ) 
{
  data = ((0.59129487 0.26739477 0.11724945 0.02406091)(0.5439183 0.1451254 0.1888296 0.1221267)) ;
}
potential ( scm4rue | variable65 ) 
{
  data = ((0.283348186 0.581354440 0.127102449 0.008194926)(0.09832486 0.30101652 0.45465980 0.14599881)) ;
}
