net 
{ 
}
node variable456 
{
  states = ( "state0" "state1" );
}
node d7_urinary_urgency 
{
  states = ( "s0" "s1" "s2" "s3" "s4" "s5" "s6" );
}
node d8_sex_dysfunction 
{
  states = ( "s0" "s1" "s2" "s3" "s4" "s5" "s6" );
}
node d5_loss_concentration 
{
  states = ( "s0" "s1" "s2" "s3" "s4" "s5" "s6" );
}
node d4_diplopia 
{
  states = ( "s0" "s1" "s2" "s3" "s4" "s5" "s6" );
}
node d9_unexplained_pain 
{
  states = ( "s0" "s1" "s2" "s3" "s4" "s5" "s6" );
}
node d7_nocturia 
{
  states = ( "s0" "s1" "s2" "s3" "s4" "s5" "s6" );
}
node d2_drowsiness 
{
  states = ( "s0" "s1" "s2" "s3" "s4" "s5" "s6" );
}
node d6_drooling 
{
  states = ( "s0" "s1" "s2" "s3" "s4" "s5" "s6" );
}
node variable500 
{
  states = ( "state0" "state1" );
}
node d6_constipation 
{
  states = ( "s0" "s1" "s2" "s3" "s4" "s5" "s6" );
}
node d3_depression 
{
  states = ( "s0" "s1" "s2" "s3" "s4" "s5" "s6" );
}
node d3_loss_activities 
{
  states = ( "s0" "s1" "s2" "s3" "s4" "s5" "s6" );
}
node d6_swallowing 
{
  states = ( "s0" "s1" "s2" "s3" "s4" "s5" "s6" );
}
node variable478 
{
  states = ( "state0" "state1" );
}
node d3_flat_affect 
{
  states = ( "s0" "s1" "s2" "s3" "s4" "s5" "s6" );
}
node d3_loss_interest 
{
  states = ( "s0" "s1" "s2" "s3" "s4" "s5" "s6" );
}
node d4_delusion 
{
  states = ( "s0" "s1" "s2" "s3" "s4" "s5" "s6" );
}
node d3_anxiety 
{
  states = ( "s0" "s1" "s2" "s3" "s4" "s5" "s6" );
}
node d4_hallucination 
{
  states = ( "s0" "s1" "s2" "s3" "s4" "s5" "s6" );
}
node d1_lightheaded 
{
  states = ( "s0" "s1" "s2" "s3" "s4" "s5" "s6" );
}
node d7_urinary_frequency 
{
  states = ( "s0" "s1" "s2" "s3" "s4" "s5" "s6" );
}
node d1_fainting 
{
  states = ( "s0" "s1" "s2" "s3" "s4" "s5" "s6" );
}
node d2_insomnia 
{
  states = ( "s0" "s1" "s2" "s3" "s4" "s5" "s6" );
}
node d2_rls 
{
  states = ( "s0" "s1" "s2" "s3" "s4" "s5" "s6" );
}
node variable434 
{
  states = ( "state0" "state1" );
}
node d3_loss_pleasure 
{
  states = ( "s0" "s1" "s2" "s3" "s4" "s5" "s6" );
}
node d9_taste_smell 
{
  states = ( "s0" "s1" "s2" "s3" "s4" "s5" "s6" );
}
node d8_sex_drive 
{
  states = ( "s0" "s1" "s2" "s3" "s4" "s5" "s6" );
}
node d9_weight_change 
{
  states = ( "s0" "s1" "s2" "s3" "s4" "s5" "s6" );
}
node d5_forget_implicit 
{
  states = ( "s0" "s1" "s2" "s3" "s4" "s5" "s6" );
}
node d9_sweating 
{
  states = ( "s0" "s1" "s2" "s3" "s4" "s5" "s6" );
}
node d2_fatigue 
{
  states = ( "s0" "s1" "s2" "s3" "s4" "s5" "s6" );
}
node d5_forget_explicit 
{
  states = ( "s0" "s1" "s2" "s3" "s4" "s5" "s6" );
}
potential ( variable456 ) 
{
  data = ( 0.2477721 0.7522279 );
}
potential ( d7_urinary_urgency | variable456 ) 
{
  data = ((0.15787290 0.10443247 0.13890843 0.10048131 0.19357801 0.07212851 0.23259839)(0.62745881 0.14685123 0.11211066 0.05678806 0.01326836 0.01703964 0.02648324)) ;
}
potential ( d8_sex_dysfunction | variable456 ) 
{
  data = ((0.69795610 0.03327945 0.07805612 0.04389898 0.04419729 0.01141266 0.09119939)(0.871745840 0.057097060 0.026424468 0.003914404 0.007620956 0.007494066 0.025703206)) ;
}
potential ( d5_loss_concentration | variable456 ) 
{
  data = ((0.16876153 0.10238049 0.37314627 0.12946575 0.03645917 0.06626665 0.12352014)(0.61989598 0.20850870 0.08088802 0.02774986 0.02933529 0.01525091 0.01837124)) ;
}
potential ( d4_diplopia | variable456 ) 
{
  data = ((0.55832677 0.09373390 0.18851009 0.04454402 0.04370386 0.01105091 0.06013044)(0.904640228 0.055304592 0.015015328 0.007501433 0.007791049 0.003809383 0.005937987)) ;
}
potential ( d9_unexplained_pain | variable456 ) 
{
  data = ((0.39318008 0.09269314 0.15297364 0.10128426 0.08002410 0.06944313 0.11040166)(0.63015200 0.12423224 0.07297776 0.03746436 0.05622115 0.01415594 0.06479655)) ;
}
potential ( d7_nocturia | variable456 ) 
{
  data = ((0.12140035 0.12914238 0.14619218 0.08935771 0.14875791 0.06663977 0.29850969)(0.43813405 0.16499911 0.23150011 0.03014744 0.05919345 0.01512229 0.06090355)) ;
}
potential ( d2_drowsiness | variable456 ) 
{
  data = ((0.28207202 0.18541111 0.19579535 0.17072425 0.04442156 0.04420364 0.07737208)(0.695117969 0.149411980 0.096310431 0.021146321 0.022781178 0.003809385 0.011422736)) ;
}
potential ( d6_drooling | variable456 ) 
{
  data = ((0.43275759 0.10796966 0.13847481 0.07316594 0.12038968 0.02926137 0.09798095)(0.715553100 0.145631922 0.058928774 0.020491408 0.011831578 0.008960166 0.038603052)) ;
}
potential ( variable500 | variable434 ) 
{
  data = ((0.9705583 0.0294417)(0.1457226 0.8542774)) ;
}
potential ( d6_constipation | variable500 ) 
{
  data = ((0.53184603 0.14866097 0.12792725 0.06199949 0.04449695 0.03121381 0.05385549)(0.24891438 0.13359404 0.12631258 0.10395920 0.09847491 0.08201940 0.20672548)) ;
}
potential ( d3_depression | variable500 ) 
{
  data = ((0.600198265 0.193147772 0.106978838 0.041475286 0.022403501 0.007534933 0.028261405)(0.07118641 0.07911327 0.18078218 0.25931383 0.07433137 0.12319109 0.21208184)) ;
}
potential ( d3_loss_activities | variable500 ) 
{
  data = ((0.70871472 0.16148424 0.05178191 0.02385240 0.02350040 0.01251151 0.01815482)(0.14598248 0.11045008 0.26311119 0.14195559 0.05108163 0.11025110 0.17716793)) ;
}
potential ( d6_swallowing | variable500 ) 
{
  data = ((0.761150450 0.130871168 0.060518222 0.017714138 0.019522918 0.005934896 0.004288208)(0.38699601 0.19004950 0.17920240 0.05592813 0.07162259 0.05595984 0.06024153)) ;
}
potential ( variable478 | variable456 ) 
{
  data = ((0.235869 0.764131)(0.97416382 0.02583618)) ;
}
potential ( d3_flat_affect | variable478 ) 
{
  data = ((0.772044634 0.111580533 0.051676676 0.025261720 0.025679519 0.004068324 0.009688595)(0.33644757 0.11953170 0.19143110 0.07829724 0.05081798 0.08933698 0.13413742)) ;
}
potential ( d3_loss_interest | variable478 ) 
{
  data = ((0.72444994 0.16137594 0.04575127 0.02433205 0.01960657 0.01353092 0.01095330)(0.23430447 0.10985908 0.27763061 0.18555539 0.02063128 0.05540717 0.11661201)) ;
}
potential ( d4_delusion | variable478 ) 
{
  data = ((0.930851857 0.024637823 0.007243667 0.003623153 0.007234423 0.012529408 0.013879669)(0.63738541 0.08053433 0.10393239 0.06495205 0.02602204 0.05899827 0.02817551)) ;
}
potential ( d3_anxiety | variable478 ) 
{
  data = ((0.551532792 0.206057846 0.128694982 0.047725321 0.037693818 0.007543276 0.020751964)(0.12685665 0.07955009 0.26601417 0.15363705 0.05970093 0.07687692 0.23736418)) ;
}
potential ( d4_hallucination | variable478 ) 
{
  data = ((0.875398659 0.052734769 0.035856096 0.004296303 0.014243195 0.007261444 0.010209535)(0.49846744 0.13567479 0.19619625 0.08851952 0.02687202 0.03891573 0.01535425)) ;
}
potential ( d1_lightheaded | variable478 ) 
{
  data = ((0.66656954 0.16825165 0.09344782 0.03271985 0.02055636 0.00723098 0.01122380)(0.25997665 0.24109203 0.14557798 0.14248889 0.08217857 0.06500613 0.06367975)) ;
}
potential ( d7_urinary_frequency | variable478 ) 
{
  data = ((0.62652345 0.12690222 0.11608852 0.02923905 0.05333384 0.01091882 0.03699411)(0.19571962 0.09057428 0.20729220 0.10300758 0.13352673 0.10374506 0.16613453)) ;
}
potential ( d1_fainting | variable478 ) 
{
  data = ((0.935050001 0.035820942 0.007055957 0.007237673 0.003623153 0.007230347 0.003981926)(0.60934165 0.09239763 0.15656779 0.03900097 0.02598030 0.02603665 0.05067502)) ;
}
potential ( d2_insomnia | variable478 ) 
{
  data = ((0.55681827 0.16327012 0.10499089 0.04931731 0.04122766 0.01448883 0.06988693)(0.23781049 0.10306720 0.18213176 0.14792869 0.08600147 0.05197243 0.19108797)) ;
}
potential ( d2_rls | variable478 ) 
{
  data = ((0.66108974 0.17434305 0.07068131 0.02484175 0.03984166 0.01440105 0.01480145)(0.46149362 0.02439150 0.22721132 0.06681254 0.07798064 0.09125891 0.05085148)) ;
}
potential ( variable434 | variable456 ) 
{
  data = ((0.0198026 0.9801974)(0.9348731 0.0651269)) ;
}
potential ( d3_loss_pleasure | variable434 ) 
{
  data = ((0.785217723 0.106520952 0.037817490 0.016405170 0.036674072 0.005351272 0.012013321)(0.28144976 0.13870967 0.25237486 0.05627491 0.03718609 0.06323805 0.17076666)) ;
}
potential ( d9_taste_smell | variable434 ) 
{
  data = ((0.58808286 0.08669635 0.14735667 0.01940779 0.09474197 0.01642747 0.04728689)(0.41195731 0.05255904 0.16614164 0.04923734 0.11895462 0.04675010 0.15439995)) ;
}
potential ( d8_sex_drive | variable434 ) 
{
  data = ((0.78622956 0.09274761 0.05157114 0.01642099 0.01324862 0.01255404 0.02722804)(0.57272735 0.04784860 0.07805060 0.03729271 0.09209094 0.02741102 0.14457879)) ;
}
potential ( d9_weight_change | variable434 ) 
{
  data = ((0.472325360 0.392273476 0.068430229 0.008095209 0.035777171 0.004043506 0.019055049)(0.23806105 0.32148947 0.19956948 0.03786168 0.05823336 0.04735810 0.09742686)) ;
}
potential ( d5_forget_implicit | variable434 ) 
{
  data = ((0.751369320 0.172833846 0.035165818 0.018481099 0.012177710 0.005719304 0.004252903)(0.23764083 0.17273583 0.22069966 0.15560741 0.03776562 0.06237546 0.11317519)) ;
}
potential ( d9_sweating | variable434 ) 
{
  data = ((0.71073391 0.07271023 0.07942151 0.03778332 0.04576781 0.01735577 0.03622744)(0.50338852 0.05692221 0.17380798 0.06300387 0.05376231 0.06351943 0.08559568)) ;
}
potential ( d2_fatigue | variable434 ) 
{
  data = ((0.39666366 0.22765343 0.15636786 0.08177464 0.03304202 0.03296823 0.07153016)(0.12174864 0.11055695 0.15449366 0.14934760 0.19725978 0.09323464 0.17335872)) ;
}
potential ( d5_forget_explicit | variable434 ) 
{
  data = ((0.668584850 0.241300203 0.033792268 0.033473880 0.012760923 0.005457611 0.004630266)(0.15696796 0.20171467 0.28075433 0.11099461 0.07428889 0.06298882 0.11229072)) ;
}
