net 
{ 
}
node variable926 
{
  states = ( "state0" "state1" );
}
node d7_urinary_urgency 
{
  states = ( "s0" "s1" "s2" "s3" "s4" "s5" "s6" );
}
node d4_delusion 
{
  states = ( "s0" "s1" "s2" "s3" "s4" "s5" "s6" );
}
node d2_rls 
{
  states = ( "s0" "s1" "s2" "s3" "s4" "s5" "s6" );
}
node d5_loss_concentration 
{
  states = ( "s0" "s1" "s2" "s3" "s4" "s5" "s6" );
}
node d6_swallowing 
{
  states = ( "s0" "s1" "s2" "s3" "s4" "s5" "s6" );
}
node d9_taste_smell 
{
  states = ( "s0" "s1" "s2" "s3" "s4" "s5" "s6" );
}
node d1_lightheaded 
{
  states = ( "s0" "s1" "s2" "s3" "s4" "s5" "s6" );
}
node d2_drowsiness 
{
  states = ( "s0" "s1" "s2" "s3" "s4" "s5" "s6" );
}
node variable999 
{
  states = ( "state0" "state1" );
}
node d7_urinary_frequency 
{
  states = ( "s0" "s1" "s2" "s3" "s4" "s5" "s6" );
}
node d3_loss_pleasure 
{
  states = ( "s0" "s1" "s2" "s3" "s4" "s5" "s6" );
}
node d2_insomnia 
{
  states = ( "s0" "s1" "s2" "s3" "s4" "s5" "s6" );
}
node variable948 
{
  states = ( "state0" "state1" );
}
node d3_loss_interest 
{
  states = ( "s0" "s1" "s2" "s3" "s4" "s5" "s6" );
}
node d4_diplopia 
{
  states = ( "s0" "s1" "s2" "s3" "s4" "s5" "s6" );
}
node d2_fatigue 
{
  states = ( "s0" "s1" "s2" "s3" "s4" "s5" "s6" );
}
node d3_flat_affect 
{
  states = ( "s0" "s1" "s2" "s3" "s4" "s5" "s6" );
}
node d5_forget_explicit 
{
  states = ( "s0" "s1" "s2" "s3" "s4" "s5" "s6" );
}
node d7_nocturia 
{
  states = ( "s0" "s1" "s2" "s3" "s4" "s5" "s6" );
}
node d9_unexplained_pain 
{
  states = ( "s0" "s1" "s2" "s3" "s4" "s5" "s6" );
}
node variable967 
{
  states = ( "state0" "state1" );
}
node d5_forget_implicit 
{
  states = ( "s0" "s1" "s2" "s3" "s4" "s5" "s6" );
}
node d9_weight_change 
{
  states = ( "s0" "s1" "s2" "s3" "s4" "s5" "s6" );
}
node d1_fainting 
{
  states = ( "s0" "s1" "s2" "s3" "s4" "s5" "s6" );
}
node d8_sex_dysfunction 
{
  states = ( "s0" "s1" "s2" "s3" "s4" "s5" "s6" );
}
node d9_sweating 
{
  states = ( "s0" "s1" "s2" "s3" "s4" "s5" "s6" );
}
node variable980 
{
  states = ( "state0" "state1" );
}
node d8_sex_drive 
{
  states = ( "s0" "s1" "s2" "s3" "s4" "s5" "s6" );
}
node d3_loss_activities 
{
  states = ( "s0" "s1" "s2" "s3" "s4" "s5" "s6" );
}
node d3_anxiety 
{
  states = ( "s0" "s1" "s2" "s3" "s4" "s5" "s6" );
}
node d3_depression 
{
  states = ( "s0" "s1" "s2" "s3" "s4" "s5" "s6" );
}
node d4_hallucination 
{
  states = ( "s0" "s1" "s2" "s3" "s4" "s5" "s6" );
}
node d6_constipation 
{
  states = ( "s0" "s1" "s2" "s3" "s4" "s5" "s6" );
}
node d6_drooling 
{
  states = ( "s0" "s1" "s2" "s3" "s4" "s5" "s6" );
}
potential ( variable926 ) 
{
  data = ( 0.2081464 0.7918536 );
}
potential ( d7_urinary_urgency | variable926 ) 
{
  data = ((0.23202625 0.10275972 0.20530017 0.17190199 0.07466187 0.07451022 0.13883979)(0.548601579 0.194477464 0.155389623 0.035447270 0.046389695 0.006381033 0.013313336)) ;
}
potential ( d4_delusion | variable926 ) 
{
  data = ((0.67869200 0.11209848 0.06030822 0.06862092 0.01632111 0.03260068 0.03135858)(0.960795812 0.016155702 0.010253926 0.003537047 0.004449227 0.002234781 0.002573504)) ;
}
potential ( d2_rls | variable926 ) 
{
  data = ((0.50784776 0.08308913 0.18084445 0.06867275 0.04171622 0.06831255 0.04951714)(0.753735022 0.121966612 0.068608670 0.016872917 0.013098975 0.008071141 0.017646663)) ;
}
potential ( d5_loss_concentration | variable926 ) 
{
  data = ((0.20496933 0.08472103 0.26311657 0.17412395 0.09591724 0.07320303 0.10394885)(0.587130027 0.246121646 0.090673037 0.034841338 0.031693340 0.002287504 0.007253108)) ;
}
potential ( d6_swallowing | variable926 ) 
{
  data = ((0.40684691 0.22217918 0.16176141 0.08435305 0.06910272 0.02497446 0.03078226)(0.792403013 0.126311696 0.042662612 0.008146890 0.018980665 0.006539456 0.004955667)) ;
}
potential ( d9_taste_smell | variable926 ) 
{
  data = ((0.43239256 0.05462985 0.20658101 0.03277336 0.11340986 0.05858069 0.10163266)(0.671961650 0.049627437 0.168390341 0.013312695 0.049173105 0.008500025 0.039034747)) ;
}
potential ( d1_lightheaded | variable926 ) 
{
  data = ((0.28415873 0.18450662 0.25286795 0.08680319 0.08595966 0.02425021 0.08145365)(0.670110080 0.221135061 0.071217833 0.016378739 0.007708768 0.006736960 0.006712559)) ;
}
potential ( d2_drowsiness | variable926 ) 
{
  data = ((0.25246306 0.08156189 0.23306848 0.17780924 0.07283549 0.05713554 0.12512630)(0.558603454 0.184683116 0.178967202 0.040511362 0.017962739 0.006669116 0.012603011)) ;
}
potential ( variable999 | variable948 ) 
{
  data = ((0.108766 0.891234)(0.993813768 0.006186232)) ;
}
potential ( d7_urinary_frequency | variable999 ) 
{
  data = ((0.58824494 0.15577166 0.13035264 0.03486858 0.05170988 0.01349230 0.02556000)(0.30021243 0.09179928 0.18908889 0.16954424 0.07083474 0.03151523 0.14700519)) ;
}
potential ( d3_loss_pleasure | variable999 ) 
{
  data = ((0.829423819 0.128997097 0.020946626 0.006819046 0.004648281 0.004609331 0.004555799)(0.21010026 0.13068426 0.28167648 0.11815538 0.09420360 0.07854764 0.08663237)) ;
}
potential ( d2_insomnia | variable999 ) 
{
  data = ((0.632784526 0.153284407 0.090300265 0.031870769 0.049772121 0.009304095 0.032683816)(0.30940234 0.12423581 0.12463608 0.13270807 0.10923528 0.08572659 0.11405582)) ;
}
potential ( variable948 | variable980 ) 
{
  data = ((0.007227782 0.992772218)(0.98632579 0.01367421)) ;
}
potential ( d3_loss_interest | variable948 ) 
{
  data = ((0.19379722 0.12378640 0.33802830 0.13576680 0.07926403 0.02839156 0.10096569)(0.793920937 0.149609749 0.039631546 0.009677309 0.002355730 0.002462574 0.002342157)) ;
}
potential ( d4_diplopia | variable948 ) 
{
  data = ((0.63573938 0.11986757 0.10017310 0.05766154 0.02888937 0.01443945 0.04322960)(0.894930871 0.049360275 0.039505086 0.002337617 0.009224078 0.002306855 0.002335217)) ;
}
potential ( d2_fatigue | variable948 ) 
{
  data = ((0.12207706 0.07083126 0.22246103 0.16424435 0.13493698 0.10877400 0.17667531)(0.498491038 0.240349396 0.148070239 0.053635796 0.035317858 0.006767803 0.017367870)) ;
}
potential ( d3_flat_affect | variable948 ) 
{
  data = ((0.39575571 0.14676829 0.22002290 0.11494371 0.07169377 0.01443945 0.03637617)(0.800903443 0.133039129 0.042733939 0.007103305 0.007081442 0.002306856 0.006831886)) ;
}
potential ( d5_forget_explicit | variable948 ) 
{
  data = ((0.24943013 0.16583227 0.17674995 0.17834255 0.07811747 0.05064696 0.10088067)(0.575448654 0.249211105 0.116538790 0.023755718 0.023483777 0.006885778 0.004676178)) ;
}
potential ( d7_nocturia | variable948 ) 
{
  data = ((0.16628709 0.10774891 0.27081151 0.09136217 0.11805407 0.04348492 0.20225134)(0.39439765 0.20779173 0.23873657 0.04924093 0.06147400 0.01378791 0.03457120)) ;
}
potential ( d9_unexplained_pain | variable948 ) 
{
  data = ((0.46641564 0.15906463 0.14713603 0.05168931 0.04458095 0.01454834 0.11656510)(0.743723278 0.142951321 0.047567992 0.027314421 0.015744560 0.009192627 0.013505801)) ;
}
potential ( variable967 | variable926 ) 
{
  data = ((0.1275758 0.8724242)(0.98251861 0.01748139)) ;
}
potential ( d5_forget_implicit | variable967 ) 
{
  data = ((0.646421223 0.217581114 0.081066507 0.027494392 0.015998139 0.002299025 0.009139602)(0.21503729 0.16160078 0.28595057 0.12523899 0.03203049 0.07760214 0.10253974)) ;
}
potential ( d9_weight_change | variable967 ) 
{
  data = ((0.505594895 0.374909869 0.062825661 0.005660919 0.034744395 0.004230405 0.012033857)(0.347788974 0.292986923 0.176094946 0.046949548 0.035838666 0.009261114 0.091079828)) ;
}
potential ( d1_fainting | variable967 ) 
{
  data = ((0.925702343 0.046978855 0.016720480 0.004028979 0.002189781 0.002189781 0.002189781)(0.730600519 0.108783155 0.072522963 0.062081799 0.008670522 0.008670522 0.008670522)) ;
}
potential ( d8_sex_dysfunction | variable967 ) 
{
  data = ((0.68755332 0.10591524 0.08380039 0.03815327 0.03317990 0.01930929 0.03208857)(0.33830038 0.03149166 0.15373833 0.09170525 0.02469229 0.08828402 0.27178806)) ;
}
potential ( d9_sweating | variable967 ) 
{
  data = ((0.76348017 0.09394421 0.05984729 0.02104568 0.02254150 0.01368885 0.02545231)(0.49720275 0.11357351 0.17054688 0.04672666 0.04947441 0.04117421 0.08130157)) ;
}
potential ( variable980 | variable926 ) 
{
  data = ((0.0734821 0.9265179)(0.94760222 0.05239778)) ;
}
potential ( d8_sex_drive | variable980 ) 
{
  data = ((0.70294865 0.10477760 0.11220729 0.03911225 0.01797467 0.00480740 0.01817214)(0.30876243 0.09797938 0.16918114 0.08741595 0.04507522 0.05764700 0.23393887)) ;
}
potential ( d3_loss_activities | variable980 ) 
{
  data = ((0.686983426 0.228613936 0.051600250 0.007584474 0.018180844 0.004729561 0.002307509)(0.13342286 0.12099001 0.26648599 0.18732011 0.09543827 0.05789366 0.13844910)) ;
}
potential ( d3_anxiety | variable980 ) 
{
  data = ((0.660948810 0.218261735 0.069781650 0.026636864 0.006882928 0.008865174 0.008622839)(0.25964879 0.12464150 0.18700923 0.17796391 0.07293430 0.05207692 0.12572535)) ;
}
potential ( d3_depression | variable980 ) 
{
  data = ((0.654078451 0.213962864 0.076580346 0.032797598 0.009199102 0.004585478 0.008796161)(0.20853882 0.10182335 0.26749849 0.18759420 0.05101878 0.05835022 0.12517613)) ;
}
potential ( d4_hallucination | variable980 ) 
{
  data = ((0.911938707 0.050142193 0.019756791 0.004599718 0.006785852 0.002299968 0.004476771)(0.56481646 0.16178544 0.13417278 0.04372899 0.02951359 0.02915221 0.03683053)) ;
}
potential ( d6_constipation | variable980 ) 
{
  data = ((0.60451736 0.16663755 0.09496723 0.03722422 0.03240548 0.02300032 0.04124784)(0.37287440 0.09144904 0.11449007 0.10797478 0.09409204 0.03643815 0.18268151)) ;
}
potential ( d6_drooling | variable980 ) 
{
  data = ((0.637489447 0.170410300 0.097865207 0.022786994 0.050674347 0.004760219 0.016013485)(0.28296966 0.13779851 0.23649200 0.08813051 0.05806643 0.03593235 0.16061055)) ;
}
