net 
{ 
}
node variable535 
{
  states = ( "state0" "state1" );
}
node scm7gait 
{
  states = ( "s0" "s1" "s2" "s3" );
}
node scm13dre 
{
  states = ( "s0" "s1" "s2" "s3" );
}
node scm2lue 
{
  states = ( "s0" "s1" "s2" "s3" );
}
node scm6post 
{
  states = ( "s0" "s1" "s2" "s3" );
}
node scm15cha 
{
  states = ( "s0" "s1" "s2" "s3" );
}
node scm18dpr 
{
  states = ( "s0" "s1" "s2" "s3" );
}
node scm16wal 
{
  states = ( "s0" "s1" "s2" "s3" );
}
node scm3rue 
{
  states = ( "s0" "s1" "s2" "s3" );
}
node scm5rise 
{
  states = ( "s0" "s1" "s2" "s3" );
}
node scm19dsv 
{
  states = ( "s0" "s1" "s2" "s3" );
}
node variable579 
{
  states = ( "state0" "state1" );
}
node scm20fpr 
{
  states = ( "s0" "s1" "s2" "s3" );
}
node scm1rue 
{
  states = ( "s0" "s1" "s2" "s3" );
}
node scm4lue 
{
  states = ( "s0" "s1" "s2" "s3" );
}
node scm2rue 
{
  states = ( "s0" "s1" "s2" "s3" );
}
node scm17han 
{
  states = ( "s0" "s1" "s2" "s3" );
}
node variable557 
{
  states = ( "state0" "state1" );
}
node scm21fsv 
{
  states = ( "s0" "s1" "s2" "s3" );
}
node scm3lue 
{
  states = ( "s0" "s1" "s2" "s3" );
}
node scm4rue 
{
  states = ( "s0" "s1" "s2" "s3" );
}
node scm9free 
{
  states = ( "s0" "s1" "s2" "s3" );
}
node scm1lue 
{
  states = ( "s0" "s1" "s2" "s3" );
}
node scm8spee 
{
  states = ( "s0" "s1" "s2" "s3" );
}
node scm14hyg 
{
  states = ( "s0" "s1" "s2" "s3" );
}
node scm10swa 
{
  states = ( "s0" "s1" "s2" "s3" );
}
node scm11spe 
{
  states = ( "s0" "s1" "s2" "s3" );
}
node scm12fee 
{
  states = ( "s0" "s1" "s2" "s3" );
}
potential ( variable535 ) 
{
  data = ( 0.6097209 0.3902791 );
}
potential ( scm7gait | variable535 ) 
{
  data = ((0.457084347 0.513443594 0.026568827 0.002903233)(0.02509604 0.50618100 0.41004714 0.05867583)) ;
}
potential ( scm13dre | variable535 ) 
{
  data = ((0.367750801 0.581042259 0.048303706 0.002903234)(0.02405962 0.49587241 0.40785157 0.07221640)) ;
}
potential ( scm2lue | variable535 ) 
{
  data = ((0.57288052 0.34273506 0.07202312 0.01236129)(0.43183116 0.40146485 0.12724571 0.03945828)) ;
}
potential ( scm6post | variable535 ) 
{
  data = ((0.804377303 0.163410651 0.029300391 0.002911656)(0.18025810 0.44103564 0.29747590 0.08123036)) ;
}
potential ( scm15cha | variable535 ) 
{
  data = ((0.496217818 0.476987342 0.023891608 0.002903232)(0.02744633 0.49064150 0.39164167 0.09027050)) ;
}
potential ( scm18dpr | variable535 ) 
{
  data = ((0.83018319 0.10857026 0.03798903 0.02325753)(0.38838273 0.38186074 0.14856232 0.08119422)) ;
}
potential ( scm16wal | variable535 ) 
{
  data = ((0.411938840 0.574918889 0.010239038 0.002903233)(0.009524755 0.550527388 0.367731457 0.072216400)) ;
}
potential ( scm3rue | variable535 ) 
{
  data = ((0.27666810 0.57502441 0.14249343 0.00581406)(0.08441837 0.37433586 0.44647355 0.09477222)) ;
}
potential ( scm5rise | variable535 ) 
{
  data = ((0.78284585 0.20386364 0.01038726 0.00290325)(0.1685968 0.4954968 0.2320953 0.1038110)) ;
}
potential ( scm19dsv | variable535 ) 
{
  data = ((0.830359620 0.112718444 0.047309990 0.009611946)(0.39713548 0.33027649 0.18372021 0.08886781)) ;
}
potential ( variable579 | variable557 ) 
{
  data = ((0.96811338 0.03188662)(0.0450188 0.9549812)) ;
}
potential ( scm20fpr | variable579 ) 
{
  data = ((0.12699888 0.42152504 0.35758069 0.09389538)(0.691041319 0.282548658 0.023479354 0.002930668)) ;
}
potential ( scm1rue | variable579 ) 
{
  data = ((0.4135694 0.2794222 0.2052904 0.1017180)(0.54184591 0.31986530 0.12586372 0.01242508)) ;
}
potential ( scm4lue | variable579 ) 
{
  data = ((0.10412904 0.35142307 0.46389613 0.08055176)(0.30876224 0.51233794 0.16725418 0.01164564)) ;
}
potential ( scm2rue | variable579 ) 
{
  data = ((0.39592478 0.37004155 0.18149674 0.05253692)(0.550449245 0.380428981 0.062544758 0.006577016)) ;
}
potential ( scm17han | variable579 ) 
{
  data = ((0.005826022 0.437373358 0.423966568 0.132834052)(0.241534085 0.640206579 0.111553197 0.006706139)) ;
}
potential ( variable557 | variable535 ) 
{
  data = ((0.03141889 0.96858111)(0.91963964 0.08036036)) ;
}
potential ( scm21fsv | variable557 ) 
{
  data = ((0.1206052 0.3385888 0.3965343 0.1442716)(0.694819005 0.231448862 0.070803402 0.002928731)) ;
}
potential ( scm3lue | variable557 ) 
{
  data = ((0.06480515 0.31897138 0.45871395 0.15750952)(0.259268059 0.528069932 0.203590338 0.009071671)) ;
}
potential ( scm4rue | variable557 ) 
{
  data = ((0.09085154 0.35544000 0.48383810 0.06987035)(0.2461993 0.5769451 0.1683143 0.0085413)) ;
}
potential ( scm9free | variable557 ) 
{
  data = ((0.2301459 0.3454792 0.3171458 0.1072292)(0.801513312 0.161772807 0.031075537 0.005638344)) ;
}
potential ( scm1lue | variable557 ) 
{
  data = ((0.41271279 0.32820694 0.19717189 0.06190838)(0.57895215 0.30041205 0.10153681 0.01909899)) ;
}
potential ( scm8spee | variable557 ) 
{
  data = ((0.03209807 0.59775912 0.34260964 0.02753317)(0.41872382 0.54273459 0.02690175 0.01163984)) ;
}
potential ( scm14hyg | variable557 ) 
{
  data = ((0.02832098 0.55671229 0.34509288 0.06987385)(0.418185396 0.562122743 0.016845382 0.002846479)) ;
}
potential ( scm10swa | variable557 ) 
{
  data = ((0.40728779 0.44404683 0.13469057 0.01397481)(0.824206077 0.147086513 0.025861068 0.002846342)) ;
}
potential ( scm11spe | variable557 ) 
{
  data = ((0.09661981 0.53989731 0.34078250 0.02270038)(0.50169184 0.45285082 0.03371087 0.01174647)) ;
}
potential ( scm12fee | variable557 ) 
{
  data = ((0.04221458 0.58240043 0.31484625 0.06053874)(0.506471626 0.455343575 0.035326975 0.002857824)) ;
}
