net 
{ 
}
node variable350 
{
  states = ( "state0" "state1" );
}
node d8_sex_dysfunction 
{
  states = ( "s0" "s1" "s2" "s3" "s4" "s5" "s6" "s7" "s8" "s9" "s10" "s11" "s12" );
}
node d8_sex_drive 
{
  states = ( "s0" "s1" "s2" "s3" "s4" "s5" "s6" "s7" "s8" "s9" "s10" "s11" "s12" );
}
node variable387 
{
  states = ( "state0" "state1" );
}
node d3_flat_affect 
{
  states = ( "s0" "s1" "s2" "s3" "s4" "s5" "s6" "s7" "s8" "s9" "s10" "s11" "s12" );
}
node d3_depression 
{
  states = ( "s0" "s1" "s2" "s3" "s4" "s5" "s6" "s7" "s8" "s9" "s10" "s11" "s12" );
}
node variable335 
{
  states = ( "state0" "state1" );
}
node d7_nocturia 
{
  states = ( "s0" "s1" "s2" "s3" "s4" "s5" "s6" "s7" "s8" "s9" "s10" "s11" "s12" );
}
node d9_unexplained_pain 
{
  states = ( "s0" "s1" "s2" "s3" "s4" "s5" "s6" "s7" "s8" "s9" "s10" "s11" "s12" );
}
node d4_diplopia 
{
  states = ( "s0" "s1" "s2" "s3" "s4" "s5" "s6" "s7" "s8" "s9" "s10" "s11" "s12" );
}
node variable364 
{
  states = ( "state0" "state1" );
}
node d7_urinary_urgency 
{
  states = ( "s0" "s1" "s2" "s3" "s4" "s5" "s6" "s7" "s8" "s9" "s10" "s11" "s12" );
}
node d7_urinary_frequency 
{
  states = ( "s0" "s1" "s2" "s3" "s4" "s5" "s6" "s7" "s8" "s9" "s10" "s11" "s12" );
}
node d1_lightheaded 
{
  states = ( "s0" "s1" "s2" "s3" "s4" "s5" "s6" "s7" "s8" "s9" "s10" "s11" "s12" );
}
node d9_weight_change 
{
  states = ( "s0" "s1" "s2" "s3" "s4" "s5" "s6" "s7" "s8" "s9" "s10" "s11" "s12" );
}
node variable354 
{
  states = ( "state0" "state1" );
}
node d3_loss_activities 
{
  states = ( "s0" "s1" "s2" "s3" "s4" "s5" "s6" "s7" "s8" "s9" "s10" "s11" "s12" );
}
node d6_swallowing 
{
  states = ( "s0" "s1" "s2" "s3" "s4" "s5" "s6" "s7" "s8" "s9" "s10" "s11" "s12" );
}
node d9_sweating 
{
  states = ( "s0" "s1" "s2" "s3" "s4" "s5" "s6" "s7" "s8" "s9" "s10" "s11" "s12" );
}
node d3_loss_interest 
{
  states = ( "s0" "s1" "s2" "s3" "s4" "s5" "s6" "s7" "s8" "s9" "s10" "s11" "s12" );
}
node variable374 
{
  states = ( "state0" "state1" );
}
node d5_forget_explicit 
{
  states = ( "s0" "s1" "s2" "s3" "s4" "s5" "s6" "s7" "s8" "s9" "s10" "s11" "s12" );
}
node d5_forget_implicit 
{
  states = ( "s0" "s1" "s2" "s3" "s4" "s5" "s6" "s7" "s8" "s9" "s10" "s11" "s12" );
}
node d2_drowsiness 
{
  states = ( "s0" "s1" "s2" "s3" "s4" "s5" "s6" "s7" "s8" "s9" "s10" "s11" "s12" );
}
node d6_drooling 
{
  states = ( "s0" "s1" "s2" "s3" "s4" "s5" "s6" "s7" "s8" "s9" "s10" "s11" "s12" );
}
node d2_insomnia 
{
  states = ( "s0" "s1" "s2" "s3" "s4" "s5" "s6" "s7" "s8" "s9" "s10" "s11" "s12" );
}
node variable319 
{
  states = ( "state0" "state1" );
}
node d3_anxiety 
{
  states = ( "s0" "s1" "s2" "s3" "s4" "s5" "s6" "s7" "s8" "s9" "s10" "s11" "s12" );
}
node d5_loss_concentration 
{
  states = ( "s0" "s1" "s2" "s3" "s4" "s5" "s6" "s7" "s8" "s9" "s10" "s11" "s12" );
}
node d2_rls 
{
  states = ( "s0" "s1" "s2" "s3" "s4" "s5" "s6" "s7" "s8" "s9" "s10" "s11" "s12" );
}
node d2_fatigue 
{
  states = ( "s0" "s1" "s2" "s3" "s4" "s5" "s6" "s7" "s8" "s9" "s10" "s11" "s12" );
}
node d9_taste_smell 
{
  states = ( "s0" "s1" "s2" "s3" "s4" "s5" "s6" "s7" "s8" "s9" "s10" "s11" "s12" );
}
node d1_fainting 
{
  states = ( "s0" "s1" "s2" "s3" "s4" "s5" "s6" "s7" "s8" "s9" "s10" "s11" "s12" );
}
node variable342 
{
  states = ( "state0" "state1" );
}
node d4_hallucination 
{
  states = ( "s0" "s1" "s2" "s3" "s4" "s5" "s6" "s7" "s8" "s9" "s10" "s11" "s12" );
}
node d4_delusion 
{
  states = ( "s0" "s1" "s2" "s3" "s4" "s5" "s6" "s7" "s8" "s9" "s10" "s11" "s12" );
}
node variable346 
{
  states = ( "state0" "state1" );
}
node d3_loss_pleasure 
{
  states = ( "s0" "s1" "s2" "s3" "s4" "s5" "s6" "s7" "s8" "s9" "s10" "s11" "s12" );
}
node d6_constipation 
{
  states = ( "s0" "s1" "s2" "s3" "s4" "s5" "s6" "s7" "s8" "s9" "s10" "s11" "s12" );
}
potential ( variable350 | variable364 ) 
{
  data = ((0.2536635 0.7463365)(0.05186915 0.94813085)) ;
}
potential ( d8_sex_dysfunction | variable350 ) 
{
  data = ((0.09108000 0.05814073 0.02799813 0.06236785 0.18408734 0.02161475 0.06378309 0.02161475 0.10619179 0.04247144 0.02161475 0.02161475 0.27742064)(0.902900366 0.022934819 0.027310043 0.003496850 0.010928356 0.003137400 0.006428826 0.003137400 0.003410565 0.003247432 0.003137400 0.003137400 0.006793144)) ;
}
potential ( d8_sex_drive | variable350 ) 
{
  data = ((0.04094531 0.04701345 0.02965542 0.08359397 0.11212949 0.02161475 0.06263413 0.02161475 0.17958356 0.08913290 0.02161475 0.02161475 0.26885277)(0.794093671 0.052786550 0.030206886 0.006690659 0.037060100 0.003137400 0.016007798 0.003137400 0.014719484 0.005886678 0.003137400 0.003137400 0.029998575)) ;
}
potential ( variable387 | variable354 ) 
{
  data = ((0.95927589 0.04072411)(0.02949714 0.97050286)) ;
}
potential ( d3_flat_affect | variable387 ) 
{
  data = ((0.316085743 0.090322631 0.047028723 0.014458183 0.160995574 0.009824235 0.099583453 0.009824235 0.056182546 0.068751803 0.009824235 0.009824235 0.107294402)(0.785780198 0.071448944 0.035002307 0.021003365 0.028921319 0.003799235 0.010879073 0.003799235 0.020064631 0.003806136 0.003799235 0.003799235 0.007897090)) ;
}
potential ( d3_depression | variable387 ) 
{
  data = ((0.056137653 0.032919958 0.023237301 0.022214617 0.139805717 0.009824235 0.241422429 0.009824235 0.112180415 0.113813230 0.009824235 0.009824235 0.218971738)(0.586167954 0.124041620 0.078396053 0.029401495 0.086505925 0.003799235 0.043409410 0.003799235 0.006007568 0.009175359 0.003799235 0.003799235 0.021697678)) ;
}
potential ( variable335 ) 
{
  data = ( 0.7543371 0.2456629 );
}
potential ( d7_nocturia | variable335 ) 
{
  data = ((0.435691193 0.151667581 0.042343592 0.040977943 0.189379993 0.003714311 0.028544508 0.003714311 0.049936843 0.010878651 0.003714311 0.003714311 0.035722453)(0.09083447 0.02262369 0.02714682 0.04142746 0.10455584 0.01044157 0.08682157 0.01044157 0.16242442 0.07383393 0.01044157 0.01044157 0.34856552)) ;
}
potential ( d9_unexplained_pain | variable335 ) 
{
  data = ((0.640102036 0.087187757 0.016212470 0.017955149 0.048282577 0.003714311 0.038170015 0.003714311 0.056461149 0.017414586 0.003714311 0.003714311 0.063357019)(0.29931797 0.06814723 0.09016435 0.03305753 0.14619171 0.01044157 0.09108731 0.01044157 0.07099248 0.05546029 0.01044157 0.01044157 0.10381485)) ;
}
potential ( d4_diplopia | variable335 ) 
{
  data = ((0.876330431 0.044031516 0.011070317 0.018419657 0.016161689 0.003714311 0.007550660 0.003714311 0.004094448 0.003714311 0.003714311 0.003714311 0.003769729)(0.54365566 0.06416805 0.04197041 0.01086858 0.13207339 0.01044157 0.04142321 0.01044157 0.05113922 0.01044157 0.01044157 0.01044157 0.06249363)) ;
}
potential ( variable364 | variable335 ) 
{
  data = ((0.01863527 0.98136473)(0.96470338 0.03529662)) ;
}
potential ( d7_urinary_urgency | variable364 ) 
{
  data = ((0.06728508 0.03770307 0.05671550 0.02419332 0.14848080 0.01024684 0.09939964 0.01024684 0.16642872 0.08562724 0.01024684 0.01024684 0.27317928)(0.644831038 0.094688376 0.057833049 0.024826950 0.076697513 0.003739591 0.053474216 0.003739591 0.017793135 0.009885781 0.003739591 0.003739591 0.005011579)) ;
}
potential ( d7_urinary_frequency | variable364 ) 
{
  data = ((0.10531854 0.02095091 0.05277713 0.04099611 0.14242180 0.01024684 0.10227541 0.01024684 0.18279620 0.09933164 0.01024684 0.01024684 0.21214491)(0.664607021 0.115760453 0.021874451 0.026173942 0.093867111 0.003739591 0.022507973 0.003739591 0.026778175 0.004884351 0.003739591 0.003739591 0.008588159)) ;
}
potential ( d1_lightheaded | variable364 ) 
{
  data = ((0.27535064 0.11698100 0.08589439 0.03156938 0.11239819 0.01024684 0.13849502 0.01024684 0.08542725 0.06147893 0.01024684 0.01024684 0.05141785)(0.662387143 0.118110115 0.058402965 0.029614235 0.063688749 0.003739591 0.024247964 0.003739591 0.013698358 0.003740359 0.003739591 0.003739591 0.011151749)) ;
}
potential ( d9_weight_change | variable364 ) 
{
  data = ((0.22393735 0.32321631 0.01035199 0.03005973 0.12416096 0.01024684 0.04105800 0.01024684 0.07955308 0.05122777 0.01024684 0.01024684 0.07544745)(0.449295821 0.353230441 0.022399172 0.018946409 0.074354282 0.003739591 0.007453400 0.003739591 0.027060912 0.003741936 0.003739591 0.003739591 0.028559264)) ;
}
potential ( variable354 | variable319 ) 
{
  data = ((0.8296352 0.1703648)(0.09641896 0.90358104)) ;
}
potential ( d3_loss_activities | variable354 ) 
{
  data = ((0.08891523 0.06439303 0.03706469 0.04125139 0.19940920 0.01022869 0.15172487 0.01022869 0.08011816 0.11150093 0.01022869 0.01022869 0.18470776)(0.697164512 0.084961177 0.079990790 0.011102887 0.054277569 0.003742015 0.019333974 0.003742015 0.011852107 0.011597227 0.003742015 0.003742015 0.014751698)) ;
}
potential ( d6_swallowing | variable354 ) 
{
  data = ((0.42317985 0.10211737 0.06670205 0.01032353 0.17485837 0.01022869 0.05708606 0.01022869 0.02089042 0.05148097 0.01022869 0.01022869 0.05244663)(0.713333245 0.097354383 0.042954298 0.011191347 0.052033083 0.003742015 0.016536050 0.003742015 0.037261720 0.007360544 0.003742015 0.003742015 0.007007271)) ;
}
potential ( d9_sweating | variable354 ) 
{
  data = ((0.44832505 0.02006094 0.03066646 0.02056978 0.18230919 0.01022869 0.06708705 0.01022869 0.05794704 0.07196409 0.01022869 0.01022869 0.06015565)(0.692908200 0.071243304 0.007491199 0.014926937 0.060533353 0.003742015 0.035329420 0.003742015 0.042415173 0.014835155 0.003742015 0.003742015 0.045349200)) ;
}
potential ( d3_loss_interest | variable354 ) 
{
  data = ((0.12434136 0.05741766 0.11647137 0.03024961 0.22850723 0.01022869 0.15895272 0.01022869 0.06038579 0.07026978 0.01022869 0.01022869 0.11248973)(0.770270714 0.102481073 0.039714980 0.015127727 0.024922408 0.003742015 0.020431787 0.003742015 0.004102849 0.004228948 0.003742015 0.003742015 0.003751457)) ;
}
potential ( variable374 | variable319 ) 
{
  data = ((0.2726176 0.7273824)(0.94505327 0.05494673)) ;
}
potential ( d5_forget_explicit | variable374 ) 
{
  data = ((0.631003078 0.165351524 0.096531462 0.017467872 0.027031476 0.003497585 0.028495056 0.003497585 0.007803057 0.003568741 0.003497585 0.003497585 0.008757396)(0.02009019 0.05973166 0.04299664 0.03800472 0.30688934 0.01264408 0.14986942 0.01264408 0.11087613 0.08825132 0.01264408 0.01264408 0.13271426)) ;
}
potential ( d5_forget_implicit | variable374 ) 
{
  data = ((0.723873053 0.134620755 0.052361210 0.008384829 0.025505522 0.003497585 0.023537231 0.003497585 0.006944191 0.003933262 0.003497585 0.003497585 0.006849609)(0.05103527 0.10760572 0.01301484 0.04555257 0.26182948 0.01264408 0.18043648 0.01264408 0.06340469 0.08693354 0.01264408 0.01264408 0.13961108)) ;
}
potential ( d2_drowsiness | variable374 ) 
{
  data = ((0.653957049 0.097505173 0.055655065 0.032475067 0.083818860 0.003497585 0.025864360 0.003497585 0.023554523 0.003500197 0.003497585 0.003497585 0.009679367)(0.26585560 0.12798514 0.05168357 0.03432869 0.11424198 0.01264408 0.17202370 0.01264408 0.04128910 0.05056687 0.01264408 0.01264408 0.09144902)) ;
}
potential ( d6_drooling | variable374 ) 
{
  data = ((0.687437987 0.102915619 0.031905899 0.013988173 0.055294812 0.003497585 0.018263632 0.003497585 0.023312818 0.013982374 0.003497585 0.003497585 0.038908346)(0.38505654 0.05784958 0.08696260 0.01265191 0.11620632 0.01264408 0.08570430 0.01264408 0.09273920 0.01267287 0.01264408 0.01264408 0.09958037)) ;
}
potential ( d2_insomnia | variable374 ) 
{
  data = ((0.534536363 0.110998955 0.047551083 0.035657279 0.075055193 0.003497585 0.042406202 0.003497585 0.048341470 0.013605873 0.003497585 0.003497585 0.077857244)(0.24238515 0.10449208 0.01775979 0.03546880 0.13327934 0.01264408 0.16279979 0.01264408 0.05283471 0.05196619 0.01264408 0.01264408 0.14843783)) ;
}
potential ( variable319 | variable364 ) 
{
  data = ((0.6806422 0.3193578)(0.05573632 0.94426368)) ;
}
potential ( d3_anxiety | variable319 ) 
{
  data = ((0.14021713 0.09629522 0.01292348 0.01519291 0.21664301 0.01187242 0.13654164 0.01187242 0.04868076 0.08235580 0.01187242 0.01187242 0.20366037)(0.534918429 0.110015449 0.088725169 0.034620076 0.102405148 0.003561619 0.048079218 0.003561619 0.038820497 0.003786956 0.003561619 0.003561619 0.024382582)) ;
}
potential ( d5_loss_concentration | variable319 ) 
{
  data = ((0.11602455 0.03228600 0.03065655 0.06852305 0.29021265 0.01187242 0.15250603 0.01187242 0.04896497 0.07029075 0.01187242 0.01187242 0.14304576)(0.599161893 0.139902496 0.076282172 0.029306369 0.066088442 0.003561619 0.021920328 0.003561619 0.024488760 0.014529599 0.003561619 0.003561619 0.014073465)) ;
}
potential ( d2_rls | variable319 ) 
{
  data = ((0.41535831 0.05995716 0.01191988 0.06542375 0.12398871 0.01187242 0.06159460 0.01187242 0.08553280 0.08342961 0.01187242 0.01187242 0.04530552)(0.651829226 0.124478159 0.039163573 0.019551275 0.062529841 0.003561619 0.024261606 0.003561619 0.034888456 0.014149680 0.003561619 0.003561619 0.014901707)) ;
}
potential ( d2_fatigue | variable319 ) 
{
  data = ((0.07510822 0.01880528 0.09519621 0.04417919 0.11743195 0.01187242 0.16069502 0.01187242 0.16197119 0.10024882 0.01187242 0.01187242 0.17887444)(0.372807939 0.126138496 0.088975427 0.040170927 0.114359479 0.003561619 0.080011229 0.003561619 0.054697057 0.034035400 0.003561619 0.003561619 0.074557570)) ;
}
potential ( d9_taste_smell | variable319 ) 
{
  data = ((0.31945699 0.01239617 0.05181169 0.01218810 0.16052903 0.01187242 0.05241258 0.01187242 0.15213297 0.05195067 0.01187242 0.01187242 0.13963214)(0.577311803 0.049705549 0.034319628 0.007028538 0.140608554 0.003561619 0.019892889 0.003561619 0.082579768 0.016469840 0.003561619 0.003561619 0.057836953)) ;
}
potential ( d1_fainting | variable319 ) 
{
  data = ((0.59885866 0.05019293 0.03885287 0.03393073 0.10003961 0.01187242 0.03563475 0.01187242 0.02374202 0.02377392 0.01187242 0.01187242 0.04748484)(0.906641642 0.027682004 0.013275824 0.004067562 0.012728447 0.003561619 0.007117992 0.003561619 0.003562464 0.007114516 0.003561619 0.003561619 0.003563073)) ;
}
potential ( variable342 | variable374 ) 
{
  data = ((0.994505927 0.005494073)(0.5117527 0.4882473)) ;
}
potential ( d4_hallucination | variable342 ) 
{
  data = ((0.861998777 0.043711484 0.011805263 0.008787548 0.029351000 0.003132384 0.004254778 0.003132384 0.011950343 0.006244201 0.003132384 0.003132384 0.009367069)(0.10514083 0.13212509 0.07062105 0.09167680 0.23232366 0.02185584 0.14515951 0.02185584 0.04775294 0.06571102 0.02185584 0.02185584 0.02206575)) ;
}
potential ( d4_delusion | variable342 ) 
{
  data = ((0.921384637 0.021513885 0.003169657 0.003132384 0.007198391 0.003132384 0.006005848 0.003132384 0.004592643 0.006334195 0.003132384 0.003132384 0.014138823)(0.25903486 0.11215949 0.04345161 0.02185584 0.16833247 0.02185584 0.08922994 0.02185584 0.05537874 0.13065062 0.02185584 0.02185584 0.03248308)) ;
}
potential ( variable346 | variable354 ) 
{
  data = ((0.06821995 0.93178005)(0.98983296 0.01016704)) ;
}
potential ( d3_loss_pleasure | variable346 ) 
{
  data = ((0.802949591 0.073289244 0.028009762 0.007856957 0.029521442 0.003696180 0.007588645 0.003696180 0.025019954 0.003789875 0.003696180 0.003696180 0.007189813)(0.07159620 0.07593006 0.08916820 0.01984432 0.27541432 0.01058757 0.08413831 0.01058757 0.06596968 0.07384461 0.01058757 0.01058757 0.20174403)) ;
}
potential ( d6_constipation | variable346 ) 
{
  data = ((0.50978732 0.08374392 0.05261275 0.01467147 0.11408862 0.00369618 0.06161609 0.00369618 0.04153857 0.03406662 0.00369618 0.00369618 0.07308994)(0.23374425 0.08833330 0.08221927 0.02149955 0.10728773 0.01058757 0.09877982 0.01058757 0.10335329 0.07181856 0.01058757 0.01058757 0.15061397)) ;
}
