network HLCM1119 {
}

variable d1_lightheaded {
	type discrete[13] { 0, 1, 2, 3, 4, 5, 6, 7, 8, 9, 10, 11, 12 };
}

variable d1_fainting {
	type discrete[13] { 0, 1, 2, 3, 4, 5, 6, 7, 8, 9, 10, 11, 12 };
}

variable d2_drowsiness {
	type discrete[13] { 0, 1, 2, 3, 4, 5, 6, 7, 8, 9, 10, 11, 12 };
}

variable d2_fatigue {
	type discrete[13] { 0, 1, 2, 3, 4, 5, 6, 7, 8, 9, 10, 11, 12 };
}

variable d2_insomnia {
	type discrete[13] { 0, 1, 2, 3, 4, 5, 6, 7, 8, 9, 10, 11, 12 };
}

variable d2_rls {
	type discrete[13] { 0, 1, 2, 3, 4, 5, 6, 7, 8, 9, 10, 11, 12 };
}

variable d3_loss_interest {
	type discrete[13] { 0, 1, 2, 3, 4, 5, 6, 7, 8, 9, 10, 11, 12 };
}

variable d3_loss_activities {
	type discrete[13] { 0, 1, 2, 3, 4, 5, 6, 7, 8, 9, 10, 11, 12 };
}

variable d3_anxiety {
	type discrete[13] { 0, 1, 2, 3, 4, 5, 6, 7, 8, 9, 10, 11, 12 };
}

variable d3_depression {
	type discrete[13] { 0, 1, 2, 3, 4, 5, 6, 7, 8, 9, 10, 11, 12 };
}

variable d3_flat_affect {
	type discrete[13] { 0, 1, 2, 3, 4, 5, 6, 7, 8, 9, 10, 11, 12 };
}

variable d3_loss_pleasure {
	type discrete[13] { 0, 1, 2, 3, 4, 5, 6, 7, 8, 9, 10, 11, 12 };
}

variable d4_hallucination {
	type discrete[13] { 0, 1, 2, 3, 4, 5, 6, 7, 8, 9, 10, 11, 12 };
}

variable d4_delusion {
	type discrete[13] { 0, 1, 2, 3, 4, 5, 6, 7, 8, 9, 10, 11, 12 };
}

variable d4_diplopia {
	type discrete[13] { 0, 1, 2, 3, 4, 5, 6, 7, 8, 9, 10, 11, 12 };
}

variable d5_loss_concentration {
	type discrete[13] { 0, 1, 2, 3, 4, 5, 6, 7, 8, 9, 10, 11, 12 };
}

variable d5_forget_explicit {
	type discrete[13] { 0, 1, 2, 3, 4, 5, 6, 7, 8, 9, 10, 11, 12 };
}

variable d5_forget_implicit {
	type discrete[13] { 0, 1, 2, 3, 4, 5, 6, 7, 8, 9, 10, 11, 12 };
}

variable d6_drooling {
	type discrete[13] { 0, 1, 2, 3, 4, 5, 6, 7, 8, 9, 10, 11, 12 };
}

variable d6_swallowing {
	type discrete[13] { 0, 1, 2, 3, 4, 5, 6, 7, 8, 9, 10, 11, 12 };
}

variable d6_constipation {
	type discrete[13] { 0, 1, 2, 3, 4, 5, 6, 7, 8, 9, 10, 11, 12 };
}

variable d7_urinary_urgency {
	type discrete[13] { 0, 1, 2, 3, 4, 5, 6, 7, 8, 9, 10, 11, 12 };
}

variable d7_urinary_frequency {
	type discrete[13] { 0, 1, 2, 3, 4, 5, 6, 7, 8, 9, 10, 11, 12 };
}

variable d7_nocturia {
	type discrete[13] { 0, 1, 2, 3, 4, 5, 6, 7, 8, 9, 10, 11, 12 };
}

variable d8_sex_drive {
	type discrete[13] { 0, 1, 2, 3, 4, 5, 6, 7, 8, 9, 10, 11, 12 };
}

variable d8_sex_dysfunction {
	type discrete[13] { 0, 1, 2, 3, 4, 5, 6, 7, 8, 9, 10, 11, 12 };
}

variable d9_unexplained_pain {
	type discrete[13] { 0, 1, 2, 3, 4, 5, 6, 7, 8, 9, 10, 11, 12 };
}

variable d9_taste_smell {
	type discrete[13] { 0, 1, 2, 3, 4, 5, 6, 7, 8, 9, 10, 11, 12 };
}

variable d9_weight_change {
	type discrete[13] { 0, 1, 2, 3, 4, 5, 6, 7, 8, 9, 10, 11, 12 };
}

variable d9_sweating {
	type discrete[13] { 0, 1, 2, 3, 4, 5, 6, 7, 8, 9, 10, 11, 12 };
}

variable variable121 {
	type discrete[2] { state0, state1 };
}

variable variable130 {
	type discrete[2] { state0, state1 };
}

variable variable139 {
	type discrete[2] { state0, state1 };
}

variable variable148 {
	type discrete[2] { state0, state1 };
}

variable variable157 {
	type discrete[2] { state0, state1 };
}

variable variable166 {
	type discrete[2] { state0, state1 };
}

variable variable175 {
	type discrete[2] { state0, state1 };
}

variable variable184 {
	type discrete[2] { state0, state1 };
}

variable variable193 {
	type discrete[2] { state0, state1 };
}

variable variable202 {
	type discrete[2] { state0, state1 };
}

probability ( d1_lightheaded | variable193 ) {
	(state0) 0.030642763197835952, 0.0374076667477905, 0.0953658554377317, 0.02565821847957459, 0.2435502681203895, 0.02136573362704788, 0.16105413567198115, 0.02136573362704788, 0.11499196521308724, 0.09689583871243201, 0.02136573362704788, 0.02136573362704788, 0.10897035391098595;
	(state1) 0.6366068245821915, 0.12963445112456334, 0.061397689972634395, 0.030795774649135386, 0.052171898277228984, 0.0031427162369222893, 0.039164642182492514, 0.0031427162369222893, 0.020798262646522833, 0.007746466522594412, 0.0031427162369222893, 0.0031427162369222893, 0.00911312509494759;
}

probability ( d1_fainting | variable193 ) {
	(state0) 0.2509618822329172, 0.11888497024690177, 0.08237690101130637, 0.04217090175344063, 0.1909935672403132, 0.021365733627047877, 0.07750364630246305, 0.021365733627047877, 0.023379398380943668, 0.043365653411616356, 0.021365733627047877, 0.021365733627047877, 0.0849001449119062;
	(state1) 0.9216141110123968, 0.02022563498281833, 0.00988207777997838, 0.006367886852969528, 0.009619078589828625, 0.0031427162369222885, 0.004313459292841548, 0.0031427162369222885, 0.005989239652748323, 0.006192149127283136, 0.0031427162369222885, 0.0031427162369222885, 0.003225497761446105;
}

probability ( d2_drowsiness | variable184 ) {
	(state0) 0.662310594908191, 0.10709485124476784, 0.06323395601958938, 0.022504462222251036, 0.0675464842452443, 0.0035904169489392916, 0.017863034184770935, 0.0035904169489392916, 0.026385222887288277, 0.0036033713941355217, 0.0035904169489392916, 0.0035904169489392916, 0.015096355098004747;
	(state1) 0.27212732850918697, 0.09449528571318484, 0.027614565487074402, 0.06628146940315201, 0.16404803993949635, 0.011563258188281047, 0.18529892628749509, 0.011563258188281047, 0.030656616990713086, 0.04621131180633159, 0.011563258188281047, 0.011563258188281047, 0.0670134231102416;
}

probability ( d2_fatigue | variable184 ) {
	(state0) 0.38216281189496903, 0.12823455849706908, 0.08553552888308734, 0.0441019587268157, 0.10263066623211048, 0.0035904169489392908, 0.07231077152209292, 0.0035904169489392908, 0.0529167674861558, 0.031252146991329444, 0.0035904169489392908, 0.0035904169489392908, 0.08649312197061303;
	(state1) 0.052732219470296625, 0.01484971383839658, 0.10611271636395891, 0.031414579142045596, 0.15512562467773985, 0.011563258188281047, 0.18339400217033786, 0.011563258188281047, 0.16491131554625194, 0.10748831910180692, 0.011563258188281047, 0.011563258188281047, 0.13771847693604164;
}

probability ( d2_insomnia | variable184 ) {
	(state0) 0.5650650018343889, 0.12094808865459451, 0.04588224432697758, 0.02929225531593367, 0.05223774326778951, 0.0035904169489392908, 0.03649486610872568, 0.0035904169489392908, 0.03409560249956283, 0.017147899057751492, 0.0035904169489392908, 0.0035904169489392908, 0.08447463113851858;
	(state1) 0.16903814429775094, 0.07300621476618992, 0.025681010496311486, 0.05598403419924327, 0.20178794820159757, 0.011563258188281045, 0.17154648164864272, 0.011563258188281045, 0.098330716891204, 0.037279726334152795, 0.011563258188281045, 0.011563258188281045, 0.1210926904117831;
}

probability ( d2_rls | variable184 ) {
	(state0) 0.6679732172817476, 0.13184266028777739, 0.039312129593121005, 0.01613186374780096, 0.0517324896756602, 0.0035904169489392908, 0.01892013698235463, 0.0035904169489392908, 0.036820666031175196, 0.011762211731705583, 0.0035904169489392908, 0.0035904169489392908, 0.011142956872900286;
	(state1) 0.36952292971277084, 0.03791927460386888, 0.012150876740499488, 0.07524173328438478, 0.15716212973011096, 0.011563258188281045, 0.0778251086988441, 0.011563258188281045, 0.07799114841817682, 0.089314587544384, 0.011563258188281045, 0.011563258188281045, 0.05661917851383587;
}

probability ( d3_loss_interest | variable175 ) {
	(state0) 0.7719915329379891, 0.10115469390734279, 0.041499227392756466, 0.01829904071083288, 0.024916755864125967, 0.0037819629762541607, 0.013685000863397459, 0.0037819629762541607, 0.004057993917439671, 0.005479850279274287, 0.0037819629762541607, 0.0037819629762541607, 0.003788052221824654;
	(state1) 0.13794458907733637, 0.06216892579244483, 0.10962710498396906, 0.021488816643439147, 0.2228088778810203, 0.009941637947167974, 0.1728006645338637, 0.009941637947167974, 0.05892422574118229, 0.06512823292596831, 0.009941637947167974, 0.009941637947167974, 0.1093420106321041;
}

probability ( d3_loss_activities | variable175 ) {
	(state0) 0.6953227597358111, 0.08363677825440695, 0.08206430595422712, 0.0084797549766896, 0.053548207286625384, 0.00378196297625416, 0.016158306238391956, 0.00378196297625416, 0.011633957968835425, 0.016442655799573467, 0.00378196297625416, 0.00378196297625416, 0.017585421880422003;
	(state1) 0.11082595562609394, 0.06845168122967499, 0.03281868399679672, 0.04730075194835093, 0.19725363279964747, 0.009941637947167974, 0.1563574540632826, 0.009941637947167974, 0.07877585711084613, 0.09596015729994478, 0.009941637947167974, 0.009941637947167974, 0.17248927413669052;
}

probability ( d3_anxiety | variable175 ) {
	(state0) 0.5719260878549526, 0.10797391755902094, 0.09081801042763235, 0.026205388704396402, 0.09333979920691234, 0.0037819629762541607, 0.03741980564400405, 0.0037819629762541607, 0.030809241454382866, 0.007635116299853351, 0.0037819629762541607, 0.0037819629762541607, 0.018744780943828285;
	(state1) 0.10712446952830973, 0.10389307491873252, 0.019749477808918652, 0.04047196845441539, 0.22189485395539232, 0.009941637947167974, 0.15017558600858383, 0.009941637947167974, 0.06813638241418349, 0.05946268976995023, 0.009941637947167974, 0.009941637947167974, 0.1893249453528419;
}

probability ( d3_depression | variable175 ) {
	(state0) 0.5856155758148749, 0.11881866640214854, 0.07578014036190485, 0.027343098326742418, 0.09199863161613457, 0.0037819629762541607, 0.04496539802985857, 0.0037819629762541607, 0.007221189655696469, 0.010616754448704491, 0.0037819629762541607, 0.0037819629762541607, 0.022512693438918593;
	(state1) 0.05125566605631977, 0.04556059310174084, 0.02945458068854376, 0.0275396356682472, 0.1260039988470405, 0.009941637947167976, 0.23969852094035446, 0.009941637947167976, 0.11025896758563951, 0.11127469165945933, 0.009941637947167976, 0.009941637947167976, 0.2191867936639828;
}

probability ( d3_flat_affect | variable175 ) {
	(state0) 0.7786405240776975, 0.06849576632820595, 0.035571953885697845, 0.019209266999539967, 0.032234794635914714, 0.0037819629762541607, 0.012245109410100331, 0.0037819629762541607, 0.025113891097990632, 0.0037844887278011266, 0.0037819629762541607, 0.0037819629762541607, 0.009576352932035289;
	(state1) 0.32924079724948074, 0.09831118879058164, 0.045675012535238, 0.01909610675464935, 0.1538637753543207, 0.009941637947167974, 0.09705260052506685, 0.009941637947167974, 0.04334118586643625, 0.06958482619251287, 0.009941637947167974, 0.009941637947167974, 0.10406795494304168;
}

probability ( d3_loss_pleasure | variable175 ) {
	(state0) 0.8016117652051322, 0.07308619503396904, 0.030316629889185168, 0.011187425134212345, 0.0212705730426369, 0.0037819629762541607, 0.00760384407508853, 0.0037819629762541607, 0.028716961592321184, 0.003789605844857629, 0.0037819629762541607, 0.0037819629762541607, 0.00728914827758037;
	(state1) 0.11973177586198745, 0.07630270077070779, 0.07937294732402468, 0.010358191383318267, 0.28210178056302726, 0.009941637947167976, 0.07942817089431257, 0.009941637947167976, 0.053753078096346114, 0.06957137483790458, 0.009941637947167976, 0.009941637947167976, 0.18961342847969948;
}

probability ( d4_hallucination | variable166 ) {
	(state0) 0.08714537014678263, 0.11199840237338202, 0.06876009006546473, 0.054484758669606656, 0.27845709017620085, 0.025013802240845224, 0.14575487966739795, 0.025013802240845224, 0.053653736259531945, 0.07345713148368134, 0.025013802240845224, 0.025013802240845224, 0.026233332194571097;
	(state1) 0.8507610188545522, 0.04775840545147783, 0.01307946260547746, 0.014835337758285848, 0.027283877345821217, 0.0030767141311133727, 0.006685766964039424, 0.0030767141311133727, 0.011860839930305058, 0.006348295158831403, 0.0030767141311133727, 0.0030767141311133727, 0.009080139406756272;
}

probability ( d4_delusion | variable166 ) {
	(state0) 0.2770276962833862, 0.058340071750556215, 0.04980409071468245, 0.025013802240845224, 0.17544392389774213, 0.025013802240845224, 0.10422895585390908, 0.025013802240845224, 0.05275284583918896, 0.12573021895843808, 0.025013802240845224, 0.025013802240845224, 0.031603185497870924;
	(state1) 0.9073999352333978, 0.029744702368653602, 0.003104206471495314, 0.0030767141311133723, 0.00918742325480665, 0.0030767141311133723, 0.005640054648965752, 0.0030767141311133723, 0.00581822178243701, 0.009148813404592305, 0.0030767141311133723, 0.0030767141311133723, 0.014573072180084879;
}

probability ( d4_diplopia | variable166 ) {
	(state0) 0.22443623977068589, 0.11002141809781442, 0.05089775717594837, 0.02626653042406965, 0.28170844709383885, 0.025013802240845224, 0.10274861017493406, 0.025013802240845224, 0.027885791716343564, 0.025013802240845224, 0.025013802240845224, 0.025013802240845224, 0.050966194342139275;
	(state1) 0.8584878646220443, 0.04184814755571761, 0.015276541301737634, 0.015229484264915029, 0.017653815912685732, 0.0030767141311133723, 0.005822138141334532, 0.0030767141311133723, 0.015030314060723962, 0.0030767141311133723, 0.0030767141311133723, 0.0030767141311133723, 0.015268123485274326;
}

probability ( d5_loss_concentration | variable157 ) {
	(state0) 0.6118796418783207, 0.13814277319675525, 0.07707196772731975, 0.03146655634737309, 0.05495215828443407, 0.0036772649014130666, 0.024071768280742856, 0.0036772649014130666, 0.021557392943663954, 0.01776904410754739, 0.0036772649014130666, 0.0036772649014130666, 0.008379637628190603;
	(state1) 0.12470280522560127, 0.04763960315181929, 0.03267777531652843, 0.05848934390118542, 0.30148954779581305, 0.010745899332026994, 0.13382828406786446, 0.010745899332026994, 0.055208730927710774, 0.05553334631760846, 0.010745899332026994, 0.010745899332026994, 0.1474469659677609;
}

probability ( d5_forget_explicit | variable157 ) {
	(state0) 0.6588047049061538, 0.16928484365876978, 0.1009426310120558, 0.018247020643286125, 0.01158121524065147, 0.0036772649014130683, 0.012717622208457737, 0.0036772649014130683, 0.005576890555046986, 0.0039532107534277225, 0.0036772649014130683, 0.0036772649014130683, 0.00418280141649839;
	(state1) 0.030559484323709946, 0.06409357965997364, 0.03814294712948599, 0.03264477916560962, 0.31002553467723454, 0.010745899332026996, 0.17775387373088192, 0.010745899332026996, 0.10190780606839646, 0.07441491165960705, 0.010745899332026996, 0.010745899332026996, 0.12747348625699298;
}

probability ( d5_forget_implicit | variable157 ) {
	(state0) 0.7406367406993144, 0.1338069715581406, 0.05414393689157157, 0.00772718607807484, 0.020827883728443602, 0.0036772649014130674, 0.014343446768738747, 0.0036772649014130674, 0.00425592659145738, 0.004077948627716318, 0.0036772649014130674, 0.0036772649014130674, 0.005470899450890278;
	(state1) 0.10305663189528459, 0.11403941026858934, 0.013712093428098971, 0.04189460131432287, 0.24002083025176787, 0.010745899332026996, 0.18374870194763426, 0.010745899332026996, 0.06278439998419766, 0.07405039600029702, 0.010745899332026996, 0.010745899332026996, 0.12370933758169954;
}

probability ( d6_drooling | variable148 ) {
	(state0) 0.16462760895334996, 0.038053678616123104, 0.16635863452556307, 0.014136495583636092, 0.1539827029395315, 0.013995064575159349, 0.11642067486452477, 0.013995064575159349, 0.13023768555889959, 0.031597780497333194, 0.013995064575159349, 0.013995064575159349, 0.12860448016040135;
	(state1) 0.7332294187661017, 0.10656216088075246, 0.01401159113833269, 0.013592046816049868, 0.04768365211777952, 0.003406618335731284, 0.012540800830429575, 0.003406618335731284, 0.015990760274861817, 0.009341696056110533, 0.003406618335731284, 0.003406618335731284, 0.03342139977665687;
}

probability ( d6_swallowing | variable148 ) {
	(state0) 0.11391292481125298, 0.11713980151498764, 0.14898876054780424, 0.014174782108730622, 0.25266011619127676, 0.013995064575159345, 0.08834401128020321, 0.013995064575159345, 0.07228255058722871, 0.06326824503061525, 0.013995064575159345, 0.013995064575159345, 0.0732485496272631;
	(state1) 0.7626072604072508, 0.09412459417633258, 0.025052927713457254, 0.01017610893929767, 0.04410373124724855, 0.0034066183357312828, 0.012561864669611103, 0.0034066183357312828, 0.023284712918888856, 0.008445844670079977, 0.0034066183357312828, 0.0034066183357312828, 0.006016481914907646;
}

probability ( d6_constipation | variable148 ) {
	(state0) 0.09280910864366433, 0.048512825116674645, 0.07631734733834936, 0.0271953826979882, 0.10442956672331688, 0.013995064575159349, 0.15924081700101358, 0.013995064575159349, 0.09982629328077189, 0.11459512929643931, 0.013995064575159349, 0.013995064575159349, 0.22109327160114445;
	(state1) 0.5224677402623097, 0.09379638548472945, 0.05636876343076179, 0.013819927101014394, 0.11425155645917395, 0.003406618335731283, 0.049810362977770736, 0.003406618335731283, 0.04723969873752519, 0.026611640612077065, 0.003406618335731283, 0.003406618335731283, 0.06200745159171258;
}

probability ( d7_urinary_urgency | variable139 ) {
	(state0) 0.09366132169665166, 0.03894377530342943, 0.05878669640095663, 0.02547728228522035, 0.19813568075389923, 0.008165508163386443, 0.11174861269533538, 0.008165508163386443, 0.14510100572671428, 0.07601739210788315, 0.008165508163386443, 0.008165508163386443, 0.21946620037636422;
	(state1) 0.6907480310854132, 0.09990654133032978, 0.05690182726707647, 0.024243605898349445, 0.04426208902951039, 0.0041231392417631785, 0.042528346568544415, 0.0041231392417631785, 0.013317777286882479, 0.006969867020651393, 0.0041231392417631785, 0.0041231392417631785, 0.004629357546189642;
}

probability ( d7_urinary_frequency | variable139 ) {
	(state0) 0.14749060945853373, 0.014882580347390147, 0.03918164518089295, 0.040588201199892794, 0.18482472117024856, 0.008165508163386442, 0.11986198576421112, 0.008165508163386442, 0.1724366793745793, 0.07961869711702695, 0.008165508163386442, 0.008165508163386442, 0.16845284773367855;
	(state1) 0.7006754102377438, 0.12854869819268358, 0.025569923577491903, 0.02485968899053984, 0.06747595944169134, 0.004123139241763179, 0.0054464187908933835, 0.004123139241763179, 0.016007300019896677, 0.005151403098058111, 0.004123139241763179, 0.004123139241763179, 0.009772640683948687;
}

probability ( d7_nocturia | variable139 ) {
	(state0) 0.09265433084130467, 0.01788380988909898, 0.04057122976746975, 0.03020014139275078, 0.15485686697705736, 0.008165508163386442, 0.07151728169561372, 0.008165508163386442, 0.2067193395879598, 0.06349503608151974, 0.008165508163386442, 0.008165508163386442, 0.2894399311136793;
	(state1) 0.4727301270984167, 0.16826463228863428, 0.03723767636974585, 0.04659765336881322, 0.17331716556690518, 0.0041231392417631785, 0.02985787518627759, 0.0041231392417631785, 0.01518897090252473, 0.00916983915156924, 0.0041231392417631785, 0.0041231392417631785, 0.031143503100060494;
}

probability ( d8_sex_drive | variable130 ) {
	(state0) 0.037893256451653166, 0.052353176161506185, 0.0392107412404585, 0.08218932961717122, 0.11339936046462662, 0.021148052242522093, 0.06454766829204472, 0.021148052242522093, 0.17997233432034881, 0.08956547623383498, 0.021148052242522093, 0.021148052242522093, 0.25627644824826756;
	(state1) 0.7969681394590468, 0.052010386140433566, 0.028786532040491968, 0.006652585791230326, 0.03662987000795048, 0.003147481660227731, 0.015573171785585635, 0.003147481660227731, 0.014131834011399122, 0.00555478794522258, 0.003147481660227731, 0.003147481660227731, 0.031102766177728603;
}

probability ( d8_sex_dysfunction | variable130 ) {
	(state0) 0.0908081959274379, 0.06807315547091693, 0.034333713094560375, 0.06066797953389767, 0.1863248562876126, 0.02114805224252209, 0.0654247966373919, 0.02114805224252209, 0.10418964116413645, 0.040686812307642296, 0.02114805224252209, 0.02114805224252209, 0.26489864060631546;
	(state1) 0.9055495877967435, 0.021343434007726373, 0.026364902410020617, 0.003560662349513389, 0.010038901386758024, 0.0031474816602277307, 0.006000183086313775, 0.0031474816602277307, 0.003378261691815703, 0.0033869939120527858, 0.0031474816602277307, 0.0031474816602277307, 0.007787146718144697;
}

probability ( d9_unexplained_pain | variable121 ) {
	(state0) 0.6222088094779217, 0.08316503788621393, 0.03550075370041125, 0.02216898061678813, 0.050087070634440546, 0.0031802729110032707, 0.028944819739028717, 0.0031802729110032707, 0.05759647006670571, 0.0186945962273363, 0.0031802729110032707, 0.0031802729110032707, 0.06891237000714052;
	(state1) 0.10588362351943527, 0.07613917255336163, 0.036335872028565044, 0.020355787057063937, 0.22251482701206368, 0.019777864269934036, 0.195773889485356, 0.019777864269934036, 0.07692514790183672, 0.08151843575727709, 0.019777864269934036, 0.019777864269934036, 0.1054417876053044;
}

probability ( d9_taste_smell | variable121 ) {
	(state0) 0.5787235031701243, 0.04443913279015231, 0.026893184334780093, 0.0035365107048173053, 0.14181182336545373, 0.0031802729110032707, 0.021996279081754173, 0.0031802729110032707, 0.09576718789547548, 0.01357198613577541, 0.0031802729110032707, 0.0031802729110032707, 0.0605393008776539;
	(state1) 0.13898091332305385, 0.020304531981182098, 0.10964352552460369, 0.037340314035817834, 0.16631035671821898, 0.019777864269934036, 0.060985532706373524, 0.019777864269934036, 0.11643458965895664, 0.09359767618680241, 0.019777864269934036, 0.019777864269934036, 0.17729110278525476;
}

probability ( d9_weight_change | variable121 ) {
	(state0) 0.4286189098837919, 0.3599367150866062, 0.019037124386449108, 0.019602521014230857, 0.0746791561869835, 0.003180272911003272, 0.00866697891113986, 0.003180272911003272, 0.03861200642060626, 0.003838665492455291, 0.003180272911003272, 0.003180272911003272, 0.034286830973724175;
	(state1) 0.14290981874324113, 0.25359309678497766, 0.02005468757114718, 0.03631639518538773, 0.16846792440120487, 0.019777864269934043, 0.06476793315550383, 0.019777864269934043, 0.056542967375168035, 0.09479483025513655, 0.019777864269934043, 0.019777864269934043, 0.08344088944849704;
}

probability ( d9_sweating | variable121 ) {
	(state0) 0.6886717297445712, 0.06056439425256504, 0.008240006833105386, 0.015864000644926428, 0.07749858853920505, 0.003180272911003272, 0.02825359720143513, 0.003180272911003272, 0.04935002649231336, 0.014905482470495859, 0.003180272911003272, 0.003180272911003272, 0.043931082177369726;
	(state1) 0.24633620849794607, 0.03868999919310824, 0.04764537427687771, 0.020010227454802836, 0.1904898274044124, 0.019777864269934036, 0.14073895465598893, 0.019777864269934036, 0.029319803207034797, 0.12486049708930821, 0.019777864269934036, 0.019777864269934036, 0.08279765114078455;
}

probability ( variable121 | variable202 ) {
	(state0) 0.9888671802034328, 0.011132819796567195;
	(state1) 0.46491118476398446, 0.5350888152360155;
}

probability ( variable130 | variable202 ) {
	(state0) 0.05779023640439418, 0.9422097635956058;
	(state1) 0.2991301243656897, 0.7008698756343104;
}

probability ( variable139 | variable202 ) {
	(state0) 0.19586337543656637, 0.8041366245634336;
	(state1) 0.8450391880720187, 0.15496081192798136;
}

probability ( variable148 | variable202 ) {
	(state0) 0.04702220047635391, 0.952977799523646;
	(state1) 0.6967833707370463, 0.3032166292629536;
}

probability ( variable157 | variable202 ) {
	(state0) 0.8899307810109254, 0.11006921898907475;
	(state1) 0.2404647637007822, 0.7595352362992178;
}

probability ( variable166 | variable202 ) {
	(state0) 0.006199511011531464, 0.9938004889884686;
	(state1) 0.399814899492019, 0.6001851005079811;
}

probability ( variable175 | variable202 ) {
	(state0) 0.880780249860937, 0.11921975013906318;
	(state1) 0.1669663102026292, 0.8330336897973708;
}

probability ( variable184 | variable202 ) {
	(state0) 0.9592838668689269, 0.04071613313107309;
	(state1) 0.057534408516335, 0.9424655914836649;
}

probability ( variable193 | variable202 ) {
	(state0) 0.020923460964929697, 0.9790765390350703;
	(state1) 0.44056838621178757, 0.5594316137882124;
}

probability ( variable202 ) {
	table 0.8028809443924766, 0.1971190556075234;
}

