// ./result\FinalBIModel.bif
// Produced by org.latlab at Thu Mar 02 16:12:50 EET 2017
network "HLCM9569" {
}

variable "variable128" {
	type discrete[3] { "state0" "state1" "state2" };
}

variable "scm1rue" {
	type discrete[4] { "s0" "s1" "s2" "s3" };
}

variable "scm2rue" {
	type discrete[4] { "s0" "s1" "s2" "s3" };
}

variable "variable187" {
	type discrete[4] { "state0" "state1" "state2" "state3" };
}

variable "scm5rise" {
	type discrete[4] { "s0" "s1" "s2" "s3" };
}

variable "scm6post" {
	type discrete[4] { "s0" "s1" "s2" "s3" };
}

variable "scm7gait" {
	type discrete[4] { "s0" "s1" "s2" "s3" };
}

variable "scm9free" {
	type discrete[4] { "s0" "s1" "s2" "s3" };
}

variable "scm16wal" {
	type discrete[4] { "s0" "s1" "s2" "s3" };
}

variable "scm17han" {
	type discrete[4] { "s0" "s1" "s2" "s3" };
}

variable "variable112" {
	type discrete[3] { "state0" "state1" "state2" };
}

variable "scm8spee" {
	type discrete[4] { "s0" "s1" "s2" "s3" };
}

variable "scm11spe" {
	type discrete[4] { "s0" "s1" "s2" "s3" };
}

variable "variable203" {
	type discrete[3] { "state0" "state1" "state2" };
}

variable "scm3lue" {
	type discrete[4] { "s0" "s1" "s2" "s3" };
}

variable "scm4lue" {
	type discrete[4] { "s0" "s1" "s2" "s3" };
}

variable "scm3rue" {
	type discrete[4] { "s0" "s1" "s2" "s3" };
}

variable "scm4rue" {
	type discrete[4] { "s0" "s1" "s2" "s3" };
}

variable "scm10swa" {
	type discrete[4] { "s0" "s1" "s2" "s3" };
}

variable "variable222" {
	type discrete[3] { "state0" "state1" "state2" };
}

variable "variable219" {
	type discrete[3] { "state0" "state1" "state2" };
}

variable "scm1lue" {
	type discrete[4] { "s0" "s1" "s2" "s3" };
}

variable "scm2lue" {
	type discrete[4] { "s0" "s1" "s2" "s3" };
}

variable "variable54" {
	type discrete[3] { "state0" "state1" "state2" };
}

variable "scm18dpr" {
	type discrete[4] { "s0" "s1" "s2" "s3" };
}

variable "scm19dsv" {
	type discrete[4] { "s0" "s1" "s2" "s3" };
}

variable "variable95" {
	type discrete[4] { "state0" "state1" "state2" "state3" };
}

variable "scm12fee" {
	type discrete[4] { "s0" "s1" "s2" "s3" };
}

variable "scm13dre" {
	type discrete[4] { "s0" "s1" "s2" "s3" };
}

variable "scm14hyg" {
	type discrete[4] { "s0" "s1" "s2" "s3" };
}

variable "scm15cha" {
	type discrete[4] { "s0" "s1" "s2" "s3" };
}

variable "variable40" {
	type discrete[3] { "state0" "state1" "state2" };
}

variable "scm20fpr" {
	type discrete[4] { "s0" "s1" "s2" "s3" };
}

variable "scm21fsv" {
	type discrete[4] { "s0" "s1" "s2" "s3" };
}

probability ( "variable128"  ) {
	table 0.47338988216021366 0.10467128969949827 0.42193882814028816;
}
probability ( "scm1rue" | "variable128" ) {
	table 0.8682575226087607 0.003879221756582628 0.19716907027467476 0.1118385093851601 5.21304262049071E-11 0.5965705515490556 0.019903968006079145 0.6048526112605283 0.19713980553432275 2.9553237435261803E-148 0.3912681669307586 0.00912057264194694;
}
probability ( "scm2rue" | "variable128" ) {
	table 0.9883966403767906 0.03798379545621366 0.04967250664607169 0.011603359623209325 1.348777278860487E-9 0.8831689872520475 1.4137268922161387E-97 0.7565598989321496 0.06715850610188069 2.91734E-318 0.2054563042628594 2.6401776395472718E-188;
}
probability ( "variable187" | "variable95" ) {
	table 0.07220105982455902 0.020491531231595403 0.17745267427418265 0.83440312947255 0.2023007484626361 0.8105256962748565 3.1727975201064855E-256 0.027038349655274806 0.0024749367278059497 0.0 0.8225473257258173 0.0701768758851865 0.723023254984999 0.16898277249354807 3.736873366057172E-247 0.06838164498698865;
}
probability ( "scm5rise" | "variable187" ) {
	table 0.15108855891307824 0.9643787696038754 0.0 0.4395372170162071 0.4044707255334776 0.03562123039612468 0.0 0.5249913737396738 0.4107621198720852 2.3520681018393002E-125 0.1434377073783307 0.0354714092441191 0.03367859568135901 0.0 0.8565622926216694 3.633045136813808E-178;
}
probability ( "scm6post" | "variable187" ) {
	table 0.1373165301446553 0.9327593844913686 3.5213458350142526E-230 0.5088483913871297 0.38823239693590894 0.0672406155086314 1.656950873558752E-267 0.40354804409060807 0.46442580864023775 1.7190697997529382E-117 0.264651865351044 0.08760356452226223 0.010025264279197912 0.0 0.735348134648956 1.6414287475755286E-71;
}
probability ( "scm7gait" | "variable187" ) {
	table 0.009561429947228384 0.7325899365356644 0.0 0.09259041100664596 0.2919252868102169 0.26741006346433555 0.0 0.833367591828593 0.6985132832425547 2.5094773187763173E-236 0.44843861142446534 0.07404199716476102 0.0 0.0 0.5515613885755347 0.0;
}
probability ( "scm9free" | "variable187" ) {
	table 0.17747020672923128 0.9373914726016649 5.731390914230544E-198 0.5454269549976524 0.28523810054094384 0.06260852739833508 0.09192827725763332 0.3480339761280248 0.4634185753802381 4.7024855819834646E-141 0.3202099881314218 0.09518901768699044 0.07387311734958692 0.0 0.5878617346109449 0.011350051187332346;
}
probability ( "scm16wal" | "variable187" ) {
	table 0.02034471155623099 0.7224555290786292 0.0 0.019687167230448322 0.3308568662606895 0.2775444709213707 2.2558942941857196E-283 0.9344728868188514 0.6487984221830796 8.31761456998882E-224 0.3105482642805817 0.04583994595070034 0.0 0.0 0.6894517357194183 0.0;
}
probability ( "scm17han" | "variable187" ) {
	table 1.1564893406350277E-21 0.3454597793953641 0.0 0.06984116144647912 0.34563142438266226 0.5817712792397137 0.12582587148541688 0.6775189388874715 0.5222100138611531 0.062193035495581916 0.24320339415663475 0.2482556312991751 0.13215856175618476 0.010575905869340388 0.6309707343579484 0.004384268366874419;
}
probability ( "variable112" | "variable187" ) {
	table 2.1464906912469367E-46 0.7116413970749393 3.366303548605292E-30 0.19868751536019819 0.4122837615015777 0.26080177183681286 0.12939759917474283 0.7507515826122092 0.5877162384984222 0.027556831088247778 0.8706024008252571 0.05056090202759259;
}
probability ( "scm8spee" | "variable112" ) {
	table 0.8201568751720062 0.008026642833533156 6.62339504435236E-78 0.1700116338650958 0.9757258508525474 0.13369843690892708 0.009831490962898027 0.016247506313919538 0.7824547036472829 0.0 1.0092499660763034E-227 0.08384685944379004;
}
probability ( "scm11spe" | "variable112" ) {
	table 0.9053317385352476 0.10247807768010246 0.010498821752628512 0.08300992801984493 0.8627056224609613 0.17070708997412468 0.011658333444907487 0.03481629985893622 0.7454280862599305 0.0 0.0 0.0733660020133163;
}
probability ( "variable203" | "variable219" ) {
	table 0.3594192902196509 0.0996981962042338 0.01344422263901322 0.1659394882460989 0.2084515430385105 0.7726992856010438 0.4746412215342503 0.6918502607572558 0.2138564917599429;
}
probability ( "scm3lue" | "variable203" ) {
	table 0.7259793223408789 3.896383070817572E-78 0.03734329443761345 0.21943348217285075 1.1354989415509893E-8 0.7503309594638932 0.04666880472749854 0.7436794308093335 0.21232574609849342 0.007918390758771814 0.2563205578356771 1.7017900606077162E-92;
}
probability ( "scm4lue" | "variable203" ) {
	table 0.7962259349219807 5.604173237772186E-63 0.08791445896942675 0.2037740650780193 0.04887872099442384 0.7352659286815351 2.6328789350985026E-54 0.8003368829985853 0.17681961234903815 7.479086927413557E-142 0.15078439600699095 5.38296492155504E-84;
}
probability ( "scm3rue" | "variable222" ) {
	table 5.616079704022243E-35 0.044962688751383574 0.6535625399164894 0.06717165786566436 0.8113282895592201 0.32312651473978016 0.7752887136688588 0.14370902168939642 0.023310945343730467 0.15753962846547678 1.314176632425571E-55 1.198302775804684E-127;
}
probability ( "scm4rue" | "variable222" ) {
	table 0.010129240710384681 0.02453013729390571 0.6287244495055027 0.04682422907890173 0.7871330424151719 0.3709119349993905 0.8336803380404768 0.18311159872754648 3.63615495106789E-4 0.10936619217023683 0.005225221563375912 9.489385439629799E-21;
}
probability ( "scm10swa" | "variable112" ) {
	table 0.9297633023116478 0.610314772931163 0.35999212738347847 0.06280995000641304 0.32924614930498247 0.4333134255896136 0.007426747681939036 0.06043907776385471 0.18573273216596045 0.0 2.878308042147615E-147 0.020961714860947535;
}
probability ( "variable222" | "variable203" ) {
	table 0.03208974408764609 0.6433317177842227 0.14692361998098402 0.40266805259228794 0.3565595387330693 0.5815995002494885 0.5652422033200659 1.0874348270790618E-4 0.27147687976952745;
}
probability ( "variable219" | "variable128" ) {
	table 0.8012548427444859 0.25810353818230225 0.2676293051540906 0.18371820510880532 0.28571925215509836 0.6468007764381 0.015026952146708876 0.4561772096625994 0.08556991840780934;
}
probability ( "scm1lue" | "variable219" ) {
	table 0.8426086735171642 0.21086573204134226 1.4031002542988545E-29 0.13299498377727975 0.6228293042757623 7.238210468235699E-48 0.024396342705556195 0.15997966306182693 0.6724925807998715 2.9944315850036557E-152 0.006325300621068425 0.32750741920012855;
}
probability ( "scm2lue" | "variable219" ) {
	table 0.9734770141645915 0.04113050129833748 2.384878674735431E-75 0.026496155270705545 0.8811524530463635 0.11172637877826352 2.6830564702992987E-5 0.07771704565529906 0.6715670606493824 0.0 3.4070354355448E-203 0.21670656057235405;
}
probability ( "variable54" | "variable40" ) {
	table 0.53043146322235 0.9169546925880256 0.2798909265828215 0.41651598331367434 0.07109164117656804 0.271661314038543 0.05305255346397553 0.011953666235406406 0.4484477593786355;
}
probability ( "scm18dpr" | "variable54" ) {
	table 0.9979269328366417 0.01163350113425294 0.021665904924915533 0.002073067163358342 0.9078684882863348 0.05703799160105629 0.0 0.05591726977570056 0.5883471722401613 0.0 0.024580740803711674 0.3329489312338669;
}
probability ( "scm19dsv" | "variable54" ) {
	table 0.9994287941976668 0.033653916583104404 1.22399643538789E-150 1.9415496877552783E-54 0.8368668839832835 0.05397978453744111 5.712058023331711E-4 0.12947919943361214 0.6109719410890472 0.0 1.8980554891554E-26 0.33504827437351165;
}
probability ( "variable95" | "variable203" ) {
	table 0.4119482187301125 0.43502712670937727 0.6402118637646516 0.495801438855407 0.04398065612776193 0.2812551704482499 0.007910181010850096 0.12969367633687767 2.4818677186568483E-154 0.08434016140363035 0.3912985408259832 0.07853296578709863;
}
probability ( "scm12fee" | "variable95" ) {
	table 0.16223723039657648 0.8746128586606182 0.0 0.031016398258140766 0.7736800499561194 0.12538714133938175 2.7203891165105454E-194 0.35882770584992263 0.06076207302237552 1.525241686647002E-194 0.39571088922365855 0.6101558958919368 0.0033206466249287845 8.803468949968695E-212 0.6042891107763414 1.3665946818941262E-137;
}
probability ( "scm13dre" | "variable95" ) {
	table 2.4729371847631367E-17 0.8387390123674923 0.0 0.02325044284875806 0.8973482601543278 0.16126098763250785 0.0 0.1529158673055851 0.10265173984567215 6.598324844603562E-139 0.175969394395898 0.8238336898456569 0.0 0.0 0.8240306056041019 1.0337562064662111E-93;
}
probability ( "scm14hyg" | "variable95" ) {
	table 0.052266200111653977 0.8863162051925493 0.0 5.165427558457595E-25 0.9162963325886421 0.11368379480745075 1.0518919932158227E-217 0.25234024918075587 0.031437467299703876 9.47575523561857E-92 0.2804934114609226 0.7371685829684392 0.0 0.0 0.7195065885390773 0.010491167850804848;
}
probability ( "scm15cha" | "variable95" ) {
	table 0.17660636502740581 0.7982183620030089 0.0 6.188300643528135E-92 0.7277239375441541 0.20178163799699106 2.67E-322 0.24470773841296165 0.09566969742844014 6.524507216679035E-188 0.11615849052600007 0.7214567185958464 0.0 0.0 0.8838415094739999 0.03383554299119189;
}
probability ( "variable40" | "variable187" ) {
	table 0.27099579056256723 0.15665705377275915 3.031457066397738E-7 0.5352627230762946 0.11874767229686486 0.825348852757099 0.2187575664627201 0.34800392430460475 0.6102565371405678 0.017994093470141893 0.7812421303915732 0.11673335261910069;
}
probability ( "scm20fpr" | "variable40" ) {
	table 0.02786838787870134 0.9999999880199991 1.4547142422290048E-65 0.909060432822667 1.1980000935552366E-8 0.14859445491738194 0.06307117929863158 2.5500078121398313E-104 0.6703047658998246 2.774094902604261E-46 0.0 0.18110077918279355;
}
probability ( "scm21fsv" | "variable40" ) {
	table 0.05420423936604042 0.9999999936463863 4.97209454816743E-62 0.7633472824091848 6.3536136687495725E-9 0.06406025008814788 0.1824484782247747 1.9234390769729723E-17 0.6642885811376618 2.152135799701593E-183 0.0 0.2716511687741904;
}
