// ./result\FinalBIModel.bif
// Produced by org.latlab at Thu Mar 02 16:09:34 EET 2017
network "HLCM8876" {
}

variable "variable106" {
	type discrete[3] { "state0" "state1" "state2" };
}

variable "scm8spee" {
	type discrete[4] { "s0" "s1" "s2" "s3" };
}

variable "scm11spe" {
	type discrete[4] { "s0" "s1" "s2" "s3" };
}

variable "variable53" {
	type discrete[3] { "state0" "state1" "state2" };
}

variable "scm18dpr" {
	type discrete[4] { "s0" "s1" "s2" "s3" };
}

variable "scm19dsv" {
	type discrete[4] { "s0" "s1" "s2" "s3" };
}

variable "variable92" {
	type discrete[4] { "state0" "state1" "state2" "state3" };
}

variable "scm12fee" {
	type discrete[4] { "s0" "s1" "s2" "s3" };
}

variable "scm13dre" {
	type discrete[4] { "s0" "s1" "s2" "s3" };
}

variable "scm14hyg" {
	type discrete[4] { "s0" "s1" "s2" "s3" };
}

variable "scm15cha" {
	type discrete[4] { "s0" "s1" "s2" "s3" };
}

variable "variable187" {
	type discrete[3] { "state0" "state1" "state2" };
}

variable "scm3lue" {
	type discrete[4] { "s0" "s1" "s2" "s3" };
}

variable "scm4lue" {
	type discrete[4] { "s0" "s1" "s2" "s3" };
}

variable "variable158" {
	type discrete[3] { "state0" "state1" "state2" };
}

variable "scm3rue" {
	type discrete[4] { "s0" "s1" "s2" "s3" };
}

variable "scm4rue" {
	type discrete[4] { "s0" "s1" "s2" "s3" };
}

variable "variable200" {
	type discrete[2] { "state0" "state1" };
}

variable "scm9free" {
	type discrete[4] { "s0" "s1" "s2" "s3" };
}

variable "scm10swa" {
	type discrete[4] { "s0" "s1" "s2" "s3" };
}

variable "scm5rise" {
	type discrete[4] { "s0" "s1" "s2" "s3" };
}

variable "scm6post" {
	type discrete[4] { "s0" "s1" "s2" "s3" };
}

variable "scm7gait" {
	type discrete[4] { "s0" "s1" "s2" "s3" };
}

variable "scm16wal" {
	type discrete[4] { "s0" "s1" "s2" "s3" };
}

variable "scm17han" {
	type discrete[4] { "s0" "s1" "s2" "s3" };
}

variable "variable40" {
	type discrete[3] { "state0" "state1" "state2" };
}

variable "scm20fpr" {
	type discrete[4] { "s0" "s1" "s2" "s3" };
}

variable "scm21fsv" {
	type discrete[4] { "s0" "s1" "s2" "s3" };
}

variable "scm1rue" {
	type discrete[4] { "s0" "s1" "s2" "s3" };
}

variable "scm2rue" {
	type discrete[4] { "s0" "s1" "s2" "s3" };
}

variable "variable198" {
	type discrete[2] { "state0" "state1" };
}

variable "scm1lue" {
	type discrete[4] { "s0" "s1" "s2" "s3" };
}

variable "scm2lue" {
	type discrete[4] { "s0" "s1" "s2" "s3" };
}

variable "variable214" {
	type discrete[4] { "state0" "state1" "state2" "state3" };
}

variable "variable215" {
	type discrete[3] { "state0" "state1" "state2" };
}

probability ( "variable106"  ) {
	table 0.37521689849712164 0.1271980775465781 0.4975850239563002;
}
probability ( "scm8spee" | "variable106" ) {
	table 0.8168648844800398 1.5188166900652588E-83 0.05392410059728769 0.1824980818441575 8.748329663017519E-28 0.9057701806682152 6.370336758026408E-4 0.7448988364683513 0.04030571873449709 0.0 0.25510116353164874 4.798263015233105E-172;
}
probability ( "scm11spe" | "variable106" ) {
	table 0.9716479114058263 1.0066369586829234E-55 0.11505610106686037 0.028352088594173666 0.10044887352690596 0.8659066873784562 3.028174348894249E-56 0.7140230075409858 0.01903721155468332 0.0 0.18552811893210813 9.227492035160327E-196;
}
probability ( "variable53" | "variable40" ) {
	table 0.22659758797064772 0.5366262445795577 0.1263124394084428 0.189898037249258 0.4412914615900884 0.8727145190456421 0.5835043747800943 0.022082293830353796 9.730415459150142E-4;
}
probability ( "scm18dpr" | "variable53" ) {
	table 0.03278925185761704 0.9957799014713606 1.3258278462855043E-27 0.784026130000414 0.001607725688648231 0.09956362598417631 0.14890654266339207 6.8607682709907105E-59 0.707251292955604 0.03427807547857696 0.0026123728399911317 0.19318508106021967;
}
probability ( "scm19dsv" | "variable53" ) {
	table 0.05582290040687817 0.9999999237693243 0.019948830841931855 0.7745826378698121 1.8949684384515566E-9 0.020099970862867002 0.16959446172330983 7.433570722963368E-8 0.6439611203765058 1.853333428122156E-43 3.7728850044692336E-141 0.31599007791869543;
}
probability ( "variable92" | "variable106" ) {
	table 5.2330909087172516E-48 0.731711534457383 0.02194727967340854 0.49968590636264215 0.022925246696761072 0.06415038070505988 0.04891689446701007 0.17970978155332534 0.32653643227185447 0.45139719917034776 0.06565343729253043 0.587365907349677;
}
probability ( "scm12fee" | "variable92" ) {
	table 0.0 0.9638617988505042 0.11656477385618341 0.12117225779169752 0.05711346604531533 0.036138201149495806 0.439820742023135 0.846645607361328 0.7162117436314347 2.0898390667685593E-135 0.42900378223119884 0.032182134846974624 0.22667479032324997 0.0 0.014610701889482838 3.9607481213739327E-128;
}
probability ( "scm13dre" | "variable92" ) {
	table 7.577723257572559E-268 0.7700006050088579 0.015724209735285495 0.07456533518601002 0.027750265488102166 0.2299993949911421 0.3193092508047992 0.8827076612037384 0.6034931317498142 7.303372256792163E-153 0.6649665394599154 0.042727003610251515 0.36875660276208344 0.0 0.0 0.0;
}
probability ( "scm14hyg" | "variable92" ) {
	table 0.0 0.7913502674901103 7.537085625361821E-70 0.10893949432420978 3.000784431760729E-35 0.20864973250988966 0.582643114774483 0.8852414704767751 0.6312433972379164 2.883773098963467E-238 0.417356885225517 0.0058190351990150746 0.36875660276208355 0.0 0.0 0.0;
}
probability ( "scm15cha" | "variable92" ) {
	table 0.0 0.7283794676911393 2.3761746821152723E-43 0.18266290986687436 1.654331311604155E-35 0.23515572902876003 0.2979557426286301 0.7764107493911371 0.6118030643993799 0.03646480328010067 0.6250780809954013 0.04092634074198858 0.3881969356006201 0.0 0.07696617637596855 3.374820717783513E-120;
}
probability ( "variable187" | "variable158" ) {
	table 0.13277588600129303 0.5274577051653494 0.4394854057129724 0.8671980712368054 0.1634726012589404 0.027911794462725077 2.6042761901496408E-5 0.30906969357571024 0.5326027998243026;
}
probability ( "scm3lue" | "variable187" ) {
	table 0.0034912082238747985 2.783280057350374E-31 0.6305762021579541 0.7630635098419515 0.008577872547271189 0.2529268909658968 0.22286486283923887 0.6792862293331916 0.11649690687614912 0.010580419094934871 0.3121358981195373 4.317358559669631E-34;
}
probability ( "scm4lue" | "variable187" ) {
	table 0.0704842044114818 9.396648777951258E-44 0.6729655254624664 0.827790591323324 0.14146349034612796 0.2497192978671941 0.09548015104259573 0.7039563626576109 0.07731517667033957 0.006245053222598343 0.15458014699626113 7.006800350673667E-40;
}
probability ( "variable158" | "variable92" ) {
	table 0.9385623550872821 1.5951211684058226E-43 0.28718045678417703 0.10903710954968629 0.06143764491271643 0.354325103897841 0.3876858310749329 0.7079996784240334 1.461586069368183E-15 0.6456748961021589 0.3251337121408901 0.18296321202628035;
}
probability ( "scm3rue" | "variable158" ) {
	table 5.83696396068966E-32 0.044643823742632135 0.7228802897388067 0.03827681446782571 0.7412727000774783 0.23384502200985502 0.6777106515587414 0.2140834761798896 0.02296237609184126 0.2840125339734329 5.455558977164323E-41 0.020312312159497206;
}
probability ( "scm4rue" | "variable158" ) {
	table 2.3758174219864725E-28 0.0847868330434433 0.6554409341696035 0.12693257643850406 0.8051292092018911 0.30378030962051894 0.7023525561111148 0.11008395775466566 0.03080153464026972 0.1707148674503812 5.397408296408151E-141 0.009977221569607779;
}
probability ( "variable200" | "variable92" ) {
	table 0.03772113265030988 0.9998238161669125 0.4061423081415604 0.9999999987465884 0.9622788673496903 1.7618383308757926E-4 0.5938576918584396 1.2534114940761156E-9;
}
probability ( "scm9free" | "variable200" ) {
	table 0.7381429522214447 0.04121700681077861 0.22320760437350004 0.2543324470313654 0.03481283841520598 0.5578489146004959 0.0038366049898492928 0.1466016315573601;
}
probability ( "scm10swa" | "variable200" ) {
	table 0.7605421473180735 0.13575898100812983 0.20692473944910927 0.49850906161826547 0.03253311323281718 0.312358815747429 8.610579393972846E-92 0.05337314162617572;
}
probability ( "scm5rise" | "variable214" ) {
	table 0.9123748864194018 0.4304760507477121 4.7432220631973224E-99 0.057183685251680653 0.08762511358059817 0.529134168952871 3.038763630990047E-132 0.08765710465927587 3.287251118617478E-97 0.04038978029941688 0.10981294021819535 0.6993449367157559 0.0 9.577939363075738E-196 0.8901870597818046 0.15581427337328752;
}
probability ( "scm6post" | "variable214" ) {
	table 0.9185631606075073 0.39501208454372483 4.0198820832806637E-147 0.03625480834385942 0.07301910848483062 0.4585642739960555 1.4670177912023042E-118 0.0920152443389021 0.008417730907662126 0.14642364146021974 0.23633757822341356 0.8283228771165168 0.0 1.222199965944819E-121 0.7636624217765864 0.043407070200721765;
}
probability ( "scm7gait" | "variable214" ) {
	table 0.8001574811187961 0.07922215748356133 0.0 1.884382034265164E-98 0.19984251888120386 0.8688369428111661 3.4319501425216895E-106 0.0660655678177061 4.2833377758397884E-88 0.051940899705272645 0.4861492243955996 0.9339344321822939 0.0 0.0 0.5138507756044004 4.686583917680356E-144;
}
probability ( "scm16wal" | "variable214" ) {
	table 0.7469233745539682 0.0281019395086027 0.0 1.892822138832549E-43 0.24130318142918503 0.8645167574494623 2.27746060822782E-140 0.1308817021058251 0.011773444016846824 0.10738130304193504 0.28639526559463424 0.8465340584786575 0.0 2.4077512877718064E-46 0.7136047344053656 0.022584239415517324;
}
probability ( "scm17han" | "variable214" ) {
	table 0.416152737338594 0.1301082138607613 0.057166125585408546 0.018055871308855984 0.5024750429776692 0.7190189135774544 0.05125487095751292 0.2531124802314661 0.08137221968373688 0.12362563272009858 0.38248035282847326 0.6660336138915263 1.639860279804527E-23 0.0272472398416859 0.5090986506286053 0.06279803456815163;
}
probability ( "variable40" | "variable92" ) {
	table 0.8073754310040547 0.05374085296074044 0.5537405057594281 0.038149351747090596 0.10423441874339069 0.24042996033501982 0.3067747603511597 0.4394138873884117 0.0883901502525545 0.7058291867042398 0.13948473388941218 0.5224367608644979;
}
probability ( "scm20fpr" | "variable40" ) {
	table 2.9474348498505834E-114 0.027804875956815314 0.997824724412598 0.08804471014231331 0.9128580768797177 6.226233631481986E-4 0.768778822989424 0.059337047163467 0.0015526522242539304 0.1431764668682626 6.289632876388957E-206 0.0;
}
probability ( "scm21fsv" | "variable40" ) {
	table 0.01639905088142227 0.040333338169897544 0.9999999920047853 3.3558549955636453E-21 0.8142395588206851 7.995214647731252E-9 0.6842319729394956 0.14542710300940895 1.155703572252054E-130 0.29936897617908215 8.475759669923168E-15 1.5831721613939064E-211;
}
probability ( "scm1rue" | "variable215" ) {
	table 0.1358272151889396 3.9079793788547073E-28 0.8562033696745472 0.5142123565535667 8.4280271159448E-18 0.10377394572687736 0.3499604282574937 0.3926698364553042 0.04002268459857547 1.4528123990013883E-62 0.6073301635446958 8.693091783751246E-93;
}
probability ( "scm2rue" | "variable215" ) {
	table 0.009116581716704847 0.06504996268163764 0.8967374954570462 0.7825219490577161 1.2880594970536807E-8 0.10326250454295202 0.20836146922557905 0.5705519263109499 1.7068869123623871E-15 0.0 0.3643980981268174 0.0;
}
probability ( "variable198" | "variable215" ) {
	table 0.2009445332131644 0.06754221314849149 0.8853110752597603 0.7990554667868355 0.9324577868515085 0.11468892474023981;
}
probability ( "scm1lue" | "variable198" ) {
	table 0.8199676103632062 0.19616462632393378 0.14672120802711536 0.3857671093056514 0.03331118160967841 0.29957819356945165 4.2011066650414834E-132 0.11849007080096328;
}
probability ( "scm2lue" | "variable198" ) {
	table 0.8662610039367579 7.589072290144516E-17 0.13373899606324213 0.699825153970893 1.1850829304983588E-27 0.23698014160192654 1.870046420323794E-63 0.0631947044271804;
}
probability ( "variable214" | "variable92" ) {
	table 1.6289562620267644E-185 0.7080701339315125 4.999187938744872E-22 0.20994091004813978 2.5739336216896105E-45 0.284081354114568 0.6127403303248787 0.7515245536516779 0.4590773290950047 1.6701367779596011E-140 0.0474537713325997 1.3061282320360514E-143 0.5409226709049952 0.007848511953919522 0.3398058983425217 0.03853453630018229;
}
probability ( "variable215" | "variable158" ) {
	table 0.3872597768075523 0.4251574030781276 0.09630657187425481 0.23424952088737822 2.047779480517708E-16 3.035132116664799E-61 0.37849070230506954 0.5748425969218722 0.9036934281257453;
}
