net 
{ 
}
node variable1183 
{
  states = ( "state0" "state1" );
}
node d8_sex_dysfunction 
{
  states = ( "s0" "s1" "s2" "s3" "s4" "s5" "s6" "s7" "s8" "s9" "s10" "s11" "s12" );
}
node d4_hallucination 
{
  states = ( "s0" "s1" "s2" "s3" "s4" "s5" "s6" "s7" "s8" "s9" "s10" "s11" "s12" );
}
node d5_forget_explicit 
{
  states = ( "s0" "s1" "s2" "s3" "s4" "s5" "s6" "s7" "s8" "s9" "s10" "s11" "s12" );
}
node scm14hyg 
{
  states = ( "s0" "s1" "s2" "s3" );
}
node scm2lue 
{
  states = ( "s0" "s1" "s2" "s3" );
}
node variable1159 
{
  states = ( "state0" "state1" );
}
node scm15cha 
{
  states = ( "s0" "s1" "s2" "s3" );
}
node d2_fatigue 
{
  states = ( "s0" "s1" "s2" "s3" "s4" "s5" "s6" "s7" "s8" "s9" "s10" "s11" "s12" );
}
node d3_loss_pleasure 
{
  states = ( "s0" "s1" "s2" "s3" "s4" "s5" "s6" "s7" "s8" "s9" "s10" "s11" "s12" );
}
node d2_drowsiness 
{
  states = ( "s0" "s1" "s2" "s3" "s4" "s5" "s6" "s7" "s8" "s9" "s10" "s11" "s12" );
}
node d4_diplopia 
{
  states = ( "s0" "s1" "s2" "s3" "s4" "s5" "s6" "s7" "s8" "s9" "s10" "s11" "s12" );
}
node scm8spee 
{
  states = ( "s0" "s1" "s2" "s3" );
}
node variable1200 
{
  states = ( "state0" "state1" );
}
node scm7gait 
{
  states = ( "s0" "s1" "s2" "s3" );
}
node scm2rue 
{
  states = ( "s0" "s1" "s2" "s3" );
}
node d1_lightheaded 
{
  states = ( "s0" "s1" "s2" "s3" "s4" "s5" "s6" "s7" "s8" "s9" "s10" "s11" "s12" );
}
node d7_nocturia 
{
  states = ( "s0" "s1" "s2" "s3" "s4" "s5" "s6" "s7" "s8" "s9" "s10" "s11" "s12" );
}
node variable1227 
{
  states = ( "state0" "state1" );
}
node d7_urinary_urgency 
{
  states = ( "s0" "s1" "s2" "s3" "s4" "s5" "s6" "s7" "s8" "s9" "s10" "s11" "s12" );
}
node d2_insomnia 
{
  states = ( "s0" "s1" "s2" "s3" "s4" "s5" "s6" "s7" "s8" "s9" "s10" "s11" "s12" );
}
node d7_urinary_frequency 
{
  states = ( "s0" "s1" "s2" "s3" "s4" "s5" "s6" "s7" "s8" "s9" "s10" "s11" "s12" );
}
node variable1251 
{
  states = ( "state0" "state1" );
}
node scm4lue 
{
  states = ( "s0" "s1" "s2" "s3" );
}
node scm9free 
{
  states = ( "s0" "s1" "s2" "s3" );
}
node d6_drooling 
{
  states = ( "s0" "s1" "s2" "s3" "s4" "s5" "s6" "s7" "s8" "s9" "s10" "s11" "s12" );
}
node scm11spe 
{
  states = ( "s0" "s1" "s2" "s3" );
}
node scm3lue 
{
  states = ( "s0" "s1" "s2" "s3" );
}
node variable1234 
{
  states = ( "state0" "state1" );
}
node scm21fsv 
{
  states = ( "s0" "s1" "s2" "s3" );
}
node scm20fpr 
{
  states = ( "s0" "s1" "s2" "s3" );
}
node d3_anxiety 
{
  states = ( "s0" "s1" "s2" "s3" "s4" "s5" "s6" "s7" "s8" "s9" "s10" "s11" "s12" );
}
node variable1241 
{
  states = ( "state0" "state1" );
}
node d2_rls 
{
  states = ( "s0" "s1" "s2" "s3" "s4" "s5" "s6" "s7" "s8" "s9" "s10" "s11" "s12" );
}
node d3_depression 
{
  states = ( "s0" "s1" "s2" "s3" "s4" "s5" "s6" "s7" "s8" "s9" "s10" "s11" "s12" );
}
node d5_forget_implicit 
{
  states = ( "s0" "s1" "s2" "s3" "s4" "s5" "s6" "s7" "s8" "s9" "s10" "s11" "s12" );
}
node d6_swallowing 
{
  states = ( "s0" "s1" "s2" "s3" "s4" "s5" "s6" "s7" "s8" "s9" "s10" "s11" "s12" );
}
node variable1272 
{
  states = ( "state0" "state1" );
}
node d4_delusion 
{
  states = ( "s0" "s1" "s2" "s3" "s4" "s5" "s6" "s7" "s8" "s9" "s10" "s11" "s12" );
}
node d1_fainting 
{
  states = ( "s0" "s1" "s2" "s3" "s4" "s5" "s6" "s7" "s8" "s9" "s10" "s11" "s12" );
}
node scm13dre 
{
  states = ( "s0" "s1" "s2" "s3" );
}
node scm1rue 
{
  states = ( "s0" "s1" "s2" "s3" );
}
node scm19dsv 
{
  states = ( "s0" "s1" "s2" "s3" );
}
node d6_constipation 
{
  states = ( "s0" "s1" "s2" "s3" "s4" "s5" "s6" "s7" "s8" "s9" "s10" "s11" "s12" );
}
node variable1175 
{
  states = ( "state0" "state1" );
}
node scm18dpr 
{
  states = ( "s0" "s1" "s2" "s3" );
}
node scm1lue 
{
  states = ( "s0" "s1" "s2" "s3" );
}
node variable1210 
{
  states = ( "state0" "state1" );
}
node d3_flat_affect 
{
  states = ( "s0" "s1" "s2" "s3" "s4" "s5" "s6" "s7" "s8" "s9" "s10" "s11" "s12" );
}
node scm10swa 
{
  states = ( "s0" "s1" "s2" "s3" );
}
node d8_sex_drive 
{
  states = ( "s0" "s1" "s2" "s3" "s4" "s5" "s6" "s7" "s8" "s9" "s10" "s11" "s12" );
}
node d9_weight_change 
{
  states = ( "s0" "s1" "s2" "s3" "s4" "s5" "s6" "s7" "s8" "s9" "s10" "s11" "s12" );
}
node scm4rue 
{
  states = ( "s0" "s1" "s2" "s3" );
}
node variable1196 
{
  states = ( "state0" "state1" );
}
node scm16wal 
{
  states = ( "s0" "s1" "s2" "s3" );
}
node d9_unexplained_pain 
{
  states = ( "s0" "s1" "s2" "s3" "s4" "s5" "s6" "s7" "s8" "s9" "s10" "s11" "s12" );
}
node variable1268 
{
  states = ( "state0" "state1" );
}
node scm17han 
{
  states = ( "s0" "s1" "s2" "s3" );
}
node scm6post 
{
  states = ( "s0" "s1" "s2" "s3" );
}
node variable1264 
{
  states = ( "state0" "state1" );
}
node d3_loss_interest 
{
  states = ( "s0" "s1" "s2" "s3" "s4" "s5" "s6" "s7" "s8" "s9" "s10" "s11" "s12" );
}
node d3_loss_activities 
{
  states = ( "s0" "s1" "s2" "s3" "s4" "s5" "s6" "s7" "s8" "s9" "s10" "s11" "s12" );
}
node variable1155 
{
  states = ( "state0" "state1" );
}
node d5_loss_concentration 
{
  states = ( "s0" "s1" "s2" "s3" "s4" "s5" "s6" "s7" "s8" "s9" "s10" "s11" "s12" );
}
node d9_taste_smell 
{
  states = ( "s0" "s1" "s2" "s3" "s4" "s5" "s6" "s7" "s8" "s9" "s10" "s11" "s12" );
}
node variable1179 
{
  states = ( "state0" "state1" );
}
node scm12fee 
{
  states = ( "s0" "s1" "s2" "s3" );
}
node d9_sweating 
{
  states = ( "s0" "s1" "s2" "s3" "s4" "s5" "s6" "s7" "s8" "s9" "s10" "s11" "s12" );
}
node variable1223 
{
  states = ( "state0" "state1" );
}
node scm5rise 
{
  states = ( "s0" "s1" "s2" "s3" );
}
node scm3rue 
{
  states = ( "s0" "s1" "s2" "s3" );
}
potential ( variable1183 ) 
{
  data = ( 0.7278255 0.2721745 );
}
potential ( d8_sex_dysfunction | variable1183 ) 
{
  data = ((0.759017979 0.059424384 0.029049876 0.009198408 0.048305339 0.001500791 0.028213426 0.001500791 0.019560640 0.010253996 0.001500791 0.001500791 0.030972786)(0.534721175 0.024951348 0.018090774 0.018976427 0.104460471 0.003895828 0.047532866 0.003895828 0.034931742 0.051298729 0.003895828 0.003895828 0.149453159)) ;
}
potential ( d4_hallucination | variable1183 ) 
{
  data = ((0.911311980 0.033796707 0.016249020 0.006574200 0.011561173 0.001500791 0.002201292 0.001500791 0.005544478 0.003033332 0.001500791 0.001500791 0.003724653)(0.564034171 0.099268582 0.039632380 0.029684303 0.125822049 0.003895828 0.048827367 0.003895828 0.028461477 0.023292549 0.003895828 0.003895828 0.025393812)) ;
}
potential ( d5_forget_explicit | variable1183 ) 
{
  data = ((0.605316205 0.161789992 0.076445483 0.026132240 0.066632813 0.001500791 0.025718544 0.001500791 0.018103690 0.007721709 0.001500791 0.001500791 0.006136157)(0.236354609 0.133225150 0.074267012 0.006185378 0.193239084 0.003895828 0.139717410 0.003895828 0.069880385 0.042288852 0.003895828 0.003895828 0.089258810)) ;
}
potential ( scm14hyg | variable1183 ) 
{
  data = ((0.330052163 0.623404856 0.044909534 0.001633447)(0.05269485 0.42080307 0.41375271 0.11274936)) ;
}
potential ( scm2lue | variable1183 ) 
{
  data = ((0.53979423 0.36519576 0.08330550 0.01170451)(0.49330863 0.33894401 0.11402405 0.05372331)) ;
}
potential ( variable1159 | variable1183 ) 
{
  data = ((0.08638223 0.91361777)(0.9783417 0.0216583)) ;
}
potential ( scm15cha | variable1159 ) 
{
  data = ((0.0599007 0.4045061 0.4052175 0.1303758)(0.401121962 0.518233381 0.078959294 0.001685363)) ;
}
potential ( d2_fatigue | variable1159 ) 
{
  data = ((0.147531208 0.051302595 0.065683929 0.032249984 0.163513264 0.003247055 0.158984467 0.003247055 0.139989002 0.080691258 0.003247055 0.003247055 0.147066071)(0.48219641 0.15966780 0.07767318 0.03588114 0.10998284 0.00162594 0.05046487 0.00162594 0.02908385 0.01487639 0.00162594 0.00162594 0.03366976)) ;
}
potential ( d3_loss_pleasure | variable1159 ) 
{
  data = ((0.339340040 0.112647921 0.055261890 0.020834775 0.195931223 0.003247055 0.060320716 0.003247055 0.055035768 0.055104746 0.003247055 0.003247055 0.092534698)(0.834909041 0.073667574 0.029235909 0.005826536 0.017330575 0.001625940 0.012069273 0.001625940 0.013089733 0.001673610 0.001625940 0.001625940 0.005693988)) ;
}
potential ( d2_drowsiness | variable1159 ) 
{
  data = ((0.331149273 0.085723101 0.057721665 0.057000808 0.174953675 0.003247055 0.123841604 0.003247055 0.046145027 0.032238794 0.003247055 0.003247055 0.078237832)(0.627638251 0.103409395 0.067026765 0.046250503 0.084742853 0.001625940 0.033917665 0.001625940 0.017541710 0.004993874 0.001625940 0.001625940 0.007975223)) ;
}
potential ( d4_diplopia | variable1159 ) 
{
  data = ((0.665549102 0.052529718 0.046226670 0.015976271 0.108444277 0.003247055 0.029667771 0.003247055 0.028119721 0.006494111 0.003247055 0.003247055 0.034004136)(0.905697548 0.037107787 0.012623007 0.008259398 0.013986781 0.001625940 0.006281296 0.001625940 0.005430531 0.001625940 0.001625940 0.001625940 0.002483951)) ;
}
potential ( scm8spee | variable1159 ) 
{
  data = ((0.06273501 0.55080594 0.32953524 0.05692381)(0.409624235 0.545064667 0.038741420 0.006569679)) ;
}
potential ( variable1200 | variable1159 ) 
{
  data = ((0.8474556 0.1525444)(0.007713681 0.992286319)) ;
}
potential ( scm7gait | variable1200 ) 
{
  data = ((0.01150720 0.44476949 0.45564680 0.08807651)(0.377359526 0.547578557 0.073133180 0.001928737)) ;
}
potential ( scm2rue | variable1200 ) 
{
  data = ((0.49610791 0.30515848 0.14457864 0.05415497)(0.530162864 0.372938844 0.087604250 0.009294042)) ;
}
potential ( d1_lightheaded | variable1200 ) 
{
  data = ((0.330719406 0.105659771 0.082461128 0.054076320 0.169140301 0.003740705 0.087268964 0.003740705 0.064032342 0.034746336 0.003740705 0.003740705 0.056932612)(0.685693304 0.146039844 0.062463863 0.026757053 0.034748912 0.001525156 0.019324411 0.001525156 0.010496549 0.002609979 0.001525156 0.001525156 0.005765463)) ;
}
potential ( d7_nocturia | variable1200 ) 
{
  data = ((0.137532407 0.071966172 0.047319511 0.037367805 0.228499746 0.003740705 0.087537525 0.003740705 0.104723219 0.046763962 0.003740705 0.003740705 0.223326833)(0.428924999 0.143000645 0.052389268 0.047295831 0.172213466 0.001525156 0.037516783 0.001525156 0.064063280 0.011436569 0.001525156 0.001525156 0.037058536)) ;
}
potential ( variable1227 | variable1159 ) 
{
  data = ((0.647714 0.352286)(0.1013939 0.8986061)) ;
}
potential ( d7_urinary_urgency | variable1227 ) 
{
  data = ((0.110220301 0.052910002 0.040843547 0.017545990 0.223913148 0.003779328 0.161478721 0.003779328 0.138394172 0.059374102 0.003779328 0.003779328 0.180202705)(0.642214889 0.127581734 0.059527259 0.038513479 0.072528837 0.001518827 0.024716125 0.001518827 0.018805016 0.008034250 0.001518827 0.001518827 0.002003101)) ;
}
potential ( d2_insomnia | variable1227 ) 
{
  data = ((0.320211924 0.086610708 0.039944207 0.028934800 0.136578611 0.003779328 0.116556747 0.003779328 0.090387597 0.041312107 0.003779328 0.003779328 0.124345988)(0.617058216 0.109481691 0.047738065 0.030898917 0.052948851 0.001518827 0.035175126 0.001518827 0.042654267 0.015292962 0.001518827 0.001518827 0.042676595)) ;
}
potential ( d7_urinary_frequency | variable1227 ) 
{
  data = ((0.142321790 0.013762782 0.062312515 0.042073379 0.171033877 0.003779328 0.168671828 0.003779328 0.141284994 0.057782120 0.003779328 0.003779328 0.185639403)(0.680954148 0.100786960 0.055455843 0.036250607 0.075553907 0.001518827 0.009674758 0.001518827 0.026756223 0.005636377 0.001518827 0.001518827 0.002855868)) ;
}
potential ( variable1251 | variable1159 ) 
{
  data = ((0.2859919 0.7140081)(0.96398399 0.03601601)) ;
}
potential ( scm4lue | variable1251 ) 
{
  data = ((0.275643119 0.505438305 0.209411681 0.009506895)(0.1083067 0.3085650 0.4531934 0.1299348)) ;
}
potential ( scm9free | variable1251 ) 
{
  data = ((0.726618244 0.212216629 0.054209131 0.006955996)(0.1812729 0.2840756 0.3974771 0.1371745)) ;
}
potential ( d6_drooling | variable1251 ) 
{
  data = ((0.672065244 0.123061995 0.033256187 0.023504846 0.059277248 0.001474480 0.025753385 0.001474480 0.031753315 0.003932716 0.001474480 0.001474480 0.021497146)(0.348053985 0.083901736 0.059010588 0.012495730 0.178916712 0.004085057 0.059371872 0.004085057 0.083599591 0.029954949 0.004085057 0.004085057 0.128354609)) ;
}
potential ( scm11spe | variable1251 ) 
{
  data = ((0.48549757 0.46751227 0.03967099 0.00731917)(0.06404905 0.49253997 0.39208677 0.05132420)) ;
}
potential ( scm3lue | variable1251 ) 
{
  data = ((0.23599037 0.49673518 0.24411775 0.02315669)(0.05968745 0.24420468 0.47768300 0.21842488)) ;
}
potential ( variable1234 | variable1223 ) 
{
  data = ((0.387642 0.612358)(0.8682118 0.1317882)) ;
}
potential ( scm21fsv | variable1234 ) 
{
  data = ((0.01058148 0.50281288 0.37322538 0.11338026)(0.979424254 0.015280890 0.002947648 0.002347208)) ;
}
potential ( scm20fpr | variable1234 ) 
{
  data = ((0.007892624 0.607540080 0.317376873 0.067190422)(0.963753117 0.027238384 0.006669766 0.002338733)) ;
}
potential ( d3_anxiety | variable1234 ) 
{
  data = ((0.456829531 0.141929408 0.060057682 0.027038610 0.108520843 0.002060936 0.090971412 0.002060936 0.030893218 0.020606187 0.002060936 0.002060936 0.054909368)(0.596958950 0.103095499 0.072773465 0.013432255 0.092154903 0.002284234 0.033941819 0.002284234 0.025149648 0.015993152 0.002284234 0.002284234 0.037363373)) ;
}
potential ( variable1241 | variable1159 ) 
{
  data = ((0.1435946 0.8564054)(0.98786395 0.01213605)) ;
}
potential ( d2_rls | variable1241 ) 
{
  data = ((0.732316201 0.104301818 0.041794626 0.017686080 0.041123475 0.001537653 0.017367849 0.001537653 0.015156002 0.007541673 0.001537653 0.001537653 0.016561662)(0.516192812 0.048295552 0.025010107 0.027499635 0.162311874 0.003667593 0.053931829 0.003667593 0.059207499 0.059031143 0.003667593 0.003667593 0.033849177)) ;
}
potential ( d3_depression | variable1241 ) 
{
  data = ((0.654115260 0.131077831 0.060043698 0.017460951 0.064099510 0.001537653 0.039638739 0.001537653 0.012798206 0.004876583 0.001537653 0.001537653 0.009738610)(0.167248201 0.087122322 0.058502088 0.035371796 0.191864342 0.003667593 0.176856027 0.003667593 0.050160915 0.069055480 0.003667593 0.003667593 0.149148456)) ;
}
potential ( d5_forget_implicit | variable1241 ) 
{
  data = ((0.673277968 0.160708959 0.040322505 0.020549298 0.044423714 0.001537653 0.023618117 0.001537653 0.015394454 0.005033029 0.001537653 0.001537653 0.010521344)(0.334261932 0.108136326 0.068864917 0.024337915 0.194783705 0.003667593 0.112375624 0.003667593 0.021962815 0.046676767 0.003667593 0.003667593 0.073929626)) ;
}
potential ( d6_swallowing | variable1241 ) 
{
  data = ((0.814996636 0.089590772 0.023815293 0.009765937 0.031365897 0.001537653 0.007765296 0.001537653 0.010588816 0.003172238 0.001537653 0.001537653 0.002788502)(0.388668665 0.116392506 0.111905321 0.031720296 0.134239233 0.003667593 0.062165355 0.003667593 0.073768692 0.032777140 0.003667593 0.003667593 0.033692420)) ;
}
potential ( variable1272 | variable1251 ) 
{
  data = ((0.007465117 0.992534883)(0.93002511 0.06997489)) ;
}
potential ( d4_delusion | variable1272 ) 
{
  data = ((0.714607866 0.071888469 0.024472493 0.004284203 0.046365141 0.004284203 0.055629663 0.004284203 0.009299323 0.030464643 0.004284203 0.004284203 0.025851387)(0.945786170 0.011920378 0.004767708 0.001450149 0.013308960 0.001450149 0.001472142 0.001450149 0.005553189 0.005639738 0.001450149 0.001450149 0.004300970)) ;
}
potential ( d1_fainting | variable1272 ) 
{
  data = ((0.733346907 0.063322436 0.036840438 0.004355827 0.068031586 0.004284203 0.038540796 0.004284203 0.008567945 0.012742340 0.004284203 0.004284203 0.017114914)(0.926391900 0.030771511 0.009282208 0.010126799 0.008875438 0.001450149 0.004356211 0.001450149 0.001450305 0.001487473 0.001450149 0.001450149 0.001457561)) ;
}
potential ( scm13dre | variable1272 ) 
{
  data = ((0.004854784 0.261790224 0.604292679 0.129062314)(0.296672281 0.635116247 0.066688667 0.001522804)) ;
}
potential ( scm1rue | variable1272 ) 
{
  data = ((0.4450199 0.2262688 0.2198542 0.1088570)(0.55265826 0.29272159 0.13614958 0.01847057)) ;
}
potential ( scm19dsv | variable1272 ) 
{
  data = ((0.3423158 0.2712858 0.2629370 0.1234614)(0.73198713 0.18677951 0.06610912 0.01512424)) ;
}
potential ( d6_constipation | variable1272 ) 
{
  data = ((0.299881338 0.090351449 0.077545457 0.012395026 0.112290303 0.004284203 0.085611192 0.004284203 0.090187320 0.049770951 0.004284203 0.004284203 0.164830153)(0.582964222 0.092679826 0.047709431 0.020456971 0.085253799 0.001450149 0.050779876 0.001450149 0.036179574 0.025207476 0.001450149 0.001450149 0.052968230)) ;
}
potential ( variable1175 | variable1234 ) 
{
  data = ((0.773111 0.226889)(0.0323942 0.9676058)) ;
}
potential ( scm18dpr | variable1175 ) 
{
  data = ((0.25065612 0.43193456 0.22280847 0.09460085)(0.90543452 0.07235211 0.01681648 0.00539689)) ;
}
potential ( scm1lue | variable1175 ) 
{
  data = ((0.51977502 0.27684336 0.14472154 0.05866008)(0.55920379 0.28728586 0.12946376 0.02404659)) ;
}
potential ( variable1210 | variable1159 ) 
{
  data = ((0.02953132 0.97046868)(0.98941871 0.01058129)) ;
}
potential ( d3_flat_affect | variable1210 ) 
{
  data = ((0.806729984 0.092163746 0.029335366 0.011767027 0.024098827 0.001619677 0.012822006 0.001619677 0.008324299 0.003872584 0.001619677 0.001619677 0.004407455)(0.461133549 0.108305694 0.032357222 0.018766650 0.164013070 0.003272329 0.072264800 0.003272329 0.055173154 0.021626946 0.003272329 0.003272329 0.053269602)) ;
}
potential ( scm10swa | variable1210 ) 
{
  data = ((0.794957873 0.172823687 0.030548282 0.001670158)(0.35180185 0.45130168 0.17334948 0.02354698)) ;
}
potential ( d8_sex_drive | variable1210 ) 
{
  data = ((0.742643117 0.060968221 0.042157340 0.016928155 0.060256868 0.001619677 0.032693873 0.001619677 0.015482865 0.006292378 0.001619677 0.001619677 0.016098477)(0.466263560 0.066617346 0.009724556 0.014883973 0.133501108 0.003272329 0.048478131 0.003272329 0.050527265 0.033099736 0.003272329 0.003272329 0.163815009)) ;
}
potential ( d9_weight_change | variable1210 ) 
{
  data = ((0.493612623 0.356472700 0.025061602 0.009649076 0.058032589 0.001619677 0.006430772 0.001619677 0.027312482 0.003105004 0.001619677 0.001619677 0.013844445)(0.347652201 0.310580575 0.018085459 0.032862657 0.115088650 0.003272329 0.026275473 0.003272329 0.052805817 0.016633077 0.003272329 0.003272329 0.066926777)) ;
}
potential ( scm4rue | variable1210 ) 
{
  data = ((0.24274160 0.57086116 0.17350202 0.01289522)(0.12918136 0.35969840 0.43305207 0.07806817)) ;
}
potential ( variable1196 | variable1268 ) 
{
  data = ((0.01806937 0.98193063)(0.98651351 0.01348649)) ;
}
potential ( scm16wal | variable1196 ) 
{
  data = ((0.33312437 0.63553434 0.02949018 0.00185111)(0.007814943 0.378349094 0.499213922 0.114622041)) ;
}
potential ( d9_unexplained_pain | variable1196 ) 
{
  data = ((0.707598710 0.081318579 0.030786676 0.018178534 0.044229762 0.001550161 0.032606363 0.001550161 0.031993546 0.006530036 0.001550161 0.001550161 0.040557152)(0.466100927 0.138686786 0.050879456 0.008179505 0.113231334 0.003598343 0.053852157 0.003598343 0.044479642 0.035218822 0.003598343 0.003598343 0.074977997)) ;
}
potential ( variable1268 | variable1251 ) 
{
  data = ((0.05048143 0.94951857)(0.98109101 0.01890899)) ;
}
potential ( scm17han | variable1268 ) 
{
  data = ((0.01838145 0.36330614 0.46088488 0.15742753)(0.22053140 0.64021748 0.12632344 0.01292768)) ;
}
potential ( scm6post | variable1268 ) 
{
  data = ((0.08821918 0.32651190 0.45324136 0.13202756)(0.699462062 0.253859890 0.045106982 0.001571066)) ;
}
potential ( variable1264 | variable1159 ) 
{
  data = ((0.3826387 0.6173613)(0.94540523 0.05459477)) ;
}
potential ( d3_loss_interest | variable1264 ) 
{
  data = ((0.828522808 0.100311961 0.028831865 0.005161826 0.017363617 0.001437433 0.008548461 0.001437433 0.002171497 0.001513571 0.001437433 0.001437433 0.001824662)(0.046672771 0.058132944 0.140518926 0.045790990 0.316390352 0.004399174 0.158603278 0.004399174 0.068140229 0.043758726 0.004399174 0.004399174 0.104395088)) ;
}
potential ( d3_loss_activities | variable1264 ) 
{
  data = ((0.724501503 0.133974981 0.062118171 0.014849495 0.028529845 0.001437433 0.006863794 0.001437433 0.011920510 0.005762456 0.001437433 0.001437433 0.005729513)(0.026287088 0.056290372 0.082640002 0.024940832 0.273418462 0.004399174 0.185754966 0.004399174 0.095493245 0.079146191 0.004399174 0.004399174 0.158432146)) ;
}
potential ( variable1155 | variable1159 ) 
{
  data = ((0.5906053 0.4093947)(0.04040097 0.95959903)) ;
}
potential ( d5_loss_concentration | variable1155 ) 
{
  data = ((0.120085813 0.033926915 0.061305638 0.040737347 0.302618366 0.004743919 0.174225519 0.004743919 0.078849497 0.068708852 0.004743919 0.004743919 0.100566378)(0.617360313 0.165469959 0.066100468 0.032873627 0.045224698 0.001404092 0.024254188 0.001404092 0.025805572 0.004937401 0.001404092 0.001404092 0.012357405)) ;
}
potential ( d9_taste_smell | variable1155 ) 
{
  data = ((0.353107331 0.029694267 0.032788281 0.016779339 0.202425753 0.004743919 0.041816638 0.004743919 0.132313025 0.052061508 0.004743919 0.004743919 0.120038182)(0.656506344 0.040354406 0.019781353 0.009074620 0.143679971 0.001404092 0.012896887 0.001404092 0.059124815 0.009864638 0.001404092 0.001404092 0.043100596)) ;
}
potential ( variable1179 | variable1251 ) 
{
  data = ((0.03214191 0.96785809)(0.95797621 0.04202379)) ;
}
potential ( scm12fee | variable1179 ) 
{
  data = ((0.01455308 0.39798549 0.50071902 0.08674242)(0.430969889 0.542184530 0.024505764 0.002339817)) ;
}
potential ( d9_sweating | variable1179 ) 
{
  data = ((0.521928484 0.058722970 0.032500686 0.018679738 0.150230622 0.003899928 0.045395417 0.003899928 0.036546878 0.053995925 0.003899928 0.003899928 0.066399565)(0.748846282 0.055420614 0.029503119 0.010816678 0.051724265 0.001500184 0.026043093 0.001500184 0.032447223 0.009233086 0.001500184 0.001500184 0.029964906)) ;
}
potential ( variable1223 | variable1268 ) 
{
  data = ((0.0248475 0.9751525)(0.994533875 0.005466125)) ;
}
potential ( scm5rise | variable1223 ) 
{
  data = ((0.68206152 0.30115498 0.01468257 0.00210093)(0.1123585 0.3639579 0.3418210 0.1818626)) ;
}
potential ( scm3rue | variable1223 ) 
{
  data = ((0.275758166 0.549492592 0.166881356 0.007867886)(0.0636977 0.3002969 0.4835624 0.1524430)) ;
}
