network HLCM2799 {
}

variable d1_lightheaded {
	type discrete[13] { 0, 1, 2, 3, 4, 5, 6, 7, 8, 9, 10, 11, 12 };
}

variable d1_fainting {
	type discrete[13] { 0, 1, 2, 3, 4, 5, 6, 7, 8, 9, 10, 11, 12 };
}

variable d2_drowsiness {
	type discrete[13] { 0, 1, 2, 3, 4, 5, 6, 7, 8, 9, 10, 11, 12 };
}

variable d2_fatigue {
	type discrete[13] { 0, 1, 2, 3, 4, 5, 6, 7, 8, 9, 10, 11, 12 };
}

variable d2_insomnia {
	type discrete[13] { 0, 1, 2, 3, 4, 5, 6, 7, 8, 9, 10, 11, 12 };
}

variable d2_rls {
	type discrete[13] { 0, 1, 2, 3, 4, 5, 6, 7, 8, 9, 10, 11, 12 };
}

variable d3_loss_interest {
	type discrete[13] { 0, 1, 2, 3, 4, 5, 6, 7, 8, 9, 10, 11, 12 };
}

variable d3_loss_activities {
	type discrete[13] { 0, 1, 2, 3, 4, 5, 6, 7, 8, 9, 10, 11, 12 };
}

variable d3_anxiety {
	type discrete[13] { 0, 1, 2, 3, 4, 5, 6, 7, 8, 9, 10, 11, 12 };
}

variable d3_depression {
	type discrete[13] { 0, 1, 2, 3, 4, 5, 6, 7, 8, 9, 10, 11, 12 };
}

variable d3_flat_affect {
	type discrete[13] { 0, 1, 2, 3, 4, 5, 6, 7, 8, 9, 10, 11, 12 };
}

variable d3_loss_pleasure {
	type discrete[13] { 0, 1, 2, 3, 4, 5, 6, 7, 8, 9, 10, 11, 12 };
}

variable d4_hallucination {
	type discrete[13] { 0, 1, 2, 3, 4, 5, 6, 7, 8, 9, 10, 11, 12 };
}

variable d4_delusion {
	type discrete[13] { 0, 1, 2, 3, 4, 5, 6, 7, 8, 9, 10, 11, 12 };
}

variable d4_diplopia {
	type discrete[13] { 0, 1, 2, 3, 4, 5, 6, 7, 8, 9, 10, 11, 12 };
}

variable d5_loss_concentration {
	type discrete[13] { 0, 1, 2, 3, 4, 5, 6, 7, 8, 9, 10, 11, 12 };
}

variable d5_forget_explicit {
	type discrete[13] { 0, 1, 2, 3, 4, 5, 6, 7, 8, 9, 10, 11, 12 };
}

variable d5_forget_implicit {
	type discrete[13] { 0, 1, 2, 3, 4, 5, 6, 7, 8, 9, 10, 11, 12 };
}

variable d6_drooling {
	type discrete[13] { 0, 1, 2, 3, 4, 5, 6, 7, 8, 9, 10, 11, 12 };
}

variable d6_swallowing {
	type discrete[13] { 0, 1, 2, 3, 4, 5, 6, 7, 8, 9, 10, 11, 12 };
}

variable d6_constipation {
	type discrete[13] { 0, 1, 2, 3, 4, 5, 6, 7, 8, 9, 10, 11, 12 };
}

variable d7_urinary_urgency {
	type discrete[13] { 0, 1, 2, 3, 4, 5, 6, 7, 8, 9, 10, 11, 12 };
}

variable d7_urinary_frequency {
	type discrete[13] { 0, 1, 2, 3, 4, 5, 6, 7, 8, 9, 10, 11, 12 };
}

variable d7_nocturia {
	type discrete[13] { 0, 1, 2, 3, 4, 5, 6, 7, 8, 9, 10, 11, 12 };
}

variable d8_sex_drive {
	type discrete[13] { 0, 1, 2, 3, 4, 5, 6, 7, 8, 9, 10, 11, 12 };
}

variable d8_sex_dysfunction {
	type discrete[13] { 0, 1, 2, 3, 4, 5, 6, 7, 8, 9, 10, 11, 12 };
}

variable d9_unexplained_pain {
	type discrete[13] { 0, 1, 2, 3, 4, 5, 6, 7, 8, 9, 10, 11, 12 };
}

variable d9_taste_smell {
	type discrete[13] { 0, 1, 2, 3, 4, 5, 6, 7, 8, 9, 10, 11, 12 };
}

variable d9_weight_change {
	type discrete[13] { 0, 1, 2, 3, 4, 5, 6, 7, 8, 9, 10, 11, 12 };
}

variable d9_sweating {
	type discrete[13] { 0, 1, 2, 3, 4, 5, 6, 7, 8, 9, 10, 11, 12 };
}

variable variable461 {
	type discrete[2] { state0, state1 };
}

variable variable470 {
	type discrete[2] { state0, state1 };
}

variable variable479 {
	type discrete[2] { state0, state1 };
}

variable variable488 {
	type discrete[2] { state0, state1 };
}

variable variable497 {
	type discrete[2] { state0, state1 };
}

variable variable506 {
	type discrete[2] { state0, state1 };
}

variable variable515 {
	type discrete[2] { state0, state1 };
}

variable variable524 {
	type discrete[2] { state0, state1 };
}

variable variable533 {
	type discrete[2] { state0, state1 };
}

probability ( d1_lightheaded | variable515 ) {
	(state0) 0.6927925303682279, 0.1408480549757907, 0.051886449121159695, 0.03120397863912682, 0.03950774484295176, 0.0014675741999880922, 0.019352826710484817, 0.0014675741999880922, 0.008284466095846892, 0.006032999289228944, 0.0014675741999880922, 0.0014675741999880922, 0.00422065315723018;
	(state1) 0.27289990688810956, 0.11600257036938208, 0.11442201142395368, 0.04444355673905724, 0.1700288603312003, 0.0041390137814326855, 0.09442353084544317, 0.0041390137814326855, 0.07597157049708343, 0.02851422505801119, 0.0041390137814326855, 0.0041390137814326855, 0.0667377127220287;
}

probability ( d1_fainting | variable515 ) {
	(state0) 0.9366402070492913, 0.029969711042965266, 0.006461286196008637, 0.004992912842826344, 0.008243800475621687, 0.0014675741999880918, 0.002083090015472793, 0.0014675741999880918, 0.001479558084327537, 0.0027914128439890536, 0.0014675741999880918, 0.0014675741999880918, 0.0014677246495447696;
	(state1) 0.7109856826308009, 0.06448062876364724, 0.043862378457490046, 0.019030549628415525, 0.06780823257821969, 0.0041390137814326855, 0.04379320635837282, 0.0041390137814326855, 0.008244229297376332, 0.00868340634856319, 0.0041390137814326855, 0.0041390137814326855, 0.016555630811383632;
}

probability ( d2_drowsiness | variable506 ) {
	(state0) 0.6206338070864552, 0.11639319853437188, 0.07125583707643887, 0.050792104709241434, 0.08550087038234645, 0.0015717247776564243, 0.02226708842382066, 0.0015717247776564243, 0.016001360661408066, 0.004001281649710361, 0.0015717247776564243, 0.0015717247776564243, 0.0068675523655812795;
	(state1) 0.32475536879135325, 0.05560666057686251, 0.04764994662863763, 0.04771941661049593, 0.1799458655336787, 0.0034872818027276596, 0.1563442766686641, 0.0034872818027276596, 0.051678848422901595, 0.03645677534526286, 0.0034872818027276596, 0.0034872818027276596, 0.08589371421123286;
}

probability ( d2_fatigue | variable506 ) {
	(state0) 0.4982136415201908, 0.1717745975539967, 0.08606139683455456, 0.03626308607292997, 0.10878028793871643, 0.0015717247776564245, 0.04807841545529968, 0.0015717247776564245, 0.020305280604925036, 0.007156432928640224, 0.0015717247776564245, 0.0015717247776564245, 0.01707996198012093;
	(state1) 0.08723332728669893, 0.016423329817040852, 0.04618548274015133, 0.031133892800650993, 0.1701417809704797, 0.003487281802727659, 0.17230802606800155, 0.003487281802727659, 0.1676716231560465, 0.10268916626787815, 0.003487281802727659, 0.003487281802727659, 0.19226424368214123;
}

probability ( d2_insomnia | variable506 ) {
	(state0) 0.6338208328027359, 0.12178683947442155, 0.04712544664495722, 0.02765781349301445, 0.054329689768903386, 0.0015717247776564243, 0.025741742604385047, 0.0015717247776564243, 0.0375640058392579, 0.012039328318205901, 0.0015717247776564243, 0.0015717247776564243, 0.033647401943492854;
	(state1) 0.3059583544638909, 0.061075868864220936, 0.04190572769398503, 0.0362778096786658, 0.12705240554650937, 0.003487281802727659, 0.13119844010962475, 0.003487281802727659, 0.09799309867835812, 0.04652052446755153, 0.003487281802727659, 0.003487281802727659, 0.1380686432862828;
}

probability ( d2_rls | variable506 ) {
	(state0) 0.7420317516358271, 0.10999754032307726, 0.043161898259374464, 0.014918877179572864, 0.0411499699229289, 0.001571724777656424, 0.013471612430961644, 0.001571724777656424, 0.014718251747025722, 0.005761202238099193, 0.001571724777656424, 0.001571724777656424, 0.008501997152506886;
	(state1) 0.5052616838815253, 0.038411562025485464, 0.02280164026359028, 0.03315692985166489, 0.1562950553012888, 0.003487281802727659, 0.060779037202048226, 0.003487281802727659, 0.05801304237695074, 0.06045018641958317, 0.003487281802727659, 0.003487281802727659, 0.05088173546695245;
}

probability ( d3_loss_interest | variable524 ) {
	(state0) 0.8184024938831402, 0.10637965311334016, 0.02674521621040682, 0.005592714666045759, 0.02315961957954958, 0.0014843580850650933, 0.009115510158269285, 0.0014843580850650933, 0.0016524692864549196, 0.0015238858271001746, 0.0014843580850650933, 0.0014843580850650933, 0.0014910049354324897;
	(state1) 0.1429912521817868, 0.04545736835847974, 0.1363050903755682, 0.04104252122604978, 0.2743494845665586, 0.004011100921778993, 0.14383388647693787, 0.004011100921778993, 0.06372333690160152, 0.040004195529025725, 0.004011100921778993, 0.004011100921778993, 0.09624846069687557;
}

probability ( d3_loss_activities | variable524 ) {
	(state0) 0.7205627335730358, 0.13567153244831628, 0.06356731382500698, 0.009473614062026734, 0.035071859528289555, 0.0014843580850650937, 0.0063305562304245685, 0.0014843580850650937, 0.014290882915881745, 0.0047989517111617485, 0.0014843580850650937, 0.0014843580850650937, 0.004295123365596235;
	(state1) 0.09852359689817586, 0.058558821376700466, 0.07691372804984904, 0.03857757761516835, 0.23413747817408817, 0.0040111009217789935, 0.17141502211751225, 0.0040111009217789935, 0.08171554430236615, 0.07527627148976629, 0.0040111009217789935, 0.0040111009217789935, 0.14883755628925754;
}

probability ( d3_anxiety | variable524 ) {
	(state0) 0.6477259398645704, 0.1346961801251973, 0.06934665607724762, 0.01583295672970831, 0.06604721897407087, 0.0014843580850650937, 0.026725694164755707, 0.0014843580850650937, 0.016850409706484513, 0.007104288336996742, 0.0014843580850650937, 0.0014843580850650937, 0.009733223680708144;
	(state1) 0.18704681744560367, 0.09328327081175646, 0.057285421772785304, 0.03342637113513179, 0.19455654248158583, 0.004011100921778993, 0.16443555020073772, 0.004011100921778993, 0.058754669197469196, 0.04899117985740581, 0.004011100921778993, 0.004011100921778993, 0.14617577341040813;
}

probability ( d3_depression | variable524 ) {
	(state0) 0.65639693241624, 0.1389297529065327, 0.06586592704930118, 0.015220591899740444, 0.06706764667346715, 0.0014843580850650937, 0.02740227260609923, 0.0014843580850650937, 0.006900378795580299, 0.00567220751603848, 0.0014843580850650937, 0.0014843580850650937, 0.010606857796740211;
	(state1) 0.11548245013787395, 0.06178761045035778, 0.042624602859864504, 0.04310333348335698, 0.19581019658049945, 0.0040111009217789935, 0.22277378253858646, 0.0040111009217789935, 0.06959769823970517, 0.07291651935237262, 0.0040111009217789935, 0.0040111009217789935, 0.15985940267026713;
}

probability ( d3_flat_affect | variable524 ) {
	(state0) 0.8171980437384984, 0.08722076970067481, 0.02446366975253636, 0.009678189654909705, 0.030652699976358708, 0.0014843580850650935, 0.0069857478061478235, 0.0014843580850650935, 0.011697604473167611, 0.0014844925681733465, 0.0014843580850650935, 0.0014843580850650935, 0.004681349989272829;
	(state1) 0.3548232208814862, 0.12530709376647223, 0.04620396838652884, 0.025991461241415315, 0.17789041939283035, 0.0040111009217789935, 0.10145581753373326, 0.0040111009217789935, 0.05663441361791629, 0.032088443967770316, 0.0040111009217789935, 0.0040111009217789935, 0.06356075752473134;
}

probability ( d3_loss_pleasure | variable524 ) {
	(state0) 0.8477736060637096, 0.07881037797252889, 0.023421466524505812, 0.005746674223236915, 0.013740973560204454, 0.0014843580850650937, 0.0059845528622423675, 0.0014843580850650937, 0.011495730101560393, 0.002910377207965096, 0.0014843580850650937, 0.0014843580850650937, 0.004178809143786061;
	(state1) 0.18796740592221828, 0.1079230332228017, 0.07709796450028078, 0.024582080918134838, 0.24765667253497384, 0.004011100921778993, 0.08811688902998822, 0.004011100921778993, 0.06921323062687444, 0.06433526098441629, 0.004011100921778993, 0.004011100921778993, 0.11706305857319567;
}

probability ( d4_hallucination | variable497 ) {
	(state0) 0.32667911686018825, 0.11161634079071149, 0.06796049037699514, 0.03436955263455893, 0.228049068253812, 0.006927933033328728, 0.07983566167681064, 0.006927933033328728, 0.04646580533174096, 0.04148050962604837, 0.006927933033328728, 0.006927933033328728, 0.035831722315819346;
	(state1) 0.9052076459664942, 0.04095378148218475, 0.014371370707282392, 0.0090399119044146, 0.00909600798617117, 0.0012842628429613648, 0.003180175628783958, 0.0012842628429613648, 0.005513311007183976, 0.0025846696958314584, 0.0012842628429613648, 0.0012842628429613648, 0.004916074249808059;
}

probability ( d4_delusion | variable497 ) {
	(state0) 0.5098892668520654, 0.09342087667809437, 0.04010295906865459, 0.0069279330333287285, 0.09590996557356596, 0.0069279330333287285, 0.08704113697435617, 0.0069279330333287285, 0.026755653925274535, 0.06746800536148755, 0.0069279330333287285, 0.0069279330333287285, 0.0447724703998579;
	(state1) 0.9572907474316084, 0.014788713049516511, 0.004124295427933155, 0.0012842628429613645, 0.007905984966258077, 0.0012842628429613645, 0.0018444634984853391, 0.0012842628429613645, 0.002745758305182241, 0.0016200364924206692, 0.0012842628429613645, 0.0012842628429613645, 0.0032586866137887588;
}

probability ( d4_diplopia | variable497 ) {
	(state0) 0.4044863081199676, 0.08543680365316565, 0.07282455834334062, 0.028573279555266222, 0.190294261411749, 0.006927933033328728, 0.0753575292650829, 0.006927933033328728, 0.035808664460080825, 0.013854851726360655, 0.006927933033328728, 0.006927933033328728, 0.0656520113316716;
	(state1) 0.9036267971238238, 0.034248437226704724, 0.01475395887689393, 0.0075458680455507895, 0.018663316041551643, 0.0012842628429613648, 0.0027260448085450464, 0.0012842628429613648, 0.008773137119569998, 0.0012844508758922592, 0.0012842628429613648, 0.0012842628429613648, 0.0032409385096223886;
}

probability ( d5_loss_concentration | variable488 ) {
	(state0) 0.6310812076333612, 0.15772133248704026, 0.06696324739757979, 0.03063691265739888, 0.04684267953454002, 0.001469437770524976, 0.025199910943564278, 0.001469437770524976, 0.02524883129877396, 0.005698500723184063, 0.001469437770524976, 0.001469437770524976, 0.004729626242457618;
	(state1) 0.1465300738648469, 0.07285725515732173, 0.059510386545539716, 0.045987951251084895, 0.2644561046676131, 0.004124262229521181, 0.15198172059454007, 0.004124262229521181, 0.07348343376434122, 0.05824277212694775, 0.004124262229521181, 0.004124262229521181, 0.11045325310967995;
}

probability ( d5_forget_explicit | variable488 ) {
	(state0) 0.6710508504571956, 0.18593656482181184, 0.07899721068166737, 0.018789344923698367, 0.02379246487415617, 0.001469437770524976, 0.0067916013826012705, 0.001469437770524976, 0.004436180479908101, 0.002775535758115843, 0.001469437770524976, 0.001469437770524976, 0.0015524955387454472;
	(state1) 0.03022325342675343, 0.06377818868868093, 0.06697735583962056, 0.025625039988487704, 0.3209024802669877, 0.004124262229521181, 0.199523951056635, 0.004124262229521181, 0.11127686558185944, 0.05819811600820109, 0.004124262229521181, 0.004124262229521181, 0.10699770022468934;
}

probability ( d5_forget_implicit | variable488 ) {
	(state0) 0.7412476475476838, 0.16656446714422898, 0.04172157244314001, 0.008870963208802384, 0.021211902193979462, 0.0014694377705249762, 0.007029270801656237, 0.0014694377705249762, 0.0032866877590694453, 0.0015063369296659617, 0.0014694377705249762, 0.0014694377705249762, 0.002683400889673965;
	(state1) 0.1012793664757282, 0.08515564190479338, 0.06849211170264662, 0.05758716504230856, 0.27865418340147874, 0.004124262229521181, 0.1699870501085464, 0.004124262229521181, 0.056763468734690514, 0.061760368792855104, 0.004124262229521181, 0.004124262229521181, 0.1038235949188678;
}

probability ( d6_drooling | variable470 ) {
	(state0) 0.2282554364399807, 0.01921669268335121, 0.08418786962357395, 0.012856706412836717, 0.203366547820134, 0.005106014791707165, 0.09664210430291321, 0.005106014791707165, 0.12336107648291812, 0.03649147170238038, 0.005106014791707165, 0.005106014791707165, 0.17519803536508288;
	(state1) 0.6825208230443544, 0.1378479113960029, 0.028208689025358228, 0.022666559965401137, 0.060745409668193556, 0.0013752272563680764, 0.017978194464719082, 0.0013752272563680764, 0.024534119132236045, 0.003923850877240813, 0.0013752272563680764, 0.0013752272563680764, 0.016073533401021665;
}

probability ( d6_swallowing | variable470 ) {
	(state0) 0.26948391642837394, 0.0844202328241859, 0.12078987884168156, 0.05702213744407768, 0.1857373230481389, 0.005106014791707167, 0.08639865869342905, 0.005106014791707167, 0.08961751688262617, 0.042469856184916104, 0.005106014791707167, 0.005106014791707167, 0.04363642048574204;
	(state1) 0.8020631497342879, 0.10103315012654787, 0.03072754105122381, 0.005270365277605129, 0.028362436727385667, 0.0013752272563680766, 0.006984837841541617, 0.0013752272563680766, 0.012994023733156553, 0.003688891397999727, 0.0013752272563680766, 0.0013752272563680766, 0.003374695084779605;
}

probability ( d6_constipation | variable470 ) {
	(state0) 0.239475284760468, 0.023824134183543334, 0.06736289458163314, 0.018581140787737396, 0.08598673000381225, 0.005106014791707166, 0.13003626370472796, 0.005106014791707166, 0.09578216215259015, 0.06872244079763222, 0.005106014791707166, 0.005106014791707166, 0.24980488986102686;
	(state1) 0.5846082472269386, 0.1104776493852712, 0.051993421189525116, 0.018374316307745234, 0.09373510170650827, 0.0013752272563680762, 0.04061421353251514, 0.0013752272563680762, 0.037462988364503284, 0.02137224849885761, 0.0013752272563680762, 0.0013752272563680762, 0.03586090476266316;
}

probability ( d7_urinary_urgency | variable479 ) {
	(state0) 0.15351641794768486, 0.04359129579429537, 0.04873984034514897, 0.022723057502033763, 0.2255467487595428, 0.0032329988407408033, 0.14624984951902734, 0.0032329988407408033, 0.13662613868558104, 0.05513675428447349, 0.0032329988407408033, 0.0032329988407408033, 0.15493790179924893;
	(state1) 0.6591536659741982, 0.13771905873624637, 0.0569086718610465, 0.037431824241164945, 0.060675711822333195, 0.0016294881272618258, 0.022427309914582836, 0.0016294881272618258, 0.0109829477159858, 0.006429359333806948, 0.0016294881272618258, 0.0016294881272618258, 0.0017534978915881914;
}

probability ( d7_urinary_frequency | variable479 ) {
	(state0) 0.16739364252701763, 0.006036000836479096, 0.061835090241574776, 0.046159219882566334, 0.18419938209152942, 0.003232998840740804, 0.1543565421757303, 0.003232998840740804, 0.15164719050652326, 0.055106510002927836, 0.003232998840740804, 0.003232998840740804, 0.16033442637268816;
	(state1) 0.7075618976862995, 0.11102191860645899, 0.0551969005851962, 0.03376702793311825, 0.06196165238915874, 0.0016294881272618251, 0.005305489594263389, 0.0016294881272618251, 0.013189002870582181, 0.0031856267277112524, 0.0016294881272618251, 0.0016294881272618251, 0.0022925310981641626;
}

probability ( d7_nocturia | variable479 ) {
	(state0) 0.07542697875958905, 0.019946817958412952, 0.03580915801116452, 0.03817687905280059, 0.23791593455789628, 0.003232998840740804, 0.105419316309852, 0.003232998840740804, 0.17605392961339228, 0.04976423922720029, 0.003232998840740804, 0.003232998840740804, 0.24855475114672884;
	(state1) 0.4801607040748958, 0.1740786122331837, 0.05853749819867057, 0.047567196496824796, 0.16361712973289452, 0.0016294881272618258, 0.025082245479401022, 0.0016294881272618258, 0.025329900139744784, 0.007507713037183119, 0.0016294881272618258, 0.0016294881272618258, 0.011601048098154598;
}

probability ( d8_sex_drive | variable533 ) {
	(state0) 0.03686214210386414, 0.07225490945981433, 0.03985413737313567, 0.05330966465529807, 0.25523473288140475, 0.005101997075889291, 0.1045738921127273, 0.005101997075889291, 0.09948523321061702, 0.059950473897172424, 0.005101997075889291, 0.005101997075889291, 0.2580668260024091;
	(state1) 0.8167487353889593, 0.06029988673629892, 0.02914521469072744, 0.006260284275480593, 0.038478167990360156, 0.0013755189977294087, 0.019949621661296903, 0.0013755189977294087, 0.007566354656263149, 0.003094376311112461, 0.0013755189977294087, 0.0013755189977294087, 0.012955282298583476;
}

probability ( d8_sex_dysfunction | variable533 ) {
	(state0) 0.20415309868120515, 0.04471062264677732, 0.03806403799463562, 0.043692923547744365, 0.2333777211203002, 0.005101997075889291, 0.07069286978960901, 0.005101997075889291, 0.051984065737894, 0.06626160580869196, 0.005101997075889291, 0.005101997075889291, 0.22665506636958527;
	(state1) 0.8294182163973526, 0.051219709626900554, 0.022750237717403587, 0.0033509204897889462, 0.018236045595244714, 0.0013755189977294087, 0.023582005995372725, 0.0013755189977294087, 0.016246304076383288, 0.009645983669330312, 0.0013755189977294087, 0.0013755189977294087, 0.02004850044130565;
}

probability ( d9_unexplained_pain | variable461 ) {
	(state0) 0.33351836859844136, 0.06769385001536794, 0.04983750298918582, 0.007790294601538285, 0.18294782374120475, 0.005138662161653091, 0.0905071140768051, 0.005138662161653091, 0.08572890684479258, 0.0413398468119931, 0.005138662161653091, 0.005138662161653091, 0.12008164367405856;
	(state1) 0.7154016200406237, 0.10684637741667624, 0.033362945526535, 0.017138987374716957, 0.033495164979136544, 0.001372878042823279, 0.025243146665017452, 0.001372878042823279, 0.02240108912137201, 0.008175673164259219, 0.001372878042823279, 0.001372878042823279, 0.03244348354036954;
}

probability ( d9_taste_smell | variable461 ) {
	(state0) 0.3222789568723687, 0.015059145834800567, 0.04442656939644799, 0.03523368882538019, 0.19511097290832694, 0.0051386621616530915, 0.03381987251695249, 0.0051386621616530915, 0.14445430774084958, 0.04246081296667188, 0.0051386621616530915, 0.0051386621616530915, 0.1466010242915894;
	(state1) 0.6579977797021835, 0.04402743321418488, 0.016961150799849552, 0.004315521444795083, 0.1469402134356919, 0.0013728780428232791, 0.01567627004816468, 0.0013728780428232791, 0.05750812079105589, 0.013367700805903578, 0.0013728780428232791, 0.0013728780428232791, 0.03771429758687783;
}

probability ( d9_weight_change | variable461 ) {
	(state0) 0.2133343858793478, 0.28651197056681244, 0.023897357937894412, 0.0483278005613623, 0.19201991712616792, 0.0051386621616530915, 0.0409729031227439, 0.0051386621616530915, 0.04084775559713921, 0.02985842225102221, 0.0051386621616530915, 0.0051386621616530915, 0.10367483831089751;
	(state1) 0.507257088576547, 0.35591020215052394, 0.022445867008330078, 0.009054482569042963, 0.04617306461591823, 0.0013728780428232791, 0.005527952115374201, 0.0013728780428232791, 0.03439182623274345, 0.0016329781162473765, 0.0013728780428232791, 0.0013728780428232791, 0.01211502644397966;
}

probability ( d9_sweating | variable461 ) {
	(state0) 0.257848288879481, 0.071379162491683, 0.03131173083161936, 0.01565587788652201, 0.2159722654170577, 0.0051386621616530915, 0.0771781818312345, 0.0051386621616530915, 0.10331467809694274, 0.06935402843780143, 0.0051386621616530915, 0.0051386621616530915, 0.13743113748104596;
	(state1) 0.8001433933764523, 0.05231954195584283, 0.030075141745245528, 0.012291811455220469, 0.042519557234117905, 0.0013728780428232791, 0.019194043656011798, 0.0013728780428232791, 0.014957005249486439, 0.008928492428085258, 0.0013728780428232791, 0.0013728780428232791, 0.014079500728244482;
}

probability ( variable461 | variable497 ) {
	(state0) 0.7177583554616497, 0.28224164453835027;
	(state1) 0.11449776327314012, 0.8855022367268598;
}

probability ( variable470 | variable506 ) {
	(state0) 0.016549450264934675, 0.9834505497350654;
	(state1) 0.6328051971975309, 0.367194802802469;
}

probability ( variable479 | variable506 ) {
	(state0) 0.14545451852943278, 0.8545454814705672;
	(state1) 0.7519894645889577, 0.2480105354110424;
}

probability ( variable488 | variable515 ) {
	(state0) 0.8987368568402865, 0.10126314315971362;
	(state1) 0.29063876483022894, 0.709361235169771;
}

probability ( variable497 | variable515 ) {
	(state0) 0.0042323828576490115, 0.9957676171423511;
	(state1) 0.5659317889708418, 0.43406821102915805;
}

probability ( variable506 | variable515 ) {
	(state0) 0.9033450189224885, 0.09665498107751146;
	(state1) 0.0851865907686256, 0.9148134092313743;
}

probability ( variable515 | variable524 ) {
	(state0) 0.9303619617504648, 0.0696380382495352;
	(state1) 0.22598151271689776, 0.7740184872831022;
}

probability ( variable524 | variable533 ) {
	(state0) 0.41734489964221083, 0.5826551003577892;
	(state1) 0.817714739930867, 0.18228526006913306;
}

probability ( variable533 ) {
	table 0.20467372674865722, 0.7953262732513429;
}

