network HLCM3357 {
}

variable d1_lightheaded {
	type discrete[13] { 0, 1, 2, 3, 4, 5, 6, 7, 8, 9, 10, 11, 12 };
}

variable d1_fainting {
	type discrete[13] { 0, 1, 2, 3, 4, 5, 6, 7, 8, 9, 10, 11, 12 };
}

variable d2_drowsiness {
	type discrete[13] { 0, 1, 2, 3, 4, 5, 6, 7, 8, 9, 10, 11, 12 };
}

variable d2_fatigue {
	type discrete[13] { 0, 1, 2, 3, 4, 5, 6, 7, 8, 9, 10, 11, 12 };
}

variable d2_insomnia {
	type discrete[13] { 0, 1, 2, 3, 4, 5, 6, 7, 8, 9, 10, 11, 12 };
}

variable d2_rls {
	type discrete[13] { 0, 1, 2, 3, 4, 5, 6, 7, 8, 9, 10, 11, 12 };
}

variable d3_loss_interest {
	type discrete[13] { 0, 1, 2, 3, 4, 5, 6, 7, 8, 9, 10, 11, 12 };
}

variable d3_loss_activities {
	type discrete[13] { 0, 1, 2, 3, 4, 5, 6, 7, 8, 9, 10, 11, 12 };
}

variable d3_anxiety {
	type discrete[13] { 0, 1, 2, 3, 4, 5, 6, 7, 8, 9, 10, 11, 12 };
}

variable d3_depression {
	type discrete[13] { 0, 1, 2, 3, 4, 5, 6, 7, 8, 9, 10, 11, 12 };
}

variable d3_flat_affect {
	type discrete[13] { 0, 1, 2, 3, 4, 5, 6, 7, 8, 9, 10, 11, 12 };
}

variable d3_loss_pleasure {
	type discrete[13] { 0, 1, 2, 3, 4, 5, 6, 7, 8, 9, 10, 11, 12 };
}

variable d4_hallucination {
	type discrete[13] { 0, 1, 2, 3, 4, 5, 6, 7, 8, 9, 10, 11, 12 };
}

variable d4_delusion {
	type discrete[13] { 0, 1, 2, 3, 4, 5, 6, 7, 8, 9, 10, 11, 12 };
}

variable d4_diplopia {
	type discrete[13] { 0, 1, 2, 3, 4, 5, 6, 7, 8, 9, 10, 11, 12 };
}

variable d5_loss_concentration {
	type discrete[13] { 0, 1, 2, 3, 4, 5, 6, 7, 8, 9, 10, 11, 12 };
}

variable d5_forget_explicit {
	type discrete[13] { 0, 1, 2, 3, 4, 5, 6, 7, 8, 9, 10, 11, 12 };
}

variable d5_forget_implicit {
	type discrete[13] { 0, 1, 2, 3, 4, 5, 6, 7, 8, 9, 10, 11, 12 };
}

variable d6_drooling {
	type discrete[13] { 0, 1, 2, 3, 4, 5, 6, 7, 8, 9, 10, 11, 12 };
}

variable d6_swallowing {
	type discrete[13] { 0, 1, 2, 3, 4, 5, 6, 7, 8, 9, 10, 11, 12 };
}

variable d6_constipation {
	type discrete[13] { 0, 1, 2, 3, 4, 5, 6, 7, 8, 9, 10, 11, 12 };
}

variable d7_urinary_urgency {
	type discrete[13] { 0, 1, 2, 3, 4, 5, 6, 7, 8, 9, 10, 11, 12 };
}

variable d7_urinary_frequency {
	type discrete[13] { 0, 1, 2, 3, 4, 5, 6, 7, 8, 9, 10, 11, 12 };
}

variable d7_nocturia {
	type discrete[13] { 0, 1, 2, 3, 4, 5, 6, 7, 8, 9, 10, 11, 12 };
}

variable d8_sex_drive {
	type discrete[13] { 0, 1, 2, 3, 4, 5, 6, 7, 8, 9, 10, 11, 12 };
}

variable d8_sex_dysfunction {
	type discrete[13] { 0, 1, 2, 3, 4, 5, 6, 7, 8, 9, 10, 11, 12 };
}

variable d9_unexplained_pain {
	type discrete[13] { 0, 1, 2, 3, 4, 5, 6, 7, 8, 9, 10, 11, 12 };
}

variable d9_taste_smell {
	type discrete[13] { 0, 1, 2, 3, 4, 5, 6, 7, 8, 9, 10, 11, 12 };
}

variable d9_weight_change {
	type discrete[13] { 0, 1, 2, 3, 4, 5, 6, 7, 8, 9, 10, 11, 12 };
}

variable d9_sweating {
	type discrete[13] { 0, 1, 2, 3, 4, 5, 6, 7, 8, 9, 10, 11, 12 };
}

variable variable543 {
	type discrete[2] { state0, state1 };
}

variable variable552 {
	type discrete[2] { state0, state1 };
}

variable variable561 {
	type discrete[2] { state0, state1 };
}

variable variable570 {
	type discrete[2] { state0, state1 };
}

variable variable579 {
	type discrete[2] { state0, state1 };
}

variable variable588 {
	type discrete[2] { state0, state1 };
}

variable variable597 {
	type discrete[2] { state0, state1 };
}

variable variable606 {
	type discrete[2] { state0, state1 };
}

variable variable615 {
	type discrete[2] { state0, state1 };
}

variable variable625 {
	type discrete[3] { state0, state1, state2 };
}

probability ( d1_lightheaded | variable615 ) {
	(state0) 0.018945535776944467, 0.03431057336836748, 0.13396218373297342, 0.041462308441993084, 0.2899435821270787, 0.006040828298224114, 0.1860436826295684, 0.006040828298224114, 0.11435249347978658, 0.05495124103969003, 0.006040828298224114, 0.006040828298224114, 0.10186508621070138;
	(state1) 0.7061282470561493, 0.1562066031000935, 0.0538957609549057, 0.03318502323794538, 0.026407577192773767, 0.001320202097149812, 0.006868073175546675, 0.001320202097149812, 0.00669350903644459, 0.002512819708696296, 0.001320202097149812, 0.001320202097149812, 0.0028215781488454346;
}

probability ( d1_fainting | variable615 ) {
	(state0) 0.5711288919390183, 0.1025069446523585, 0.05481963744188544, 0.024287503248328027, 0.11377193489453787, 0.0060408282982241145, 0.0656922901077916, 0.0060408282982241145, 0.006349039980633903, 0.013143826973877996, 0.0060408282982241145, 0.0060408282982241145, 0.024136617568671984;
	(state1) 0.9445454579374427, 0.025124737861577998, 0.007822389607677352, 0.0052536670822201014, 0.004179983909704128, 0.001320202097149812, 0.0014856027425588024, 0.001320202097149812, 0.002573045598856165, 0.00240827053802182, 0.001320202097149812, 0.001320202097149812, 0.0013260363333416;
}

probability ( d2_drowsiness | variable606 ) {
	(state0) 0.3394009375736851, 0.05915812230035167, 0.04975309397623086, 0.04175794723808641, 0.18120030797651826, 0.0032082972631052257, 0.15554186671688577, 0.0032082972631052257, 0.04985128848550051, 0.033668963639795116, 0.0032082972631052257, 0.0032082972631052257, 0.07683428304052548;
	(state1) 0.6252353811073513, 0.11706189987037972, 0.07114638561024456, 0.0539570554680302, 0.0810088074224845, 0.0016358361070059313, 0.01720715243659696, 0.0016358361070059313, 0.01547789087707004, 0.004098848416798924, 0.0016358361070059313, 0.0016358361070059313, 0.008263234363020032;
}

probability ( d2_fatigue | variable606 ) {
	(state0) 0.07842847427418366, 0.01678356253535108, 0.04263716500742072, 0.03409423241882168, 0.17951344997863256, 0.003208297263105225, 0.18125699652960411, 0.003208297263105225, 0.1672399986058641, 0.10050479396321634, 0.003208297263105225, 0.003208297263105225, 0.18670813763448477;
	(state1) 0.519467094847819, 0.1779277682696709, 0.08949715714381759, 0.03496289979686557, 0.10149893034103744, 0.0016358361070059313, 0.03844816446643769, 0.0016358361070059313, 0.014514219453774044, 0.004373372267897982, 0.0016358361070059313, 0.0016358361070059313, 0.012767048984655922;
}

probability ( d2_insomnia | variable606 ) {
	(state0) 0.30029063834482367, 0.06326913734750346, 0.04324856193924043, 0.03891840156815273, 0.12870829748765777, 0.003208297263105225, 0.12860788797489917, 0.003208297263105225, 0.09402215555041638, 0.046347978630038214, 0.003208297263105225, 0.003208297263105225, 0.14375375210484714;
	(state1) 0.6500843207820383, 0.1231449695094799, 0.04665368129531207, 0.025959823793613127, 0.050518998166728495, 0.0016358361070059313, 0.022760980821329244, 0.0016358361070059313, 0.0371237686487338, 0.010720802610998156, 0.0016358361070059313, 0.0016358361070059313, 0.026489309943743128;
}

probability ( d2_rls | variable606 ) {
	(state0) 0.5037829753006983, 0.042481249925189285, 0.021027043928457907, 0.0317345054152723, 0.15472250423415357, 0.0032082972631052257, 0.06269900750022163, 0.0032082972631052257, 0.05824860174809361, 0.05868070331111508, 0.0032082972631052257, 0.0032082972631052257, 0.05379021958437743;
	(state1) 0.752443663575664, 0.11084252400667635, 0.044897227306384666, 0.01490020028642069, 0.037254959581398885, 0.001635836107005931, 0.010562974066434569, 0.001635836107005931, 0.01283213238411229, 0.004432633318498571, 0.001635836107005931, 0.001635836107005931, 0.0052903410463863475;
}

probability ( d3_loss_interest | variable597 ) {
	(state0) 0.14785368880366667, 0.046014852413566676, 0.12918808749142513, 0.039714047177859584, 0.2788634193247346, 0.004000726448569403, 0.14272250305190926, 0.004000726448569403, 0.0637304798766654, 0.039932581011380724, 0.004000726448569403, 0.004000726448569403, 0.09597743505451435;
	(state1) 0.8172454545312805, 0.10623113431063327, 0.029283080674713562, 0.006052030142309956, 0.02124196113099017, 0.0014857838828390172, 0.009398850574157399, 0.0014857838828390172, 0.0015901944667515466, 0.0015135197212862623, 0.0014857838828390172, 0.0014857838828390172, 0.0015006389165212418;
}

probability ( d3_loss_activities | variable597 ) {
	(state0) 0.10613841141039596, 0.05761899896066403, 0.06919840065175396, 0.03604387817631779, 0.23741692615523513, 0.004000726448569404, 0.1701991413674902, 0.004000726448569404, 0.08534426597261252, 0.07532258321202509, 0.004000726448569404, 0.004000726448569404, 0.14671448829922773;
	(state1) 0.7183322536934167, 0.13609463280060974, 0.06641980084846925, 0.010386619854098824, 0.033662730817791545, 0.0014857838828390172, 0.006623536610065557, 0.0014857838828390172, 0.012878488968311218, 0.004714055655823387, 0.0014857838828390172, 0.0014857838828390172, 0.004944745220057674;
}

probability ( d3_anxiety | variable597 ) {
	(state0) 0.19274789438239914, 0.09106868750505603, 0.05284954507989782, 0.033213802196827236, 0.19650586312906668, 0.004000726448569404, 0.16743135415802313, 0.004000726448569404, 0.05834680112123992, 0.04913075170136634, 0.004000726448569404, 0.004000726448569404, 0.14270239493184625;
	(state1) 0.6460511869183072, 0.13555840790811505, 0.07100563081471326, 0.015895000942291893, 0.06519984372523951, 0.0014857838828390175, 0.025480839932345397, 0.0014857838828390175, 0.01696163208143129, 0.007012219965257396, 0.0014857838828390175, 0.0014857838828390175, 0.010892102180943029;
}

probability ( d3_depression | variable597 ) {
	(state0) 0.11148554423839332, 0.060821703382867735, 0.042461078844767006, 0.0425348522040413, 0.19650463514099462, 0.004000726448569403, 0.2234289704415707, 0.004000726448569403, 0.07010716783528807, 0.07384904722675696, 0.004000726448569403, 0.004000726448569403, 0.16280409489104258;
	(state1) 0.6584008719661476, 0.13936256880844755, 0.06594898077325576, 0.015404930915461669, 0.066686083656476, 0.0014857838828390168, 0.02697128609984492, 0.0014857838828390168, 0.0066509489197548715, 0.00526129527488746, 0.0014857838828390168, 0.0014857838828390168, 0.009369898054367824;
}

probability ( d3_flat_affect | variable597 ) {
	(state0) 0.3561557921253065, 0.11913400581759805, 0.044046511545645324, 0.028002659872165922, 0.18047667443265178, 0.004000726448569404, 0.1031611589998497, 0.004000726448569404, 0.05746722620670764, 0.03200564174597243, 0.004000726448569404, 0.004000726448569404, 0.06354742345982502;
	(state1) 0.8171472887902997, 0.08947673823339415, 0.025244020280470094, 0.008915603989417029, 0.029550791442501584, 0.0014857838828390175, 0.0062616775360769894, 0.0014857838828390175, 0.011345151783458865, 0.0014858469587267081, 0.0014857838828390175, 0.0014857838828390175, 0.0046297454542989416;
}

probability ( d3_loss_pleasure | variable597 ) {
	(state0) 0.19169548698059366, 0.10488256208429766, 0.07169858922144448, 0.024110758026085713, 0.25011355037949357, 0.004000726448569404, 0.08614158792556029, 0.004000726448569404, 0.07199880373358314, 0.06456389297537868, 0.004000726448569404, 0.004000726448569404, 0.1187918628792853;
	(state1) 0.8470228526089567, 0.0799115795415568, 0.025375119671431443, 0.005903621103506859, 0.012603854544146902, 0.0014857838828390172, 0.0066392451870278995, 0.0014857838828390172, 0.010405787620681745, 0.0027664666232244915, 0.0014857838828390172, 0.0014857838828390172, 0.003428337568111011;
}

probability ( d4_hallucination | variable588 ) {
	(state0) 0.8996265769575189, 0.0408999036026296, 0.013204822993824375, 0.01050480603792404, 0.0123357837062614, 0.0012354688930909618, 0.003319816240425657, 0.0012354688930909618, 0.007203756702505827, 0.002485504940164833, 0.0012354688930909618, 0.0012354688930909618, 0.005477153246381464;
	(state1) 0.20982253603085377, 0.13113077728848696, 0.09078113538291893, 0.030788718639516044, 0.26424081824660456, 0.008803536865265353, 0.09959361929435072, 0.008803536865265353, 0.045507351924328546, 0.052717420539202, 0.008803536865265353, 0.008803536865265353, 0.040203475192677106;
}

probability ( d4_delusion | variable588 ) {
	(state0) 0.9563375819760397, 0.014350586192212038, 0.0035969444295270055, 0.0012354688930909616, 0.006826699945580694, 0.0012354688930909616, 0.002854552171600732, 0.0012354688930909616, 0.0028699783708491205, 0.002298022838115218, 0.0012354688930909616, 0.0012354688930909616, 0.004688289610620705;
	(state1) 0.39555590927306084, 0.11783095866529986, 0.053601212461612535, 0.008803536865265353, 0.12742596366906803, 0.008803536865265353, 0.10290893496509665, 0.008803536865265353, 0.03237071812220871, 0.08046396569895288, 0.008803536865265353, 0.008803536865265353, 0.04582465281837373;
}

probability ( d4_diplopia | variable588 ) {
	(state0) 0.8931304293685561, 0.03462191292524003, 0.017559518752207064, 0.009620094125923186, 0.019081206511957258, 0.0012354688930909618, 0.002843286054785551, 0.0012354688930909618, 0.010046176944348032, 0.001235752210462411, 0.0012354688930909618, 0.0012354688930909618, 0.006919747534156423;
	(state1) 0.34414727311799664, 0.0966338009695498, 0.06855457115836747, 0.019485805196625634, 0.23378227197340037, 0.008803536865265355, 0.09418567666877425, 0.008803536865265355, 0.034056755702495646, 0.017605054905987193, 0.008803536865265355, 0.008803536865265355, 0.056334642845741786;
}

probability ( d5_loss_concentration | variable579 ) {
	(state0) 0.6329812682299383, 0.15641945615795674, 0.06557807300711979, 0.03006718178444829, 0.04679382086413593, 0.0014780499945384303, 0.025939148092153096, 0.0014780499945384303, 0.025845701918983492, 0.00586587879206304, 0.0014780499945384303, 0.0014780499945384303, 0.0045972711750476075;
	(state1) 0.14911036024474902, 0.0777970071435672, 0.06343322389076202, 0.04730510428146889, 0.26108867989349593, 0.004057899753759765, 0.14791217376379748, 0.004057899753759765, 0.07106862944164882, 0.056937768657995665, 0.004057899753759765, 0.004057899753759765, 0.10911545366747583;
}

probability ( d5_forget_explicit | variable579 ) {
	(state0) 0.6763188113093086, 0.18509216478737134, 0.07688581636755944, 0.018662669090749446, 0.022548109102673002, 0.00147804999453843, 0.0058618620719158914, 0.00147804999453843, 0.004579465919817049, 0.0025495100090331623, 0.00147804999453843, 0.00147804999453843, 0.0015893913634182555;
	(state1) 0.02607177239508485, 0.06806205955106419, 0.0729674738437314, 0.02586282960803744, 0.31953806299151816, 0.004057899753759765, 0.19897528770966375, 0.004057899753759765, 0.10916433695361817, 0.057926865546241185, 0.004057899753759765, 0.004057899753759765, 0.10519971238600179;
}

probability ( d5_forget_implicit | variable579 ) {
	(state0) 0.7458899004186178, 0.16402463875131496, 0.03973854206562914, 0.007894758781069135, 0.022135916382563996, 0.00147804999453843, 0.0067445937262791055, 0.00147804999453843, 0.003341876418408383, 0.0015020559036571038, 0.00147804999453843, 0.00147804999453843, 0.00281551757430641;
	(state1) 0.09883190304645476, 0.09343852122798907, 0.07350564746677239, 0.05948339690052562, 0.27197491693494164, 0.004057899753759765, 0.16814650134017362, 0.004057899753759765, 0.055751469944352004, 0.060802589487911715, 0.004057899753759765, 0.004057899753759765, 0.10183345463584008;
}

probability ( d6_drooling | variable570 ) {
	(state0) 0.6883609135761414, 0.13698767641948117, 0.0264402533828485, 0.023054648148831174, 0.05670386107893523, 0.0013752944647991735, 0.018172597520740692, 0.0013752944647991735, 0.023490116989065404, 0.004347499353496144, 0.0013752944647991735, 0.0013752944647991735, 0.016941255671263804;
	(state1) 0.206659447098685, 0.02243140275348226, 0.09074214181655353, 0.011417903943195407, 0.21834289021687403, 0.005105088518853128, 0.09590621052315582, 0.005105088518853128, 0.1272184809776516, 0.034912981922487464, 0.005105088518853128, 0.005105088518853128, 0.1719481866725024;
}

probability ( d6_swallowing | variable570 ) {
	(state0) 0.8028238292170357, 0.09969295946942423, 0.02915919437266073, 0.005572499127346383, 0.02965490468348221, 0.0013752944647991735, 0.0073995023186561384, 0.0013752944647991735, 0.012800218810595176, 0.004042091706052233, 0.0013752944647991735, 0.0013752944647991735, 0.003353622435550732;
	(state1) 0.26675689092624716, 0.08939802984379225, 0.12659523849666512, 0.05589122939516601, 0.18091113716468593, 0.005105088518853127, 0.08484501920480568, 0.005105088518853127, 0.0903230199876882, 0.04115174262169327, 0.005105088518853127, 0.005105088518853127, 0.0437073382838438;
}

probability ( d6_constipation | variable570 ) {
	(state0) 0.5905605841613492, 0.1092536686776387, 0.05252761072760003, 0.016672388502724286, 0.09107144864472153, 0.001375294464799173, 0.040780418452026394, 0.001375294464799173, 0.03513867819263819, 0.021222902646945967, 0.001375294464799173, 0.001375294464799173, 0.03727112213515888;
	(state1) 0.21744283962820124, 0.028383266191235018, 0.06537719662936804, 0.02489865366889878, 0.09587560700485197, 0.005105088518853128, 0.12940308970005907, 0.005105088518853128, 0.10439941427185626, 0.06926822239527908, 0.005105088518853128, 0.005105088518853128, 0.24453135643483803;
}

probability ( d7_urinary_urgency | variable561 ) {
	(state0) 0.6626958246639667, 0.13591978205833075, 0.057540946642322836, 0.036939698912886655, 0.05856673406244886, 0.0016303864027606546, 0.02329262444118633, 0.0016303864027606546, 0.011725005276968284, 0.00506978453537431, 0.0016303864027606546, 0.0016303864027606546, 0.0017280537954724431;
	(state1) 0.14705223738910417, 0.04725808406199878, 0.047496350639694186, 0.02371392020905137, 0.22954418156635667, 0.0032294685991760227, 0.14440062810770174, 0.0032294685991760227, 0.1350190765697211, 0.05777661382353288, 0.0032294685991760227, 0.0032294685991760227, 0.15482103323613508;
}

probability ( d7_urinary_frequency | variable561 ) {
	(state0) 0.7103518045405067, 0.1104050056904942, 0.055691791442145255, 0.033039724057301705, 0.05996794099527701, 0.0016303864027606549, 0.004962632512260056, 0.0016303864027606549, 0.013390822144872779, 0.0031024005955603735, 0.0016303864027606549, 0.0016303864027606549, 0.002566332410539348;
	(state1) 0.16245722783759628, 0.007372619991850829, 0.060847562164665046, 0.04758633151534025, 0.18801504836042604, 0.0032294685991760227, 0.1548729184744481, 0.0032294685991760227, 0.1510962389173558, 0.055214669782995475, 0.0032294685991760227, 0.0032294685991760227, 0.1596195085586181;
}

probability ( d7_nocturia | variable561 ) {
	(state0) 0.4797621774585558, 0.17285410035938775, 0.060621797661372795, 0.04633461572161256, 0.16160965209138853, 0.0016303864027606553, 0.024485170656277252, 0.0016303864027606553, 0.027413828633263786, 0.007614284525610193, 0.0016303864027606553, 0.0016303864027606553, 0.012782827281488766;
	(state1) 0.07665832513426396, 0.022540633196723458, 0.031705396631561425, 0.0406286281226374, 0.24181121544508893, 0.0032294685991760227, 0.10651427854986614, 0.0032294685991760227, 0.1717615034253499, 0.04950700087259069, 0.0032294685991760227, 0.0032294685991760227, 0.245955144225214;
}

probability ( d8_sex_drive | variable552 ) {
	(state0) 0.0707602722654398, 0.026554952663085996, 0.021717298427052754, 0.058285294736877144, 0.23332573418290142, 0.005674829361385496, 0.10454533924771406, 0.005674829361385496, 0.11767375180820591, 0.06914335480395728, 0.005674829361385496, 0.005674829361385496, 0.2752946844192237;
	(state1) 0.7880879176819119, 0.07140033289322362, 0.033708640733644886, 0.006332700510425704, 0.04939063242953375, 0.0013390766371617808, 0.022198355278538934, 0.0013390766371617808, 0.005709707116430805, 0.002431472020793693, 0.0013390766371617808, 0.0013390766371617808, 0.015383934786849586;
}

probability ( d8_sex_dysfunction | variable552 ) {
	(state0) 0.18103299795688277, 0.015311807837556007, 0.018012475115514535, 0.04729028421680572, 0.23831274125910515, 0.0056748293613854955, 0.07942614768053917, 0.0056748293613854955, 0.058896814471346495, 0.08254394331140305, 0.0056748293613854955, 0.0056748293613854955, 0.256473470705305;
	(state1) 0.8183083310076847, 0.05798443267841062, 0.027887476317311352, 0.003570861702599072, 0.022771403553771816, 0.0013390766371617804, 0.0227693674966684, 0.0013390766371617804, 0.015561938043234755, 0.007303825311250385, 0.0013390766371617804, 0.0013390766371617804, 0.01848605734042155;
}

probability ( d9_unexplained_pain | variable543 ) {
	(state0) 0.3659138212478847, 0.05902906845680375, 0.05471601916314815, 0.005591203235251233, 0.16426496733125984, 0.003952344797689406, 0.08775317080671301, 0.003952344797689406, 0.07932598218686383, 0.041401133606066835, 0.003952344797689406, 0.003952344797689406, 0.12619525477525112;
	(state1) 0.7364613810043348, 0.11353198281680192, 0.030084318470120806, 0.0187845001079386, 0.027520894412780963, 0.0014925693093515446, 0.020593258493902405, 0.0014925693093515446, 0.019298006485548108, 0.005261185271454183, 0.0014925693093515446, 0.0014925693093515446, 0.022494195699712026;
}

probability ( d9_taste_smell | variable543 ) {
	(state0) 0.36151728093772106, 0.013260193412407873, 0.04321173267498571, 0.02552425163234181, 0.19442076260448715, 0.003952344797689406, 0.036582065049934734, 0.003952344797689406, 0.13438202834989754, 0.04788774275609471, 0.003952344797689406, 0.003952344797689406, 0.12740456339137177;
	(state1) 0.6724486473496408, 0.04723232686099018, 0.01502541313836435, 0.005286677121813964, 0.14300120677532302, 0.0014925693093515446, 0.013051342654628222, 0.0014925693093515446, 0.053731624586786306, 0.008781849877707689, 0.0014925693093515446, 0.0014925693093515446, 0.03547063439733912;
}

probability ( d9_weight_change | variable543 ) {
	(state0) 0.24533482922648236, 0.2966159740739932, 0.03488539608503213, 0.03992633165835786, 0.16719495498585885, 0.003952344797689406, 0.03184021562238509, 0.003952344797689406, 0.0506518581710816, 0.02348568460486412, 0.003952344797689406, 0.003952344797689406, 0.0942553763811872;
	(state1) 0.5207973799711378, 0.3581448392200758, 0.018169783148987123, 0.008803270269382376, 0.04283267196326614, 0.0014925693093515446, 0.005886645798861334, 0.0014925693093515446, 0.030126544902418253, 0.001578816647870117, 0.0014925693093515446, 0.0014925693093515446, 0.007689770840594789;
}

probability ( d9_sweating | variable543 ) {
	(state0) 0.3810673981328887, 0.04638570366067226, 0.03619149272748972, 0.005878516983298903, 0.18370007558321047, 0.003952344797689406, 0.05888889369492125, 0.003952344797689406, 0.09159007644361025, 0.05984575102538007, 0.003952344797689406, 0.003952344797689406, 0.1206427125577706;
	(state1) 0.8008895194548852, 0.06009643865145537, 0.02812453205512183, 0.01569085990234425, 0.03958479253527577, 0.0014925693093515444, 0.021045621440495193, 0.0014925693093515444, 0.011681437252462477, 0.007251148645054291, 0.0014925693093515444, 0.0014925693093515444, 0.009665372825499109;
}

probability ( variable543 | variable625 ) {
	(state0) 0.03067324584541832, 0.9693267541545817;
	(state1) 0.572913234709958, 0.4270867652900421;
	(state2) 0.8194020551736624, 0.18059794482633762;
}

probability ( variable552 | variable625 ) {
	(state0) 0.06017801858366861, 0.9398219814163314;
	(state1) 0.2844558708800448, 0.715544129119955;
	(state2) 0.6259789427431668, 0.3740210572568333;
}

probability ( variable561 | variable625 ) {
	(state0) 0.8804989909347241, 0.11950100906527591;
	(state1) 0.43317672212521563, 0.5668232778747844;
	(state2) 0.08165812596755663, 0.9183418740324434;
}

probability ( variable570 | variable625 ) {
	(state0) 0.9938325955418228, 0.006167404458177267;
	(state1) 0.5881923808055988, 0.41180761919440123;
	(state2) 0.20180094575916324, 0.7981990542408368;
}

probability ( variable579 | variable625 ) {
	(state0) 0.9037127189346612, 0.0962872810653387;
	(state1) 0.6404795053620962, 0.35952049463790375;
	(state2) 0.04878824844241654, 0.9512117515575834;
}

probability ( variable588 | variable625 ) {
	(state0) 0.9875663524961907, 0.012433647503809276;
	(state1) 0.92979009351753, 0.07020990648247002;
	(state2) 0.1746648134917743, 0.8253351865082258;
}

probability ( variable597 | variable625 ) {
	(state0) 0.05021779676606797, 0.9497822032339319;
	(state1) 0.46602885848325004, 0.53397114151675;
	(state2) 0.9647168337724551, 0.035283166227544877;
}

probability ( variable606 | variable625 ) {
	(state0) 0.007790884677449831, 0.9922091153225501;
	(state1) 0.7969534124903622, 0.20304658750963778;
	(state2) 0.9592530801435603, 0.040746919856439724;
}

probability ( variable615 | variable625 ) {
	(state0) 0.016121533996140074, 0.9838784660038599;
	(state1) 0.3116368052620416, 0.6883631947379583;
	(state2) 0.6941416250955449, 0.30585837490445505;
}

probability ( variable625 ) {
	table 0.6091215284285286, 0.2861610398769495, 0.1047174316945218;
}

