network HLCM6841 {
}

variable variable1086 {
	type discrete[2] { state0, state1 };
}

variable scm2lue {
	type discrete[4] { s0, s1, s2, s3 };
}

variable scm4lue {
	type discrete[4] { s0, s1, s2, s3 };
}

variable scm4rue {
	type discrete[4] { s0, s1, s2, s3 };
}

variable scm20fpr {
	type discrete[4] { s0, s1, s2, s3 };
}

variable variable1046 {
	type discrete[2] { state0, state1 };
}

variable scm1lue {
	type discrete[4] { s0, s1, s2, s3 };
}

variable scm3lue {
	type discrete[4] { s0, s1, s2, s3 };
}

variable variable1050 {
	type discrete[2] { state0, state1 };
}

variable scm12fee {
	type discrete[4] { s0, s1, s2, s3 };
}

variable scm3rue {
	type discrete[4] { s0, s1, s2, s3 };
}

variable scm2rue {
	type discrete[4] { s0, s1, s2, s3 };
}

variable scm15cha {
	type discrete[4] { s0, s1, s2, s3 };
}

variable variable1070 {
	type discrete[2] { state0, state1 };
}

variable scm6post {
	type discrete[4] { s0, s1, s2, s3 };
}

variable scm16wal {
	type discrete[4] { s0, s1, s2, s3 };
}

variable scm17han {
	type discrete[4] { s0, s1, s2, s3 };
}

variable scm14hyg {
	type discrete[4] { s0, s1, s2, s3 };
}

variable scm19dsv {
	type discrete[4] { s0, s1, s2, s3 };
}

variable scm1rue {
	type discrete[4] { s0, s1, s2, s3 };
}

variable variable1060 {
	type discrete[2] { state0, state1 };
}

variable scm5rise {
	type discrete[4] { s0, s1, s2, s3 };
}

variable scm11spe {
	type discrete[4] { s0, s1, s2, s3 };
}

variable scm13dre {
	type discrete[4] { s0, s1, s2, s3 };
}

variable scm10swa {
	type discrete[4] { s0, s1, s2, s3 };
}

variable variable1033 {
	type discrete[2] { state0, state1 };
}

variable scm9free {
	type discrete[4] { s0, s1, s2, s3 };
}

variable scm18dpr {
	type discrete[4] { s0, s1, s2, s3 };
}

variable scm21fsv {
	type discrete[4] { s0, s1, s2, s3 };
}

variable scm7gait {
	type discrete[4] { s0, s1, s2, s3 };
}

variable scm8spee {
	type discrete[4] { s0, s1, s2, s3 };
}

probability ( variable1086 ) {
	table 0.7132293597687145, 0.28677064023128546;
}

probability ( scm2lue | variable1086 ) {
	(state0) 0.6014405029843637, 0.3546324384654462, 0.04171161785615074, 0.0022154406940395406;
	(state1) 0.34338107445721877, 0.3663562245150972, 0.21521547156750728, 0.07504722946017689;
}

probability ( scm4lue | variable1086 ) {
	(state0) 0.32292773822008564, 0.5591941837496703, 0.11563038812639237, 0.0022476899038515264;
	(state1) 0.007561722712656537, 0.19466866423177157, 0.6614539468162343, 0.13631566623933752;
}

probability ( scm4rue | variable1086 ) {
	(state0) 0.275391111852758, 0.5749561594416424, 0.14393842066292734, 0.005714308042672256;
	(state1) 0.03295512139207819, 0.3206095592820477, 0.5416877396431538, 0.10474757968272039;
}

probability ( scm20fpr | variable1086 ) {
	(state0) 0.5577044446366545, 0.33883195286203055, 0.0976889586091086, 0.005774643892206439;
	(state1) 0.22135385667883598, 0.3171955644715904, 0.34918351725732516, 0.11226706159224839;
}

probability ( variable1046 | variable1086 ) {
	(state0) 0.9840277657178332, 0.015972234282166778;
	(state1) 0.02156220764033411, 0.9784377923596659;
}

probability ( scm1lue | variable1046 ) {
	(state0) 0.6129272203454705, 0.2971924849126696, 0.08373633279601746, 0.0061439619458423965;
	(state1) 0.37299100696173304, 0.24837893150635426, 0.26159521118190426, 0.11703485035000848;
}

probability ( scm3lue | variable1046 ) {
	(state0) 0.2666866595499372, 0.5626007770438533, 0.16682777074297805, 0.003884792663231384;
	(state1) 0.0054598954059147855, 0.1137832440272165, 0.6377452143333747, 0.2430116462334942;
}

probability ( variable1050 | variable1086 ) {
	(state0) 0.8593679583992572, 0.14063204160074283;
	(state1) 0.17556704457076774, 0.8244329554292322;
}

probability ( scm12fee | variable1050 ) {
	(state0) 0.45977282801078656, 0.5152356916342203, 0.0232334409041757, 0.0017580394508174095;
	(state1) 0.03745651901216297, 0.47830741869660615, 0.41244122535165806, 0.07179483693957289;
}

probability ( scm3rue | variable1050 ) {
	(state0) 0.2848914776518079, 0.565765297290102, 0.144164110685411, 0.005179114372679048;
	(state1) 0.07609007910216592, 0.30399768749724093, 0.48285447417268407, 0.13705775922790903;
}

probability ( scm2rue | variable1050 ) {
	(state0) 0.5704524725413106, 0.35305587230502056, 0.06890131351629018, 0.007590341637378734;
	(state1) 0.4223916861157525, 0.3546406430193234, 0.1724217432755322, 0.05054592758939192;
}

probability ( scm15cha | variable1050 ) {
	(state0) 0.4264140449001621, 0.5335844555713859, 0.03802382018411794, 0.0019776793443339936;
	(state1) 0.017803814314197183, 0.37690541105729597, 0.4783131762865532, 0.12697759834195363;
}

probability ( variable1070 | variable1050 ) {
	(state0) 0.033402439053729825, 0.9665975609462703;
	(state1) 0.9077803459959796, 0.0922196540040204;
}

probability ( scm6post | variable1070 ) {
	(state0) 0.12926711341810998, 0.340846571376778, 0.4124499112658036, 0.11743640393930849;
	(state1) 0.7121280460287024, 0.242939239531653, 0.043207892442757315, 0.0017248219968872432;
}

probability ( scm16wal | variable1070 ) {
	(state0) 0.010515215427105781, 0.435333173773492, 0.4500857792318543, 0.10406583156754802;
	(state1) 0.34718502491535835, 0.6197728986364689, 0.03135107211090239, 0.0016910043372704829;
}

probability ( scm17han | variable1070 ) {
	(state0) 0.016347169889606553, 0.39969775771383004, 0.4349672293414882, 0.14898784305507523;
	(state1) 0.23236942001653488, 0.6372351970203642, 0.12108146862390626, 0.00931391433919466;
}

probability ( scm14hyg | variable1070 ) {
	(state0) 0.016778024930439277, 0.4734440450929319, 0.4157008484144961, 0.09407708156213254;
	(state1) 0.37045909229545404, 0.6142690665795504, 0.013625398914850317, 0.0016464422101451224;
}

probability ( scm19dsv | variable1070 ) {
	(state0) 0.3471132883158569, 0.3095570406707626, 0.23350357069020927, 0.10982610032317122;
	(state1) 0.7766072115373075, 0.1578392131572997, 0.056806626571920024, 0.008746948733472861;
}

probability ( scm1rue | variable1070 ) {
	(state0) 0.4620983160993328, 0.25861842010080066, 0.18807975597988377, 0.09120350781998282;
	(state1) 0.5572641256779874, 0.2848796512363289, 0.14163014856190964, 0.016226074523774024;
}

probability ( variable1060 | variable1070 ) {
	(state0) 0.07003712578929773, 0.9299628742107022;
	(state1) 0.9941555618556357, 0.005844438144364177;
}

probability ( scm5rise | variable1060 ) {
	(state0) 0.6915114096637613, 0.2874825086469563, 0.019285613965657075, 0.0017204677236252344;
	(state1) 0.12880349645789219, 0.3902714626558026, 0.3100440978191492, 0.170880943067156;
}

probability ( scm11spe | variable1060 ) {
	(state0) 0.5182974002495478, 0.44092858243530614, 0.0343473476211327, 0.006426669694013395;
	(state1) 0.05813009612890554, 0.5477512586931432, 0.34781530944727085, 0.04630333573068045;
}

probability ( scm13dre | variable1060 ) {
	(state0) 0.3185954112504459, 0.6283225615811063, 0.05148060330940272, 0.0016014238590451918;
	(state1) 0.014350834904431998, 0.3515217977924303, 0.5307268522401591, 0.10340051506297862;
}

probability ( scm10swa | variable1060 ) {
	(state0) 0.8002726758401779, 0.1691289136075197, 0.02899682780748663, 0.001601582744815804;
	(state1) 0.3144775117913059, 0.47554664495399235, 0.18501786071117146, 0.02495798254353015;
}

probability ( variable1033 | variable1070 ) {
	(state0) 0.9847896485176464, 0.015210351482353515;
	(state1) 0.060240272062759004, 0.9397597279372409;
}

probability ( scm9free | variable1033 ) {
	(state0) 0.1823420704193588, 0.34582313677413806, 0.36350189388467846, 0.10833289892182471;
	(state1) 0.814910802782869, 0.16513173791996105, 0.017709388646841528, 0.0022480706503282266;
}

probability ( scm18dpr | variable1033 ) {
	(state0) 0.32078962501588415, 0.3531080797044996, 0.23529949040537337, 0.09080280487424293;
	(state1) 0.8051224373113431, 0.15053127889424356, 0.02858083312754894, 0.015765450666864064;
}

probability ( scm21fsv | variable1033 ) {
	(state0) 0.13806363367115368, 0.2782591979567935, 0.4259290724401741, 0.15774809593187863;
	(state1) 0.6595306134960124, 0.2681365561297494, 0.06710808473065664, 0.005224745643581525;
}

probability ( scm7gait | variable1033 ) {
	(state0) 0.033092797064396176, 0.4255531309768546, 0.4716299079187752, 0.06972416403997408;
	(state1) 0.41031002584982845, 0.5713201268706554, 0.016598981615234796, 0.001770865664281333;
}

probability ( scm8spee | variable1033 ) {
	(state0) 0.03803202617574008, 0.5758672813718368, 0.33422154631736684, 0.05187914613505626;
	(state1) 0.4422391429351116, 0.5304034953137268, 0.020578320457401874, 0.006779041293759592;
}

