network HLCM3662 {
}

variable variable535 {
	type discrete[2] { state0, state1 };
}

variable scm7gait {
	type discrete[4] { s0, s1, s2, s3 };
}

variable scm13dre {
	type discrete[4] { s0, s1, s2, s3 };
}

variable scm2lue {
	type discrete[4] { s0, s1, s2, s3 };
}

variable scm6post {
	type discrete[4] { s0, s1, s2, s3 };
}

variable scm15cha {
	type discrete[4] { s0, s1, s2, s3 };
}

variable scm18dpr {
	type discrete[4] { s0, s1, s2, s3 };
}

variable scm16wal {
	type discrete[4] { s0, s1, s2, s3 };
}

variable scm3rue {
	type discrete[4] { s0, s1, s2, s3 };
}

variable scm5rise {
	type discrete[4] { s0, s1, s2, s3 };
}

variable scm19dsv {
	type discrete[4] { s0, s1, s2, s3 };
}

variable variable579 {
	type discrete[2] { state0, state1 };
}

variable scm20fpr {
	type discrete[4] { s0, s1, s2, s3 };
}

variable scm1rue {
	type discrete[4] { s0, s1, s2, s3 };
}

variable scm4lue {
	type discrete[4] { s0, s1, s2, s3 };
}

variable scm2rue {
	type discrete[4] { s0, s1, s2, s3 };
}

variable scm17han {
	type discrete[4] { s0, s1, s2, s3 };
}

variable variable557 {
	type discrete[2] { state0, state1 };
}

variable scm21fsv {
	type discrete[4] { s0, s1, s2, s3 };
}

variable scm3lue {
	type discrete[4] { s0, s1, s2, s3 };
}

variable scm4rue {
	type discrete[4] { s0, s1, s2, s3 };
}

variable scm9free {
	type discrete[4] { s0, s1, s2, s3 };
}

variable scm1lue {
	type discrete[4] { s0, s1, s2, s3 };
}

variable scm8spee {
	type discrete[4] { s0, s1, s2, s3 };
}

variable scm14hyg {
	type discrete[4] { s0, s1, s2, s3 };
}

variable scm10swa {
	type discrete[4] { s0, s1, s2, s3 };
}

variable scm11spe {
	type discrete[4] { s0, s1, s2, s3 };
}

variable scm12fee {
	type discrete[4] { s0, s1, s2, s3 };
}

probability ( variable535 ) {
	table 0.6097208587711632, 0.3902791412288368;
}

probability ( scm7gait | variable535 ) {
	(state0) 0.4570843466136173, 0.5134435938848749, 0.02656882681127473, 0.002903232690233197;
	(state1) 0.025096035121458016, 0.5061809974242477, 0.41004714227749006, 0.05867582517680424;
}

probability ( scm13dre | variable535 ) {
	(state0) 0.3677508005160738, 0.5810422593658822, 0.04830370611852679, 0.0029032339995173533;
	(state1) 0.024059618944304542, 0.4958724078412154, 0.4078515748715737, 0.07221639834290636;
}

probability ( scm2lue | variable535 ) {
	(state0) 0.572880524782619, 0.34273506187181174, 0.07202312217578609, 0.012361291169783144;
	(state1) 0.4318311647121033, 0.40146484684976846, 0.12724570801247023, 0.03945828042565798;
}

probability ( scm6post | variable535 ) {
	(state0) 0.8043773026108495, 0.16341065078887787, 0.029300390741139076, 0.0029116558591335408;
	(state1) 0.18025809966125733, 0.4410356443194071, 0.29747590062978274, 0.08123035538955287;
}

probability ( scm15cha | variable535 ) {
	(state0) 0.49621781815813604, 0.47698734158209644, 0.02389160780115988, 0.0029032324586074952;
	(state1) 0.027446331499777644, 0.4906414981278631, 0.391641669365086, 0.09027050100727323;
}

probability ( scm18dpr | variable535 ) {
	(state0) 0.8301831873923203, 0.10857026060143322, 0.037989025954581465, 0.023257526051665114;
	(state1) 0.3883827256997375, 0.38186073928779657, 0.14856231680240425, 0.08119421821006166;
}

probability ( scm16wal | variable535 ) {
	(state0) 0.4119388400302685, 0.5749188889698089, 0.010239038311699535, 0.002903232688223043;
	(state1) 0.009524754870911175, 0.5505273880676759, 0.36773145667989615, 0.07221640038151686;
}

probability ( scm3rue | variable535 ) {
	(state0) 0.27666809664683195, 0.5750244084726733, 0.14249343456333596, 0.00581406031715869;
	(state1) 0.0844183658451556, 0.37433586400447105, 0.44647355264047556, 0.09477221750989778;
}

probability ( scm5rise | variable535 ) {
	(state0) 0.7828458500675225, 0.20386363858952683, 0.01038726144780671, 0.0029032498951438996;
	(state1) 0.1685968333916652, 0.49549684871079064, 0.23209526879648518, 0.10381104910105901;
}

probability ( scm19dsv | variable535 ) {
	(state0) 0.8303596195682739, 0.11271844408917409, 0.04730999023012607, 0.00961194611242583;
	(state1) 0.39713548463644677, 0.3302764936357096, 0.1837202070731143, 0.08886781465472945;
}

probability ( variable579 | variable557 ) {
	(state0) 0.9681133777506713, 0.031886622249328714;
	(state1) 0.04501879783084545, 0.9549812021691546;
}

probability ( scm20fpr | variable579 ) {
	(state0) 0.12699888329427558, 0.42152504087887394, 0.3575806934695697, 0.09389538235728088;
	(state1) 0.6910413192039442, 0.28254865833568255, 0.02347935442397919, 0.002930668036394096;
}

probability ( scm1rue | variable579 ) {
	(state0) 0.41356941661901414, 0.2794221917821284, 0.2052903661459267, 0.10171802545293074;
	(state1) 0.5418459068696008, 0.3198653006584123, 0.12586371685697154, 0.01242507561501541;
}

probability ( scm4lue | variable579 ) {
	(state0) 0.1041290406887764, 0.3514230682663683, 0.46389612871275016, 0.08055176233210508;
	(state1) 0.30876224402147645, 0.5123379427766694, 0.16725417762549613, 0.011645635576357921;
}

probability ( scm2rue | variable579 ) {
	(state0) 0.39592477960288114, 0.3700415549842162, 0.181496743054975, 0.052536922357927604;
	(state1) 0.5504492445758402, 0.3804289813698876, 0.06254475818215409, 0.006577015872118091;
}

probability ( scm17han | variable579 ) {
	(state0) 0.005826022012554821, 0.437373357783114, 0.4239665677895765, 0.13283405241475474;
	(state1) 0.24153408470631332, 0.6402065792654201, 0.11155319703257735, 0.006706138995689222;
}

probability ( variable557 | variable535 ) {
	(state0) 0.031418894606768916, 0.9685811053932311;
	(state1) 0.9196396406227824, 0.08036035937721756;
}

probability ( scm21fsv | variable557 ) {
	(state0) 0.1206052445067175, 0.33858884863333294, 0.3965343229756302, 0.14427158388431932;
	(state1) 0.6948190050506672, 0.23144886202177586, 0.07080340193727089, 0.002928730990286094;
}

probability ( scm3lue | variable557 ) {
	(state0) 0.06480515036518752, 0.31897138499356265, 0.4587139459325419, 0.15750951870870794;
	(state1) 0.25926805889479804, 0.5280699322500989, 0.2035903379593282, 0.009071670895774882;
}

probability ( scm4rue | variable557 ) {
	(state0) 0.09085154253369544, 0.3554399999122844, 0.4838381043960679, 0.06987035315795227;
	(state1) 0.24619928258481547, 0.5769450808623232, 0.1683143363815809, 0.008541300171280485;
}

probability ( scm9free | variable557 ) {
	(state0) 0.23014585852341243, 0.3454791609981713, 0.31714580118243135, 0.1072291792959849;
	(state1) 0.8015133123730678, 0.1617728066085834, 0.031075536915579363, 0.005638344102769498;
}

probability ( scm1lue | variable557 ) {
	(state0) 0.41271279426257174, 0.32820693573466075, 0.1971718894759988, 0.06190838052676878;
	(state1) 0.578952152380049, 0.30041204678887834, 0.10153681477016765, 0.019098986060905137;
}

probability ( scm8spee | variable557 ) {
	(state0) 0.03209806841244426, 0.5977591219361617, 0.34260963513656145, 0.027533174514832743;
	(state1) 0.4187238232234547, 0.5427345941161914, 0.02690174749589455, 0.011639835164459366;
}

probability ( scm14hyg | variable557 ) {
	(state0) 0.028320976687205204, 0.5567122882462162, 0.3450928842187515, 0.06987385084782714;
	(state1) 0.41818539616668, 0.5621227431248149, 0.016845382086251522, 0.0028464786222534713;
}

probability ( scm10swa | variable557 ) {
	(state0) 0.4072877877710268, 0.44404682709716436, 0.13469057043182903, 0.013974814699979708;
	(state1) 0.8242060774832328, 0.14708651268212447, 0.025861067576905795, 0.0028463422577368917;
}

probability ( scm11spe | variable557 ) {
	(state0) 0.09661981277022956, 0.5398973064657921, 0.3407825003121354, 0.02270038045184275;
	(state1) 0.5016918365397418, 0.45285082445156866, 0.03371086544683251, 0.011746473561857146;
}

probability ( scm12fee | variable557 ) {
	(state0) 0.04221458071214136, 0.582400432914004, 0.3148462460895432, 0.060538740284311394;
	(state1) 0.5064716259075294, 0.4553435747820437, 0.035326975490289084, 0.002857823820137982;
}

