network HLCM1043 {
}

variable scm1rue {
	type discrete[4] { 0, 1, 2, 3 };
}

variable scm1lue {
	type discrete[4] { 0, 1, 2, 3 };
}

variable scm2rue {
	type discrete[4] { 0, 1, 2, 3 };
}

variable scm2lue {
	type discrete[4] { 0, 1, 2, 3 };
}

variable scm3rue {
	type discrete[4] { 0, 1, 2, 3 };
}

variable scm3lue {
	type discrete[4] { 0, 1, 2, 3 };
}

variable scm4rue {
	type discrete[4] { 0, 1, 2, 3 };
}

variable scm4lue {
	type discrete[4] { 0, 1, 2, 3 };
}

variable scm5rise {
	type discrete[4] { 0, 1, 2, 3 };
}

variable scm6post {
	type discrete[4] { 0, 1, 2, 3 };
}

variable scm7gait {
	type discrete[4] { 0, 1, 2, 3 };
}

variable scm9free {
	type discrete[4] { 0, 1, 2, 3 };
}

variable scm18dpr {
	type discrete[4] { 0, 1, 2, 3 };
}

variable scm19dsv {
	type discrete[4] { 0, 1, 2, 3 };
}

variable scm20fpr {
	type discrete[4] { 0, 1, 2, 3 };
}

variable scm21fsv {
	type discrete[4] { 0, 1, 2, 3 };
}

variable scm8spee {
	type discrete[4] { 0, 1, 2, 3 };
}

variable scm10swa {
	type discrete[4] { 0, 1, 2, 3 };
}

variable scm11spe {
	type discrete[4] { 0, 1, 2, 3 };
}

variable scm12fee {
	type discrete[4] { 0, 1, 2, 3 };
}

variable scm13dre {
	type discrete[4] { 0, 1, 2, 3 };
}

variable scm14hyg {
	type discrete[4] { 0, 1, 2, 3 };
}

variable scm15cha {
	type discrete[4] { 0, 1, 2, 3 };
}

variable scm16wal {
	type discrete[4] { 0, 1, 2, 3 };
}

variable scm17han {
	type discrete[4] { 0, 1, 2, 3 };
}

variable variable264 {
	type discrete[5] { state0, state1, state2, state3, state4 };
}

variable variable269 {
	type discrete[5] { state0, state1, state2, state3, state4 };
}

variable variable272 {
	type discrete[3] { state0, state1, state2 };
}

probability ( scm1rue | variable269 ) {
	(state0) 0.8650277308196445, 0.08634276782996321, 0.02881437683833855, 0.019815124512053854;
	(state1) 0.7900206790806589, 0.1140496231608528, 0.06339881437344513, 0.0325308833850431;
	(state2) 0.4135289363728288, 0.21539274348138096, 0.22648223701937567, 0.14459608312641445;
	(state3) 0.05455571684202723, 0.5015251190404321, 0.3555206789679605, 0.08839848514958022;
	(state4) 0.5323404847634357, 0.3115244437676506, 0.13895784824364085, 0.017177223225273045;
}

probability ( scm1lue | variable269 ) {
	(state0) 0.8064561081400311, 0.15267498943111785, 0.03416694254493255, 0.006701959883918478;
	(state1) 0.8156260537410699, 0.13494442137698084, 0.03477512009393363, 0.01465440478801567;
	(state2) 0.4638444020028293, 0.13878608798440845, 0.19299899615760058, 0.20437051385516175;
	(state3) 0.10988591846245846, 0.5459761888427277, 0.2871209637523022, 0.057016928942511744;
	(state4) 0.5513891325500632, 0.294399306072044, 0.13214714975630742, 0.022064411621585435;
}

probability ( scm2rue | variable269 ) {
	(state0) 0.7547286945040236, 0.21078196925098047, 0.02120589886303328, 0.013283437381962568;
	(state1) 0.8524393079321494, 0.08961731612919142, 0.03636244198831732, 0.02158093395034176;
	(state2) 0.4332340540494477, 0.26990133424921736, 0.1768810744967415, 0.11998353720459355;
	(state3) 0.07077341069342329, 0.6388992211204944, 0.26773494910575796, 0.022592419080324423;
	(state4) 0.5335505690429246, 0.37743293279403256, 0.07695871748520597, 0.012057780677836938;
}

probability ( scm2lue | variable269 ) {
	(state0) 0.6850000052265444, 0.2866704273265813, 0.01503531652731194, 0.01329425091956233;
	(state1) 0.9009295544986269, 0.06951731010393467, 0.01742452594247107, 0.012128609454967429;
	(state2) 0.40124156735722005, 0.26029310235172587, 0.19392102851332202, 0.14454430177773206;
	(state3) 0.13739581594812852, 0.6359594383503481, 0.1984385965260496, 0.028206149175473802;
	(state4) 0.5410083485503082, 0.36787585088182195, 0.08131562875370946, 0.00980017181416034;
}

probability ( scm3rue | variable269 ) {
	(state0) 0.28582512492285356, 0.5584700453234793, 0.1391634704630094, 0.016541359290657646;
	(state1) 0.14971800661817658, 0.43250268301179856, 0.37018423701232805, 0.047595073357696825;
	(state2) 0.02102454429862903, 0.09111291909768063, 0.5375173429857085, 0.3503451936179819;
	(state3) 0.047551252284440244, 0.38540667846770144, 0.5144457393530965, 0.0525963298947618;
	(state4) 0.31121163254579115, 0.5674304801287425, 0.11518985797533479, 0.006168029350131527;
}

probability ( scm3lue | variable269 ) {
	(state0) 0.24191402616629204, 0.4493937683507326, 0.2820015824601797, 0.02669062302279567;
	(state1) 0.1496756968772746, 0.40486362773450457, 0.3683340263839615, 0.07712664900425927;
	(state2) 0.021442156753504076, 0.06265777072163406, 0.41979625125140296, 0.49610382127345887;
	(state3) 0.029748226510517575, 0.4449652091641553, 0.4699725014730615, 0.055314062852265845;
	(state4) 0.28076496912866244, 0.4949759276067505, 0.20683475022337544, 0.017424353041211656;
}

probability ( scm4rue | variable269 ) {
	(state0) 0.3310660370617625, 0.5408730913768703, 0.10832843553695491, 0.019732436024412166;
	(state1) 0.1393949157986034, 0.4567903701421885, 0.39221790540109697, 0.01159680865811105;
	(state2) 0.029168879165585748, 0.15998600938169563, 0.5709518968815307, 0.2398932145711881;
	(state3) 0.04127330550227691, 0.4238519399623144, 0.5031547271016109, 0.031720027433797794;
	(state4) 0.2788375066883696, 0.5917409855510828, 0.11826658155833276, 0.011154926202214864;
}

probability ( scm4lue | variable269 ) {
	(state0) 0.33733361339155904, 0.4598754618590989, 0.1895205384647279, 0.013270386284614202;
	(state1) 0.1557479657377648, 0.4579408108268679, 0.3606559991878813, 0.025655224247486026;
	(state2) 0.029192159280461233, 0.12668161358529673, 0.5033785910281819, 0.34074763610606024;
	(state3) 0.044688094127296095, 0.48301050872802015, 0.45943906266371937, 0.012862334480964275;
	(state4) 0.32912066083812425, 0.5001259239307388, 0.1594316189441831, 0.011321796286953652;
}

probability ( scm5rise | variable269 ) {
	(state0) 0.568370989619518, 0.34331883113736933, 0.05091435063740258, 0.03739582860571022;
	(state1) 0.28272939751647785, 0.41262279275766583, 0.25182612166003154, 0.05282168806582474;
	(state2) 0.05804580691466102, 0.08604432808333125, 0.3948126819593543, 0.4610971830426534;
	(state3) 0.17678231735182787, 0.643234520374621, 0.17316246884997763, 0.006820693423573429;
	(state4) 0.7795805514418137, 0.20381785121779714, 0.014174485487170438, 0.0024271118532186624;
}

probability ( scm6post | variable269 ) {
	(state0) 0.462742293061453, 0.37363490123081167, 0.15191194611795503, 0.011710859589780276;
	(state1) 0.2468413493056466, 0.3546495174571092, 0.33344785154344553, 0.06506128169379868;
	(state2) 0.04575287920490378, 0.12378168049631164, 0.494306940222169, 0.33615850007661563;
	(state3) 0.1766310163414633, 0.5636374846775541, 0.2532416500690494, 0.006489848911933128;
	(state4) 0.8374667435877207, 0.13467028472325132, 0.025403619549260053, 0.002459352139767939;
}

probability ( scm7gait | variable269 ) {
	(state0) 0.2391240730042452, 0.6004533074262086, 0.15377022185594805, 0.006652397713598212;
	(state1) 0.023301845686516526, 0.6084778543495949, 0.3345841695399519, 0.03363613042393667;
	(state2) 0.011992568476362637, 0.0542421873788472, 0.6904144831261357, 0.24335076101865447;
	(state3) 0.03803277366175174, 0.6844200612202124, 0.2713379678240038, 0.006209197294032075;
	(state4) 0.49595150497357465, 0.4852260103998267, 0.016395377123557885, 0.002427107503040747;
}

probability ( scm9free | variable269 ) {
	(state0) 0.3927488277289315, 0.34293215120898507, 0.23718545986866207, 0.027133561193421384;
	(state1) 0.3960166377751785, 0.34330049314653266, 0.1953669461216563, 0.06531592295663269;
	(state2) 0.11890539625315502, 0.0655496498566233, 0.5189687339784756, 0.296576219911746;
	(state3) 0.3440310258721707, 0.4662937963936351, 0.171014463303881, 0.018660714430313214;
	(state4) 0.8836287333337217, 0.10186588172907957, 0.012075867352813097, 0.002429517584385709;
}

probability ( scm18dpr | variable269 ) {
	(state0) 0.010910804475828373, 0.5652129253916064, 0.2979930219492479, 0.1258832481833175;
	(state1) 0.9516043409435202, 0.0150552681889888, 0.015048467578340847, 0.018291923289150008;
	(state2) 0.2638439351372747, 0.20560247433414225, 0.3467989325309676, 0.1837546579976155;
	(state3) 0.3617668736785794, 0.495039347777847, 0.11746917494022581, 0.025724603603347676;
	(state4) 0.9365153381742058, 0.05346150223575038, 0.006226810284253187, 0.003796349305790531;
}

probability ( scm19dsv | variable269 ) {
	(state0) 0.029079304416697576, 0.553298657167721, 0.3320760516859312, 0.08554598672965018;
	(state1) 0.9668820507564674, 0.012940538623036379, 0.010744243714248735, 0.009433166906247483;
	(state2) 0.26384317852826666, 0.1674648479424522, 0.3501839402852214, 0.21850803324405987;
	(state3) 0.36751451412535624, 0.4473285447447048, 0.13672012230611882, 0.048436818823820185;
	(state4) 0.9381410596328308, 0.04844810442919309, 0.010946709706908187, 0.002464126231067912;
}

probability ( scm20fpr | variable269 ) {
	(state0) 0.11404088038727955, 0.5754289527000066, 0.2849614345991265, 0.025568732313587195;
	(state1) 0.3557945584380486, 0.4066387872828124, 0.21831936413503708, 0.019247290144102036;
	(state2) 0.06885768711582078, 0.10910910092480358, 0.5121449485847346, 0.3098882633746411;
	(state3) 0.13055074722681728, 0.600723174154438, 0.2491505913254547, 0.01957548729328983;
	(state4) 0.8182202034166645, 0.16186155908887084, 0.017479072749148415, 0.0024391647453163206;
}

probability ( scm21fsv | variable269 ) {
	(state0) 0.11002608881733567, 0.40934188559215784, 0.4026753635876197, 0.07795666200288685;
	(state1) 0.37928742292784207, 0.3213601493596732, 0.2745155225200645, 0.024836905192420305;
	(state2) 0.08054931962084848, 0.08277063695462346, 0.3792944147214375, 0.45738562870309063;
	(state3) 0.12012873882453338, 0.5466497044039046, 0.30623595747479676, 0.026985599296765115;
	(state4) 0.8346050460685267, 0.13816810312810868, 0.02479934982195033, 0.0024275009814142766;
}

probability ( scm8spee | variable264 ) {
	(state0) 0.03711796895510007, 0.8697403366251704, 0.08743951597195976, 0.005702178447769889;
	(state1) 0.6812492023566922, 0.289745438849187, 0.012252517930131157, 0.01675284086398973;
	(state2) 0.06966554104166522, 0.8313940805648435, 0.07798522663816536, 0.02095515175532586;
	(state3) 0.8669634476583609, 0.11215852758575459, 0.013727860380799817, 0.007150164375084699;
	(state4) 0.008519762400488913, 0.3060545180324273, 0.5740677822805313, 0.1113579372865524;
}

probability ( scm10swa | variable264 ) {
	(state0) 0.5480612754427394, 0.3941758349684819, 0.05494363291682459, 0.0028192566719541087;
	(state1) 0.886770788092229, 0.07608021529521905, 0.03147382625019468, 0.0056751703623572885;
	(state2) 0.7329532827331999, 0.19245703114912577, 0.0638992324001762, 0.010690453717498157;
	(state3) 0.9087561102319275, 0.07580820562405677, 0.008717790721488372, 0.006717893422527426;
	(state4) 0.25408207069595135, 0.41401880872474195, 0.2831829042246412, 0.04871621635466548;
}

probability ( scm11spe | variable264 ) {
	(state0) 0.10631498644993731, 0.7930326327855319, 0.09514551714345533, 0.005506863621075411;
	(state1) 0.8144471768570999, 0.15394977760787892, 0.014562224619711503, 0.017040820915309708;
	(state2) 0.21649925854197938, 0.6779571206040496, 0.08452338331590725, 0.021020237538063764;
	(state3) 0.9257594040026859, 0.060217040376437776, 0.006873390327731676, 0.007150165293144735;
	(state4) 0.02590344616900813, 0.3563110979793849, 0.5341787712460311, 0.08360668460557585;
}

probability ( scm12fee | variable264 ) {
	(state0) 0.10212352087001966, 0.7982137778719923, 0.0963430070740093, 0.0033196941839787534;
	(state1) 0.2502776760959431, 0.6904019603088564, 0.04798562850535001, 0.011334735089850414;
	(state2) 0.7435832952851482, 0.23147720739472394, 0.014242435933219747, 0.01069706138690809;
	(state3) 0.928314403669341, 0.05812134890722329, 0.006833725358621191, 0.006730522064814724;
	(state4) 0.01346255831634047, 0.15944399648529567, 0.6821782640777541, 0.14491518112060972;
}

probability ( scm13dre | variable264 ) {
	(state0) 0.005655650261434807, 0.803419687754558, 0.1881054332600844, 0.0028192287239229077;
	(state1) 0.030093535052372757, 0.9051719181296313, 0.05905937645827983, 0.0056751703597160705;
	(state2) 0.7513785191865159, 0.2206797152953048, 0.017251311776128195, 0.010690453742051062;
	(state3) 0.8550686028020174, 0.1312896015003596, 0.006923902275094294, 0.006717893422528678;
	(state4) 0.007822327067732044, 0.06499077764821018, 0.7253622718542531, 0.20182462342980476;
}

probability ( scm14hyg | variable264 ) {
	(state0) 0.03693818159376805, 0.8717251552947273, 0.08851741160587041, 0.002819251505634309;
	(state1) 0.10157856703198227, 0.8791610736475332, 0.013585188947442798, 0.005675170373041854;
	(state2) 0.7238084306158967, 0.23594553148330427, 0.029555584136612023, 0.010690453764187058;
	(state3) 0.8950944800216774, 0.09144257841312316, 0.006745048142664749, 0.006717893422534727;
	(state4) 0.007325453018735063, 0.11968054668530763, 0.6781289030487038, 0.19486509724725348;
}

probability ( scm15cha | variable264 ) {
	(state0) 0.08121082530333788, 0.7207983284217775, 0.19213659328981536, 0.005854252985069355;
	(state1) 0.34500997598700495, 0.6044224895890418, 0.03934874463463596, 0.011218789789317176;
	(state2) 0.5147030200460034, 0.4136160533579725, 0.060935155809311706, 0.01074577078671251;
	(state3) 0.8413892322591437, 0.13862013786626623, 0.013175926633916818, 0.006814703240673084;
	(state4) 0.007022253700791673, 0.11483142920996302, 0.6211536268209453, 0.25699269026829996;
}

probability ( scm16wal | variable264 ) {
	(state0) 0.05576770343372657, 0.8081997768787165, 0.1264776784151418, 0.009554841272415198;
	(state1) 0.36051587424176307, 0.5851970219736404, 0.04855609541370314, 0.005731008370893363;
	(state2) 0.30475131687788487, 0.6150878223557615, 0.0694486634131331, 0.010712197353220465;
	(state3) 0.6951032590448755, 0.27799150151121166, 0.02018734528321199, 0.00671789416070074;
	(state4) 0.011945179369855409, 0.14123208473241958, 0.6477891586558242, 0.1990335772419008;
}

probability ( scm17han | variable264 ) {
	(state0) 0.04719642176312378, 0.6805418799551658, 0.25802714613035904, 0.014234552151351502;
	(state1) 0.21484680711543333, 0.6446090026177654, 0.1288602158106898, 0.011683974456111437;
	(state2) 0.15366632242759248, 0.6700576763475393, 0.1342447267051894, 0.042031274519678787;
	(state3) 0.5238308288354839, 0.44783556151778875, 0.020890378817651923, 0.007443230829075336;
	(state4) 0.014281788592347086, 0.17177103538145908, 0.5296355768494084, 0.2843115991767855;
}

probability ( variable264 | variable272 ) {
	(state0) 0.6525067046893643, 0.17245456860076522, 0.14892993439376734, 0.015401382553642415, 0.010707409762460733;
	(state1) 0.4726855029612532, 0.0470784796207285, 0.006617954084446111, 0.004775042925646636, 0.46884302040792547;
	(state2) 0.149886496982419, 0.31908024858274636, 0.14551604606145233, 0.38093776043941757, 0.00457944793396474;
}

probability ( variable269 | variable272 ) {
	(state0) 0.3843174682526908, 0.17910334742901446, 0.004936239392848921, 0.18101747288937442, 0.2506254720360714;
	(state1) 0.12753487295010887, 0.20970208116614922, 0.2716938325919278, 0.3792579611453323, 0.01181125214648181;
	(state2) 0.04972792831601307, 0.007688334213894172, 0.003002802855552574, 0.01382211340276995, 0.9257588212117701;
}

probability ( variable272 ) {
	table 0.264669295128258, 0.32350250759418014, 0.4118281972775619;
}

