network BayesNet1063 {
}

variable scm1rue {
	type discrete[4] { 0, 1, 2, 3 };
}

variable scm1lue {
	type discrete[4] { 0, 1, 2, 3 };
}

variable scm2rue {
	type discrete[4] { 0, 1, 2, 3 };
}

variable scm2lue {
	type discrete[4] { 0, 1, 2, 3 };
}

variable scm3rue {
	type discrete[4] { 0, 1, 2, 3 };
}

variable scm3lue {
	type discrete[4] { 0, 1, 2, 3 };
}

variable scm4rue {
	type discrete[4] { 0, 1, 2, 3 };
}

variable scm4lue {
	type discrete[4] { 0, 1, 2, 3 };
}

variable scm5rise {
	type discrete[4] { 0, 1, 2, 3 };
}

variable scm6post {
	type discrete[4] { 0, 1, 2, 3 };
}

variable scm7gait {
	type discrete[4] { 0, 1, 2, 3 };
}

variable scm8spee {
	type discrete[4] { 0, 1, 2, 3 };
}

variable scm9free {
	type discrete[4] { 0, 1, 2, 3 };
}

variable scm10swa {
	type discrete[4] { 0, 1, 2, 3 };
}

variable scm11spe {
	type discrete[4] { 0, 1, 2, 3 };
}

variable scm12fee {
	type discrete[4] { 0, 1, 2, 3 };
}

variable scm13dre {
	type discrete[4] { 0, 1, 2, 3 };
}

variable scm14hyg {
	type discrete[4] { 0, 1, 2, 3 };
}

variable scm15cha {
	type discrete[4] { 0, 1, 2, 3 };
}

variable scm16wal {
	type discrete[4] { 0, 1, 2, 3 };
}

variable scm17han {
	type discrete[4] { 0, 1, 2, 3 };
}

variable scm18dpr {
	type discrete[4] { 0, 1, 2, 3 };
}

variable scm19dsv {
	type discrete[4] { 0, 1, 2, 3 };
}

variable scm20fpr {
	type discrete[4] { 0, 1, 2, 3 };
}

variable scm21fsv {
	type discrete[4] { 0, 1, 2, 3 };
}

variable variable206 {
	type discrete[3] { state0, state1, state2 };
}

variable variable210 {
	type discrete[2] { state0, state1 };
}

variable variable216 {
	type discrete[3] { state0, state1, state2 };
}

probability ( scm1rue | variable206 ) {
	(state0) 0.6349969167698056, 0.2723739443322097, 0.08899937504325992, 0.0036297638547249066;
	(state1) 0.33564449686522413, 0.3848222722901258, 0.2258278530944603, 0.05370537775018974;
	(state2) 0.4112450082682544, 0.1254533839264397, 0.2146288406016896, 0.24867276720361636;
}

probability ( scm1lue | variable206 ) {
	(state0) 0.6285561633596956, 0.2642515891930829, 0.09549990493405602, 0.011692342513165551;
	(state1) 0.3968391780331917, 0.4079946166977052, 0.16706028699867295, 0.02810591827043003;
	(state2) 0.43693105476927346, 0.14000288568992145, 0.2305530647863463, 0.19251299475445888;
}

probability ( scm2rue | variable206 ) {
	(state0) 0.6119998159838815, 0.3566744905282802, 0.024129794196318364, 0.007195899291519868;
	(state1) 0.35738087563514054, 0.45512617494177693, 0.17735531345242525, 0.010137635970657345;
	(state2) 0.41674229403753266, 0.14464899402387255, 0.255565612132291, 0.18304309980630365;
}

probability ( scm2lue | variable206 ) {
	(state0) 0.6123444789470963, 0.32775975149415054, 0.05620050139210459, 0.0036952681666485255;
	(state1) 0.4083166585561962, 0.46912560394801134, 0.10746602932966913, 0.015091708166123426;
	(state2) 0.48564421282361103, 0.12353193808737424, 0.22816573748309918, 0.16265811160591553;
}

probability ( scm3rue | variable206 ) {
	(state0) 0.3726490791225031, 0.5423721104183468, 0.08125792649661102, 0.003720883962539129;
	(state1) 0.03947002908347184, 0.5019702943609463, 0.4073084119767788, 0.05125126457880298;
	(state2) 0.03597918628311056, 0.2373681775914409, 0.5374260958053875, 0.18922654032006106;
}

probability ( scm3lue | variable206 ) {
	(state0) 0.2807130781239035, 0.5242966939611104, 0.18323996465763845, 0.011750263257347657;
	(state1) 0.0848269925175486, 0.4447090919221662, 0.4280468747372003, 0.0424170408230849;
	(state2) 0.13898280855869027, 0.0894477422532348, 0.3441628713189575, 0.4274065778691174;
}

probability ( scm4rue | variable206 ) {
	(state0) 0.34552023309890356, 0.5685618656673502, 0.08228692482616515, 0.0036309764075810533;
	(state1) 0.025429721804686462, 0.4698190985138613, 0.4821256153692982, 0.022625564312154085;
	(state2) 0.08470748007157883, 0.2068222390124707, 0.4897163992884696, 0.21875388162748086;
}

probability ( scm4lue | variable206 ) {
	(state0) 0.35177785733940503, 0.5089049643666866, 0.12851780305574562, 0.01079937523816289;
	(state1) 0.09897838275377736, 0.4568020460614227, 0.427000258514137, 0.017219312670662977;
	(state2) 0.15482100525855305, 0.11453333565375297, 0.45559747557607394, 0.27504818351162;
}

probability ( scm5rise | variable216 ) {
	(state0) 0.8883692071665384, 0.09919445187981496, 0.008244967569958458, 0.004191373383688098;
	(state1) 0.10866633740172323, 0.2159941961569734, 0.4185994524920231, 0.2567400139492802;
	(state2) 0.35691529707173725, 0.570579450403568, 0.06836802207867183, 0.004137230446022835;
}

probability ( scm6post | variable216 ) {
	(state0) 0.8785828547662202, 0.09657033016004092, 0.02065531139714065, 0.004191503676598242;
	(state1) 0.10358388599953988, 0.24747667911695914, 0.448165913458631, 0.2007735214248701;
	(state2) 0.4098040266264239, 0.4539934460442908, 0.1320090462294283, 0.004193481099856968;
}

probability ( scm7gait | variable216 ) {
	(state0) 0.5926450292608842, 0.3894841073361378, 0.013679490886117522, 0.004191372516860378;
	(state1) 0.022669321125965196, 0.17097080016352334, 0.6612432807958455, 0.1451165979146659;
	(state2) 0.08507067683816823, 0.7515914228957653, 0.15920258550672395, 0.004135314759342588;
}

probability ( scm8spee | variable210 ) {
	(state0) 0.004084116196441558, 0.7037313341930355, 0.262283132419286, 0.029901417191236825;
	(state1) 0.5735998589235195, 0.4059537944182194, 0.01654192312582457, 0.0039044235324366553;
}

probability ( scm9free | variable210, variable216 ) {
	(state0 state0) 0.7700921288886201, 0.16934974826310847, 0.04570179842159096, 0.014856324426680348;
	(state0 state1) 0.14166047142528265, 0.10613826695933472, 0.4838736185515847, 0.26832764306379786;
	(state0 state2) 0.3914062050066875, 0.42394831871027266, 0.17788023149822096, 0.006765244784818878;
	(state1 state0) 0.9420219786060389, 0.044488818986293886, 0.007738311934650926, 0.0057508904730165285;
	(state1 state1) 0.09465030413604585, 0.5209447636056054, 0.2879543443539942, 0.09645058790435464;
	(state1 state2) 0.5026577788594152, 0.36771026290958153, 0.08926633182567889, 0.040365626405324206;
}

probability ( scm10swa | variable210 ) {
	(state0) 0.4492715190804852, 0.4281812605598042, 0.11253614070433739, 0.010011079655373283;
	(state1) 0.9099962856460505, 0.07018640030656276, 0.016062267652492208, 0.0037550463948943934;
}

probability ( scm11spe | variable210 ) {
	(state0) 0.027155549666834696, 0.6781234365273071, 0.2681269534844614, 0.026594060321396842;
	(state1) 0.7090872438403317, 0.2695655557644114, 0.01747633527199667, 0.0038708651232601072;
}

probability ( scm12fee | variable206, variable210, variable216 ) {
	(state0 state0 state0) 0.5418126230248237, 0.4055262429630525, 0.027009284749788486, 0.025651849262335276;
	(state0 state0 state1) 0.22879767168020218, 0.570790450549207, 0.15299587143898527, 0.04741600633160566;
	(state0 state0 state2) 0.10648658168473775, 0.7557490254318631, 0.12177171921518451, 0.015992673668214746;
	(state0 state1 state0) 0.8695953294579284, 0.11360283956934511, 0.008467367336501355, 0.008334463636225259;
	(state0 state1 state1) 0.6492506015553604, 0.12317395171485931, 0.11404002426185933, 0.11353542246792094;
	(state0 state1 state2) 0.2873352975061028, 0.646759097756433, 0.04448717651868157, 0.021418428218782617;
	(state1 state0 state0) 0.41266381419219017, 0.4331426095375428, 0.12063947074860559, 0.03355410552166135;
	(state1 state0 state1) 0.026414875928843368, 0.31918256641736237, 0.577350133242415, 0.07705242441137945;
	(state1 state0 state2) 0.023025115043236438, 0.8906721206367447, 0.07495109797969772, 0.01135166634032109;
	(state1 state1 state0) 0.18788994394912625, 0.7547660488910936, 0.03811334104964886, 0.01923066611013129;
	(state1 state1 state1) 0.1287237486976125, 0.5063102152183031, 0.23671087038055502, 0.12825516570352943;
	(state1 state1 state2) 0.3231736659478148, 0.5620210942040648, 0.08851402389303846, 0.02629121595508217;
	(state2 state0 state0) 0.2752099476792219, 0.16374207726563586, 0.419598080503809, 0.14144989455133314;
	(state2 state0 state1) 0.03682364191777832, 0.037360479091124596, 0.5553271434211108, 0.3704887355699863;
	(state2 state0 state2) 0.1046701792790995, 0.17318388715024446, 0.6690596875971107, 0.05308624597354551;
	(state2 state1 state0) 0.13258907954745897, 0.39298428483970604, 0.2883622789318438, 0.18606435668099117;
	(state2 state1 state1) 0.15135924679898258, 0.15207098247275228, 0.5447492730245775, 0.15182049770368758;
	(state2 state1 state2) 0.14962452086913008, 0.2832317580638494, 0.4361679478373133, 0.1309757732297072;
}

probability ( scm13dre | variable206, variable216 ) {
	(state0 state0) 0.77975723960006, 0.20596141147450786, 0.007828373072710566, 0.006452975852721609;
	(state0 state1) 0.24595471778949207, 0.47267719595002367, 0.2426001206084043, 0.038767965652080044;
	(state0 state2) 0.02033649478285844, 0.8667658503383333, 0.10339048365672825, 0.0095071712220799;
	(state1 state0) 0.03419074807265871, 0.880224727996489, 0.0727315291251611, 0.012852994805691296;
	(state1 state1) 0.024023999284576908, 0.07316005599988913, 0.8076467754716333, 0.09516916924390065;
	(state1 state2) 0.016539912137783525, 0.7649517690518342, 0.2103121378408703, 0.00819618096951196;
	(state2 state0) 0.13957920415612746, 0.4344276920663283, 0.3536065187721855, 0.0723865850053587;
	(state2 state1) 0.0336027404155863, 0.0681883634306288, 0.4610038482239267, 0.4372050479298582;
	(state2 state2) 0.044580833788310056, 0.3812946819907647, 0.5296311955007332, 0.04449328872019213;
}

probability ( scm14hyg | variable206, variable210, variable216 ) {
	(state0 state0 state0) 0.5810061107241499, 0.36499300619531905, 0.02834903251930437, 0.02565185056122667;
	(state0 state0 state1) 0.1317726611660584, 0.5770809072188596, 0.243610258923863, 0.04753617269121895;
	(state0 state0 state2) 0.026603894257995545, 0.8630053088430193, 0.09439310034851663, 0.01599769655046858;
	(state0 state1 state0) 0.873538210661047, 0.10978985240487737, 0.008337473297849144, 0.008334463636226513;
	(state0 state1 state1) 0.5336636178090087, 0.23788721296246246, 0.11491232197583108, 0.11353684725269776;
	(state0 state1 state2) 0.17657270198166175, 0.7752353619402544, 0.02677345401210535, 0.02141848206597846;
	(state1 state0 state0) 0.09579069072679162, 0.8365595227008475, 0.03409567375718381, 0.03355411281517705;
	(state1 state0 state1) 0.026372279694973556, 0.07629915660060801, 0.7882137841665158, 0.10911477953790273;
	(state1 state0 state2) 0.05041025040780895, 0.8018518882871876, 0.13637498723248467, 0.011362874072518929;
	(state1 state1 state0) 0.10304943202299002, 0.8474956680243452, 0.030224235596005636, 0.01923066435665918;
	(state1 state1 state1) 0.12778210725343853, 0.43272521422009524, 0.3112678938598902, 0.12822478466657602;
	(state1 state1 state2) 0.06595089084890528, 0.8324812985410466, 0.07527657137076908, 0.026291239239279;
	(state2 state0 state0) 0.1418260646577888, 0.1669803407306131, 0.5497399713237632, 0.1414536232878348;
	(state2 state0 state1) 0.03682231548388124, 0.0721356135085641, 0.45667089627061097, 0.4343711747369437;
	(state2 state0 state2) 0.053471013451635935, 0.37018935291141786, 0.520907553542512, 0.055432080094434365;
	(state2 state1 state0) 0.09444451157806055, 0.7098650816960363, 0.10262776928931824, 0.09306263743658502;
	(state2 state1 state1) 0.151342671322826, 0.5444263563492854, 0.1522270927125867, 0.15200387961530196;
	(state2 state1 state2) 0.25416988114799377, 0.28200454408882436, 0.33292396847780925, 0.13090160628537265;
}

probability ( scm15cha | variable206, variable216 ) {
	(state0 state0) 0.7941237918201332, 0.19248683932735056, 0.006936393326544795, 0.006452975525971489;
	(state0 state1) 0.11269278411952492, 0.4596723930605778, 0.3888953186810845, 0.03873950413881274;
	(state0 state2) 0.10048585648302043, 0.7999492285446251, 0.09006075247663232, 0.009504162495722002;
	(state1 state0) 0.31927214289149336, 0.6260682060873912, 0.04180665901082062, 0.012852992010294812;
	(state1 state1) 0.02408456916780181, 0.07628807872025278, 0.7574084617593276, 0.14221889035261784;
	(state1 state2) 0.10357149547448041, 0.7167252542724576, 0.17148892478575156, 0.008214325467310263;
	(state2 state0) 0.42467455844894353, 0.2842152214319378, 0.21872600866077677, 0.07238421145834195;
	(state2 state1) 0.0336249367146715, 0.06790324828496551, 0.39332049438019273, 0.5051513206201703;
	(state2 state2) 0.09181235175130892, 0.3845995971764801, 0.4785767794018162, 0.04501127167039473;
}

probability ( scm16wal | variable216 ) {
	(state0) 0.5631271944705286, 0.4245224360055879, 0.008158996934219356, 0.004191372589663981;
	(state1) 0.03283202594364412, 0.10821952936300819, 0.6803427343355722, 0.1786057103577756;
	(state2) 0.031860648725174204, 0.8684569205865121, 0.09554731436870649, 0.004135116319607193;
}

probability ( scm17han | variable206 ) {
	(state0) 0.2635430810748866, 0.5654607741870804, 0.1526575873498042, 0.01833855738822867;
	(state1) 0.04540000024010807, 0.621176944827669, 0.29806659121665174, 0.03535646371557117;
	(state2) 0.01827922891795439, 0.2669604362521336, 0.37661580786821175, 0.3381445269617002;
}

probability ( scm18dpr | variable206, variable216 ) {
	(state0 state0) 0.850372616359675, 0.11292592047042618, 0.014580286844657077, 0.022121176325241725;
	(state0 state1) 0.2932361575716318, 0.3666955363718152, 0.18667455639453143, 0.15339374966202163;
	(state0 state2) 0.810369668075225, 0.08368992158696083, 0.07267859586231315, 0.03326181447550103;
	(state1 state0) 0.9170474751380525, 0.04081706749719006, 0.029175971810927525, 0.012959485553829917;
	(state1 state1) 0.4655913846732533, 0.38565622074632117, 0.12477328384525262, 0.02397911073517289;
	(state1 state2) 0.30058113862937025, 0.5460912748753477, 0.10414216538161133, 0.0491854211136707;
	(state2 state0) 0.635623530059986, 0.1426682318480689, 0.14840259593040242, 0.07330564216154282;
	(state2 state1) 0.39048421577916137, 0.10539977265360231, 0.2684040111877834, 0.23571200037945286;
	(state2 state2) 0.2849894745382652, 0.09149790251950601, 0.3553598644677105, 0.26815275847451836;
}

probability ( scm19dsv | variable206, variable216 ) {
	(state0 state0) 0.8623083059015583, 0.1088327436740329, 0.01759404536435682, 0.011264905060051898;
	(state0 state1) 0.32763313412218076, 0.3229573375099995, 0.27378884926230324, 0.07562067910551648;
	(state0 state2) 0.801632178117194, 0.11780599471038401, 0.059404915510633365, 0.02115691166178862;
	(state1 state0) 0.9183807345517767, 0.03208492798454196, 0.0365682415209711, 0.012966095942710355;
	(state1 state1) 0.4913546617968012, 0.2505213950178041, 0.2336575656873053, 0.02446637749808927;
	(state1 state2) 0.3002563104048262, 0.501843809681763, 0.16489072021855966, 0.03300915969485119;
	(state2 state0) 0.6356131362050836, 0.07366945088874133, 0.21629658296492119, 0.07442082994125387;
	(state2 state1) 0.3580494918901606, 0.13328681387768193, 0.27197115944950556, 0.23669253478265187;
	(state2 state2) 0.2849481933531381, 0.09300517991832835, 0.1807723393017415, 0.44127428742679203;
}

probability ( scm20fpr | variable206, variable210, variable216 ) {
	(state0 state0 state0) 0.5393527526927003, 0.3154426189369704, 0.11955165545177962, 0.02565297291854962;
	(state0 state0 state1) 0.05144916633635195, 0.28455485205924647, 0.5707789054085004, 0.09321707619590111;
	(state0 state0 state2) 0.797802836856426, 0.16713992582411713, 0.018794368637994913, 0.016262868681462008;
	(state0 state1 state0) 0.9012495644707449, 0.07366696473204686, 0.016749007147591376, 0.008334463649616946;
	(state0 state1 state1) 0.11472833075016906, 0.6446863736246948, 0.12487110210741831, 0.11571419351771783;
	(state0 state1 state2) 0.055519897098592466, 0.83435807741643, 0.0886856954515592, 0.021436330033418338;
	(state1 state0 state0) 0.8815330432798298, 0.0496995054143491, 0.03447228286547811, 0.034295168440343;
	(state1 state0 state1) 0.1804053351105336, 0.2741691375717259, 0.5174150645406127, 0.028010462777127956;
	(state1 state0 state2) 0.029810276458922768, 0.7523668196386186, 0.1835484364509693, 0.03427446745148927;
	(state1 state1 state0) 0.7412385966573823, 0.205432664564412, 0.03409517513139601, 0.019233563646809605;
	(state1 state1 state1) 0.12970215400550308, 0.5148973602959873, 0.2276366603650781, 0.12776382533343145;
	(state1 state1 state2) 0.16099950398851307, 0.41005288104051907, 0.40198789635135085, 0.026959718619616987;
	(state2 state0 state0) 0.28393580014969777, 0.4312010830650529, 0.14269962692036597, 0.14216348986488342;
	(state2 state0 state1) 0.07575158052726001, 0.07485957778238174, 0.33917434369446203, 0.5102144979958962;
	(state2 state0 state2) 0.14639415619270504, 0.1294796628991122, 0.4640037964124074, 0.2601223844957753;
	(state2 state1 state0) 0.23644854778971822, 0.4739881089409028, 0.19636828299154377, 0.09319506027783525;
	(state2 state1 state1) 0.3025613459949067, 0.39366507411670904, 0.15202925467762995, 0.15174432521075418;
	(state2 state1 state2) 0.5849354204918046, 0.13686724344150936, 0.1362780310585779, 0.14191930500810818;
}

probability ( scm21fsv | variable206, variable210, variable216 ) {
	(state0 state0 state0) 0.537652833153185, 0.29906622230233365, 0.13762745945537994, 0.025653485089101407;
	(state0 state0 state1) 0.06123057319351324, 0.07717631657541181, 0.7679999243650217, 0.09359318586605331;
	(state0 state0 state2) 0.82107182542955, 0.1409546489614094, 0.02174681110686287, 0.01622671450217759;
	(state0 state1 state0) 0.9168652118371418, 0.06633770657146017, 0.00846260540784454, 0.008334476183553487;
	(state0 state1 state1) 0.1520373138850553, 0.3384489129343785, 0.39372068017708356, 0.11579309300348277;
	(state0 state1 state2) 0.11257696232524914, 0.6577244518173633, 0.19315415501815947, 0.03654443083922815;
	(state1 state0 state0) 0.870783350211662, 0.05472583006062921, 0.040885036136229604, 0.03360578359147919;
	(state1 state0 state1) 0.180350137225221, 0.2482683318851464, 0.4916659874419583, 0.07971554344767429;
	(state1 state0 state2) 0.019541390901286048, 0.6124988097694721, 0.3349841948527723, 0.0329756044764694;
	(state1 state1 state0) 0.7524254267362659, 0.12403177396715817, 0.10421347660648979, 0.019329322690086026;
	(state1 state1 state1) 0.12970390387297615, 0.6067980578034722, 0.1354471001361222, 0.12805093818742952;
	(state1 state1 state2) 0.1409921546749995, 0.39903523134666147, 0.42275740742240214, 0.03721520655593684;
	(state2 state0 state0) 0.2833832671967328, 0.43176272746921757, 0.14265101238756128, 0.14220299294648842;
	(state2 state0 state1) 0.07575151753089668, 0.07468650669521777, 0.21596655891017047, 0.6335954168637151;
	(state2 state0 state2) 0.14560520246551667, 0.1099689696823616, 0.34130854299580166, 0.4031172848563201;
	(state2 state1 state0) 0.2364870847272391, 0.46791540641090557, 0.10935511658659185, 0.1862423922752636;
	(state2 state1 state1) 0.3025636789443403, 0.24697998118105108, 0.29895913104181643, 0.15149720883279225;
	(state2 state1 state2) 0.5799478912487336, 0.1362206510054162, 0.13917482154859248, 0.14465663619725766;
}

probability ( variable206 ) {
	table 0.4906294852009579, 0.4112122408387526, 0.0981582739602896;
}

probability ( variable210 ) {
	table 0.5297388146987478, 0.4702611853012521;
}

probability ( variable216 ) {
	table 0.41993822452324864, 0.15433651578229132, 0.42572525969446;
}

