network BayesNet1596 {
}

variable scm1rue {
	type discrete[4] { 0, 1, 2, 3 };
}

variable scm1lue {
	type discrete[4] { 0, 1, 2, 3 };
}

variable scm2rue {
	type discrete[4] { 0, 1, 2, 3 };
}

variable scm2lue {
	type discrete[4] { 0, 1, 2, 3 };
}

variable scm3rue {
	type discrete[4] { 0, 1, 2, 3 };
}

variable scm3lue {
	type discrete[4] { 0, 1, 2, 3 };
}

variable scm4rue {
	type discrete[4] { 0, 1, 2, 3 };
}

variable scm4lue {
	type discrete[4] { 0, 1, 2, 3 };
}

variable scm5rise {
	type discrete[4] { 0, 1, 2, 3 };
}

variable scm6post {
	type discrete[4] { 0, 1, 2, 3 };
}

variable scm7gait {
	type discrete[4] { 0, 1, 2, 3 };
}

variable scm8spee {
	type discrete[4] { 0, 1, 2, 3 };
}

variable scm9free {
	type discrete[4] { 0, 1, 2, 3 };
}

variable scm10swa {
	type discrete[4] { 0, 1, 2, 3 };
}

variable scm11spe {
	type discrete[4] { 0, 1, 2, 3 };
}

variable scm12fee {
	type discrete[4] { 0, 1, 2, 3 };
}

variable scm13dre {
	type discrete[4] { 0, 1, 2, 3 };
}

variable scm14hyg {
	type discrete[4] { 0, 1, 2, 3 };
}

variable scm15cha {
	type discrete[4] { 0, 1, 2, 3 };
}

variable scm16wal {
	type discrete[4] { 0, 1, 2, 3 };
}

variable scm17han {
	type discrete[4] { 0, 1, 2, 3 };
}

variable scm18dpr {
	type discrete[4] { 0, 1, 2, 3 };
}

variable scm19dsv {
	type discrete[4] { 0, 1, 2, 3 };
}

variable scm20fpr {
	type discrete[4] { 0, 1, 2, 3 };
}

variable scm21fsv {
	type discrete[4] { 0, 1, 2, 3 };
}

variable variable316 {
	type discrete[3] { state0, state1, state2 };
}

variable variable320 {
	type discrete[2] { state0, state1 };
}

variable variable326 {
	type discrete[3] { state0, state1, state2 };
}

probability ( scm1rue | variable316 ) {
	(state0) 0.22576571337094636, 0.29272965091870395, 0.31388630883982493, 0.1676183268705247;
	(state1) 0.6176510465025629, 0.27895584718477573, 0.09147657458808132, 0.011916531724580128;
	(state2) 0.5922945552850499, 0.26645089710306485, 0.13470190111037744, 0.006552646501507858;
}

probability ( scm1lue | variable316 ) {
	(state0) 0.2654149120913767, 0.2867365226647812, 0.30853608409679195, 0.13931248114705017;
	(state1) 0.6572056622368198, 0.24980294098573502, 0.08124990854357868, 0.011741488233866655;
	(state2) 0.5811246216135135, 0.30532988647888504, 0.09877969346269909, 0.014765798444902386;
}

probability ( scm2rue | variable316 ) {
	(state0) 0.20257372478127536, 0.4242048865748673, 0.282741994672993, 0.09047939397086441;
	(state1) 0.6115068635337058, 0.33183488854483434, 0.047266658108834805, 0.00939158981262518;
	(state2) 0.5953469702872684, 0.3365004334954546, 0.06563140563346644, 0.0025211905838106825;
}

probability ( scm2lue | variable316 ) {
	(state0) 0.24418005978564702, 0.4202398765570797, 0.24102619353345767, 0.09455387012381566;
	(state1) 0.6230886101602287, 0.33316965059193765, 0.03679561084237033, 0.0069461284054634625;
	(state2) 0.5822729932619761, 0.3469941300468671, 0.06583836604480686, 0.004894510646349904;
}

probability ( scm3rue | variable316 ) {
	(state0) 0.015138519852236984, 0.2070563069218, 0.5803182456745001, 0.19748692755146305;
	(state1) 0.24568041586929806, 0.5906164662837756, 0.1546874456244109, 0.009015672222515427;
	(state2) 0.2824106196530622, 0.514477902608876, 0.1886915478811836, 0.014419929856878153;
}

probability ( scm3lue | variable316 ) {
	(state0) 0.03957473074205575, 0.15154418659552252, 0.5372477286396335, 0.27163335402278815;
	(state1) 0.23458978292654845, 0.5372782359826271, 0.2124518725855103, 0.015680108505314108;
	(state2) 0.22627757602969517, 0.47781502453128744, 0.2670688216373065, 0.02883857780171096;
}

probability ( scm4rue | variable316 ) {
	(state0) 0.026341157565651495, 0.18742423348744608, 0.6380787112060692, 0.1481558977408333;
	(state1) 0.2362510414907465, 0.6232234954217613, 0.13433057028483483, 0.006194892802657409;
	(state2) 0.2649453521606534, 0.5524525001726551, 0.17743156920494935, 0.0051705784617421865;
}

probability ( scm4lue | variable316 ) {
	(state0) 0.03157165539595583, 0.2162882140150397, 0.5824390536162785, 0.16970107697272596;
	(state1) 0.3114324062431577, 0.5109889856612062, 0.17104448742599002, 0.0065341206696459715;
	(state2) 0.26481744312473, 0.5185591430958181, 0.2070276039578144, 0.009595809821637572;
}

probability ( scm5rise | variable326 ) {
	(state0) 0.37403769456633146, 0.5487512415305034, 0.07455503306812135, 0.002656030835043889;
	(state1) 0.8820988223659095, 0.1116961069990555, 0.003259014611036464, 0.0029460560239986493;
	(state2) 0.08697509107748476, 0.14933877143416494, 0.4473303925572336, 0.3163557449311166;
}

probability ( scm6post | variable326 ) {
	(state0) 0.3761759928552316, 0.4821360177166132, 0.13916073987417305, 0.002527249553982204;
	(state1) 0.9033368239587394, 0.07231619931783573, 0.021399488693050115, 0.0029474880303749134;
	(state2) 0.0532636728351124, 0.1574277355519291, 0.5584780556954065, 0.23083053591755195;
}

probability ( scm7gait | variable326 ) {
	(state0) 0.10986505361801674, 0.750823726470986, 0.1369199325557855, 0.002391287355211753;
	(state1) 0.5919853058746816, 0.3957504592777866, 0.009318179042914232, 0.002946055804617548;
	(state2) 0.007361818308827703, 0.14324648413079738, 0.6974541292109362, 0.15193756834943867;
}

probability ( scm8spee | variable320 ) {
	(state0) 0.5032174818167713, 0.4817982648021109, 0.01137196715747947, 0.0036122862236383875;
	(state1) 0.006357845377127094, 0.6373144617352848, 0.30595741121283476, 0.050370281674753284;
}

probability ( scm9free | variable320, variable326 ) {
	(state0 state0) 0.5580150781930633, 0.3407449064321797, 0.0788928725911537, 0.02234714278360339;
	(state0 state1) 0.9356858858462318, 0.051418544659877906, 0.009456617046665037, 0.0034389524472254558;
	(state0 state2) 0.41812576267096724, 0.3081110342613398, 0.22791570878073333, 0.04584749428695969;
	(state1 state0) 0.4002162032025954, 0.41752083635604137, 0.17653572366820955, 0.005727236773153725;
	(state1 state1) 0.6514162323174078, 0.22286134113581732, 0.10644627726441472, 0.019276149282360412;
	(state1 state2) 0.09994520953998531, 0.14973551595587808, 0.5091678688497259, 0.24115140565441076;
}

probability ( scm10swa | variable320 ) {
	(state0) 0.853013564737203, 0.1269819290226918, 0.01810013194393111, 0.0019043742961739843;
	(state1) 0.36784823910514997, 0.4541960932519033, 0.15949946558865197, 0.0184562020542949;
}

probability ( scm11spe | variable320 ) {
	(state0) 0.6323428477048725, 0.35168794108476165, 0.012373205612842846, 0.0035960055975229155;
	(state1) 0.0198243505517271, 0.6436733256649925, 0.29665784289892655, 0.03984448088435388;
}

probability ( scm12fee | variable316, variable320, variable326 ) {
	(state0 state0 state0) 0.08205443587523882, 0.7526700541424389, 0.1398631060176584, 0.02541240396466379;
	(state0 state0 state1) 0.202636598406995, 0.6007445439582352, 0.12053304537940833, 0.07608581225536155;
	(state0 state0 state2) 0.09822835296093997, 0.17853843764329289, 0.5319788791698477, 0.1912543302259195;
	(state0 state1 state0) 0.05734493862174003, 0.5618363972105713, 0.362165288748175, 0.01865337541951353;
	(state0 state1 state1) 0.11993340201928875, 0.5191593584330877, 0.25311200516503213, 0.10779523438259152;
	(state0 state1 state2) 0.014420700487589299, 0.11991617358484856, 0.6062257432144806, 0.2594373827130814;
	(state1 state0 state0) 0.49839695687441843, 0.41650968040755987, 0.0720162960087567, 0.01307706670926507;
	(state1 state0 state1) 0.363226138563782, 0.6100239524740271, 0.01788970837792764, 0.008860200584263185;
	(state1 state0 state2) 0.39746404146230496, 0.30824514954660615, 0.19463431797187808, 0.09965649101921073;
	(state1 state1 state0) 0.08928582388779752, 0.7855354064624878, 0.11223785742474081, 0.012940912224973922;
	(state1 state1 state1) 0.06217420538147314, 0.805315713826427, 0.09645890289381909, 0.036051177898280856;
	(state1 state1 state2) 0.2115748233714078, 0.6344735086240585, 0.10860576965263864, 0.045345898351894974;
	(state2 state0 state0) 0.13666384904604226, 0.7910434761242313, 0.06331300530398729, 0.008979669525739175;
	(state2 state0 state1) 0.9157932230273566, 0.07168157591453907, 0.006277194531454968, 0.0062480065266494016;
	(state2 state0 state2) 0.18962437985826336, 0.34588027751299816, 0.3656505608406202, 0.09884478178811824;
	(state2 state1 state0) 0.10499826129099725, 0.7683950123105081, 0.11408808318877114, 0.012518643209723448;
	(state2 state1 state1) 0.78817313965, 0.12577692914203628, 0.04306666479651497, 0.042983266411448826;
	(state2 state1 state2) 0.024787646250761866, 0.2428355477643626, 0.673076857119127, 0.05929994886574852;
}

probability ( scm13dre | variable316, variable326 ) {
	(state0 state0) 0.0112455216246067, 0.5608080471249992, 0.41672016526482464, 0.011226265985569394;
	(state0 state1) 0.03642133428852725, 0.7519718836746088, 0.17987918643756984, 0.031727595599294084;
	(state0 state2) 0.013188531169561408, 0.042262672929973974, 0.5893637032123329, 0.3551850926881317;
	(state1 state0) 0.11199998268886276, 0.729734540200138, 0.15158863311935455, 0.006676843991644807;
	(state1 state1) 0.08964671864779937, 0.8839348416288972, 0.01909789721716721, 0.0073205425061361705;
	(state1 state2) 0.1712925513974504, 0.5990443831217247, 0.19396644198862162, 0.03569662349220325;
	(state2 state0) 0.03911704000801114, 0.8478132029296374, 0.10772653856600109, 0.005343218496350344;
	(state2 state1) 0.9179832838629625, 0.07043480565620538, 0.006005154405362001, 0.005576756075470057;
	(state2 state2) 0.018641503812837277, 0.04793847781924084, 0.8792790302178444, 0.054140988150077486;
}

probability ( scm14hyg | variable316, variable320, variable326 ) {
	(state0 state0 state0) 0.041500642234374815, 0.7990033842044617, 0.1342099173402938, 0.025286056220869574;
	(state0 state0 state1) 0.1520797568500426, 0.7152522433510613, 0.09455483276460673, 0.0381131670342894;
	(state0 state0 state2) 0.09657555679257562, 0.5091736471270554, 0.2967415703167902, 0.09750922576357875;
	(state0 state1 state0) 0.023275551566924964, 0.6354280665361416, 0.3224725406446573, 0.018823841252276128;
	(state0 state1 state1) 0.10924565124410236, 0.4625799482207446, 0.3204239174826704, 0.10775048305248264;
	(state0 state1 state2) 0.014354941361704772, 0.02166773347313149, 0.5911100096511164, 0.37286731551404745;
	(state1 state0 state0) 0.3245709528674663, 0.6052396968082897, 0.05711249456760841, 0.013076855756635648;
	(state1 state0 state1) 0.12937699706283928, 0.8528910743472903, 0.008871728007748252, 0.008860200582122118;
	(state1 state0 state2) 0.27646561601095565, 0.5159501277070727, 0.10856948970994759, 0.09901476657202403;
	(state1 state1 state0) 0.03295443920432159, 0.8367614979752026, 0.11734799762332723, 0.012936065197148716;
	(state1 state1 state1) 0.1737554274388758, 0.7536680261907003, 0.036525181401756465, 0.03605136496866757;
	(state1 state1 state2) 0.09236208267847679, 0.7360179328552698, 0.126196609869729, 0.04542337459652445;
	(state2 state0 state0) 0.10712364224323977, 0.8417538082997028, 0.04214271107827863, 0.00897983837877881;
	(state2 state0 state1) 0.9347136209858519, 0.052777020821747976, 0.006261351665886065, 0.006248006526513985;
	(state2 state0 state2) 0.09343391688775639, 0.42285784135259197, 0.3896166030467228, 0.09409163871292883;
	(state2 state1 state0) 0.04237892229043293, 0.8855368849341506, 0.0595597609577199, 0.012524431817696613;
	(state2 state1 state1) 0.7536217431245718, 0.1180533932614056, 0.08534154871181013, 0.042983314902212494;
	(state2 state1 state2) 0.020818277374761815, 0.09306867649722028, 0.8243201093390551, 0.06179293678896286;
}

probability ( scm15cha | variable316, variable326 ) {
	(state0 state0) 0.049875297044470655, 0.6142909749364336, 0.3220624638348806, 0.013771264184215237;
	(state0 state1) 0.37618423238659765, 0.5187564738536299, 0.07333150856897461, 0.031727785190797886;
	(state0 state2) 0.013187122012794416, 0.0430546257131674, 0.5152950573448717, 0.4284631949291664;
	(state1 state0) 0.12861319123112322, 0.6458371143311172, 0.20551066159687917, 0.020039032840880416;
	(state1 state1) 0.4607190007730615, 0.5225050594813998, 0.009452325052944079, 0.007323614692594798;
	(state1 state2) 0.03629794420524335, 0.5848347833687244, 0.3410368900527366, 0.03783038237329566;
	(state2 state0) 0.11169800489165331, 0.7840809829602685, 0.0988803060899275, 0.005340706058150698;
	(state2 state1) 0.8116751187459464, 0.17240466625091966, 0.01034345768507754, 0.005576757318056269;
	(state2 state2) 0.018247309230609274, 0.09369211432333847, 0.794973656240658, 0.09308692020539426;
}

probability ( scm16wal | variable326 ) {
	(state0) 0.05111933213268538, 0.8353341315890055, 0.10995693204531905, 0.003589604232990062;
	(state1) 0.5644867817347183, 0.4252931621671917, 0.0072739658510429205, 0.0029460902470470826;
	(state2) 0.013311178526283583, 0.08796181853972576, 0.697252038335829, 0.20147496459816172;
}

probability ( scm17han | variable316 ) {
	(state0) 0.010521435383193545, 0.4355133250870601, 0.3844350800706138, 0.16953015945913252;
	(state1) 0.13880810295561538, 0.6426532779367939, 0.1970708060301985, 0.021467813077392327;
	(state2) 0.2477282494009083, 0.5505586534276462, 0.17167900595964755, 0.030034091211797863;
}

probability ( scm18dpr | variable316, variable326 ) {
	(state0 state0) 0.26207687016178155, 0.5091846698698284, 0.17834980787310997, 0.050388652095280165;
	(state0 state1) 0.8132107574324235, 0.03284275720543243, 0.05984997699365263, 0.09409650836849145;
	(state0 state2) 0.22278956315411158, 0.2779181921390904, 0.32914342051687356, 0.1701488241899244;
	(state1 state0) 0.02328647614566554, 0.6499022198624101, 0.22980828742076723, 0.09700301657115716;
	(state1 state1) 0.9044201591870226, 0.0706200131142993, 0.009738323285027566, 0.015221504413650572;
	(state1 state2) 0.5379641827719216, 0.1551810094791288, 0.18962334899158628, 0.11723145875736322;
	(state2 state0) 0.9774318910368183, 0.011505659131747439, 0.0055181513345011635, 0.0055442984969333005;
	(state2 state1) 0.8604604456575273, 0.09646599480590673, 0.03191354636791223, 0.011160013168653686;
	(state2 state2) 0.5540566992197284, 0.2108698700539515, 0.18731099101714452, 0.047762439709175555;
}

probability ( scm19dsv | variable316, variable326 ) {
	(state0 state0) 0.26195742034797026, 0.4381016640801248, 0.2288610547804025, 0.07107986079150241;
	(state0 state1) 0.812626686693382, 0.032723701442783186, 0.03595451898211034, 0.11869509288172442;
	(state0 state2) 0.22263148814139297, 0.2463624032594624, 0.30673833627125363, 0.224267772327891;
	(state1 state0) 0.019048770762488704, 0.6436220819053229, 0.2687726117161151, 0.06855653561607329;
	(state1 state1) 0.9127689337978118, 0.06428219775631643, 0.015621926434581601, 0.00732694201129014;
	(state1 state2) 0.6095775911592116, 0.19848871769826718, 0.09237528479801721, 0.09955840634450394;
	(state2 state0) 0.9805096785513457, 0.007023628728291992, 0.0070770821170116184, 0.005389610603350591;
	(state2 state1) 0.8711574796136767, 0.0949616200345907, 0.028280859608959496, 0.00560004074277315;
	(state2 state2) 0.5723696605373717, 0.12756914089667548, 0.26811699699951025, 0.03194420156644254;
}

probability ( scm20fpr | variable316, variable320, variable326 ) {
	(state0 state0 state0) 0.11230100808438062, 0.5636642539819361, 0.2983385846605057, 0.0256961532731775;
	(state0 state0 state1) 0.45728612331494656, 0.41961857751503834, 0.08447930978777575, 0.03861598938223943;
	(state0 state0 state2) 0.5124947817863502, 0.2860758242046588, 0.10480472890547188, 0.09662466510351918;
	(state0 state1 state0) 0.05941863635538449, 0.4755403834827458, 0.41834714618241, 0.046693833979459795;
	(state0 state1 state1) 0.4184081495145596, 0.11621308298231653, 0.11206141672783929, 0.3533173507752846;
	(state0 state1 state2) 0.05740076149918831, 0.11352917398446252, 0.4951503373831287, 0.3339197271332205;
	(state1 state0 state0) 0.052552266115744865, 0.6752271687412766, 0.2590258992995353, 0.013194665843443119;
	(state1 state0 state1) 0.9638025949733398, 0.01828490341318371, 0.009052256206016619, 0.008860245407459996;
	(state1 state0 state2) 0.27182614242335373, 0.5127710418950363, 0.11262580573837162, 0.10277700994323835;
	(state1 state1 state0) 0.22788565641882177, 0.6014509802367287, 0.13121194647850476, 0.03945141686594478;
	(state1 state1 state1) 0.05656611167815206, 0.8000483254130373, 0.10506567349232253, 0.03831988941648814;
	(state1 state1 state2) 0.049895250721528485, 0.09042144953430874, 0.7231501996823821, 0.13653310006178065;
	(state2 state0 state0) 0.29161225487301773, 0.6235500293991108, 0.07583763037281396, 0.009000085355057561;
	(state2 state0 state1) 0.8914966795509588, 0.08348926159451206, 0.01876605232389901, 0.006248006530630127;
	(state2 state0 state2) 0.1471044227305218, 0.5067714405084579, 0.25268923426655965, 0.0934349024944606;
	(state2 state1 state0) 0.9116721298537376, 0.05813758184665445, 0.016198588291427268, 0.013991700008180683;
	(state2 state1 state1) 0.19852550040303596, 0.49389711728861796, 0.2645902721189115, 0.042987110189434484;
	(state2 state1 state2) 0.21055178164648788, 0.2546830692255543, 0.50173376281489, 0.03303138631306785;
}

probability ( scm21fsv | variable316, variable320, variable326 ) {
	(state0 state0 state0) 0.11346939740105375, 0.5080058484671738, 0.3274118795297945, 0.05111287460197788;
	(state0 state0 state1) 0.49156738099862857, 0.3780152711689899, 0.053812803531366867, 0.07660454430101457;
	(state0 state0 state2) 0.5130980174567472, 0.27607351086016363, 0.11324798586044474, 0.09758048582264436;
	(state0 state1 state0) 0.0473046126659055, 0.36290146547092933, 0.5528990968100812, 0.03689482505308404;
	(state0 state1 state1) 0.4129688733090973, 0.12036755478235889, 0.15438140977107237, 0.3122821621374713;
	(state0 state1 state2) 0.07166293585286364, 0.11098205937063169, 0.3198199380338363, 0.4975350667426684;
	(state1 state0 state0) 0.030248410107720124, 0.5372524474060077, 0.41035387692382624, 0.022145265562445775;
	(state1 state0 state1) 0.9668580018217738, 0.014448024391908286, 0.009829395317817976, 0.008864578468499737;
	(state1 state0 state2) 0.36577842864005805, 0.4126476036172764, 0.11152354055713617, 0.11005042718552924;
	(state1 state1 state0) 0.24251074854465063, 0.46371087705446756, 0.20833006780449662, 0.0854483065963852;
	(state1 state1 state1) 0.05125148137170775, 0.6650998329594312, 0.247474873675618, 0.036173811993243175;
	(state1 state1 state2) 0.0505201949528803, 0.10647020079239972, 0.6642441654911234, 0.17876543876359643;
	(state2 state0 state0) 0.3116674434320834, 0.5350317092961072, 0.13593859945897496, 0.01736224781283445;
	(state2 state0 state1) 0.9069454236672847, 0.07949644355124492, 0.007310122517085555, 0.006248010264384891;
	(state2 state0 state2) 0.147728152041019, 0.4021110647123837, 0.3526480200576856, 0.09751276318891156;
	(state2 state1 state0) 0.9183853297159793, 0.050837552786383314, 0.01823860388319887, 0.01253851361443844;
	(state2 state1 state1) 0.23798818249000228, 0.42771014132163965, 0.2913007944632283, 0.04300088172512972;
	(state2 state1 state2) 0.2105656193503182, 0.13735825452036937, 0.5475960303437106, 0.10448009578560179;
}

probability ( variable316 ) {
	table 0.20636716409462819, 0.3375568773442333, 0.4560759585611385;
}

probability ( variable320 ) {
	table 0.5815291131572086, 0.41847088684279143;
}

probability ( variable326 ) {
	table 0.4613168384183993, 0.3738187617529588, 0.16486439982864182;
}

