network HLCM945 {
}

variable scm1rue {
	type discrete[4] { 0, 1, 2, 3 };
}

variable scm1lue {
	type discrete[4] { 0, 1, 2, 3 };
}

variable scm2rue {
	type discrete[4] { 0, 1, 2, 3 };
}

variable scm2lue {
	type discrete[4] { 0, 1, 2, 3 };
}

variable scm3rue {
	type discrete[4] { 0, 1, 2, 3 };
}

variable scm3lue {
	type discrete[4] { 0, 1, 2, 3 };
}

variable scm4rue {
	type discrete[4] { 0, 1, 2, 3 };
}

variable scm4lue {
	type discrete[4] { 0, 1, 2, 3 };
}

variable scm5rise {
	type discrete[4] { 0, 1, 2, 3 };
}

variable scm6post {
	type discrete[4] { 0, 1, 2, 3 };
}

variable scm7gait {
	type discrete[4] { 0, 1, 2, 3 };
}

variable scm9free {
	type discrete[4] { 0, 1, 2, 3 };
}

variable scm18dpr {
	type discrete[4] { 0, 1, 2, 3 };
}

variable scm19dsv {
	type discrete[4] { 0, 1, 2, 3 };
}

variable scm20fpr {
	type discrete[4] { 0, 1, 2, 3 };
}

variable scm21fsv {
	type discrete[4] { 0, 1, 2, 3 };
}

variable scm8spee {
	type discrete[4] { 0, 1, 2, 3 };
}

variable scm10swa {
	type discrete[4] { 0, 1, 2, 3 };
}

variable scm11spe {
	type discrete[4] { 0, 1, 2, 3 };
}

variable scm12fee {
	type discrete[4] { 0, 1, 2, 3 };
}

variable scm13dre {
	type discrete[4] { 0, 1, 2, 3 };
}

variable scm14hyg {
	type discrete[4] { 0, 1, 2, 3 };
}

variable scm15cha {
	type discrete[4] { 0, 1, 2, 3 };
}

variable scm16wal {
	type discrete[4] { 0, 1, 2, 3 };
}

variable scm17han {
	type discrete[4] { 0, 1, 2, 3 };
}

variable variable253 {
	type discrete[5] { state0, state1, state2, state3, state4 };
}

variable variable258 {
	type discrete[5] { state0, state1, state2, state3, state4 };
}

probability ( scm1rue | variable253 ) {
	(state0) 0.49226691507557147, 0.20753076039682147, 0.16157070787042163, 0.13863161665718543;
	(state1) 0.6070613988447586, 0.25570729545309134, 0.12219123823821318, 0.015040067463936858;
	(state2) 0.06936582880459606, 0.46036914669411844, 0.36870756826713647, 0.1015574562341491;
	(state3) 0.8802589332373331, 0.08177095402233088, 0.01788910283815292, 0.020081009902183054;
	(state4) 0.34788973075628987, 0.4070498130085361, 0.21506557441602775, 0.029994881819146307;
}

probability ( scm1lue | variable253 ) {
	(state0) 0.5512841961439038, 0.11769105917894716, 0.14886643773910074, 0.1821583069380484;
	(state1) 0.6562018237916941, 0.2137207341913705, 0.11166188762723889, 0.01841555438969664;
	(state2) 0.1337227987482576, 0.509583530575498, 0.3129180796207568, 0.04377559105548763;
	(state3) 0.8434942307787118, 0.12969413918046593, 0.021405458445722926, 0.0054061715950994155;
	(state4) 0.32211971665812683, 0.4600247472883761, 0.1745216352326692, 0.04333390082082778;
}

probability ( scm2rue | variable253 ) {
	(state0) 0.49255025360782567, 0.2813084480045226, 0.11802091676729247, 0.1081203816203594;
	(state1) 0.6098116315944505, 0.31196290581163433, 0.0695328353399252, 0.008692627253990002;
	(state2) 0.11203035612600316, 0.5703509085763275, 0.2928178283298227, 0.024800906967846627;
	(state3) 0.8033301108581448, 0.1612758315815264, 0.01531523163064225, 0.020078825929686604;
	(state4) 0.3670119498321505, 0.49001128030804725, 0.12693764217051526, 0.01603912768928689;
}

probability ( scm2lue | variable253 ) {
	(state0) 0.4979869786347679, 0.23258875590535985, 0.14078402930365225, 0.12864023615622;
	(state1) 0.6486746420080078, 0.2787941628716378, 0.060599570637324844, 0.011931624483029455;
	(state2) 0.1816533880887856, 0.5603387478582177, 0.2321701517856885, 0.0258377122673082;
	(state3) 0.7542794182120923, 0.23002647830630316, 0.005600303227250375, 0.010093800254354213;
	(state4) 0.3448875943356248, 0.5180795753199116, 0.12113213485651486, 0.01590069548794862;
}

probability ( scm3rue | variable253 ) {
	(state0) 0.04275978639627514, 0.14277190642292883, 0.4888356670020176, 0.3256326401787784;
	(state1) 0.33006671603267246, 0.5754753363655267, 0.08455226177553357, 0.009905685826267161;
	(state2) 0.0638832655362718, 0.29781802511480776, 0.5691597965474859, 0.06913891280143442;
	(state3) 0.2938476986226652, 0.5274316692155402, 0.15902731545568158, 0.019693316706113132;
	(state4) 0.1450891815006769, 0.5322287632676294, 0.3110857031997343, 0.011596352031959517;
}

probability ( scm3lue | variable253 ) {
	(state0) 0.04575520402789941, 0.09711608606960188, 0.38259075559140376, 0.4745379543110949;
	(state1) 0.3524311561345762, 0.460375521515366, 0.17426499646270582, 0.012928325887351991;
	(state2) 0.032692677586457594, 0.44941160441078254, 0.4735416394340899, 0.044354078568669936;
	(state3) 0.24918861254101204, 0.44005177436183834, 0.2902407748265244, 0.02051883827062533;
	(state4) 0.06875661598477156, 0.5074026278406962, 0.3650144412704415, 0.05882631490409067;
}

probability ( scm4rue | variable253 ) {
	(state0) 0.06165743525071401, 0.19899185084379667, 0.5240157166613927, 0.21533499724409663;
	(state1) 0.29454479149288937, 0.5986188676685263, 0.09417206728807453, 0.012664273550509489;
	(state2) 0.0405213722345398, 0.38324618330266275, 0.5488067362266301, 0.027425708236167204;
	(state3) 0.32739963914035347, 0.5072133541979167, 0.15039313383548952, 0.014993872826240312;
	(state4) 0.13053536644541572, 0.5489832271095417, 0.30202010524281536, 0.018461301202227227;
}

probability ( scm4lue | variable253 ) {
	(state0) 0.07158226647301662, 0.13375320762173892, 0.4833520089110255, 0.31131251699421886;
	(state1) 0.37666444563335977, 0.48317802852064545, 0.1253877196704303, 0.014769806175564427;
	(state2) 0.057753823366031576, 0.4878838567020649, 0.44579241683027354, 0.008569903101629885;
	(state3) 0.3232166514806798, 0.4519261744069466, 0.21156189600420072, 0.01329527810817285;
	(state4) 0.11999877133293067, 0.5257103584662959, 0.3402613858527138, 0.014029484348059595;
}

probability ( scm5rise | variable253 ) {
	(state0) 0.03753061748710364, 0.07356520351859294, 0.4095586250421052, 0.4793455539521982;
	(state1) 0.8622285761642433, 0.12908666445005876, 0.005269016239111542, 0.003415743146586496;
	(state2) 0.18513511087128537, 0.5889929868008329, 0.21725097060943843, 0.008620931718443331;
	(state3) 0.5737081664232468, 0.3174342736846297, 0.0872018166854519, 0.02165574320667155;
	(state4) 0.37487632223679657, 0.5323841691890389, 0.08804785889173619, 0.004691649682428419;
}

probability ( scm6post | variable253 ) {
	(state0) 0.03981365401876625, 0.07337910489138846, 0.533531008873706, 0.3532762322161392;
	(state1) 0.9306382267740649, 0.05521604300883549, 0.010728629060160247, 0.0034171011569392442;
	(state2) 0.183803632800451, 0.5084193425161454, 0.2994936157932699, 0.008283408890133577;
	(state3) 0.45147763912114175, 0.3518530891931037, 0.1832019307646026, 0.01346734092115189;
	(state4) 0.4071773630085576, 0.4605727842548669, 0.12566342560788712, 0.006586427128688393;
}

probability ( scm7gait | variable253 ) {
	(state0) 0.010740084069815975, 0.025275695639823608, 0.7173841948371515, 0.2466000254532089;
	(state1) 0.6072212877287287, 0.38217495127270507, 0.007188019480725325, 0.0034157415178408144;
	(state2) 0.047318360577441716, 0.5910761056179811, 0.35336047042043367, 0.008245063384143568;
	(state3) 0.21754370378694796, 0.6086168658183599, 0.16873979682470502, 0.005099633569987087;
	(state4) 0.10662059824920253, 0.7808976769002659, 0.10779301643753313, 0.004688708412998392;
}

probability ( scm9free | variable253 ) {
	(state0) 0.12285534707723832, 0.0927253773548762, 0.4729330953467042, 0.3114861802211812;
	(state1) 0.9317569722148853, 0.053802498673004406, 0.011024413891510109, 0.003416115220600112;
	(state2) 0.2529255316878596, 0.4699325269612674, 0.25325116946412074, 0.023890771886752184;
	(state3) 0.42402621997457696, 0.32620431751245016, 0.22405759423443153, 0.025711868278541446;
	(state4) 0.6271454417301969, 0.312024506330574, 0.051425739629611014, 0.00940431230961808;
}

probability ( scm18dpr | variable253 ) {
	(state0) 0.397854518103062, 0.16857287266458273, 0.2766262547637247, 0.1569463544686305;
	(state1) 0.9000937363856096, 0.07950121069934442, 0.012973231225174063, 0.007431821689871822;
	(state2) 0.07103214204115159, 0.6930049071893123, 0.1856610814191807, 0.05030186935035544;
	(state3) 0.30080063708576416, 0.39151779265649694, 0.2155500371858492, 0.09213153307188961;
	(state4) 0.9547445869716754, 0.028433528972750623, 0.012099138861027165, 0.0047227451945467906;
}

probability ( scm19dsv | variable253 ) {
	(state0) 0.39785592621112986, 0.14604574898176992, 0.2728666650491414, 0.18323165975795894;
	(state1) 0.9030865039953144, 0.07986652484499454, 0.013580021234164987, 0.00346694992552598;
	(state2) 0.06893941347536946, 0.6331890732848748, 0.2297754644277793, 0.06809604881197653;
	(state3) 0.3282837219132417, 0.3646186715364032, 0.24207950846250964, 0.0650180980878455;
	(state4) 0.954680713875452, 0.026239588192934902, 0.010287073660733071, 0.00879262427088011;
}

probability ( scm20fpr | variable253 ) {
	(state0) 0.15983032786532966, 0.12549012873323487, 0.4357703485401741, 0.27890919486126137;
	(state1) 0.9278251545576162, 0.05796548001551111, 0.010794823849352651, 0.0034145415775201035;
	(state2) 0.05708602543836002, 0.5432193274720174, 0.38105212559708396, 0.01864252149253858;
	(state3) 0.049933278138555096, 0.6118617060988987, 0.3171072154837535, 0.021097800278792628;
	(state4) 0.5467909750286669, 0.4188827825195739, 0.022198884477700683, 0.012127357974058423;
}

probability ( scm21fsv | variable253 ) {
	(state0) 0.1704599963935748, 0.07706866723422898, 0.34354075771036996, 0.40893057866182614;
	(state1) 0.9363176120325191, 0.05623214077908597, 0.004033973687976421, 0.0034162735004187247;
	(state2) 0.05331257880178554, 0.4809564625356119, 0.42347992377169585, 0.04225103489090669;
	(state3) 0.05095001537916837, 0.4583326877113587, 0.42598280002550426, 0.06473449688396864;
	(state4) 0.5692002871649562, 0.36121184768834763, 0.0647374088719788, 0.0048504562747172355;
}

probability ( scm8spee | variable258 ) {
	(state0) 0.8232997776910477, 0.15422553531130562, 0.013092268234510132, 0.009382418763136544;
	(state1) 0.023069384491031835, 0.49532231213477285, 0.4638920043510859, 0.017716299023109457;
	(state2) 0.1913557240173826, 0.7417173409769371, 0.06033240114125962, 0.006594533864420857;
	(state3) 0.02365034857528105, 0.048163794915865324, 0.5835782599678941, 0.34460759654095935;
	(state4) 0.04939502387725138, 0.8346923719971406, 0.09005674842196966, 0.025855855703638384;
}

probability ( scm10swa | variable258 ) {
	(state0) 0.9168853011432816, 0.06909150603488098, 0.009376436465390322, 0.004646756356447137;
	(state1) 0.3097542274955964, 0.42577761070082537, 0.2438372813978029, 0.02063088040577536;
	(state2) 0.6428352709498601, 0.31083469926176643, 0.04407154830239338, 0.0022584814859799253;
	(state3) 0.23058368441729468, 0.35864849181031844, 0.2885057430403645, 0.12226208073202248;
	(state4) 0.7139491193953976, 0.20028509795068736, 0.0732000294323802, 0.012565753221534666;
}

probability ( scm11spe | variable258 ) {
	(state0) 0.9213757335490893, 0.06451624320270892, 0.004725610744028025, 0.009382412504173737;
	(state1) 0.053830713005483796, 0.5160748329222812, 0.413206923710843, 0.01688753036139193;
	(state2) 0.27717851262565313, 0.6483957723615206, 0.06788144507235454, 0.0065442699404716104;
	(state3) 0.024036790907037385, 0.08520023585441278, 0.6374931597781734, 0.25326981346037636;
	(state4) 0.17075773044134515, 0.7117218774825869, 0.09168184442503144, 0.02583854765103652;
}

probability ( scm12fee | variable258 ) {
	(state0) 0.7691845796181488, 0.2072586277947693, 0.014325405655688045, 0.009231386931393765;
	(state1) 0.020180999277146255, 0.295149981950186, 0.6668243675519073, 0.017844651220760455;
	(state2) 0.1327568363907794, 0.7998522950204194, 0.06504164057979754, 0.002349228009003642;
	(state3) 0.02366256430710602, 0.07465023086091448, 0.44007935448744584, 0.46160785034453367;
	(state4) 0.7780526277580277, 0.19609597051087746, 0.013231769128719833, 0.012619632602375074;
}

probability ( scm13dre | variable258 ) {
	(state0) 0.6361900996308825, 0.3434368684216845, 0.015726275590968706, 0.004646756356464214;
	(state1) 0.01610392802621002, 0.13626348561917825, 0.8394797244487481, 0.008152861905863642;
	(state2) 0.003981957588047093, 0.8737684739573207, 0.1199910856346629, 0.0022584828199693026;
	(state3) 0.023656247824862368, 0.04719673447963922, 0.24620429903896623, 0.6829427186565321;
	(state4) 0.8056814225789689, 0.1573651168971506, 0.02438770085433428, 0.01256575966954629;
}

probability ( scm14hyg | variable258 ) {
	(state0) 0.7015016094568098, 0.2891890180228929, 0.004662616163824422, 0.004646756356472918;
	(state1) 0.014458963279246418, 0.22962603256538083, 0.7459115607535983, 0.010003443401774465;
	(state2) 0.045486122410439256, 0.9123134759733678, 0.03994191859815941, 0.0022584830180335594;
	(state3) 0.02365596141200475, 0.045485590701869846, 0.2775633224632256, 0.6532951254228997;
	(state4) 0.7402552479714473, 0.21862770525380543, 0.028551286783442785, 0.012565759991304597;
}

probability ( scm15cha | variable258 ) {
	(state0) 0.787618557427205, 0.1952566341521902, 0.010081430578582847, 0.00704337784202198;
	(state1) 0.008148553003067584, 0.21255227545068428, 0.7015289379237066, 0.07777023362254155;
	(state2) 0.1161350983453843, 0.7541778172076438, 0.1259922459103406, 0.003694838536631314;
	(state3) 0.02364692979982527, 0.023737965238850096, 0.2869906380606683, 0.6656244669006562;
	(state4) 0.514718859207939, 0.40076310064408793, 0.07154128756323441, 0.012976752584738632;
}

probability ( scm16wal | variable258 ) {
	(state0) 0.6849994458993433, 0.2937078376843973, 0.016645886671112827, 0.004646829745146622;
	(state1) 0.029114261252968822, 0.264779973396806, 0.6552297540076512, 0.05087601134257397;
	(state2) 0.0892864199242973, 0.8160437734656317, 0.09005202362119791, 0.004617782988873137;
	(state3) 0.02364875620183296, 0.02401588421172832, 0.38539399597931573, 0.566941363607123;
	(state4) 0.31487905739954086, 0.5923337915310531, 0.08020073031365933, 0.012586420755746687;
}

probability ( scm17han | variable258 ) {
	(state0) 0.44541334627932544, 0.5055164338188163, 0.03730456882070421, 0.01176565108115405;
	(state1) 0.021332967874856487, 0.26681659951263326, 0.5727660197299526, 0.1390844128825576;
	(state2) 0.08374285753538105, 0.6914456940049842, 0.21432844517343333, 0.010483003286201472;
	(state3) 0.02554948321401806, 0.13121697224115575, 0.2935521630302815, 0.5496813815145446;
	(state4) 0.15153967429727497, 0.6523236320446081, 0.15209472335024463, 0.04404197030787242;
}

probability ( variable253 | variable258 ) {
	(state0) 0.009175312765723913, 0.8377926871758056, 0.016456698123652816, 0.06809615555941329, 0.06847914637540438;
	(state1) 0.36861566341068297, 0.017790984501859727, 0.298806667313269, 0.2211549039716866, 0.09363178080250172;
	(state2) 0.0035096799721547967, 0.1580594840036658, 0.16734420179803722, 0.27291184269519014, 0.39817479153095203;
	(state3) 0.8788777503085877, 0.023128296987523746, 0.02776394406672024, 0.025490020468340348, 0.044739988168827696;
	(state4) 0.021707218731890823, 0.4856602566370115, 0.02601332520701366, 0.36818590756120734, 0.09843329186287672;
}

probability ( variable258 ) {
	table 0.23525929110458482, 0.1487237553928492, 0.48755612066075144, 0.04355907532633459, 0.08490175751547993;
}

