network Current LCM {
}

variable variable390 {
	type discrete[6] { state0, state1, state2, state3, state4, state5 };
}

variable scm1rue {
	type discrete[4] { 0, 1, 2, 3 };
}

variable scm1lue {
	type discrete[4] { 0, 1, 2, 3 };
}

variable scm2rue {
	type discrete[4] { 0, 1, 2, 3 };
}

variable scm2lue {
	type discrete[4] { 0, 1, 2, 3 };
}

variable scm3rue {
	type discrete[4] { 0, 1, 2, 3 };
}

variable scm3lue {
	type discrete[4] { 0, 1, 2, 3 };
}

variable scm4rue {
	type discrete[4] { 0, 1, 2, 3 };
}

variable scm4lue {
	type discrete[4] { 0, 1, 2, 3 };
}

variable scm5rise {
	type discrete[4] { 0, 1, 2, 3 };
}

variable scm6post {
	type discrete[4] { 0, 1, 2, 3 };
}

variable scm7gait {
	type discrete[4] { 0, 1, 2, 3 };
}

variable scm8spee {
	type discrete[4] { 0, 1, 2, 3 };
}

variable scm9free {
	type discrete[4] { 0, 1, 2, 3 };
}

variable scm10swa {
	type discrete[4] { 0, 1, 2, 3 };
}

variable scm11spe {
	type discrete[4] { 0, 1, 2, 3 };
}

variable scm12fee {
	type discrete[4] { 0, 1, 2, 3 };
}

variable scm13dre {
	type discrete[4] { 0, 1, 2, 3 };
}

variable scm14hyg {
	type discrete[4] { 0, 1, 2, 3 };
}

variable scm15cha {
	type discrete[4] { 0, 1, 2, 3 };
}

variable scm16wal {
	type discrete[4] { 0, 1, 2, 3 };
}

variable scm17han {
	type discrete[4] { 0, 1, 2, 3 };
}

variable scm18dpr {
	type discrete[4] { 0, 1, 2, 3 };
}

variable scm19dsv {
	type discrete[4] { 0, 1, 2, 3 };
}

variable scm20fpr {
	type discrete[4] { 0, 1, 2, 3 };
}

variable scm21fsv {
	type discrete[4] { 0, 1, 2, 3 };
}

probability ( variable390 ) {
	table 0.03838940476785022, 0.17040580451622825, 0.28159621956148295, 0.1249256588723653, 0.2669778369607955, 0.11770507532127769;
}

probability ( scm1rue | variable390 ) {
	(state0) 0.49079707638022574, 0.23831160270926244, 0.13282101937477372, 0.1380703015357383;
	(state1) 0.7969052557472999, 0.14837793334737395, 0.046885955108499903, 0.007830855796826368;
	(state2) 0.5199037969758875, 0.3356197188948511, 0.12498570856067356, 0.01949077556858793;
	(state3) 0.5230680856556719, 0.18251202949910567, 0.18588914723741423, 0.10853073760780824;
	(state4) 0.5770150956674925, 0.26502057787189115, 0.1416628564120935, 0.016301470048522858;
	(state5) 0.012103583344543952, 0.4536222118462136, 0.41524147017989904, 0.1190327346293433;
}

probability ( scm1lue | variable390 ) {
	(state0) 0.46477960745306723, 0.2105019270575162, 0.18659818944944825, 0.1381202760399683;
	(state1) 0.7212114994883757, 0.22203584920673095, 0.05031243701775803, 0.0064402142871352284;
	(state2) 0.5244148164901775, 0.31888959544580203, 0.13714813322702138, 0.01954745483699901;
	(state3) 0.5861606320753052, 0.1879658703455766, 0.1153978911882891, 0.11047560639082891;
	(state4) 0.6184446641176685, 0.24685867936156192, 0.10629042619472387, 0.028406230326045737;
	(state5) 0.09697267908367901, 0.48654452266050824, 0.3430002917733703, 0.07348250648244233;
}

probability ( scm2rue | variable390 ) {
	(state0) 0.48243748419273463, 0.27469802731693477, 0.13450454889366242, 0.10835993959666818;
	(state1) 0.7113091730224679, 0.268102585442038, 0.012779216773121965, 0.0078090247623722985;
	(state2) 0.5489337871923595, 0.3699546543780308, 0.06927610906877496, 0.011835449360834806;
	(state3) 0.5038854808528584, 0.3028036167541103, 0.11782403721955073, 0.07548686517348044;
	(state4) 0.5817430259136922, 0.3289233273007884, 0.07721365824171432, 0.012119988543805102;
	(state5) 0.033528694770455336, 0.5587173714913954, 0.37162699277041156, 0.03612694096773771;
}

probability ( scm2lue | variable390 ) {
	(state0) 0.4561583802943548, 0.2478076826349162, 0.13459410264377622, 0.16143983442695287;
	(state1) 0.6335566787741588, 0.3279326155136218, 0.026075663569967013, 0.012435042142252401;
	(state2) 0.5343515410105176, 0.3824272651064387, 0.0777167539177161, 0.005504439965327561;
	(state3) 0.5302105707676558, 0.2772779913703042, 0.13264691340383575, 0.059864524458204296;
	(state4) 0.6142823824132224, 0.30300571025562084, 0.06801281221868145, 0.014699095112475248;
	(state5) 0.14285669069434, 0.5742727831584161, 0.23682911894934255, 0.04604140719790134;
}

probability ( scm3rue | variable390 ) {
	(state0) 0.10532018575102205, 0.13248031858113718, 0.23884135616884544, 0.5233581394989953;
	(state1) 0.29513464803703143, 0.5475787780966028, 0.13831201562486542, 0.01897455824150032;
	(state2) 0.20705581774103712, 0.5559866332394855, 0.22912432189491988, 0.007833227124557541;
	(state3) 0.05171773890684762, 0.31099662673886386, 0.5140541861099475, 0.1232314482443412;
	(state4) 0.3460351554799091, 0.5518637864290653, 0.0938957008249007, 0.008205357266124976;
	(state5) 0.03670902267664848, 0.28683478133288665, 0.603058750947056, 0.0733974450434089;
}

probability ( scm3lue | variable390 ) {
	(state0) 0.10532069577084044, 0.02773264165959184, 0.1981103049934883, 0.6688363575760795;
	(state1) 0.20931819913123642, 0.500268382025896, 0.2737943230442003, 0.016619095798667428;
	(state2) 0.14475423680649296, 0.5108999123641832, 0.30462358528888944, 0.039722265540434516;
	(state3) 0.07315944749030513, 0.2176234557274047, 0.4932476807947374, 0.2159694159875528;
	(state4) 0.3689955098530667, 0.45556225229567043, 0.16310433903853572, 0.012337898812727118;
	(state5) 0.03125820231537636, 0.42670387946070776, 0.4966667775803205, 0.04537114064359537;
}

probability ( scm4rue | variable390 ) {
	(state0) 0.05331941440632556, 0.23973431723841518, 0.3213370847152448, 0.3856091836400145;
	(state1) 0.29073581180114383, 0.5779306800395239, 0.11857849276406765, 0.012755015395264552;
	(state2) 0.17420339291903977, 0.593609874287103, 0.2198632254016725, 0.01232350739218462;
	(state3) 0.12964964152409336, 0.3144544253582122, 0.4838356725279817, 0.07206026058971268;
	(state4) 0.32596488678183333, 0.5634244997269572, 0.10237011007632728, 0.008240503414882139;
	(state5) 0.02732714625590207, 0.2895501991168303, 0.6378502133301426, 0.0452724412971251;
}

probability ( scm4lue | variable390 ) {
	(state0) 0.053319320199781806, 0.10584107146181186, 0.43320839859164073, 0.4076312097467656;
	(state1) 0.2992971965173584, 0.49092288393464023, 0.19735892499872756, 0.0124209945492738;
	(state2) 0.1946989014049071, 0.5043809670050688, 0.28937074533213086, 0.011549386257893288;
	(state3) 0.14296747711190827, 0.3286993534953455, 0.39775204724562435, 0.13058112214712186;
	(state4) 0.39425295260862564, 0.4782786469704413, 0.1168197453244401, 0.010648655096492992;
	(state5) 0.019766207121545625, 0.45226197659490547, 0.5004769222134905, 0.027494894070058288;
}

probability ( scm5rise | variable390 ) {
	(state0) 0.05297982631898384, 0.026563899445277626, 0.16249944092445542, 0.7579568333112829;
	(state1) 0.548871750057406, 0.38495622615937714, 0.04704181839031396, 0.019130205392902923;
	(state2) 0.5181129686338214, 0.41898133273956206, 0.05901888160636638, 0.0038868170202502436;
	(state3) 0.11091873749737198, 0.2386545719693593, 0.49123261045549016, 0.15919408007777852;
	(state4) 0.8956936341965398, 0.09587034428263587, 0.004339020694310942, 0.004097000826513319;
	(state5) 0.17505689757304704, 0.6658992583214636, 0.14976498589571643, 0.009278858209772908;
}

probability ( scm6post | variable390 ) {
	(state0) 0.05297155534789631, 0.026561790847706657, 0.24599135764765936, 0.6744752961567376;
	(state1) 0.4826848062506497, 0.39171505388650074, 0.1192010541497844, 0.0063990857130652905;
	(state2) 0.5581073826088736, 0.34235122710843985, 0.09036369456734515, 0.009177695715341248;
	(state3) 0.08664842402169158, 0.23824438628795747, 0.5955289474275356, 0.07957824226281529;
	(state4) 0.9190054022320163, 0.056836331410290916, 0.020061262464256935, 0.004097003893435913;
	(state5) 0.17701868716526695, 0.5582040617545503, 0.25549388285058255, 0.009283368229600056;
}

probability ( scm7gait | variable390 ) {
	(state0) 0.026552511063781405, 0.0265597420499448, 0.3653652029473252, 0.5815225439389485;
	(state1) 0.24600241303802312, 0.6188507935051432, 0.12877232962336851, 0.006374463833465232;
	(state2) 0.16136396406664977, 0.764324834559046, 0.07042439635127466, 0.003886805023029598;
	(state3) 0.015990054762702908, 0.2139399689480739, 0.7520844438031855, 0.017985532486037688;
	(state4) 0.675131445657866, 0.3125810504987811, 0.00819050302116901, 0.004097000822183896;
	(state5) 0.029769427110182906, 0.7063826567426811, 0.25457227281187467, 0.009275643335261307;
}

probability ( scm8spee | variable390 ) {
	(state0) 0.026557139538007413, 0.1054448398115748, 0.5485140122799694, 0.31948400837044844;
	(state1) 0.19707048666336266, 0.677345719292076, 0.10637449327069841, 0.019209300773862854;
	(state2) 0.21712270472638637, 0.7230641387892925, 0.052095286551418006, 0.007717869932903097;
	(state3) 0.008646238733402667, 0.403691768050921, 0.544777246195406, 0.04288474702027021;
	(state4) 0.6852997330876794, 0.29115918513300143, 0.015343696259896466, 0.008197385519422557;
	(state5) 0.1368170997841938, 0.7770383267134084, 0.07699382069174558, 0.009150752810651995;
}

probability ( scm9free | variable390 ) {
	(state0) 0.05350455236043202, 0.08457329709450655, 0.30533058897837745, 0.556591561566684;
	(state1) 0.4319608508081127, 0.3596951834998166, 0.18093022833045316, 0.027413737361617486;
	(state2) 0.6840506698617841, 0.2624740716177602, 0.049471833127297714, 0.004003425393158163;
	(state3) 0.19493480823338594, 0.18877477929484243, 0.5210336913423768, 0.09525672112939484;
	(state4) 0.94116221319911, 0.04198236293809162, 0.012749420240128996, 0.004106003622669483;
	(state5) 0.31963295262302294, 0.491806548687112, 0.16411698480599643, 0.024443513883868662;
}

probability ( scm10swa | variable390 ) {
	(state0) 0.2504855833416763, 0.3485198366298599, 0.2682820690053586, 0.1327125110231052;
	(state1) 0.6484838004590071, 0.2667292302653105, 0.07840618708457246, 0.006380782191109817;
	(state2) 0.7176273955326812, 0.23886074427289172, 0.039625065216650636, 0.00388679497777651;
	(state3) 0.2764243228644045, 0.4184166310417307, 0.27925143852284806, 0.025907607571016657;
	(state4) 0.8774134153041607, 0.10612238492442665, 0.01236719896356454, 0.0040970008078481494;
	(state5) 0.45777579247411226, 0.4777887804958482, 0.055285264351582715, 0.00915016267845692;
}

probability ( scm11spe | variable390 ) {
	(state0) 0.0513839667302775, 0.11196663078436597, 0.6233551975038025, 0.213294204981554;
	(state1) 0.2320770646857443, 0.6168986301194277, 0.13190631553864368, 0.01911798965618437;
	(state2) 0.3307437235367335, 0.607056736016375, 0.05444823269873783, 0.0077513077481538096;
	(state3) 0.026401084401212048, 0.4527271780784782, 0.477939977658716, 0.042931759861593824;
	(state4) 0.7825381165447151, 0.20110186545292094, 0.008162621690908626, 0.008197396311455298;
	(state5) 0.24250522007697772, 0.6799204779867555, 0.06842372613672075, 0.009150575799546128;
}

probability ( scm12fee | variable390 ) {
	(state0) 0.026550940716006013, 0.07905015939722325, 0.3901302302600164, 0.5042686696267543;
	(state1) 0.37059847613381475, 0.5419309314743076, 0.08109602240425504, 0.0063745699876227545;
	(state2) 0.1359594934345652, 0.8058866291244652, 0.05425899185616804, 0.0038948855848015673;
	(state3) 0.03439841263972847, 0.2756545918706096, 0.6726010609343912, 0.017345934555270625;
	(state4) 0.7675918372421271, 0.21388018006303655, 0.014430486285280063, 0.0040974964095562795;
	(state5) 0.05072616418292208, 0.7278006253916525, 0.19406496637885398, 0.027408244046571363;
}

probability ( scm13dre | variable390 ) {
	(state0) 0.02655176170108325, 0.07777403110204457, 0.20432736392234058, 0.6913468432745316;
	(state1) 0.18023599622317593, 0.6575026376959368, 0.15588691233152854, 0.006374453749358846;
	(state2) 0.047158905306914585, 0.8756630210569475, 0.07329113710135017, 0.0038869365347878105;
	(state3) 0.02552572396275528, 0.1195544374707138, 0.8207258243886217, 0.034194014177909175;
	(state4) 0.662155853378625, 0.32141296322742285, 0.012334182586103293, 0.004097000807848707;
	(state5) 0.009299191036801551, 0.6527358066443629, 0.3288147499578818, 0.009150252360953858;
}

probability ( scm14hyg | variable390 ) {
	(state0) 0.026551761695425873, 0.07904170213640832, 0.2323709862016702, 0.6620355499664956;
	(state1) 0.22717087343543, 0.6928155761969802, 0.0736390966182045, 0.006374453749385375;
	(state2) 0.07727562102774452, 0.8846765421766427, 0.03416090026071995, 0.0038869365348928936;
	(state3) 0.025507859859144184, 0.19886953121853398, 0.7405303103628892, 0.03509229855943265;
	(state4) 0.6953087330542641, 0.29648805411179074, 0.004106212026096414, 0.004097000807848708;
	(state5) 0.044057310386317654, 0.7624632438847709, 0.184329193357689, 0.00915025237122241;
}

probability ( scm15cha | variable390 ) {
	(state0) 0.02655676058305993, 0.05123837436939635, 0.1996718678407781, 0.7225329972067657;
	(state1) 0.15661450465963578, 0.6231544903605805, 0.19475088410829444, 0.025480120871489355;
	(state2) 0.14661583818786433, 0.7816674006961185, 0.06782994291940792, 0.003886818196609086;
	(state3) 0.008668486375121737, 0.20482815011950184, 0.710520450510788, 0.07598291299458845;
	(state4) 0.7885879502059288, 0.20298578340029902, 0.00432926556727995, 0.004097000826492325;
	(state5) 0.07526801125064315, 0.5941901132367483, 0.31234511607122317, 0.018196759441385355;
}

probability ( scm16wal | variable390 ) {
	(state0) 0.026559870100064244, 0.02655503534010686, 0.25611865662757133, 0.6907664379322577;
	(state1) 0.14518357003883994, 0.7090324242367024, 0.13940516519959678, 0.006378840524860843;
	(state2) 0.08866076767478243, 0.8321084270529063, 0.0715493866865548, 0.007681418585756485;
	(state3) 0.02380169433917222, 0.14264129153130822, 0.790544487740069, 0.043012526389450585;
	(state4) 0.6784074512414253, 0.3092349938514177, 0.008260553443126949, 0.0040970014640299346;
	(state5) 0.028092598429252953, 0.8389410905378294, 0.12359947182425927, 0.009366839208658202;
}

probability ( scm17han | variable390 ) {
	(state0) 0.05295847695801963, 0.0797552902709586, 0.3229278757620373, 0.5443583570089845;
	(state1) 0.10294478322024753, 0.6121029055576541, 0.25787087087860927, 0.027081440343489065;
	(state2) 0.11879714124837844, 0.6874713998457512, 0.18238658908195743, 0.011344869823912978;
	(state3) 0.008688862838809649, 0.2581722583313661, 0.5546502002843403, 0.17848867854548395;
	(state4) 0.398318562103462, 0.5452882395952043, 0.03943524345865152, 0.016957954842681994;
	(state5) 0.028028361041482264, 0.65062203951073, 0.3074447724907065, 0.013904826957081055;
}

probability ( scm18dpr | variable390 ) {
	(state0) 0.2782877134129738, 0.2908383482863899, 0.18967027422981916, 0.24120366407081698;
	(state1) 0.013739935964811023, 0.6174710853973522, 0.25734862524713065, 0.11144035339070617;
	(state2) 0.9795247295693383, 0.012526060510732889, 0.004043465140667188, 0.003905744779261607;
	(state3) 0.4501869687290915, 0.17728099580667347, 0.29960942284920045, 0.07292261261503451;
	(state4) 0.9208087799746605, 0.06290835087744362, 0.008220046401074077, 0.008062822746821772;
	(state5) 0.28788289991279586, 0.5496569450885928, 0.1165750596944206, 0.04588509530419085;
}

probability ( scm19dsv | variable390 ) {
	(state0) 0.30192994354838976, 0.23587968609006968, 0.21606998306000763, 0.24612038730153302;
	(state1) 0.042401154596231116, 0.5955465562762393, 0.29471371653604755, 0.067338572591482;
	(state2) 0.9802139599118198, 0.008901956887324897, 0.0069834592964702884, 0.0039006239043850323;
	(state3) 0.45714546760950997, 0.12840280647513252, 0.2958818620501, 0.11856986386525736;
	(state4) 0.9227549368671824, 0.06238587865683187, 0.01060249108880112, 0.004256693387184676;
	(state5) 0.28015133783654783, 0.5243102078601903, 0.13705038961515056, 0.05848806468811134;
}

probability ( scm20fpr | variable390 ) {
	(state0) 0.16651098889637822, 0.10848669043785622, 0.35388710552937347, 0.37111521513639195;
	(state1) 0.15947813754437604, 0.5818657884707131, 0.23315003938311304, 0.025506034601797692;
	(state2) 0.5770704294666461, 0.3622947392949945, 0.05295642765833758, 0.007678403580021801;
	(state3) 0.14201382487807063, 0.2013920756701744, 0.5353996579769525, 0.1211944414748025;
	(state4) 0.8745464065412679, 0.10448960391517677, 0.016866988697511305, 0.0040970008460440265;
	(state5) 0.10370745120457102, 0.6184991602375477, 0.2594049092302581, 0.018388479327623164;
}

probability ( scm21fsv | variable390 ) {
	(state0) 0.16722444093060926, 0.13272233617744963, 0.19292664991264524, 0.5071265729792959;
	(state1) 0.14884593582134834, 0.4478851559464965, 0.3522167710944584, 0.05105213713769662;
	(state2) 0.6010772348307261, 0.3004517875448063, 0.09071308394287206, 0.007757893681595628;
	(state3) 0.15040988457821364, 0.13768732392677566, 0.4982691545928038, 0.21363363690220694;
	(state4) 0.8878214811210128, 0.09376607557657385, 0.014314928871157085, 0.0040975144312563674;
	(state5) 0.09686351521068966, 0.5362530691942502, 0.3288797201974727, 0.03800369539758753;
}

