network HLCM299 {
}

variable scm1rue {
	type discrete[4] { 0, 1, 2, 3 };
}

variable scm1lue {
	type discrete[4] { 0, 1, 2, 3 };
}

variable scm2rue {
	type discrete[4] { 0, 1, 2, 3 };
}

variable scm2lue {
	type discrete[4] { 0, 1, 2, 3 };
}

variable scm3rue {
	type discrete[4] { 0, 1, 2, 3 };
}

variable scm3lue {
	type discrete[4] { 0, 1, 2, 3 };
}

variable scm4rue {
	type discrete[4] { 0, 1, 2, 3 };
}

variable scm4lue {
	type discrete[4] { 0, 1, 2, 3 };
}

variable scm5rise {
	type discrete[4] { 0, 1, 2, 3 };
}

variable scm6post {
	type discrete[4] { 0, 1, 2, 3 };
}

variable scm7gait {
	type discrete[4] { 0, 1, 2, 3 };
}

variable scm8spee {
	type discrete[4] { 0, 1, 2, 3 };
}

variable scm9free {
	type discrete[4] { 0, 1, 2, 3 };
}

variable scm10swa {
	type discrete[4] { 0, 1, 2, 3 };
}

variable scm11spe {
	type discrete[4] { 0, 1, 2, 3 };
}

variable scm12fee {
	type discrete[4] { 0, 1, 2, 3 };
}

variable scm13dre {
	type discrete[4] { 0, 1, 2, 3 };
}

variable scm14hyg {
	type discrete[4] { 0, 1, 2, 3 };
}

variable scm15cha {
	type discrete[4] { 0, 1, 2, 3 };
}

variable scm16wal {
	type discrete[4] { 0, 1, 2, 3 };
}

variable scm17han {
	type discrete[4] { 0, 1, 2, 3 };
}

variable scm18dpr {
	type discrete[4] { 0, 1, 2, 3 };
}

variable scm19dsv {
	type discrete[4] { 0, 1, 2, 3 };
}

variable scm20fpr {
	type discrete[4] { 0, 1, 2, 3 };
}

variable scm21fsv {
	type discrete[4] { 0, 1, 2, 3 };
}

variable variable57 {
	type discrete[3] { state0, state1, state2 };
}

variable variable63 {
	type discrete[4] { state0, state1, state2, state3 };
}

variable variable68 {
	type discrete[4] { state0, state1, state2, state3 };
}

probability ( scm1rue | variable57 ) {
	(state0) 0.6793206509913451, 0.20866541361042829, 0.10476602080537746, 0.007247914592849367;
	(state1) 0.5683153522907712, 0.2540226629798299, 0.17086272551953996, 0.006799259209858868;
	(state2) 0.347788829226251, 0.22358383724601427, 0.2531409971810648, 0.1754863363466699;
}

probability ( scm1lue | variable57 ) {
	(state0) 0.6788040679647429, 0.22193599447815307, 0.07649524055787123, 0.022764696999232694;
	(state1) 0.5222824853325461, 0.2836421786130352, 0.16131192926516072, 0.03276340678925813;
	(state2) 0.475655774000584, 0.15503118012645584, 0.21057941230493668, 0.15873363356802345;
}

probability ( scm2rue | variable57 ) {
	(state0) 0.644818164638184, 0.2628990059168094, 0.08503491587917998, 0.007247913565826712;
	(state1) 0.5433296586715302, 0.36753108853284505, 0.08247807668234604, 0.006661176113278819;
	(state2) 0.42005193604995295, 0.294514824713296, 0.17356245395386855, 0.11187078528288248;
}

probability ( scm2lue | variable57 ) {
	(state0) 0.6070851560053955, 0.316237369096008, 0.0556239785904926, 0.021053496308103842;
	(state1) 0.5110499457503183, 0.38522137948279755, 0.09587338294223387, 0.007855291824650248;
	(state2) 0.42106620489269125, 0.2941769203904319, 0.17423626344256768, 0.11052061127430918;
}

probability ( scm3rue | variable57 ) {
	(state0) 0.3975418723500171, 0.529379172636522, 0.05857942612135519, 0.01449952889210567;
	(state1) 0.16755371682071227, 0.49162894562394416, 0.3270078568125213, 0.013809480742822339;
	(state2) 0.04696441635168348, 0.11161652917965385, 0.506948985612334, 0.3344700688563287;
}

probability ( scm3lue | variable57 ) {
	(state0) 0.3676130919553379, 0.433935449670502, 0.17611493407399822, 0.022336524300161746;
	(state1) 0.10223615800145079, 0.47016684765520106, 0.38098547563996393, 0.04661151870338412;
	(state2) 0.06228251136065477, 0.1339665613454444, 0.43758303645979446, 0.36616789083410634;
}

probability ( scm4rue | variable57 ) {
	(state0) 0.4348865010976306, 0.5063739327638943, 0.04421776511935751, 0.014521801019117578;
	(state1) 0.13179866370671545, 0.6147948080297617, 0.23974483229815838, 0.01366169596536453;
	(state2) 0.05060766615562454, 0.24974804237935125, 0.508750235201007, 0.19089405626401723;
}

probability ( scm4lue | variable57 ) {
	(state0) 0.44419903502574887, 0.43631475686858934, 0.10566248198324307, 0.01382372612241886;
	(state1) 0.11162764333500798, 0.5543775000094454, 0.3212082472569293, 0.01278660939861746;
	(state2) 0.09457878964648382, 0.2618597912248332, 0.4170485473720849, 0.22651287175659796;
}

probability ( scm5rise | variable57 ) {
	(state0) 0.8116324551304718, 0.16797457798253576, 0.012907110076949321, 0.007485856810043228;
	(state1) 0.3347394848108689, 0.5531599735348214, 0.10474107132049441, 0.0073594703338153095;
	(state2) 0.026338159057057862, 0.08930168927544233, 0.47094232629186494, 0.413417825375635;
}

probability ( scm6post | variable57 ) {
	(state0) 0.8253083214442952, 0.13576587027810189, 0.03166650294578453, 0.007259305331818432;
	(state1) 0.26688142019451905, 0.487679913127826, 0.23322963969195637, 0.012209026985698626;
	(state2) 0.04750947468449656, 0.09405267967200151, 0.5840822892251509, 0.274355556418351;
}

probability ( scm7gait | variable57 ) {
	(state0) 0.554268549187997, 0.4298994700113769, 0.008582629785775698, 0.0072493510148504735;
	(state1) 0.06318831238523356, 0.7884484973573684, 0.1417071777479445, 0.006656012509453366;
	(state2) 0.016285814327119445, 0.08060862959318356, 0.7272777816819698, 0.17582777439772715;
}

probability ( scm8spee | variable57 ) {
	(state0) 0.6617677504001355, 0.2888386970666694, 0.04214563895115764, 0.007247913582037519;
	(state1) 0.1455305550471687, 0.7917794785002281, 0.056041358508457435, 0.006648607944145677;
	(state2) 0.044703305580797124, 0.31978946589646445, 0.44367153605359727, 0.19183569246914112;
}

probability ( scm9free | variable57 ) {
	(state0) 0.8203536664359591, 0.11326347329798807, 0.05189948527878677, 0.014483374987266227;
	(state1) 0.5180299231364759, 0.34965719396900957, 0.11983750112849995, 0.012475381766014619;
	(state2) 0.15767908232148195, 0.20394814495286082, 0.46052699544456166, 0.17784577728109568;
}

probability ( scm10swa | variable57 ) {
	(state0) 0.7928826815150215, 0.1442141473928152, 0.04996487553243892, 0.012938295559724313;
	(state1) 0.6046527307874477, 0.3385013796401563, 0.04882311998648123, 0.008022769585914613;
	(state2) 0.21771561212751686, 0.38633379456225503, 0.3318806832852242, 0.06406991002500385;
}

probability ( scm11spe | variable63 ) {
	(state0) 0.055225044695958105, 0.11022427738250451, 0.6095837805887245, 0.22496689733281292;
	(state1) 0.10832662716914299, 0.5183745661829819, 0.28625462936290297, 0.08704417728497216;
	(state2) 0.31596801730768037, 0.6441880960393964, 0.0336355127951979, 0.006208373857725288;
	(state3) 0.8124139360373913, 0.1590804987509279, 0.01924981906818835, 0.009255746143492385;
}

probability ( scm12fee | variable63 ) {
	(state0) 0.05510058943008617, 0.11962951028143427, 0.34411473053947883, 0.48115516974900086;
	(state1) 0.04985862536076062, 0.2477147786114585, 0.6714161600715675, 0.031010435956213434;
	(state2) 0.13683736229677806, 0.7861014735179358, 0.0702422236240375, 0.006818940561248536;
	(state3) 0.7180703188170163, 0.26331440390959276, 0.009359524710857697, 0.009255752562533233;
}

probability ( scm13dre | variable63 ) {
	(state0) 0.06309801863611497, 0.06233031360800714, 0.11034568918220489, 0.7642259785736729;
	(state1) 0.04195099792071393, 0.0769837000127993, 0.8660684560358705, 0.014996846030616379;
	(state2) 0.03662223510307655, 0.8551342475204254, 0.10203518346797721, 0.006208333908520917;
	(state3) 0.6026520511663218, 0.3787143750045049, 0.009377827700441332, 0.00925574612873198;
}

probability ( scm14hyg | variable63 ) {
	(state0) 0.06309601967637932, 0.0596971091194476, 0.11298089263050011, 0.7642259785736731;
	(state1) 0.02724696006239952, 0.24113568292802745, 0.7166205109789568, 0.014996846030616382;
	(state2) 0.04880429253122325, 0.9170654674594654, 0.027921906100790452, 0.006208333908520916;
	(state3) 0.6492230741226618, 0.3322384237296556, 0.009282756018950618, 0.00925574612873198;
}

probability ( scm15cha | variable63 ) {
	(state0) 0.05465255997548202, 0.06341308789161738, 0.3201089945302269, 0.5618253576026737;
	(state1) 0.01485792210438271, 0.16076226081451722, 0.6700575816356117, 0.15432223544548834;
	(state2) 0.09571033342385052, 0.7482790314112391, 0.14806159523726725, 0.00794903992764312;
	(state3) 0.6532631112643663, 0.30957113092593475, 0.02783856933043681, 0.009327188479262168;
}

probability ( scm16wal | variable63 ) {
	(state0) 0.054655231006870864, 0.0574847417064668, 0.34478046010355695, 0.5430795671831055;
	(state1) 0.02704115100159137, 0.27531283488101443, 0.6079641749903661, 0.08968183912702803;
	(state2) 0.07933482541220759, 0.7756641640486904, 0.13258675722890065, 0.012414253310201337;
	(state3) 0.5404747076100012, 0.4202302021940703, 0.030037461267015387, 0.00925762892891322;
}

probability ( scm17han | variable63 ) {
	(state0) 0.05586811718504242, 0.055009321990501486, 0.348631330453556, 0.5404912303709001;
	(state1) 0.06405278474749747, 0.31955640710541316, 0.5265700690031297, 0.08982073914395958;
	(state2) 0.11186487624361753, 0.7025764642803005, 0.1644127972448738, 0.021145862231208103;
	(state3) 0.39457341029476684, 0.5297041496953852, 0.05136360443822531, 0.024358835571622814;
}

probability ( scm18dpr | variable68 ) {
	(state0) 0.8842649817388936, 0.0637694117814429, 0.017976769888927067, 0.03398883659073654;
	(state1) 0.0256990592459668, 0.763330496101221, 0.15900315845566776, 0.051967286197144684;
	(state2) 0.021857799782491378, 0.2620569563809335, 0.5751230420073971, 0.1409622018291782;
	(state3) 0.9673342911529134, 0.015363058394604726, 0.0076234153585474414, 0.009679235093934254;
}

probability ( scm19dsv | variable68 ) {
	(state0) 0.9323922067512301, 0.01793683925414579, 0.02916287738842085, 0.02050807660620329;
	(state1) 0.0188698162667255, 0.783833014305767, 0.17800920067859208, 0.01928796874891531;
	(state2) 0.03734351991273679, 0.20734905564883818, 0.5215800413818071, 0.2337273830566178;
	(state3) 0.9680540195668922, 0.01641875813321702, 0.008306656746692884, 0.007220565553197919;
}

probability ( scm20fpr | variable68 ) {
	(state0) 0.019747204428729823, 0.6648251371417319, 0.2774392144758907, 0.03798844395364741;
	(state1) 0.25376570249859864, 0.7099462972390869, 0.023849548192297943, 0.012438452070016514;
	(state2) 0.01614016716015125, 0.1010451823334987, 0.7235054704571381, 0.15930918004921193;
	(state3) 0.960963172557114, 0.018406636053503067, 0.012956595484869698, 0.007673595904513287;
}

probability ( scm21fsv | variable68 ) {
	(state0) 0.024844110031751562, 0.6473950273202231, 0.2895830912244921, 0.03817777142353332;
	(state1) 0.2533897100153892, 0.579673737340997, 0.14733318048880303, 0.01960337215481094;
	(state2) 0.03204364121679658, 0.017242162331065746, 0.6132987299837898, 0.33741546646834797;
	(state3) 0.9728417460632657, 0.012032021413131356, 0.007452571636236781, 0.007673660887366343;
}

probability ( variable57 | variable63 ) {
	(state0) 0.059093723006549484, 0.059613831106843436, 0.881292445886607;
	(state1) 0.05905359382071977, 0.26588941729413706, 0.6750569888851432;
	(state2) 0.19831554989191547, 0.793370696965601, 0.008313753142483475;
	(state3) 0.9460973264348544, 0.044328691517319746, 0.009573982047825901;
}

probability ( variable63 | variable68 ) {
	(state0) 0.03892889902929645, 0.1418942761442101, 0.5618698816686757, 0.2573069431578178;
	(state1) 0.03578594446908198, 0.1943526377343209, 0.5740597161255399, 0.19580170167105712;
	(state2) 0.16286962037308558, 0.5282560608179987, 0.24297844776661728, 0.06589587104229845;
	(state3) 0.015793501973066934, 0.0569539431150716, 0.42509291842313235, 0.5021596364887291;
}

probability ( variable68 ) {
	table 0.2007671321842988, 0.2261558007048342, 0.17801108747734695, 0.39506597963352;
}

