network HLCM81 {
}

variable scm1rue {
	type discrete[4] { 0, 1, 2, 3 };
}

variable scm1lue {
	type discrete[4] { 0, 1, 2, 3 };
}

variable scm2rue {
	type discrete[4] { 0, 1, 2, 3 };
}

variable scm2lue {
	type discrete[4] { 0, 1, 2, 3 };
}

variable scm3rue {
	type discrete[4] { 0, 1, 2, 3 };
}

variable scm3lue {
	type discrete[4] { 0, 1, 2, 3 };
}

variable scm4rue {
	type discrete[4] { 0, 1, 2, 3 };
}

variable scm4lue {
	type discrete[4] { 0, 1, 2, 3 };
}

variable scm5rise {
	type discrete[4] { 0, 1, 2, 3 };
}

variable scm6post {
	type discrete[4] { 0, 1, 2, 3 };
}

variable scm7gait {
	type discrete[4] { 0, 1, 2, 3 };
}

variable scm9free {
	type discrete[4] { 0, 1, 2, 3 };
}

variable scm18dpr {
	type discrete[4] { 0, 1, 2, 3 };
}

variable scm19dsv {
	type discrete[4] { 0, 1, 2, 3 };
}

variable scm20fpr {
	type discrete[4] { 0, 1, 2, 3 };
}

variable scm21fsv {
	type discrete[4] { 0, 1, 2, 3 };
}

variable scm8spee {
	type discrete[4] { 0, 1, 2, 3 };
}

variable scm10swa {
	type discrete[4] { 0, 1, 2, 3 };
}

variable scm11spe {
	type discrete[4] { 0, 1, 2, 3 };
}

variable scm12fee {
	type discrete[4] { 0, 1, 2, 3 };
}

variable scm13dre {
	type discrete[4] { 0, 1, 2, 3 };
}

variable scm14hyg {
	type discrete[4] { 0, 1, 2, 3 };
}

variable scm15cha {
	type discrete[4] { 0, 1, 2, 3 };
}

variable scm16wal {
	type discrete[4] { 0, 1, 2, 3 };
}

variable scm17han {
	type discrete[4] { 0, 1, 2, 3 };
}

variable variable31 {
	type discrete[3] { state0, state1, state2 };
}

variable variable36 {
	type discrete[3] { state0, state1, state2 };
}

probability ( scm1rue | variable31 ) {
	(state0) 0.555947850943934, 0.26456198598810693, 0.17333683810427164, 0.0061533249636874;
	(state1) 0.31895229982480483, 0.22684438588249095, 0.27876604504473096, 0.17543726924797332;
	(state2) 0.7204737245344198, 0.1890236543336683, 0.08238979162260121, 0.00811282950931068;
}

probability ( scm1lue | variable31 ) {
	(state0) 0.5702961196487683, 0.23911619845739682, 0.16012335386569693, 0.030464328028138005;
	(state1) 0.4475118834499872, 0.1529084870420996, 0.23982645317739554, 0.15975317633051755;
	(state2) 0.6459055968089592, 0.2746163122592146, 0.05524568464757436, 0.024232406284251867;
}

probability ( scm2rue | variable31 ) {
	(state0) 0.5772649090102067, 0.3147483702963842, 0.10183833998739297, 0.006148380706016071;
	(state1) 0.35912283983183035, 0.3076691750141023, 0.22135116300926877, 0.11185682214479864;
	(state2) 0.6411186523506469, 0.3144807146112386, 0.036449645340323786, 0.007950987697790656;
}

probability ( scm2lue | variable31 ) {
	(state0) 0.5662439514983089, 0.3317958940399856, 0.08966187705441658, 0.012298277407289001;
	(state1) 0.3601183279246984, 0.32101417918281727, 0.2071036264799196, 0.1117638664125647;
	(state2) 0.5753683969535583, 0.36530275576545645, 0.04338292330645391, 0.015945923974531435;
}

probability ( scm3rue | variable31 ) {
	(state0) 0.284644789922056, 0.5335950548788607, 0.1687005904015734, 0.013059564797509934;
	(state1) 0.046022470306212274, 0.1121402943802285, 0.5245649721713158, 0.31727226314224344;
	(state2) 0.26892295973510744, 0.47859735733507996, 0.2284595271211446, 0.024020155808667953;
}

probability ( scm3lue | variable31 ) {
	(state0) 0.2683677053855957, 0.42602746973761046, 0.2673423499058754, 0.03826247497091851;
	(state1) 0.032862409758104255, 0.14263920870244312, 0.45924123767791714, 0.36525714386153546;
	(state2) 0.1931606832048129, 0.483261686668399, 0.29241770563791225, 0.031159924488875813;
}

probability ( scm4rue | variable31 ) {
	(state0) 0.30708288236733006, 0.5638906278748423, 0.11673020359381901, 0.012296286164008463;
	(state1) 0.03358418101046761, 0.2127270927278688, 0.5632562043554252, 0.19043252190623838;
	(state2) 0.24609627285792895, 0.5801900038184328, 0.15715345669149786, 0.016560266632140427;
}

probability ( scm4lue | variable31 ) {
	(state0) 0.31147165183563363, 0.4691983448545586, 0.2131440746445843, 0.006185928665223446;
	(state1) 0.06530922802801671, 0.2582154662220123, 0.4525424536634335, 0.2239328520865374;
	(state2) 0.23258692921589302, 0.5368949904518613, 0.2068230790925537, 0.02369500123969205;
}

probability ( scm5rise | variable31 ) {
	(state0) 0.6646067138040904, 0.29574648245829144, 0.03339230210754971, 0.006254501630068405;
	(state1) 0.018221627415134202, 0.12957083505315953, 0.45585749941190934, 0.39635003811979685;
	(state2) 0.43541799135106407, 0.4435664403667134, 0.1036886733353147, 0.01732689494690787;
}

probability ( scm6post | variable31 ) {
	(state0) 0.7098859082728979, 0.23263554611858434, 0.051188180297502765, 0.006290365311014806;
	(state1) 0.06252843466507244, 0.11344595377464313, 0.5525213977788406, 0.27150421378144396;
	(state2) 0.29916686299269146, 0.4218908502955295, 0.26315009822664287, 0.015792188485136208;
}

probability ( scm7gait | variable31 ) {
	(state0) 0.4076774381739435, 0.5510732510644094, 0.034994829575080356, 0.006254481186566594;
	(state1) 0.01598880771700119, 0.1123919840513211, 0.6961304781436984, 0.17548873008797924;
	(state2) 0.1565717169388668, 0.6864393285081681, 0.14903253730418844, 0.00795641724877666;
}

probability ( scm9free | variable31 ) {
	(state0) 0.8198395993976579, 0.15097151701198894, 0.02303741624182916, 0.006151467348523987;
	(state1) 0.1699072500586448, 0.1882675073599667, 0.4658421749230436, 0.17598306765834495;
	(state2) 0.4533848981783845, 0.35510459884646506, 0.1677655391182595, 0.023744963856890813;
}

probability ( scm18dpr | variable31 ) {
	(state0) 0.9019691975596581, 0.06532103584755046, 0.015577572185802184, 0.017132194406989237;
	(state1) 0.25756756632493055, 0.24839179813312212, 0.39815823308836934, 0.09588240245357803;
	(state2) 0.2956148703457707, 0.45979887588536716, 0.18723617515084756, 0.057350078618014465;
}

probability ( scm19dsv | variable31 ) {
	(state0) 0.8998147626062915, 0.08263825432185234, 0.01137547726166392, 0.006171505810192301;
	(state1) 0.257577312165282, 0.2469933984272636, 0.32099607940951086, 0.17443320999794346;
	(state2) 0.3301985693867506, 0.3983480243221612, 0.22311128547507428, 0.04834212081601406;
}

probability ( scm20fpr | variable31 ) {
	(state0) 0.8434478989054144, 0.1286300501779864, 0.021771883579573062, 0.006150167337026143;
	(state1) 0.157633321010505, 0.1562963134387285, 0.5103279717163188, 0.17574239383444776;
	(state2) 0.06323345885301142, 0.6543228984570956, 0.26652789754490236, 0.015915745144990664;
}

probability ( scm21fsv | variable31 ) {
	(state0) 0.8553781979650085, 0.120413388270923, 0.01804066162081736, 0.006167752143251249;
	(state1) 0.17366198518525983, 0.09298010236050869, 0.4298641463707188, 0.30349376608351275;
	(state2) 0.06368295184237252, 0.5533393395668739, 0.3352394368326685, 0.04773827175808518;
}

probability ( scm8spee | variable36 ) {
	(state0) 0.20802539547469592, 0.7434124666037861, 0.04284856517931031, 0.005713572742207563;
	(state1) 0.7211014169511326, 0.24193578315496755, 0.027766988541553943, 0.009195811352346065;
	(state2) 0.01747131703049507, 0.33580357067557237, 0.46824034491537636, 0.17848476737855612;
}

probability ( scm10swa | variable36 ) {
	(state0) 0.6109284979891026, 0.3287668058807601, 0.05459110941394074, 0.005713586716196555;
	(state1) 0.8642056420794271, 0.09881818201548052, 0.027780364554085862, 0.009195811351006512;
	(state2) 0.19478275340901272, 0.397314661005352, 0.33353398792852945, 0.07436859765710586;
}

probability ( scm11spe | variable36 ) {
	(state0) 0.28465436660112836, 0.6741459054902482, 0.035486156149359585, 0.005713571759263929;
	(state1) 0.8554366212990535, 0.1162853590760737, 0.019082208272529853, 0.009195811352343014;
	(state2) 0.04692017274846889, 0.39213133878858686, 0.42708491853100344, 0.13386356993194073;
}

probability ( scm12fee | variable36 ) {
	(state0) 0.1343368402967592, 0.7633824394272465, 0.09598974412167027, 0.006290976154324141;
	(state1) 0.7125217094673976, 0.2677276696975135, 0.01055475527941792, 0.00919586555567101;
	(state2) 0.02981854324945204, 0.15285766351367544, 0.6700896963080492, 0.14723409692882328;
}

probability ( scm13dre | variable36 ) {
	(state0) 0.06438681810205536, 0.7736420770461145, 0.15625754419951546, 0.005713560652314654;
	(state1) 0.5654031470142031, 0.4140903287883984, 0.01131071284640962, 0.009195811350988842;
	(state2) 0.018532953366967232, 0.0530267163909634, 0.720208064718198, 0.20823226552387147;
}

probability ( scm14hyg | variable36 ) {
	(state0) 0.060968108376363045, 0.8612883747997528, 0.07202995617156932, 0.005713560652314655;
	(state1) 0.626131546729133, 0.3553896373855513, 0.009283004534326903, 0.009195811350988844;
	(state2) 0.018450113716976482, 0.15778787120960114, 0.6155297495495509, 0.20823226552387142;
}

probability ( scm15cha | variable36 ) {
	(state0) 0.08837189312552485, 0.7072120967770111, 0.18852631353763524, 0.015889696559828772;
	(state1) 0.6486067604351733, 0.3187138889169434, 0.02155060707611773, 0.011128743571765657;
	(state2) 0.014875330094337271, 0.09762484995040326, 0.6196424304434126, 0.2678573895118468;
}

probability ( scm16wal | variable36 ) {
	(state0) 0.08759032030836922, 0.7534583653864937, 0.14753153525253926, 0.01141977905259781;
	(state1) 0.5206924511743374, 0.4378227315707672, 0.032270217194270916, 0.009214600060624552;
	(state2) 0.01557223830404898, 0.14155241152918507, 0.6197806286103849, 0.22309472155638116;
}

probability ( scm17han | variable36 ) {
	(state0) 0.1079081905322652, 0.688933698761844, 0.1806065319718292, 0.022551578734061755;
	(state1) 0.40547675790742865, 0.5304071277787475, 0.04506155725022489, 0.01905455706359899;
	(state2) 0.030045429533371856, 0.20439609581352142, 0.5427368353484308, 0.22282163930467588;
}

probability ( variable31 | variable36 ) {
	(state0) 0.41503433370649656, 0.04010311700930382, 0.5448625492841995;
	(state1) 0.8146206660515908, 0.009452615925967633, 0.17592671802244164;
	(state2) 0.024879244313641066, 0.8090018687123766, 0.16611888697398244;
}

probability ( variable36 ) {
	table 0.502988952006352, 0.3091963816825267, 0.18781466631112126;
}

