network Current LCM {
}

variable variable33 {
	type discrete[3] { state0, state1, state2 };
}

variable scm1rue {
	type discrete[4] { 0, 1, 2, 3 };
}

variable scm1lue {
	type discrete[4] { 0, 1, 2, 3 };
}

variable scm2rue {
	type discrete[4] { 0, 1, 2, 3 };
}

variable scm2lue {
	type discrete[4] { 0, 1, 2, 3 };
}

variable scm3rue {
	type discrete[4] { 0, 1, 2, 3 };
}

variable scm3lue {
	type discrete[4] { 0, 1, 2, 3 };
}

variable scm4rue {
	type discrete[4] { 0, 1, 2, 3 };
}

variable scm4lue {
	type discrete[4] { 0, 1, 2, 3 };
}

variable scm5rise {
	type discrete[4] { 0, 1, 2, 3 };
}

variable scm6post {
	type discrete[4] { 0, 1, 2, 3 };
}

variable scm7gait {
	type discrete[4] { 0, 1, 2, 3 };
}

variable scm8spee {
	type discrete[4] { 0, 1, 2, 3 };
}

variable scm9free {
	type discrete[4] { 0, 1, 2, 3 };
}

variable scm10swa {
	type discrete[4] { 0, 1, 2, 3 };
}

variable scm11spe {
	type discrete[4] { 0, 1, 2, 3 };
}

variable scm12fee {
	type discrete[4] { 0, 1, 2, 3 };
}

variable scm13dre {
	type discrete[4] { 0, 1, 2, 3 };
}

variable scm14hyg {
	type discrete[4] { 0, 1, 2, 3 };
}

variable scm15cha {
	type discrete[4] { 0, 1, 2, 3 };
}

variable scm16wal {
	type discrete[4] { 0, 1, 2, 3 };
}

variable scm17han {
	type discrete[4] { 0, 1, 2, 3 };
}

variable scm18dpr {
	type discrete[4] { 0, 1, 2, 3 };
}

variable scm19dsv {
	type discrete[4] { 0, 1, 2, 3 };
}

variable scm20fpr {
	type discrete[4] { 0, 1, 2, 3 };
}

variable scm21fsv {
	type discrete[4] { 0, 1, 2, 3 };
}

probability ( variable33 ) {
	table 0.15099938402253762, 0.4052463184771958, 0.44375429750026657;
}

probability ( scm1rue | variable33 ) {
	(state0) 0.4047662260619111, 0.18669555484505418, 0.2562027303727183, 0.1523354887203165;
	(state1) 0.6081674376595387, 0.2500969027917848, 0.13467322541603893, 0.00706243413263746;
	(state2) 0.5994279069665708, 0.22864714425122123, 0.14817189874740624, 0.023753050034801833;
}

probability ( scm1lue | variable33 ) {
	(state0) 0.5502478443089667, 0.11357699835630193, 0.17144447041753638, 0.16473068691719508;
	(state1) 0.6179219154951472, 0.2265540412886158, 0.1291072694599057, 0.026416773756331297;
	(state2) 0.5456004312634681, 0.2889251429298668, 0.13149780004911252, 0.03397662575755274;
}

probability ( scm2rue | variable33 ) {
	(state0) 0.4610185699867109, 0.2951386215015187, 0.12980411244436527, 0.1140386960674052;
	(state1) 0.6070429417659309, 0.30593412121054214, 0.07996050289126103, 0.007062434132265865;
	(state2) 0.5547501528659536, 0.32665605591702496, 0.10716528110398146, 0.011428510113039969;
}

probability ( scm2lue | variable33 ) {
	(state0) 0.47794306441721607, 0.26036902117942023, 0.15186035549602872, 0.10982755890733495;
	(state1) 0.597898059804271, 0.3245031367043414, 0.06347393140186103, 0.014124872089526685;
	(state2) 0.49252687146854984, 0.3865576437213113, 0.10153871949278287, 0.019376765317356017;
}

probability ( scm3rue | variable33 ) {
	(state0) 0.055061470253450644, 0.1453019425036, 0.44872588912731143, 0.3509106981156379;
	(state1) 0.3569635850152591, 0.5294643725843331, 0.09943306496173948, 0.014138977438668276;
	(state2) 0.19027267738328577, 0.4593532723081651, 0.3256679524589332, 0.02470609784961572;
}

probability ( scm3lue | variable33 ) {
	(state0) 0.07325802151461076, 0.12724288676872914, 0.39401355535813126, 0.4054855363585289;
	(state1) 0.34529569690447015, 0.44020468108931016, 0.18162731539161206, 0.03287230661460781;
	(state2) 0.11052422959663387, 0.45047160158546706, 0.39901414109079997, 0.03999002772709912;
}

probability ( scm4rue | variable33 ) {
	(state0) 0.09122114825179904, 0.24266531052223647, 0.4646102321795258, 0.2015033090464387;
	(state1) 0.3781126329507273, 0.533457138353017, 0.07430535588903683, 0.014124872807218908;
	(state2) 0.15815659180854982, 0.5763994992003922, 0.24612741046532235, 0.01931649852573553;
}

probability ( scm4lue | variable33 ) {
	(state0) 0.1271455460283195, 0.25745015300045954, 0.35918916073564716, 0.2562151402355738;
	(state1) 0.3986693400242401, 0.4555952114827525, 0.13867300438886368, 0.007062444104143745;
	(state2) 0.133126963041793, 0.5261095652501674, 0.32137947118382487, 0.019384000524214774;
}

probability ( scm5rise | variable33 ) {
	(state0) 0.07300170175544514, 0.0412390828813979, 0.4289626020433133, 0.4567966133198437;
	(state1) 0.7815635800314799, 0.19332089906874458, 0.01805284027147988, 0.007062680628295608;
	(state2) 0.31884782115732335, 0.532252415720638, 0.13571981699728036, 0.013179946124758325;
}

probability ( scm6post | variable33 ) {
	(state0) 0.05404916746113002, 0.060418135679534135, 0.5744213627011522, 0.31111133415818365;
	(state1) 0.7970808911469113, 0.16737603924485003, 0.028480630979374227, 0.007062438628864368;
	(state2) 0.26611228125322545, 0.4587576930867509, 0.26220505749346823, 0.012924968166555214;
}

probability ( scm7gait | variable33 ) {
	(state0) 0.018301451568116484, 0.060602015667424645, 0.7197870039130001, 0.20130952885145867;
	(state1) 0.5259283175078816, 0.4547805374415454, 0.012228710827375444, 0.007062434223197412;
	(state2) 0.07451059224204266, 0.7449685649225624, 0.17405882766481112, 0.00646201517058388;
}

probability ( scm8spee | variable33 ) {
	(state0) 0.018470657571002465, 0.2483924844798989, 0.5135254560328777, 0.21961140191622108;
	(state1) 0.6688729227187173, 0.29087284623009346, 0.033191796918923724, 0.007062434132265578;
	(state2) 0.1310523146295326, 0.8027803275475198, 0.059705646854809974, 0.006461710968137635;
}

probability ( scm9free | variable33 ) {
	(state0) 0.1150743608099116, 0.20422921819916584, 0.4793766002686326, 0.20131982072229;
	(state1) 0.8573638451705499, 0.1068684008692697, 0.021656754295455015, 0.014110999664725201;
	(state2) 0.47371715969128275, 0.3534970062718167, 0.15985331179578138, 0.012932522241119194;
}

probability ( scm10swa | variable33 ) {
	(state0) 0.15239203311541472, 0.4199167312832843, 0.3361878827736665, 0.0915033528276345;
	(state1) 0.832306530397636, 0.12574533685608502, 0.03488569861398964, 0.007062434132289309;
	(state2) 0.5674655114557486, 0.3505349662377335, 0.07553746868431291, 0.0064620536222049635;
}

probability ( scm11spe | variable33 ) {
	(state0) 0.03929839450998846, 0.33217998816235694, 0.46381251656207745, 0.16470910076557713;
	(state1) 0.7802513144620252, 0.18655274726035645, 0.026133504145352898, 0.007062434132265578;
	(state2) 0.21564174700005084, 0.7264888372323434, 0.05140796342866337, 0.006461452338942546;
}

probability ( scm12fee | variable33 ) {
	(state0) 0.03674941131543111, 0.1359343664781859, 0.6626051496645083, 0.16471107254187464;
	(state1) 0.5574261380351039, 0.42237298067894075, 0.013138446930571129, 0.007062434355384237;
	(state2) 0.14256299810239575, 0.6834066196002047, 0.16110817408181774, 0.012922208215581805;
}

probability ( scm13dre | variable33 ) {
	(state0) 0.021394869537225795, 0.03664089599393197, 0.6857500869750964, 0.2562141474937459;
	(state1) 0.4453265895880529, 0.540307245636733, 0.007303730642948402, 0.007062434132265576;
	(state2) 0.0631624120790241, 0.6816410934968059, 0.24873503876710842, 0.00646145565706176;
}

probability ( scm14hyg | variable33 ) {
	(state0) 0.021394868988507964, 0.07619702900807747, 0.6461939545096688, 0.2562141474937459;
	(state1) 0.48462009700885905, 0.4993762364121, 0.008941232446775384, 0.007062434132265576;
	(state2) 0.06598132189633792, 0.8085063924837963, 0.119050829962804, 0.006461455657061758;
}

probability ( scm15cha | variable33 ) {
	(state0) 0.018301011471225842, 0.07868856904665028, 0.6099052332719648, 0.29310518621015913;
	(state1) 0.531630981514196, 0.43858207727217685, 0.022723980880654585, 0.007062960332972701;
	(state2) 0.06929335508510191, 0.6370967327686543, 0.2614051705444317, 0.03220474160181232;
}

probability ( scm16wal | variable33 ) {
	(state0) 0.018301274441800252, 0.04497929842433511, 0.6622064674471959, 0.2745129596866688;
	(state1) 0.4721662565006302, 0.4906361140446194, 0.030134086810078994, 0.007063542644671211;
	(state2) 0.033237470898305456, 0.7564486922127972, 0.19739116676612348, 0.012922670122773752;
}

probability ( scm17han | variable33 ) {
	(state0) 0.03674852859365228, 0.133785637222317, 0.5733425992824204, 0.25612323490161026;
	(state1) 0.3484917291332873, 0.5734984230591914, 0.05752206630738341, 0.020487781500137747;
	(state2) 0.08818313985754873, 0.668667517922802, 0.21663143697558407, 0.02651790524406542;
}

probability ( scm18dpr | variable33 ) {
	(state0) 0.2969293720579784, 0.18691217401969315, 0.3880494098202661, 0.12810904410206236;
	(state1) 0.817063829383441, 0.10611939410611433, 0.04850980372521131, 0.02830697278523322;
	(state2) 0.4399196738910191, 0.37968068022847906, 0.14814544431050786, 0.032254201569993986;
}

probability ( scm19dsv | variable33 ) {
	(state0) 0.29693114328762554, 0.18923838388895192, 0.3125417900600302, 0.20128868276339243;
	(state1) 0.8153994145533213, 0.11236861141451583, 0.05802274923782743, 0.014209224794335406;
	(state2) 0.4672876380125427, 0.34083467840614845, 0.15963967747307745, 0.03223800610823126;
}

probability ( scm20fpr | variable33 ) {
	(state0) 0.14857490630408754, 0.13089126274513055, 0.5192335261969306, 0.20130030475385122;
	(state1) 0.7271075458172863, 0.2090294545579992, 0.05680009729417558, 0.0070629023305388;
	(state2) 0.28383454059035607, 0.49268896612623764, 0.210550197430811, 0.012926295852595398;
}

probability ( scm21fsv | variable33 ) {
	(state0) 0.16687591745635988, 0.09395322920165748, 0.3733821662272135, 0.36578868711476925;
	(state1) 0.7298601794982656, 0.1879164742780749, 0.07481304800133214, 0.00741029822232746;
	(state2) 0.2942390483711556, 0.4087407231484732, 0.2649494818221576, 0.032070746658213606;
}

