network Current LCM {
}

variable variable319 {
	type discrete[2] { state0, state1 };
}

variable d1_lightheaded {
	type discrete[13] { 0, 1, 2, 3, 4, 5, 6, 7, 8, 9, 10, 11, 12 };
}

variable d1_fainting {
	type discrete[13] { 0, 1, 2, 3, 4, 5, 6, 7, 8, 9, 10, 11, 12 };
}

variable d2_drowsiness {
	type discrete[13] { 0, 1, 2, 3, 4, 5, 6, 7, 8, 9, 10, 11, 12 };
}

variable d2_fatigue {
	type discrete[13] { 0, 1, 2, 3, 4, 5, 6, 7, 8, 9, 10, 11, 12 };
}

variable d2_insomnia {
	type discrete[13] { 0, 1, 2, 3, 4, 5, 6, 7, 8, 9, 10, 11, 12 };
}

variable d2_rls {
	type discrete[13] { 0, 1, 2, 3, 4, 5, 6, 7, 8, 9, 10, 11, 12 };
}

variable d3_loss_interest {
	type discrete[13] { 0, 1, 2, 3, 4, 5, 6, 7, 8, 9, 10, 11, 12 };
}

variable d3_loss_activities {
	type discrete[13] { 0, 1, 2, 3, 4, 5, 6, 7, 8, 9, 10, 11, 12 };
}

variable d3_anxiety {
	type discrete[13] { 0, 1, 2, 3, 4, 5, 6, 7, 8, 9, 10, 11, 12 };
}

variable d3_depression {
	type discrete[13] { 0, 1, 2, 3, 4, 5, 6, 7, 8, 9, 10, 11, 12 };
}

variable d3_flat_affect {
	type discrete[13] { 0, 1, 2, 3, 4, 5, 6, 7, 8, 9, 10, 11, 12 };
}

variable d3_loss_pleasure {
	type discrete[13] { 0, 1, 2, 3, 4, 5, 6, 7, 8, 9, 10, 11, 12 };
}

variable d4_hallucination {
	type discrete[13] { 0, 1, 2, 3, 4, 5, 6, 7, 8, 9, 10, 11, 12 };
}

variable d4_delusion {
	type discrete[13] { 0, 1, 2, 3, 4, 5, 6, 7, 8, 9, 10, 11, 12 };
}

variable d4_diplopia {
	type discrete[13] { 0, 1, 2, 3, 4, 5, 6, 7, 8, 9, 10, 11, 12 };
}

variable d5_loss_concentration {
	type discrete[13] { 0, 1, 2, 3, 4, 5, 6, 7, 8, 9, 10, 11, 12 };
}

variable d5_forget_explicit {
	type discrete[13] { 0, 1, 2, 3, 4, 5, 6, 7, 8, 9, 10, 11, 12 };
}

variable d5_forget_implicit {
	type discrete[13] { 0, 1, 2, 3, 4, 5, 6, 7, 8, 9, 10, 11, 12 };
}

variable d6_drooling {
	type discrete[13] { 0, 1, 2, 3, 4, 5, 6, 7, 8, 9, 10, 11, 12 };
}

variable d6_swallowing {
	type discrete[13] { 0, 1, 2, 3, 4, 5, 6, 7, 8, 9, 10, 11, 12 };
}

variable d6_constipation {
	type discrete[13] { 0, 1, 2, 3, 4, 5, 6, 7, 8, 9, 10, 11, 12 };
}

variable d7_urinary_urgency {
	type discrete[13] { 0, 1, 2, 3, 4, 5, 6, 7, 8, 9, 10, 11, 12 };
}

variable d7_urinary_frequency {
	type discrete[13] { 0, 1, 2, 3, 4, 5, 6, 7, 8, 9, 10, 11, 12 };
}

variable d7_nocturia {
	type discrete[13] { 0, 1, 2, 3, 4, 5, 6, 7, 8, 9, 10, 11, 12 };
}

variable d8_sex_drive {
	type discrete[13] { 0, 1, 2, 3, 4, 5, 6, 7, 8, 9, 10, 11, 12 };
}

variable d8_sex_dysfunction {
	type discrete[13] { 0, 1, 2, 3, 4, 5, 6, 7, 8, 9, 10, 11, 12 };
}

variable d9_unexplained_pain {
	type discrete[13] { 0, 1, 2, 3, 4, 5, 6, 7, 8, 9, 10, 11, 12 };
}

variable d9_taste_smell {
	type discrete[13] { 0, 1, 2, 3, 4, 5, 6, 7, 8, 9, 10, 11, 12 };
}

variable d9_weight_change {
	type discrete[13] { 0, 1, 2, 3, 4, 5, 6, 7, 8, 9, 10, 11, 12 };
}

variable d9_sweating {
	type discrete[13] { 0, 1, 2, 3, 4, 5, 6, 7, 8, 9, 10, 11, 12 };
}

probability ( variable319 ) {
	table 0.761980151253989, 0.23801984874601112;
}

probability ( d1_lightheaded | variable319 ) {
	(state0) 0.6559822282587261, 0.15736901460597208, 0.0678218958584299, 0.03201500046183737, 0.03914368904952595, 0.0022794158834479336, 0.014381976714635375, 0.0022794158834479336, 0.008888878999220725, 0.006832862638064377, 0.0022794158834479336, 0.0022794158834479336, 0.008446789879796432;
	(state1) 0.33184939187309986, 0.09608856733539785, 0.07740274886395661, 0.06163305192677188, 0.17087979387500193, 0.006882733317522924, 0.0804625872115427, 0.006882733317522924, 0.06951815179681575, 0.020664460084692974, 0.006882733317522924, 0.006882733317522924, 0.06397031376262888;
}

probability ( d1_fainting | variable319 ) {
	(state0) 0.9091968442702428, 0.0433303923099409, 0.006996310139339407, 0.006994907814324502, 0.01303180423094939, 0.0022794158834479336, 0.00449383005106742, 0.0022794158834479336, 0.0022794158834479336, 0.0022794158834479336, 0.0022794158834479336, 0.0022794158834479336, 0.0022794158834479336;
	(state1) 0.7442111395029923, 0.04811424223476283, 0.04770186096744785, 0.020175162040536865, 0.04324305507123419, 0.006882733317522924, 0.04837540696036553, 0.006882733317522924, 0.006882733317522924, 0.006882733317522924, 0.006882733317522924, 0.006882733317522924, 0.006882733317522924;
}

probability ( d2_drowsiness | variable319 ) {
	(state0) 0.555710217200919, 0.11302355875377532, 0.07481075078668302, 0.06783653526652349, 0.09995501795635964, 0.002279415883447934, 0.038689785052092494, 0.002279415883447934, 0.02035401760473601, 0.006776217484773057, 0.002279415883447934, 0.002279415883447934, 0.013726236360346417;
	(state1) 0.26295476028145115, 0.030391126016235667, 0.056299787787252906, 0.04294487834560426, 0.2143891970829453, 0.006882733317522924, 0.15848489773952043, 0.006882733317522924, 0.05554717933630396, 0.04836643431605262, 0.006882733317522924, 0.006882733317522924, 0.10309080582454212;
}

probability ( d2_fatigue | variable319 ) {
	(state0) 0.4883110594287274, 0.16642206879242985, 0.07698563713666934, 0.03163381091111887, 0.1175675153780175, 0.0022794158834479336, 0.05405674088592261, 0.0022794158834479336, 0.034172295793643795, 0.006237289034678035, 0.0022794158834479336, 0.0022794158834479336, 0.015495919105000852;
	(state1) 0.12921368035327802, 0.04122178976987139, 0.022201749825307558, 0.035253126702238416, 0.18185617473681437, 0.006882733317522923, 0.15338052467714705, 0.006882733317522923, 0.1308291300930494, 0.10505560407289129, 0.006882733317522923, 0.006882733317522923, 0.1734572864993108;
}

probability ( d2_insomnia | variable319 ) {
	(state0) 0.6185912405849643, 0.10931445335271937, 0.047630965829686914, 0.027862189369028813, 0.06344631362867342, 0.0022794158834479336, 0.028895919315542258, 0.0022794158834479336, 0.052219363453759, 0.008871899136996177, 0.0022794158834479336, 0.0022794158834479336, 0.03404999179483787;
	(state1) 0.34151108727267065, 0.062239030027826804, 0.05577679052817099, 0.0328761326304195, 0.09061489054244293, 0.006882733317522923, 0.12611303469644733, 0.006882733317522923, 0.090101182529377, 0.07645215608437465, 0.006882733317522923, 0.006882733317522923, 0.09678476241817836;
}

probability ( d2_rls | variable319 ) {
	(state0) 0.743313368974398, 0.0863318366103454, 0.03971658684180637, 0.013684784522148866, 0.05426199451515215, 0.002279415883447934, 0.015955562471377752, 0.002279415883447934, 0.012597442827501647, 0.00679016055434346, 0.002279415883447934, 0.002279415883447934, 0.018230599149134618;
	(state1) 0.5155292583409155, 0.03527714847446488, 0.04526071996195086, 0.027505903831127946, 0.14587802468926833, 0.006882733317522923, 0.06194565280154762, 0.006882733317522923, 0.03767188307302331, 0.06208979962585209, 0.006882733317522923, 0.006882733317522923, 0.041310675931757655;
}

probability ( d3_loss_interest | variable319 ) {
	(state0) 0.777197142765381, 0.111300582044907, 0.04073776949351308, 0.007226254627437547, 0.031690096664567804, 0.0022794158834479336, 0.01234042488432046, 0.0022794158834479336, 0.004393072328598148, 0.003717064622856428, 0.0022794158834479336, 0.0022794158834479336, 0.0022799290346267203;
	(state1) 0.20673465299015917, 0.021828215564796728, 0.0972391088834969, 0.040124806529805386, 0.2966270370205085, 0.006882733317522923, 0.12104075274118607, 0.006882733317522923, 0.0693278464939922, 0.023189929528969127, 0.006882733317522923, 0.006882733317522923, 0.09635671697699405;
}

probability ( d3_loss_activities | variable319 ) {
	(state0) 0.6730382215924977, 0.16400369886963095, 0.06506589639273354, 0.014769511392857449, 0.03942671142789185, 0.002279415883447933, 0.010073058517761729, 0.002279415883447933, 0.016292786697282947, 0.005931478786871749, 0.002279415883447933, 0.002279415883447933, 0.0022809727886800705;
	(state1) 0.14957660968216466, 0.04852409706825053, 0.07195906742105868, 0.031113286727671448, 0.22508706974249196, 0.006882733317522923, 0.16918350225170534, 0.006882733317522923, 0.0953410653566411, 0.05091713654764871, 0.006882733317522923, 0.006882733317522923, 0.1307672319322758;
}

probability ( d3_anxiety | variable319 ) {
	(state0) 0.653562024025047, 0.15393141538755453, 0.06392140016374816, 0.00913108862242452, 0.05961302365024331, 0.0022794158834479345, 0.02682846566006476, 0.0022794158834479345, 0.0068282454121612645, 0.008917802983228626, 0.0022794158834479345, 0.0022794158834479345, 0.00814887056173624;
	(state1) 0.24968170477520496, 0.06517205415681249, 0.06164942575600547, 0.041255862631753355, 0.15036870517442968, 0.006882733317522923, 0.16676941120826638, 0.006882733317522923, 0.06885753509603214, 0.04878261540430537, 0.006882733317522923, 0.006882733317522923, 0.11993175252709848;
}

probability ( d3_depression | variable319 ) {
	(state0) 0.6473905107802665, 0.1573598510576438, 0.056681288574729705, 0.011554367075991922, 0.06666962099641362, 0.0022794158834479336, 0.0311350834929338, 0.0022794158834479336, 0.009121586227427314, 0.004557650648202271, 0.0022794158834479336, 0.0022794158834479336, 0.006412377612599317;
	(state1) 0.19948935617555588, 0.041054370278367315, 0.06286286045210969, 0.05458693389748732, 0.2047712612582592, 0.006882733317522923, 0.18129644191745742, 0.006882733317522923, 0.048167288585454895, 0.055065432947280654, 0.006882733317522923, 0.006882733317522923, 0.12517512121793586;
}

probability ( d3_flat_affect | variable319 ) {
	(state0) 0.7852213897108491, 0.1132246292021336, 0.01958546118143046, 0.006760026882851932, 0.042125987091636376, 0.002279415883447934, 0.0057051964710222785, 0.002279415883447934, 0.009654728994215864, 0.0022794162277374555, 0.002279415883447934, 0.002279415883447934, 0.0063255007043312855;
	(state1) 0.39587004172786916, 0.09861132370375768, 0.05098511463370699, 0.034649855466725235, 0.16875742976986072, 0.006882733317522924, 0.11354499953683223, 0.006882733317522924, 0.06032292196864971, 0.013765465595458042, 0.006882733317522924, 0.006882733317522924, 0.03596191432704873;
}

probability ( d3_loss_pleasure | variable319 ) {
	(state0) 0.8063541985677063, 0.09443017093273373, 0.03606392661847708, 0.004756805281859959, 0.02224321529962821, 0.002279415883447934, 0.009276459949686159, 0.002279415883447934, 0.007400706196039806, 0.005798086901819777, 0.002279415883447934, 0.002279415883447934, 0.004558766718257395;
	(state1) 0.29076278191421917, 0.09341689614015765, 0.035641786936605184, 0.04069861565816224, 0.2012628491685756, 0.006882733317522924, 0.09587877808590557, 0.006882733317522924, 0.07401171376989076, 0.0650853821482187, 0.006882733317522924, 0.006882733317522924, 0.07571026290817356;
}

probability ( d4_hallucination | variable319 ) {
	(state0) 0.8957415052885427, 0.040625812935449146, 0.013907712668065448, 0.011393847152901286, 0.011540945094594798, 0.002279415883447934, 0.004559309839893937, 0.002279415883447934, 0.00677319111973978, 0.0022794158837200302, 0.002279415883447934, 0.002279415883447934, 0.004060596483301222;
	(state1) 0.5577095548292568, 0.08381169689565139, 0.06812916857543087, 0.013775226509763924, 0.11657206164622921, 0.006882733317522923, 0.04129495635594763, 0.006882733317522923, 0.027727372521902747, 0.02753093326927009, 0.006882733317522923, 0.006882733317522923, 0.03591809612645558;
}

probability ( d4_delusion | variable319 ) {
	(state0) 0.9454565151948575, 0.013537351889224176, 0.006838103985392917, 0.002279415883447934, 0.011372336979055207, 0.002279415883447934, 0.0022799028129860816, 0.002279415883447934, 0.004558827569888343, 0.0022794162277508466, 0.002279415883447934, 0.002279415883447934, 0.00228046592360529;
	(state1) 0.6897863401971169, 0.06236474565073488, 0.034414100386269436, 0.006882733317522923, 0.04825384341700698, 0.006882733317522923, 0.061943129566049644, 0.006882733317522923, 0.013765479307978298, 0.027530932230463448, 0.006882733317522923, 0.006882733317522923, 0.027527762656765598;
}

probability ( d4_diplopia | variable319 ) {
	(state0) 0.8832658446132933, 0.032389800637746845, 0.0180508489544081, 0.009117007894431858, 0.03191665027285289, 0.0022794158834479336, 0.002474849065557633, 0.0022794158834479336, 0.009106938626234287, 0.0022794158834479336, 0.0022794158834479336, 0.0022794158834479336, 0.0022809805182355475;
	(state1) 0.6091454816954408, 0.060501336702324354, 0.06250163451957998, 0.013767446348752006, 0.08946095519142387, 0.006882733317522924, 0.05447175286956122, 0.006882733317522924, 0.02756331730282088, 0.013765466635045848, 0.006882733317522924, 0.006882733317522924, 0.0412916754649594;
}

probability ( d5_loss_concentration | variable319 ) {
	(state0) 0.5758786573178758, 0.17584445665502363, 0.06739698560185618, 0.03199627907369549, 0.06548555804290664, 0.002279415883447934, 0.03163575235475062, 0.002279415883447934, 0.03131139614831741, 0.004480980133460266, 0.002279415883447934, 0.002279415883447934, 0.006852271138322269;
	(state1) 0.25023496068388845, 0.05406713634006408, 0.058037572339062427, 0.041041381510059254, 0.18081562532610645, 0.006882733317522923, 0.15913646419704208, 0.006882733317522923, 0.08440579654281445, 0.05529694081300992, 0.006882733317522923, 0.006882733317522923, 0.0894331889778611;
}

probability ( d5_forget_explicit | variable319 ) {
	(state0) 0.5629424700836184, 0.17557354878146708, 0.07611260143809558, 0.02518743654488318, 0.09346854950863238, 0.002279415883447934, 0.02358478567752215, 0.002279415883447934, 0.022844797445088577, 0.006834830017658999, 0.002279415883447934, 0.002279415883447934, 0.00433331696924189;
	(state1) 0.2548823217593161, 0.10306428029119521, 0.05236882858056249, 0.013421658997451416, 0.15826512752143418, 0.006882733317522923, 0.16968102233194207, 0.006882733317522923, 0.07555716238476372, 0.04818945282011415, 0.006882733317522923, 0.006882733317522923, 0.0970392120431289;
}

probability ( d5_forget_implicit | variable319 ) {
	(state0) 0.6301089013676089, 0.18026127545795362, 0.03920858676235716, 0.02734990737324047, 0.05948430816814799, 0.002279415883447934, 0.025224512782639912, 0.002279415883447934, 0.016014703696369172, 0.002279499590893388, 0.002279415883447934, 0.002279415883447934, 0.010950641266997796;
	(state1) 0.29985058997435, 0.06826141342857127, 0.09497376768328572, 0.027540243127569933, 0.20581923020538323, 0.006882733317522924, 0.10966797314010145, 0.006882733317522924, 0.027353408323586886, 0.0619443471017139, 0.006882733317522924, 0.006882733317522924, 0.077058093745346;
}

probability ( d6_drooling | variable319 ) {
	(state0) 0.6328388787232511, 0.1354978300067071, 0.03626730870671597, 0.029657300951622757, 0.06845214105097101, 0.002279415883447934, 0.02267656270291487, 0.002279415883447934, 0.0460357333447729, 0.004574577618620578, 0.002279415883447934, 0.002279415883447934, 0.01488200336063214;
	(state1) 0.2640764456964718, 0.08641889830945305, 0.04879313804974294, 0.02057303070534718, 0.21315437960936795, 0.006882733317522923, 0.08294788324134526, 0.006882733317522923, 0.06747635426827765, 0.03436612173234471, 0.006882733317522923, 0.006882733317522923, 0.15466281511755772;
}

probability ( d6_swallowing | variable319 ) {
	(state0) 0.7808074117474583, 0.0992629974783715, 0.027456788588766066, 0.008575781666696675, 0.032762692529828503, 0.0022794158834479336, 0.00909483875439508, 0.0022794158834479336, 0.019445343370842978, 0.006640694466327612, 0.0022794158834479336, 0.0022794158834479336, 0.006835787863521511;
	(state1) 0.43672905321837174, 0.08570683113377156, 0.12357578000499703, 0.0635808209650082, 0.09378905015953329, 0.006882733317522923, 0.06889625296768975, 0.006882733317522923, 0.05829093595825477, 0.02124471500341338, 0.006882733317522923, 0.006882733317522923, 0.020655627318868497;
}

probability ( d6_constipation | variable319 ) {
	(state0) 0.5946343749393371, 0.11632527132637414, 0.05243759289897294, 0.02064820614739557, 0.07715419072546235, 0.002279415883447934, 0.03681625696666002, 0.002279415883447934, 0.031075622583603493, 0.022752860791941363, 0.002279415883447934, 0.002279415883447934, 0.03903796008646147;
	(state1) 0.36567009934412964, 0.034187017860947196, 0.055028568584088326, 0.027127938978901076, 0.0836373993814047, 0.006882733317522924, 0.10219744639453551, 0.006882733317522924, 0.09200045197206408, 0.03453836669845823, 0.006882733317522924, 0.006882733317522924, 0.17808177751537962;
}

probability ( d7_urinary_urgency | variable319 ) {
	(state0) 0.5468534293178792, 0.14339292382771154, 0.05596292753624054, 0.04183779138868194, 0.10642799607162852, 0.0022794158834479336, 0.03378723978429789, 0.0022794158834479336, 0.039833492624892955, 0.009034512108713026, 0.0022794158834479336, 0.0022794158834479336, 0.013752023806162557;
	(state1) 0.2415188420602678, 0.05569680084544521, 0.044383763333965695, 0.03197297502979554, 0.18796120111235726, 0.006882733317522923, 0.15264001292586052, 0.006882733317522923, 0.08620412095447047, 0.05531294362003729, 0.006882733317522923, 0.006882733317522923, 0.11677840684770843;
}

probability ( d7_urinary_frequency | variable319 ) {
	(state0) 0.5768344352877114, 0.08422862442464585, 0.07506138414148374, 0.03847795094308128, 0.09496129382120952, 0.002279415883447934, 0.03452079811589889, 0.002279415883447934, 0.04947542465433022, 0.013691248201647917, 0.002279415883447934, 0.002279415883447934, 0.023631176876199478;
	(state1) 0.3230590400582254, 0.014096898591924967, 0.07619119625034589, 0.06276626783023777, 0.11246136189627876, 0.006882733317522924, 0.15042502161781562, 0.006882733317522924, 0.07085561707356282, 0.02748638664579772, 0.006882733317522924, 0.006882733317522924, 0.13512727676571948;
}

probability ( d7_nocturia | variable319 ) {
	(state0) 0.388196356606463, 0.14995274909859865, 0.06154559146242408, 0.03962936525659184, 0.19970813603600113, 0.002279415883447934, 0.047039861033640516, 0.002279415883447934, 0.05787592336994776, 0.013403803274205242, 0.002279415883447934, 0.002279415883447934, 0.033530550328336066;
	(state1) 0.16308505374982346, 0.04277203511160211, 0.05505775211915931, 0.07305502022659693, 0.18849236801271232, 0.006882733317522923, 0.09197530765729457, 0.006882733317522923, 0.12120024112395951, 0.04211979791237348, 0.006882733317522923, 0.006882733317522923, 0.19471149081638656;
}

probability ( d8_sex_drive | variable319 ) {
	(state0) 0.6938508839619616, 0.07077106386178267, 0.03884322362043988, 0.020509751281456358, 0.08753335820922499, 0.002279415883447934, 0.038756942191256194, 0.002279415883447934, 0.01772002725479169, 0.004691750195074722, 0.002279415883447934, 0.002279415883447934, 0.018205335890220196;
	(state1) 0.30009717014030773, 0.06849768813193062, 0.02036692113741969, 0.013780539062479434, 0.16930380082344906, 0.006882733317522923, 0.08257204917326072, 0.006882733317522923, 0.04285235606731471, 0.054660517185384845, 0.006882733317522923, 0.006882733317522923, 0.22033802500836147;
}

probability ( d8_sex_dysfunction | variable319 ) {
	(state0) 0.6650537314486431, 0.08194642595427108, 0.028055969341478554, 0.01377197041420545, 0.07128094831923815, 0.002279415883447934, 0.042355717088995916, 0.002279415883447934, 0.036424992230972744, 0.016712586097988952, 0.002279415883447934, 0.002279415883447934, 0.03527999557041434;
	(state1) 0.4214643069096761, 0.014105300658388307, 0.02540827753571959, 0.02035991129512133, 0.12201995026341461, 0.006882733317522923, 0.06482275654516953, 0.006882733317522923, 0.013903343497105591, 0.08030800760630269, 0.006882733317522923, 0.006882733317522923, 0.21007721241901045;
}

probability ( d9_unexplained_pain | variable319 ) {
	(state0) 0.7378339116702362, 0.11172381541002757, 0.03195374437048928, 0.013674787314006068, 0.03135008437835714, 0.0022794158834479336, 0.02641102029053168, 0.0022794158834479336, 0.015694891307125057, 0.009112285589801738, 0.0022794158834479336, 0.0022794158834479336, 0.01312779613563361;
	(state1) 0.43571630230742353, 0.09626032203087914, 0.06181801569046428, 0.01377062392859822, 0.1462335766609445, 0.006882733317522924, 0.05102342789027208, 0.006882733317522924, 0.04208455366728396, 0.01378170542435521, 0.006882733317522924, 0.006882733317522924, 0.11178053912968745;
}

probability ( d9_taste_smell | variable319 ) {
	(state0) 0.6566431490299953, 0.0365574327721264, 0.014605601320805933, 0.015613984170426603, 0.15744032419669443, 0.002279415883447934, 0.013674064236685681, 0.002279415883447934, 0.0485504900588874, 0.009179581334973647, 0.002279415883447934, 0.002279415883447934, 0.03861770934561286;
	(state1) 0.46062566389231246, 0.04103437040004056, 0.01784274921994224, 0.014797920811795626, 0.1715833133596528, 0.006882733317522923, 0.02753827390736836, 0.006882733317522923, 0.1011794053916567, 0.04799217141536716, 0.006882733317522923, 0.006882733317522923, 0.08987519833177242;
}

probability ( d9_weight_change | variable319 ) {
	(state0) 0.4992194536348925, 0.3484713662341954, 0.02509280475805707, 0.011392405115590778, 0.051171637120926226, 0.002279415883447934, 0.005331854500415783, 0.002279415883447934, 0.031985719171627465, 0.004558547439093753, 0.002279415883447934, 0.002279415883447934, 0.013658548491409479;
	(state1) 0.3578194727711414, 0.2623871080527018, 0.03435560116881161, 0.034427780717435595, 0.1276784758123213, 0.006882733317522923, 0.038962245193908555, 0.006882733317522923, 0.04107326730603057, 0.006883591849943851, 0.006882733317522923, 0.006882733317522923, 0.06888152385761359;
}

probability ( d9_sweating | variable319 ) {
	(state0) 0.7502616941370621, 0.05915560810333155, 0.04289162794207033, 0.015955880937245877, 0.04332993825564499, 0.002279415883447934, 0.022792138917384224, 0.002279415883447934, 0.014095334440317847, 0.01347355467682395, 0.002279415883447934, 0.002279415883447934, 0.02892655905632744;
	(state1) 0.5289623441379325, 0.048508879091888626, 0.042556365059207596, 0.0068828246484979975, 0.15135661302193498, 0.006882733317522924, 0.03441976576012199, 0.006882733317522924, 0.06756264158386631, 0.0350264491006646, 0.006882733317522924, 0.006882733317522924, 0.057193184325793726;
}

